SVM-light Version V6.02
0 # kernel type
3 # kernel parameter -d 
1 # kernel parameter -g 
1 # kernel parameter -s 
1 # kernel parameter -r 
empty# kernel parameter -u 
24514 # highest feature index 
3165 # number of training documents 
587 # number of support vectors plus 1 
-0.99645751 # threshold b, each following line is a SV (starting with alpha*y)
-0.00038198188455968904667786611994984 154:0.04929129 155:0.04929129 159:0.072289251 160:3.0425165 567:2.3196359 739:0.080483332 789:0.61448848 851:6.212606 891:4.0153813 1120:1.467674 1257:0.72403276 1336:1.4251144 1431:0.56747347 1454:0.022066206 1536:2.2236221 1542:0.86549854 1597:1.273314 1828:0.115496 1856:4.266696 1916:7.0091119 1944:0.13267291 1984:1.908541 2418:0.10781287 2453:2.657258 2454:6.212606 2523:0.77018839 2538:2.1182616 2545:4.4208465 2626:1.0709425 2760:1.6276386 3528:0.17198145 3553:0.12810668 3884:5.5194588 4006:5.5194588 5439:6.212606 5489:3.5735488 6151:4.603168 6215:7.455399 6627:1.2961714 6672:3.5735488 6699:0.87506801 6850:3.5045559 6863:3.2168739 7059:3.4400175 7114:4.603168 7494:0.98149747 7799:2.2052729 7948:6.212606 8038:1.2358724 8090:1.93594 8121:6.212606 8126:1.4590158 8245:2.4990339 8262:2.5237267 8409:1.1627501 8593:6.212606 8689:4.4208465 8704:0.21497682 8960:0.35424933 9365:6.212606 9433:0.99225026 9614:4.4208465 9666:4.603168 9807:3.8998525 9877:8.533392 9897:0.68317699 10125:0.26980671 10185:0.41250587 10226:2.4059436 10344:0.65577805 10495:1.3218713 10569:1.549167 10696:6.212606 10743:0.72780919 10902:0.92476755 10957:0.31820327 11132:0.032193333 11457:4.8263116 11591:0.41654834 11705:0.010030094 11729:0.038819991 12051:5.5194588 12091:5.5194588 12633:2.1695547 12772:1.895118 12773:2.6862457 12846:4.5497293 13000:6.212606 13143:1.2019708 13392:0.62535745 13395:4.0153813 13402:1.1006184 13439:3.1779435 13513:1.0421221 13759:1.7597746 13838:3.7276995 14342:0.65300411 14442:2.8804016 14443:0.98224467 14462:1.0196493 14491:0.55661428 14599:0.87506801 14746:1.895118 14796:4.603168 14826:0.83270872 14904:6.212606 14952:0.44428509 14970:6.212606 15063:0.34947035 15282:0.016064279 15324:2.2236221 15370:0.27368185 15381:0.24712244 15423:0.36616731 15430:5.5194588 15491:0.32928371 15503:2.2423141 15547:3.268167 15552:5.1139936 15630:0.81897855 15838:4.266696 16127:0.86074793 16457:6.212606 16467:2.4443469 16477:2.9167693 16546:1.2638462 16580:4.603168 16637:6.212606 16725:5.5194588 16994:3.3222344 17004:3.1752665 17361:2.8804016 17612:3.0425165 17680:2.5750198 17723:3.2168739 18562:2.4749365 18566:6.212606 18568:4.603168 18734:6.212606 19081:1.4590158 19427:1.9221467 19477:8.8416929 19654:2.1536152 20229:0.29371223 20349:5.5194588 20354:3.1680837 20364:7.1470976 20420:3.9100211 20750:1.9784995 21166:6.212606 21303:3.0345523 21777:4.603168 21861:0.88232994 21869:0.13198736 21871:1.1953262 21874:0.01604815 21909:0.41654834 21931:0.28568006 21955:2.3774512 21973:0.40423602 22054:0.84196806 22132:0.52563071 22189:0.020080348 22240:0.73614252 22566:2.3207858 22650:6.212606 22874:2.7160985 22896:6.212606 22929:4.8263116 23042:3.4400175 23241:4.603168 23364:2.4059436 23695:0.52392709 23754:0.71954465 23821:1.5930114 23865:1.8186023 23880:4.266696 23901:0.32096189 23914:0.40747112 23959:0.17951988 23980:1.7582588 24022:2.5923429 24024:2.451406 24050:2.9167693 24078:3.6476567 24119:0.034661982 24150:1.7239697 24163:3.9100211 24207:2.2500196 24258:2.0229514 24306:1.8431582 24423:0.99621934 24435:2.6748176 #
-4.9613906556049068542150332072893e-05 7:0.5554238 154:0.19716516 155:0.19716516 159:0.13654637 207:2.4284165 245:4.0153813 455:6.212606 560:0.47926483 739:0.096579999 847:3.2168739 918:2.4717448 942:1.6800066 948:4.1769738 966:6.212606 1160:6.212606 1237:7.8200421 1257:0.72403276 1280:7.2953134 1281:5.1139936 1306:2.4173195 1431:0.42560509 1454:0.012036112 1490:3.6476567 1603:1.5682153 1713:0.11228714 1769:1.0768076 1804:8.0307627 1828:0.230992 1944:0.66336453 2024:1.1563603 2025:4.0153813 2186:2.5618083 2418:0.21562573 2484:1.1916699 2492:1.0535508 2506:2.1872544 2645:0.93449146 2678:1.1374323 2850:5.5194588 3441:6.212606 3505:4.4208465 3506:5.1139936 3528:0.042995363 3553:0.12810668 3644:2.3005831 3657:4.4208465 3662:5.5194588 3668:0.489021 3858:2.8171701 3880:3.9100211 4036:6.212606 4038:0.7403354 4085:3.5735488 4086:4.1331644 4405:2.7160985 4700:1.3527937 4796:4.603168 4865:4.0153813 5185:5.5194588 5229:2.3207858 5287:4.4208465 5509:3.8147109 5662:5.5194588 5758:6.212606 5784:3.8147109 6143:4.603168 6292:2.7055874 6381:1.9930984 6387:0.83270872 6426:3.1215637 6437:3.8147109 6880:4.266696 7116:2.9167693 7296:1.6587292 7323:5.1139936 7415:1.8998318 7452:6.212606 7476:4.266696 7620:3.0345523 7700:1.3450717 7714:5.6064019 7801:3.1215637 8005:2.1350687 8086:2.3624585 8131:4.1331644 8256:6.212606 8368:5.1052399 8409:1.1627501 8414:2.3005831 8434:2.9937303 8704:0.25797218 8836:3.8147109 8915:3.6476567 8960:0.17712466 9238:3.6476567 9351:1.4251144 9353:1.6276386 9471:1.0364563 9504:1.1627886 9755:2.9167693 9897:0.68317699 10125:0.26980671 10155:0.79603738 10160:3.0609498 10185:0.20625293 10222:2.8804016 10407:3.4400175 10456:2.9545095 10495:0.16523391 10506:2.1695547 10521:4.0153813 10646:2.1695547 10743:0.72780919 10818:1.9221467 10939:4.603168 10957:1.2728131 11100:18.637817 11132:0.048289999 11191:1.8558973 11252:4.4208465 11525:4.0153813 11605:3.077112 11667:2.7160985 11668:2.2613623 11705:0.01604815 11729:0.27173993 11745:0.63287628 11967:2.5750198 11972:2.1350687 12088:0.38956019 12248:2.3005831 12552:1.1756535 12583:2.9937303 12587:3.1215637 12634:4.8263116 12639:2.6016881 12873:1.1214436 12886:4.4208465 12959:1.5841422 13693:5.5194588 13694:6.212606 14121:6.212606 14262:12.425212 14342:0.32650205 14431:3.5045559 14443:0.58934683 14491:0.55661428 14585:1.4251144 14611:2.6290872 14826:1.6654174 14903:1.8305795 15087:3.9100211 15282:0.024096418 15283:0.74454594 15339:1.4168155 15354:7.2953134 15370:0.13684092 15381:0.37068367 15420:2.657258 15491:0.32928371 15503:2.2423141 15528:1.4852183 15559:1.273314 15571:0.26196355 15630:0.81897855 15647:3.6476567 16160:1.818157 16322:3.4255929 16411:6.212606 16450:9.206336 16456:1.8558973 16467:2.4443469 16499:0.6442616 16580:4.603168 16730:2.451406 16910:3.5735488 17033:2.9937303 17038:4.4208465 17048:3.9100211 17279:2.6016881 17345:5.5194588 17453:2.8804016 17610:3.3222344 17612:1.5212582 17707:3.1680837 18002:6.212606 18217:3.1680837 18635:3.1215637 18708:2.5490444 18902:1.9930984 18919:2.2613623 19054:2.7468703 19106:2.3127205 19306:6.212606 19342:6.212606 19399:1.549167 19479:5.5194588 19485:5.1139936 19594:3.1680837 19595:6.212606 19654:1.0768076 19667:1.4085851 19769:4.0153813 19835:2.1350687 19919:4.603168 20012:5.5194588 20119:5.1139936 20189:6.212606 20229:0.58742446 20309:2.7160985 20577:4.4208465 20631:5.5194588 20679:3.3222344 20694:3.8147109 20725:8.533392 20730:1.5397773 20738:5.5194588 20748:1.7699548 20759:6.212606 20768:6.212606 20832:5.6906204 20838:6.212606 20906:5.5194588 20930:0.71134788 21160:5.1139936 21164:3.8147109 21190:2.8188195 21209:3.3222344 21328:2.2807806 21341:3.7276995 21568:2.451406 21576:2.152163 21670:3.3222344 21861:0.44116497 21869:0.10558989 21874:0.066198617 21882:4.1331644 21888:0.39549494 21890:1.2209746 21909:0.41654834 21931:2.2854404 21973:0.057748001 22132:0.52563071 22141:1.6074359 22189:0.0080321394 22238:4.1331644 22240:0.73614252 22319:2.657258 22467:4.266696 22495:5.5194588 22589:11.038918 22682:1.319293 22686:6.212606 22710:2.7786188 22916:6.212606 23135:1.5226158 23296:6.212606 23352:5.1139936 23430:4.1331644 23658:1.6174862 23695:0.78589064 23708:2.451406 23754:0.71954465 23865:1.8186023 23866:2.8804016 23891:0.80293018 23901:0.32096189 23905:0.8466301 23918:0.80096006 23959:0.71807951 23980:1.7582588 23984:0.99767035 24022:1.2961714 24119:0.20797189 24170:3.0345523 24175:3.8147109 24194:3.5735488 24254:1.0377479 24258:2.0229514 24306:1.8431582 24423:0.33207312 24438:2.9937303 24468:4.8263116 #
-0.00033264240484091650486980773493428 7:0.5554238 21:6.212606 154:0.14787388 155:0.14787388 159:0.040160697 199:4.0153813 207:7.2852492 375:2.1695547 465:3.1680837 526:4.8263116 547:4.8263116 560:0.47926483 567:0.77321196 577:4.8263116 739:0.072434999 971:6.6444688 987:4.8263116 1092:6.212606 1346:1.6587292 1409:5.5194588 1431:0.28373674 1454:0.022066206 1713:0.11228714 1828:0.173244 1855:3.1215637 1944:0.13267291 2028:5.1139936 2073:3.4400175 2208:3.9100211 2277:7.2953134 2418:0.43125147 2419:6.8800349 2536:2.9937303 2626:1.0709425 2738:6.212606 3528:0.085990727 3600:6.212606 3843:3.1680837 3858:2.8171701 4136:2.9937303 4220:6.3361673 4604:3.1680837 4651:5.5194588 4704:1.2926252 4735:4.603168 4903:5.1139936 5037:2.8114088 5130:2.4749365 5407:5.3145161 5420:3.5735488 5870:2.4059436 6329:4.1331644 6387:0.83270872 6438:4.8263116 6458:3.3793929 6651:0.86549854 6666:1.93594 6667:11.038918 6893:5.5194588 6981:2.5490444 7049:12.399493 7102:2.7468703 7145:5.5194588 7195:2.8453102 7494:1.9629949 7520:2.6016881 7973:7.455399 7997:2.9937303 8226:5.3145161 8363:2.4990339 8367:0.74696046 8704:0.085990727 8960:0.53137398 8999:3.8442934 9042:1.2221735 9127:4.8263116 9531:4.603168 9664:3.3222344 9762:4.1074462 10185:0.41250587 10250:2.6862457 10450:5.1139936 10495:0.16523391 10585:1.6800066 10781:2.4990339 11132:0.040241666 11547:1.3763242 11584:4.4208465 11705:0.014042131 11729:0.11645997 11745:0.63287628 11746:1.8558973 12083:6.212606 12168:3.5045559 12552:2.3513069 12633:2.1695547 12727:3.0345523 13024:3.1215637 13402:1.1006184 13431:4.8263116 13519:6.212606 13561:2.8114088 13738:4.4208465 13994:2.3005831 14008:1.3222569 14285:1.7017466 14386:4.266696 14531:3.9100211 14551:2.657258 14554:4.603168 14747:2.9545095 14860:4.603168 15063:0.17473517 15282:0.036144625 15370:0.20526138 15381:0.24712244 15491:1.3171349 15528:2.9704366 15559:0.636657 15564:2.6016881 15571:0.26196355 16012:6.212606 16127:0.86074793 16151:2.833631 16152:2.0382187 16200:2.2236221 16456:1.8558973 16950:3.9100211 17021:6.212606 17616:4.1331644 17710:0.84196806 17750:2.4059436 18228:5.5194588 18470:4.4208465 18472:4.1331644 18537:1.2709637 18602:3.9100211 18742:2.3624585 18818:1.1500111 18957:0.94991589 19378:4.8263116 19731:2.3207858 19780:2.6290872 20221:5.5194588 20292:0.31820327 20296:2.657258 20297:1.6908175 20309:2.7160985 20370:4.9980679 20762:2.9167693 20825:12.425212 20826:6.212606 20862:1.1756535 20914:4.5227246 20962:8.2663288 20968:4.603168 21055:2.9167693 21217:4.603168 21367:11.038918 21574:2.9167693 21670:3.3222344 21874:0.040120374 21909:0.41654834 21935:3.5735488 21973:0.28874001 22189:0.020080348 22342:3.077112 22365:2.9545095 22702:2.6290872 22953:1.549167 23052:4.0153813 23203:5.2033763 23695:0.26196355 23747:3.4400175 23891:0.40146509 23918:0.80096006 23959:0.17951988 24024:2.451406 24119:0.17330991 24247:2.0537231 24307:1.8058869 24403:1.6276386 #
0.00014172561156367385047129270336796 133:0.036284294 201:5.8088927 592:0.87352014 641:3.7294514 2269:7.1951871 2720:6.7897224 2738:7.8883343 3244:7.1951871 3492:4.997963 3985:2.8449094 5270:6.7897224 5939:2.5084372 6875:7.8883343 7498:7.1951871 8610:2.7292793 8619:0.55139756 9686:3.6836419 #
-0.00015316729445291528974651407146723 6:1.0364563 7:0.5554238 154:0.19716516 155:0.19716516 159:0.084337465 257:4.4208465 371:3.268167 560:0.47926483 567:0.38660598 739:0.040241666 906:5.5194588 920:2.4443469 1138:5.5194588 1257:0.72403276 1306:1.2086598 1319:1.9499263 1346:1.6587292 1431:0.28373674 1454:0.010030094 1536:2.2236221 1581:3.6476567 1597:0.636657 1603:1.5682153 1608:2.1872544 1680:4.603168 1713:0.5614357 1818:4.1331644 1828:0.057748001 1856:4.266696 1944:0.26534581 2067:5.1139936 2092:6.212606 2107:1.3842924 2186:0.64045209 2296:4.266696 2418:0.21562573 2484:0.59583497 2801:2.8804016 3013:6.212606 3117:5.1139936 3242:6.212606 3320:5.0474534 3326:5.4321971 3327:5.1139936 3330:6.212606 3444:3.9100211 3528:0.12898609 3625:2.3207858 3767:4.0153813 3781:4.0153813 3840:3.5165176 4010:16.061525 4011:6.212606 4012:20.455975 4013:6.212606 4164:6.212606 4169:4.8263116 4304:2.8804016 4405:2.7160985 4498:6.212606 4628:3.4400175 4700:1.3527937 5226:0.77452677 5341:6.212606 5679:4.266696 5805:3.2168739 5810:1.9784995 6026:5.5194588 6053:6.212606 6144:4.603168 6145:4.4208465 6246:4.1331644 6306:2.0694714 6514:6.212606 6527:3.5735488 6627:0.64808571 6828:11.038918 6847:5.1139936 7198:3.5045559 7323:5.1139936 7415:0.94991589 7691:1.2587775 7711:3.8147109 7864:3.4400175 7909:3.1680837 8020:1.9499263 8034:4.4208465 8038:1.2358724 8064:6.212606 8086:2.3624585 8345:4.7249169 8350:3.1215637 8367:0.18674012 8368:1.7017466 8386:1.0196493 8396:4.3391094 8704:0.042995363 8711:3.077112 8739:5.7608032 8954:6.212606 8960:0.17712466 9021:1.6276386 9088:2.8453102 9270:1.8094029 9353:1.6276386 9424:6.212606 9433:0.99225026 9467:1.3684191 9504:1.1627886 9582:3.1680837 9755:2.9167693 9868:2.1017323 9904:2.9937303 10043:1.9784995 10046:2.7468703 10155:0.13267291 10407:3.4400175 10495:0.33046782 10551:2.8114088 10585:1.6800066 10743:0.72780919 10747:1.2427928 10818:1.9221467 10942:5.1139936 11132:0.080483332 11399:4.603168 11431:2.7160985 11549:4.603168 11591:0.41654834 11705:0.014042131 11729:0.11645997 11733:1.3048613 11767:12.399493 11895:4.4208465 11950:1.5397773 12088:0.38956019 12229:3.8147109 12552:1.1756535 12559:2.2807806 12583:2.9937303 12773:2.6862457 12810:4.4208465 12959:1.5841422 13020:6.212606 13120:1.3684191 13143:2.4039416 13259:5.5194588 13278:5.1139936 13346:4.603168 13395:4.0153813 13591:12.425212 13758:5.5194588 14059:3.8442934 14183:4.1331644 14342:0.32650205 14383:0.62535745 14443:0.39289787 14462:2.0392985 14491:0.55661428 14739:3.1680837 14781:2.2423141 14826:0.83270872 14861:1.5876333 14921:5.5194588 14952:0.44428509 15063:0.87367588 15091:0.99767035 15282:0.052208904 15288:5.5194588 15381:0.12356122 15560:4.266696 15598:4.1331644 15749:1.3073313 15927:1.3763242 15997:5.5194588 16127:0.86074793 16160:1.818157 16467:1.2221735 16499:1.9327848 16502:6.212606 16546:1.2638462 17898:3.3793929 18284:4.266696 18434:4.0153813 18742:2.3624585 18886:6.212606 18963:3.7584262 19208:3.1172915 19216:3.2168739 19345:6.212606 19358:3.9569991 19427:1.9221467 19648:2.1350687 19651:2.4990339 19654:1.0768076 19660:5.1139936 19676:4.0153813 19681:2.6862457 20229:0.88113672 20231:6.212606 20292:0.31820327 20394:2.8453102 20601:4.266696 20914:2.2613623 20966:4.266696 20998:3.9100211 21232:4.4208465 21331:1.6693113 21339:1.5121257 21603:6.212606 21829:4.4208465 21861:0.44116497 21869:0.079192415 21874:0.056168523 21878:3.3793929 21888:0.39549494 21931:1.1427202 21934:1.7817893 21948:2.7468703 21973:0.115496 22036:6.212606 22165:3.6476567 22189:0.044176765 22206:3.3386226 22240:1.472285 22308:4.266696 22668:7.8200421 22671:5.5194588 23135:0.30452317 23203:2.6016881 23256:3.0345523 23267:3.0345523 23655:1.5212582 23743:0.73196715 23754:1.4390893 23904:3.4400175 23905:0.8466301 23914:1.2224134 23945:5.0474534 23959:0.17951988 23980:1.7582588 23984:0.99767035 24119:0.069323964 24247:2.0537231 24254:0.51887393 24403:3.2552772 24423:0.33207312 #
9.1492456236132583863480960406633e-05 133:0.036284294 291:0.71131575 505:7.8883343 3422:7.8883343 3436:7.1951871 3566:2.8776991 3985:2.8449094 4119:7.8883343 4146:4.5924978 4309:6.2788968 5818:7.8883343 6760:4.1747622 7466:7.1951871 7691:7.8883343 8366:6.2788968 8488:5.6911101 8765:1.1072769 #
0.00011091402575334206100522022042654 123:1.1462322 133:0.036284294 291:1.4226315 592:0.87352014 1765:6.7897224 3835:7.8883343 4101:7.8883343 4237:4.3619738 4834:4.997963 5581:5.3233852 5902:0.89899921 5978:2.8710546 7496:4.2247729 7570:7.8883343 8249:7.8883343 9270:7.8883343 #
6.9101875172622971577052197744706e-05 133:0.036284294 648:6.5020399 775:2.7643704 1558:4.4871373 3102:7.8883343 3201:6.0965753 3340:4.997963 4672:4.8926024 4746:5.0551209 5902:0.89899921 6715:7.8883343 8619:1.6541928 8658:4.3619738 9152:5.3233852 #
4.653540722690777429538036558121e-05 123:1.1462322 133:0.072568588 310:7.8883343 561:5.0551209 592:0.87352014 624:4.1041451 810:7.8883343 1286:6.5020399 1718:7.8883343 1759:5.9424243 2883:7.1951871 3144:7.8883343 3329:2.1294327 3566:2.8776991 4056:4.5561299 4592:1.2911888 4980:7.8883343 5628:6.5020399 5758:3.544529 6110:7.8883343 6247:6.5020399 6873:7.8883343 8619:2.2055902 8765:1.1072769 8792:7.8883343 8982:5.2492771 8987:4.2774167 #
1.6450968774761187148449395611927e-05 133:0.036284294 2621:4.3918271 3224:4.2774167 3301:7.8883343 3748:4.4225984 4962:5.4904394 8030:5.5857496 8669:2.0418956 9686:3.6836419 #
-0.0010686704717601776606916708090012 1454:0.0020060188 1597:0.636657 7981:5.1139936 8367:0.18674012 9471:1.0364563 10674:4.4208465 10907:1.5121257 11705:0.0020060188 11729:0.038819991 14342:0.32650205 15063:0.17473517 15370:0.068420462 21973:0.057748001 22189:0.0040160697 23707:2.2236221 24203:2.5237267 #
-0.0010686704717601776606916708090012 154:0.04929129 155:0.04929129 159:0.036144625 500:4.603168 739:0.040241666 789:0.30724424 920:2.4443469 948:1.3923246 1257:0.48268852 1454:0.0040120375 1713:0.22457428 1828:0.115496 2683:4.266696 2805:4.0153813 2852:4.0153813 3528:0.085990727 3553:0.12810668 3858:1.4085851 4051:0.77018839 4351:4.8263116 4427:3.077112 4687:1.169181 5226:0.77452677 5706:5.1139936 5878:5.1139936 7254:2.8453102 7476:4.266696 7563:5.1139936 8459:5.5194588 8711:3.077112 8960:0.17712466 9336:5.1139936 10125:0.26980671 10957:0.31820327 11705:0.0020060188 11729:0.077639982 12088:0.77912039 12484:4.8263116 12872:3.1215637 13392:0.62535745 13537:5.1139936 14222:9.6526232 15282:0.024096418 15363:4.4208465 15370:0.068420462 15423:0.36616731 15530:3.3222344 15820:5.5194588 16159:4.603168 16322:1.7127964 17012:3.3222344 17159:3.5045559 18331:5.1139936 19054:2.7468703 19081:1.4590158 19172:4.603168 19358:1.9784995 19553:3.8147109 19667:1.4085851 19783:6.212606 19996:6.212606 20639:8.533392 20930:0.71134788 21576:2.152163 21874:0.018054169 21931:0.28568006 21934:3.5635786 22022:1.5682153 22510:3.6476567 22635:2.0694714 23364:2.4059436 23821:0.79650569 23904:3.4400175 24119:0.034661982 24184:4.0153813 24254:0.51887393 24287:5.5194588 24423:0.33207312 #
-0.0010686704717601776606916708090012 6:1.0364563 7:0.5554238 207:2.4284165 238:6.212606 374:6.212606 375:2.1695547 421:6.212606 423:2.8114088 447:6.212606 448:3.3793929 462:6.212606 465:3.1680837 482:6.212606 483:3.7276995 493:6.212606 494:4.266696 508:6.212606 510:4.1331644 530:6.212606 532:4.1331644 558:6.212606 560:4.3133836 739:0.0080483332 918:1.2358724 1257:0.24134426 1542:0.86549854 1713:0.11228714 1944:0.13267291 1984:1.908541 2081:3.7276995 4375:9.805624 4700:1.3527937 5336:2.7468703 7494:0.98149747 8633:5.1139936 9042:1.2221735 10417:1.8058869 11125:5.5194588 11132:0.0080483332 11705:0.0060180561 11745:1.8986288 12088:0.38956019 12248:2.3005831 14578:1.9499263 15063:0.52420551 15282:0.0040160697 15370:0.068420462 15992:2.8114088 16328:2.3005831 16613:2.2052729 16713:4.4208465 18990:2.1350687 19477:4.4208465 19542:2.0079136 21721:3.1680837 21861:0.88232994 21869:0.052794944 21874:0.010030094 24138:5.5194588 24139:7.6294217 24243:2.2423141 #
-9.0518182117739023916959395510418e-05 6:2.0729127 154:0.19716516 155:0.19716516 159:0.092369601 442:6.212606 567:0.77321196 739:0.088531666 789:1.228977 829:4.603168 937:5.5194588 1120:1.467674 1322:0.76586872 1336:1.4251144 1431:0.28373674 1454:0.022066206 1546:2.8804016 1597:0.636657 1603:1.5682153 1606:6.212606 1713:0.44914857 1761:4.0153813 1763:3.268167 1764:5.5194588 1785:5.5194588 1897:10.227987 1944:0.66336453 2107:1.3842924 2186:0.64045209 2398:2.6290872 2418:0.21562573 2461:1.6108687 2484:1.787505 2492:1.0535508 2503:2.451406 2506:2.1872544 3224:35.797958 3225:5.5194588 3528:0.12898609 3553:0.12810668 3730:3.4400175 3749:3.7276995 3755:8.533392 3840:1.7582588 3958:2.8804016 4111:3.3793929 4473:4.603168 4649:4.0153813 4725:6.212606 5226:0.77452677 5321:4.603168 5414:5.5572376 5603:4.4208465 5774:4.6011662 5791:1.6276386 5818:12.425212 5823:4.266696 5835:2.152163 5870:2.4059436 5881:3.5735488 6089:6.212606 6186:3.5735488 6187:5.5194588 6189:3.4400175 6455:3.3222344 6458:3.3793929 6462:4.603168 6636:3.1680837 6649:1.6839361 6651:0.86549854 6829:4.1331644 6989:5.5194588 7036:1.5586457 7045:4.603168 7087:2.9167693 7218:3.9100211 7322:3.2168739 7638:5.5194588 7691:0.839185 7699:2.5237267 7788:1.9641109 8047:3.5735488 8101:2.7786188 8159:2.5750198 8227:3.5045559 8367:0.37348023 8396:2.1695547 8413:2.2423141 8455:0.76586872 8547:3.8147109 8704:0.17198145 8960:0.17712466 8999:1.9221467 9052:2.6016881 9119:3.4400175 9208:9.206336 9211:4.1331644 9249:9.206336 9270:0.60313427 9274:2.338362 9433:0.99225026 9633:3.7276995 9670:3.7276995 9706:6.212606 9838:2.7160985 9897:0.68317699 10058:1.5876333 10125:0.53961343 10155:0.39801869 10185:2.2687824 10287:3.5735488 10470:1.9557734 10495:0.82616961 10560:3.5045559 10674:4.4208465 10702:6.212606 10730:5.5194588 10743:0.72780919 10902:0.92476755 10937:11.038918 10957:0.31820327 11044:3.1215637 11079:3.4400175 11132:0.048289999 11473:1.5030758 11476:4.266696 11591:1.6661934 11643:3.8147109 11644:12.399493 11648:4.4208465 11705:0.028084261 11729:0.19409996 11950:1.5397773 12088:0.38956019 12266:5.2033763 12341:2.7160985 12343:4.1331644 12370:2.3624585 12606:3.1215637 12663:1.1627501 12873:0.84108275 12942:2.7786188 13001:2.5750198 13079:1.4419215 13266:4.266696 13874:2.7468703 14008:2.6445138 14034:23.655748 14097:2.9545095 14111:4.8263116 14115:5.5194588 14443:0.19644894 14551:5.3145161 14753:2.3207858 14831:2.0956402 14952:0.88857019 15063:0.17473517 15118:1.1250098 15261:7.8200421 15282:0.032128558 15289:6.212606 15310:6.3361673 15370:0.13684092 15379:1.5212582 15381:0.24712244 15449:2.0382187 15450:6.212606 15491:0.65856743 15692:6.212606 15798:3.0345523 16021:4.7679296 16152:2.0382187 16200:2.2236221 16282:3.2168739 16499:0.6442616 16546:3.7915387 16572:2.5237267 16690:2.1182616 16693:4.0153813 16731:3.4400175 17055:5.1139936 17231:8.533392 17409:2.1182616 17412:5.5194588 17413:2.9167693 17579:15.258843 17618:5.5194588 17796:5.1139936 17937:4.0153813 17952:2.7468703 18260:3.268167 18388:1.3374088 18396:4.4208465 19197:0.86549854 19208:1.5586457 19318:4.603168 19435:2.0694714 19601:4.603168 19651:2.4990339 19869:2.5750198 20229:0.88113672 20288:4.266696 20292:0.63640654 20297:1.6908175 20482:2.657258 20778:2.4990339 20877:4.0153813 20930:1.4226958 21334:5.5194588 21336:6.212606 21383:6.4337478 21385:3.8147109 21562:1.0768076 21625:5.1139936 21756:2.2807806 21869:0.13198736 21874:0.060180563 21890:1.8314618 21896:0.77888411 21909:0.41654834 21925:1.8186023 21931:0.85704023 21973:0.519732 22000:1.1821681 22054:0.84196806 22115:3.9100211 22189:0.068273187 22294:5.3145161 22374:4.1331644 22412:10.227987 22440:4.0153813 22444:3.8147109 22549:2.5490444 22741:2.7786188 22791:3.3222344 22838:2.0854716 22847:3.9100211 22863:4.8263116 22929:4.8263116 22973:5.1139936 23135:0.30452317 23191:1.8431582 23370:1.5841422 23384:4.1331644 23474:2.8114088 23678:4.1331644 23685:4.1331644 23695:0.26196355 23754:0.71954465 23821:0.79650569 23865:0.90930116 23872:10.320052 23891:0.80293018 23901:0.96288568 23914:0.40747112 23959:0.17951988 23980:1.7582588 24022:1.2961714 24062:6.212606 24119:0.10398594 24130:1.3842924 24165:2.3414052 24242:6.212606 24289:5.5194588 24307:1.8058869 24387:1.3923246 24392:5.1139936 24417:4.949873 24423:0.33207312 24429:1.5586457 #
-0.00096511670914777589538879887243183 6:1.0364563 7:0.5554238 154:0.24645646 155:0.24645646 156:8.2148924 159:0.032128558 561:0.94991589 567:0.38660598 739:0.056338333 916:2.2052729 1431:0.14186837 1454:0.0060180561 1542:0.86549854 1639:3.268167 1828:0.115496 1853:4.0153813 1944:0.26534581 1987:2.0537231 2296:4.266696 3251:4.603168 3270:2.6290872 3553:0.12810668 3668:0.97804201 3669:1.3527937 4025:4.8263116 4051:0.77018839 4380:12.425212 4542:5.5194588 4604:3.1680837 4700:1.3527937 4704:1.2926252 5613:3.1680837 5779:2.1182616 6653:2.6862457 6871:4.266696 7228:1.7817893 7700:1.3450717 7829:4.266696 7885:2.6862457 7952:4.0153813 8088:3.5735488 8246:3.268167 8367:0.18674012 8555:4.8263116 8704:0.12898609 8938:2.1182616 8960:0.35424933 9037:3.9100211 9274:1.169181 9433:0.99225026 9701:6.212606 9864:1.5682153 9877:4.266696 9942:6.212606 10155:0.13267291 10185:0.41250587 10193:1.7937655 10304:5.5194588 10368:2.2807806 10384:5.5194588 10495:0.33046782 10720:6.212606 10722:2.1182616 11536:5.1139936 11705:0.0020060188 11729:0.038819991 12846:1.1374323 12866:3.8147109 12873:0.28036091 13048:1.1887256 13405:1.5212582 13527:4.4208465 13610:4.603168 13674:3.6476567 14003:6.212606 14342:0.32650205 14383:0.62535745 14389:2.4990339 14479:3.2168739 14822:4.8263116 15282:0.0040160697 15381:0.12356122 15491:0.32928371 15569:1.6174862 15630:0.81897855 15765:4.1331644 15825:6.212606 15838:4.266696 17442:1.549167 17675:4.8263116 17847:3.9100211 18011:2.4059436 18171:4.603168 18490:4.603168 18562:2.4749365 19017:9.6526232 19328:4.1331644 19372:1.7017466 19835:2.1350687 19869:2.5750198 20023:6.212606 20042:2.9167693 20171:4.603168 20292:0.31820327 20369:5.1139936 20748:1.7699548 20778:2.4990339 20931:4.4208465 21748:2.5237267 21861:0.44116497 21874:0.01604815 21973:0.057748001 21998:1.0651116 22000:2.3643363 22132:0.52563071 22189:0.012048209 22304:3.1680837 23370:0.7920711 23433:2.8804016 23892:2.1872544 23901:0.32096189 23959:0.53855962 24022:0.64808571 24119:0.10398594 24130:1.3842924 #
-1.6176930795184745587832197966094e-05 6:3.109369 7:2.2216952 154:0.19716516 155:0.24645646 159:0.10843388 207:2.4284165 362:3.4400175 560:2.3963242 567:0.38660598 739:0.120725 789:1.228977 882:5.5194588 951:6.212606 1111:0.69917732 1233:5.5194588 1244:8.2663288 1255:5.5194588 1257:0.96537703 1431:0.28373674 1454:0.030090282 1458:12.425212 1542:0.86549854 1589:12.800088 1646:2.0229514 1713:0.11228714 1828:0.230992 2264:13.26254 2418:0.21562573 2424:16.558376 2461:0.80543435 2484:1.1916699 2549:12.425212 2550:6.212606 2626:1.0709425 2645:0.93449146 2678:2.2748647 2692:7.4971023 3105:2.3207858 3340:2.8804016 3444:3.9100211 3528:0.085990727 3625:4.6415715 3645:2.9167693 3858:2.8171701 4021:2.6290872 4111:3.3793929 4159:4.1331644 4232:4.603168 4234:5.1139936 4264:7.1470976 4375:4.902812 4700:2.7055874 4717:2.1872544 5226:1.5490535 5279:6.212606 5741:2.451406 5791:3.2552772 6292:1.3527937 6381:1.9930984 6382:2.9167693 6398:6.0691047 6545:5.5194588 6627:0.64808571 7075:3.1557543 7410:4.0153813 7688:3.6476567 7691:0.4195925 7710:2.141885 7886:3.5045559 8367:1.4939209 8396:2.1695547 8419:8.0307627 8455:0.76586872 8612:4.0153813 8704:0.12898609 8812:9.6237745 9042:1.2221735 9496:12.425212 9660:2.2748647 9807:1.9499263 9813:4.266696 9897:0.68317699 10000:3.5735488 10155:0.26534581 10185:0.6187588 10222:2.8804016 10351:1.8998318 10495:0.49570176 10517:3.5045559 10569:1.549167 10676:2.7786188 10710:7.1470976 10722:2.1182616 10902:1.3871514 11132:0.048289999 11670:12.425212 11705:0.0040120375 11729:0.27173993 11733:0.86990756 11861:9.2313356 11930:1.8305795 11967:2.5750198 12088:0.77912039 12189:6.212606 12210:3.1680837 12248:2.3005831 12301:4.8263116 12387:6.212606 12405:6.212606 12448:3.077112 12573:2.0694714 12873:0.28036091 12886:4.4208465 12942:2.7786188 13073:1.0827074 13113:3.5045559 13319:0.99225026 13334:8.8416929 13336:5.5194588 13402:1.1006184 13439:3.1779435 13513:1.0421221 13558:10.227987 13772:3.2168739 13875:6.212606 14342:0.65300411 14443:0.98224467 14491:0.55661428 14538:5.1139936 14599:0.87506801 14607:3.1215637 14831:1.0478201 14851:5.5194588 15063:0.17473517 15091:0.99767035 15143:2.5490444 15282:0.060241044 15283:1.4890919 15370:0.27368185 15381:0.61780608 15423:0.36616731 15571:0.78589064 15749:1.3073313 15762:3.9100211 16127:0.86074793 16160:1.818157 16423:3.3793929 16471:6.212606 16477:2.9167693 16499:1.9327848 16631:2.5490444 16690:2.1182616 17008:1.9930984 17385:2.451406 17405:8.8416929 17537:6.212606 17680:2.5750198 17687:3.0345523 18289:6.3361673 18479:2.3839648 18521:6.212606 18530:5.1139936 18537:1.2709637 18582:6.670866 18584:6.212606 18587:11.730063 18588:6.212606 18618:8.8416929 18680:4.266696 18742:2.3624585 18912:2.2423141 18917:1.2019708 19106:1.1563603 19168:2.0079136 19186:4.0153813 19197:0.86549854 19681:2.6862457 19961:12.425212 20016:4.1331644 20292:0.31820327 20298:4.8263116 20329:1.895118 20730:1.5397773 20747:2.5490444 20748:1.7699548 21094:1.93594 21231:11.038918 21326:4.1331644 21328:2.2807806 21331:3.3386226 21574:2.9167693 21628:16.532658 21670:3.3222344 21768:2.4749365 21869:0.052794944 21874:0.056168523 21875:5.0980887 21890:1.8314618 21909:0.41654834 21960:2.5750198 21973:0.28874001 22055:2.2613623 22129:6.4337478 22189:0.032128558 22214:2.6016881 22223:11.038918 22240:0.73614252 22255:2.2423141 22426:6.8800349 22429:4.8263116 22499:1.6693113 22624:4.949873 22682:0.65964651 22838:2.0854716 23135:0.30452317 23142:10.227987 23145:4.8263116 23247:12.425212 23657:3.9100211 23695:3.4055262 23703:1.7582588 23865:0.90930116 23891:0.40146509 23914:0.40747112 23959:0.17951988 23969:1.5586457 24004:1.8058869 24022:0.64808571 24036:6.4337478 24118:5.5194588 24119:0.10398594 24135:11.038918 24199:4.7679296 24246:5.2400937 24306:1.8431582 24313:5.909019 24379:5.1383891 24387:1.3923246 24423:0.33207312 #
8.9962822130793771444393081004876e-05 133:0.036284294 291:2.1339471 592:0.87352014 1577:5.5857496 3329:2.1294327 3998:2.6572258 4250:7.8883343 4521:6.7897224 4958:4.0171337 5054:6.8913665 5570:2.5800669 5902:0.89899921 7296:6.7897224 8669:2.0418956 9609:4.7528405 9626:3.5842695 #
0.00010472417781848318649867701779499 123:0.57311612 133:0.036284294 1369:1.8552483 2570:7.8883343 3191:4.7972922 3566:2.8776991 4229:5.3233852 4600:1.6677443 5391:5.1802845 5715:5.4904394 6759:5.5857496 7714:4.7528405 8406:7.8883343 8497:6.7897224 8501:7.8883343 8616:1.6441675 8619:2.2055902 8765:1.1072769 9336:13.579445 #
3.8352849884318962025552685046748e-05 123:1.1462322 133:0.036284294 291:0.71131575 945:7.1951871 1566:3.3665459 2590:4.038187 2749:5.4034281 3748:4.4225984 3985:2.8449094 4355:1.5639756 5902:1.7979984 5941:2.7945843 6296:4.5924978 6298:7.8883343 7415:7.8883343 7525:5.8088927 7925:3.4109976 7956:4.8926024 7961:7.1951871 8374:7.8883343 8619:1.1027951 8648:3.8810012 8765:2.2145538 9478:6.5020399 9484:3.6256547 #
6.9603351131432473781340819485308e-05 133:0.036284294 648:6.5020399 1376:2.5950296 1610:7.8883343 2470:7.8883343 3716:5.1802845 4265:6.7897224 5540:5.4034281 5902:0.89899921 6242:7.8883343 6833:4.5924978 7436:4.6694589 8619:0.55139756 8765:1.1072769 8805:7.8883343 #
-0.00091882724524336954752268269430715 154:0.098582581 155:0.098582581 159:0.028112488 161:7.0798192 739:0.040241666 789:0.30724424 918:1.2358724 999:3.9100211 1431:0.14186837 1454:0.01604815 1597:1.273314 1713:0.33686143 1756:6.212606 1828:0.057748001 1944:0.13267291 2348:1.9930984 2394:6.212606 2484:0.59583497 2677:6.212606 2797:5.5194588 2801:2.8804016 3053:3.0345523 3064:1.3763242 3269:3.7276995 3528:0.12898609 3553:0.12810668 4051:1.5403768 4428:2.9545095 4521:6.212606 4526:6.212606 4757:4.1331644 4833:3.3222344 5226:0.77452677 5325:4.603168 5975:3.5045559 6387:0.83270872 6397:3.6476567 6768:4.266696 7075:1.5778772 7198:3.5045559 7359:4.4208465 7710:1.0709425 7718:1.7127964 7850:3.3793929 8005:2.1350687 8126:1.4590158 8226:2.657258 8367:0.18674012 8368:1.7017466 8374:4.8263116 8386:1.0196493 8547:3.8147109 8608:3.4400175 8704:0.085990727 8960:0.17712466 9227:2.5237267 9902:4.1331644 9951:3.9100211 10155:0.13267291 10212:3.077112 10301:5.1139936 10368:2.2807806 10495:0.33046782 10796:2.152163 10902:0.69357568 10935:2.5750198 10957:0.31820327 11132:0.024145 11262:3.2168739 11705:0.0080240751 11991:6.212606 12791:2.2236221 12873:0.28036091 12959:0.7920711 12989:3.9100211 13025:4.0153813 13317:6.212606 13402:1.1006184 13673:4.603168 13774:3.7276995 13809:3.268167 13876:3.268167 14008:1.3222569 14503:6.212606 14551:2.657258 14873:5.1139936 15014:1.818157 15205:3.5735488 15282:0.028112488 15336:2.8804016 15370:0.20526138 15381:0.24712244 15444:2.7786188 15559:0.636657 15569:1.6174862 15630:0.81897855 16145:2.5490444 16167:5.5194588 16322:1.7127964 16946:2.9937303 16947:3.5735488 17034:3.0345523 17074:4.1331644 17700:3.3793929 17751:2.6862457 17765:5.1139936 17870:5.5194588 18339:2.8114088 18535:4.603168 18716:6.212606 18963:0.93960655 19022:4.4208465 19106:1.1563603 19213:1.0535508 19338:6.212606 19792:2.5750198 19816:6.212606 20113:2.9545095 20714:2.9167693 20737:4.266696 20884:3.4400175 20994:5.5194588 21162:3.5045559 21202:3.0345523 21209:3.3222344 21303:3.0345523 21869:0.052794944 21874:0.020060187 21909:0.41654834 21955:1.1887256 21968:5.1139936 21973:0.173244 22002:1.7127964 22132:0.52563071 22189:0.012048209 22740:3.2168739 23187:1.2153938 23695:0.26196355 23717:3.077112 23914:0.40747112 23959:0.17951988 24119:0.034661982 24207:1.1250098 24223:1.4764076 24435:1.3374088 #
-0.0010686704717601776606916708090012 7:1.1108476 154:0.04929129 155:0.04929129 157:4.266696 159:0.024096418 160:1.5212582 385:4.266696 562:4.266696 567:0.77321196 739:0.032193333 789:0.61448848 918:1.2358724 948:1.3923246 1257:0.24134426 1336:1.4251144 1454:0.012036112 1535:3.9100211 1542:0.86549854 1597:0.636657 1602:4.0153813 1713:0.11228714 1944:0.13267291 2678:1.1374323 2905:4.8263116 3037:3.2168739 3138:4.8263116 3457:2.3005831 3750:4.0153813 3858:1.4085851 4039:3.1680837 4051:0.77018839 4427:3.077112 4481:5.5194588 4983:3.3793929 5226:0.77452677 5229:2.3207858 5391:10.227987 5610:4.603168 5790:10.227987 6173:2.2052729 6381:1.9930984 6387:0.83270872 6934:5.5194588 6950:3.5735488 7296:1.6587292 7424:4.6415715 7557:3.0345523 7710:1.0709425 7718:1.7127964 8261:2.6862457 8367:0.37348023 8574:2.5237267 8639:5.1139936 9433:2.9767509 9897:0.68317699 10139:4.1331644 10155:0.26534581 10299:2.3207858 10506:2.1695547 10569:1.549167 10575:4.603168 10585:1.6800066 10902:0.69357568 11132:0.0080483332 11705:0.0080240751 11729:0.038819991 11745:0.63287628 12151:4.8263116 12360:0.99225026 12873:0.28036091 13073:1.0827074 13415:3.268167 13759:0.87988728 14342:0.32650205 14443:0.19644894 14491:0.55661428 14746:1.895118 14958:5.5194588 15282:0.028112488 15381:0.24712244 15530:3.3222344 15571:0.52392709 15598:4.1331644 16499:0.6442616 16594:6.212606 16843:2.3207858 16935:1.5586457 17086:2.3207858 17710:0.84196806 17807:2.9937303 18860:3.9100211 19106:1.1563603 19435:2.0694714 19542:2.0079136 19820:1.3073313 20301:1.0709425 20334:6.212606 20748:3.5399096 20779:4.266696 20862:1.1756535 21201:3.7276995 21356:7.5711799 21459:5.1139936 21721:3.1680837 21727:4.8263116 21869:0.026397472 21874:0.020060187 21888:0.39549494 21909:0.41654834 21949:1.118856 21973:0.115496 22189:0.0040160697 23288:4.8263116 23370:0.7920711 23695:0.52392709 23713:1.3605758 23714:6.212606 23720:1.4590158 23821:0.79650569 23901:0.32096189 24254:0.51887393 24403:1.6276386 24423:0.33207312 #
-7.4467861437985401304624766272156e-05 6:1.0364563 7:2.2216952 154:0.04929129 155:0.04929129 159:0.040160697 281:5.5194588 282:6.212606 288:5.5194588 289:6.212606 456:5.5194588 521:4.603168 536:5.5194588 538:5.5194588 567:1.1598179 739:0.024145 789:0.61448848 920:1.2221735 1111:0.69917732 1322:1.5317374 1346:1.6587292 1431:0.14186837 1454:0.010030094 1519:6.212606 1713:0.11228714 1769:1.0768076 1828:0.115496 1944:0.26534581 2117:4.0153813 2418:0.21562573 2492:1.0535508 2626:1.0709425 2645:0.93449146 2760:1.6276386 3043:5.4544706 3064:1.3763242 3434:3.5045559 3528:0.12898609 3553:0.12810668 3668:0.489021 3701:2.9167693 3891:3.3793929 4038:0.7403354 4207:12.425212 4426:3.3793929 5213:14.478935 5386:2.3624585 6065:9.2313356 6189:3.4400175 6260:2.6146626 6632:6.212606 6699:0.87506801 6749:3.5045559 7098:5.1139936 7164:2.9167693 7228:1.7817893 7539:6.212606 7710:1.0709425 7714:1.8688006 8005:2.1350687 8053:4.4208465 8255:3.9100211 8308:1.0308225 8455:1.5317374 8531:2.6016881 8704:0.17198145 8960:0.35424933 9091:4.603168 9206:3.3222344 9265:6.212606 9349:6.212606 9433:1.9845005 9471:1.0364563 9504:1.7441829 9660:2.2748647 9893:4.266696 9948:3.3793929 10044:4.266696 10058:1.5876333 10125:0.26980671 10155:0.53069162 10185:1.0312647 10223:2.8453102 10344:1.3115561 10351:0.94991589 10368:2.2807806 10470:0.65192449 10495:0.49570176 10565:6.212606 10864:2.9167693 10902:1.6183432 10957:0.63640654 11090:2.6862457 11132:0.056338333 11591:0.41654834 11705:0.018054169 11729:0.077639982 11790:4.8263116 11927:5.5194588 11932:5.5194588 12088:0.77912039 12194:3.1215637 12207:2.3414052 12234:4.603168 12552:1.1756535 12563:1.7699548 12846:2.2748647 12873:0.84108275 12944:3.9100211 13073:1.0827074 13076:2.8804016 13079:4.3257642 13117:2.0537231 13319:0.99225026 13402:1.1006184 13417:6.212606 13533:6.212606 13561:5.6228175 13613:5.5194588 13695:4.8263116 13759:0.87988728 13861:2.1017323 14443:1.5715915 14445:2.3414052 14599:0.87506801 14639:3.6363139 14826:0.83270872 14952:0.44428509 15118:1.1250098 15183:5.5194588 15282:0.016064279 15324:2.2236221 15339:2.833631 15423:0.36616731 15491:0.65856743 15955:2.9937303 16127:0.86074793 16151:2.833631 16460:1.2999512 16613:2.2052729 16748:5.5194588 17121:4.8263116 17377:8.0307627 17378:11.038918 17690:1.3374088 17751:2.6862457 18011:2.4059436 18388:1.3374088 18537:1.2709637 18784:1.8558973 18818:1.1500111 18917:1.2019708 18957:0.94991589 18961:3.7276995 18963:1.8792131 19106:2.3127205 19168:2.0079136 19197:2.5964956 19202:6.5617633 19213:2.1071017 19214:1.2638462 19237:3.6476567 19539:1.6562221 19621:2.9545095 19654:1.0768076 19684:2.0382187 19723:3.3222344 19869:2.5750198 20073:6.1542239 20106:1.9641109 20370:2.4990339 20440:4.0153813 20466:3.5045559 21199:3.3793929 21203:5.5194588 21331:1.6693113 21339:3.0242515 21869:0.26397473 21874:0.0320963 21879:3.268167 21888:0.39549494 21909:0.41654834 21931:1.1427202 21956:2.3414052 21960:5.1500397 21971:6.212606 21973:0.346488 22000:1.1821681 22054:0.84196806 22132:0.52563071 22189:0.052208904 22240:0.73614252 22284:4.266696 22294:2.657258 22497:5.5572376 22499:1.6693113 22664:2.8453102 22682:0.65964651 22730:3.1680837 22838:2.0854716 23135:0.30452317 23370:0.7920711 23655:1.5212582 23695:1.0478542 23708:2.451406 23743:1.4639343 23749:2.6862457 23865:1.8186023 23874:4.266696 23901:0.32096189 24004:9.0294342 24025:3.0345523 24079:6.212606 24154:6.212606 24243:2.2423141 24246:1.746698 24306:1.8431582 24326:4.8263116 24327:31.06303 24378:2.9167693 24387:4.1769738 24423:1.6603656 24429:1.5586457 #
-0.0010686704717601776606916708090012 159:0.036144625 739:0.048289999 789:0.30724424 810:2.4284165 920:1.2221735 1322:0.76586872 1431:0.14186837 1454:0.0080240751 1713:0.11228714 1828:0.115496 2492:1.0535508 2722:2.9937303 3528:0.085990727 3537:4.266696 3553:0.12810668 3668:0.489021 3756:2.0382187 3891:3.3793929 4589:5.5194588 4654:4.4208465 6531:4.4208465 6627:0.64808571 6649:0.84196806 7442:2.9167693 7691:0.4195925 7700:1.3450717 7718:1.7127964 7819:2.6016881 8104:1.9499263 8588:6.212606 8704:0.042995363 9021:1.6276386 9353:1.6276386 9433:0.99225026 9504:1.7441829 10125:0.53961343 10155:0.26534581 10351:0.94991589 10368:2.2807806 10747:1.2427928 10902:0.46238378 10943:3.3222344 10957:0.31820327 11132:0.032193333 11705:0.012036112 11729:0.038819991 11984:6.6444688 12404:6.212606 12873:0.56072181 12959:1.5841422 13078:3.4705386 13513:1.0421221 13979:4.1331644 14342:0.32650205 14427:5.5194588 14443:0.78579575 14491:0.55661428 14747:2.9545095 14831:1.0478201 14952:0.44428509 15063:0.17473517 15091:0.99767035 15282:0.012048209 15324:2.2236221 15381:0.24712244 15423:0.73233461 15571:0.26196355 16151:2.833631 16246:8.2663288 16460:1.2999512 16615:2.8804016 16897:3.3222344 17769:2.9545095 18320:6.212606 18961:3.7276995 19179:2.7160985 19214:2.5276923 19357:2.1017323 19409:3.0345523 19539:0.82811105 19932:3.9100211 20229:0.29371223 20292:0.31820327 20373:4.266696 20620:6.212606 21416:5.5194588 21874:0.014042131 21909:0.41654834 21953:1.4004217 21973:0.115496 22141:1.6074359 22189:0.0040160697 22452:4.0153813 22629:1.9784995 22870:4.1331644 23135:0.30452317 23370:1.5841422 23454:3.077112 23713:1.3605758 23914:0.40747112 24025:6.0691047 24052:6.212606 24119:0.034661982 24165:2.3414052 24187:3.8147109 24246:1.746698 24378:2.9167693 24423:0.66414624 24436:6.212606 24466:4.8263116 24489:5.5194588 #
-0.00077302589803668504686573470507938 7:0.2777119 154:0.14787388 155:0.14787388 159:0.072289251 259:4.0153813 560:0.47926483 571:6.212606 668:6.212606 739:0.072434999 789:0.61448848 916:2.2052729 1257:0.24134426 1280:10.94297 1312:1.6276386 1431:0.14186837 1454:0.012036112 1546:2.8804016 1551:6.212606 1594:10.227987 2107:1.3842924 2354:3.268167 2418:0.10781287 2501:3.1680837 2760:1.6276386 3401:5.5194588 3406:4.8263116 3553:0.12810668 3668:0.489021 3669:1.3527937 3825:3.2168739 4419:2.657258 4647:4.8263116 4648:6.212606 4835:5.5194588 5386:2.3624585 6292:1.3527937 6327:5.1139936 6666:1.93594 6992:2.4990339 7415:0.94991589 7691:0.839185 7991:2.6290872 8363:2.4990339 8367:0.37348023 8409:1.1627501 8413:2.2423141 8704:0.17198145 8891:3.0345523 9170:2.657258 9206:3.3222344 9504:0.58139431 9808:4.1331644 9893:4.266696 9902:4.1331644 9948:3.3793929 10058:1.5876333 10155:0.39801869 10185:0.41250587 10344:0.65577805 10398:3.3222344 10495:0.16523391 10902:1.1559594 10957:0.31820327 11132:0.024145 11236:4.1331644 11421:4.603168 11476:4.266696 11591:0.83309668 11705:0.010030094 11745:0.63287628 11861:3.077112 12005:3.5735488 12088:0.77912039 12846:3.4122968 12959:0.7920711 13094:4.603168 13377:1.908541 13704:1.4504322 13772:3.2168739 13892:5.1139936 13919:2.1872544 14012:4.0153813 14067:3.8147109 14107:1.2567791 14342:0.32650205 14443:0.19644894 14619:5.5194588 14642:1.9499263 15012:5.5194588 15282:0.016064279 15381:0.24712244 15571:0.78589064 16322:1.7127964 16413:1.5304749 16546:1.2638462 16613:2.2052729 16614:6.212606 16971:3.9100211 17550:4.1331644 18697:1.9221467 19214:1.2638462 19523:4.0153813 20337:4.603168 20702:3.9100211 20862:1.1756535 20900:9.1036568 20930:1.4226958 21094:1.93594 21485:4.266696 21861:0.44116497 21869:0.026397472 21874:0.024072224 21955:1.1887256 21973:0.115496 22054:0.84196806 22132:0.52563071 22189:0.016064279 22240:0.73614252 22331:4.1331644 22581:12.425212 22858:3.6476567 22959:2.6016881 23135:0.30452317 23192:1.8431582 23530:5.5194588 23534:3.9100211 23658:1.6174862 23695:0.26196355 23891:0.40146509 23901:0.32096189 23905:0.8466301 23918:0.80096006 24119:0.10398594 24167:2.0854716 24194:3.5735488 24212:4.603168 24223:1.4764076 24254:0.51887393 24303:2.3414052 24355:6.212606 24403:1.6276386 24455:11.038918 #
0.00054278582373664719957356838975215 123:0.57311612 592:0.87352014 4380:7.1951871 5635:6.2788968 8864:7.1951871 #
0.00020738692746071556399604929321612 123:1.1462322 133:0.036284294 374:4.997963 1757:6.2788968 3037:4.5561299 3120:7.8883343 4375:5.9424243 5580:3.5708463 5902:0.89899921 6060:7.8883343 8093:6.7897224 8619:1.1027951 9279:5.0551209 #
0.00018734745577770448477124276553951 133:0.036284294 4592:1.2911888 4837:5.6911101 5991:7.8883343 7953:6.7897224 #
3.3819942849704486059682784909741e-06 133:0.036284294 291:2.1339471 558:7.8883343 582:2.3431571 775:2.7643704 1369:1.8552483 2670:4.1994553 3026:7.8883343 3939:6.7897224 5570:2.5800669 5779:6.0965753 5939:2.5084372 6011:3.1969867 6201:7.8883343 6754:6.7897224 8362:6.5020399 8422:5.1157455 8610:2.7292793 8765:1.1072769 9078:7.1951871 #
0.00017379491260316882583064623801761 123:0.57311612 133:0.036284294 560:7.8883343 733:2.0623343 747:7.1951871 758:7.8883343 3616:5.4904394 3832:6.0965753 4109:3.0925438 4617:7.8883343 4797:7.8883343 4839:4.7972922 5564:6.0965753 5902:0.89899921 5939:2.5084372 7263:7.1951871 7898:5.4904394 8094:7.8883343 8779:5.8088927 9164:7.8883343 9479:4.3619738 #
-0.00045321940834109708615834444245252 154:0.34503904 155:0.34503904 156:4.1074462 159:0.048192836 567:0.38660598 739:0.064386666 1111:0.69917732 1130:2.9167693 1224:4.8263116 1431:0.14186837 1438:4.8263116 1454:0.01604815 1523:10.227987 1597:0.636657 1646:2.0229514 1828:0.057748001 2199:2.9167693 2234:3.8147109 2348:1.9930984 2413:5.5194588 2418:0.10781287 2508:1.9784995 2622:4.603168 2933:3.5735488 3002:2.3005831 3064:1.3763242 3476:5.1139936 3528:0.085990727 3553:0.12810668 4021:2.6290872 4181:2.4990339 4394:3.4400175 4551:5.1139936 4629:4.4208465 4779:3.3222344 5145:2.6862457 5343:5.1139936 5582:4.4208465 5597:5.5194588 5618:3.5045559 5778:13.809505 5808:6.212606 6387:0.83270872 6939:3.1215637 6940:6.212606 7036:1.5586457 7089:2.0694714 7221:5.1139936 7296:1.6587292 7305:5.5194588 7502:6.212606 7528:1.895118 7590:3.6476567 7714:3.7376013 7765:6.212606 7912:3.5735488 8012:6.212606 8247:2.5237267 8367:0.18674012 8396:2.1695547 8475:4.0153813 8704:0.042995363 8755:2.657258 8812:2.4059436 8960:0.17712466 9274:1.169181 9338:2.0694714 9796:3.5735488 9951:3.9100211 10040:2.7786188 10135:5.1139936 10155:0.13267291 10185:0.20625293 10245:9.6526232 10495:0.49570176 10725:2.4990339 10743:0.72780919 10790:3.9100211 10932:1.7127964 11132:0.016096666 11188:2.7160985 11591:0.41654834 11705:0.0060180561 11729:0.077639982 11745:0.63287628 11788:2.0537231 11928:6.212606 12166:1.9499263 12184:3.6476567 12370:2.3624585 12468:6.212606 12563:1.7699548 12681:2.451406 12863:6.212606 12873:0.56072181 12959:0.7920711 13001:2.5750198 13096:3.6476567 13267:4.266696 13388:2.1350687 13402:1.1006184 13618:3.3222344 13644:6.212606 13919:2.1872544 14175:3.0345523 14314:3.3793929 14443:0.19644894 14552:6.212606 14611:2.6290872 14826:0.83270872 14952:0.44428509 15031:2.2052729 15282:0.0080321394 15370:0.20526138 15423:0.36616731 15536:6.212606 15559:0.636657 16160:1.818157 16260:3.7276995 16462:3.3222344 16510:5.1139936 16525:3.4400175 16894:2.6016881 16990:10.227987 17719:1.4419215 17802:4.8263116 18131:3.0345523 18215:2.2236221 18264:5.1139936 18481:3.8147109 18487:6.212606 18708:2.5490444 18807:6.212606 18815:4.8263116 18874:3.268167 18963:0.93960655 18975:5.1139936 19208:1.5586457 19211:3.1215637 19469:4.4208465 19560:4.8263116 19654:1.0768076 20229:0.29371223 20239:4.603168 20292:0.31820327 20294:3.4400175 20387:6.212606 20748:1.7699548 21016:5.1139936 21050:4.4208465 21592:5.5194588 21751:2.2807806 21802:5.1139936 21822:6.212606 21869:0.079192415 21871:2.3906524 21874:0.028084261 21895:2.1872544 21931:0.28568006 21973:0.173244 22040:2.451406 22189:0.012048209 22549:2.5490444 22682:0.65964651 23015:6.212606 23550:5.5194588 23754:0.71954465 23893:2.5750198 23901:0.32096189 23959:0.35903975 23969:1.5586457 23984:0.99767035 24004:3.6117737 24119:0.034661982 24130:1.3842924 24275:5.5194588 #
-0.00095609435978892163502523837692593 7:1.6662714 159:0.024096418 436:6.212606 739:0.072434999 789:0.61448848 928:5.5194588 1250:3.2168739 1257:0.24134426 1431:0.28373674 1454:0.010030094 1505:6.7587857 1507:3.7276995 1635:3.0345523 1944:0.13267291 2287:4.8263116 2354:3.268167 2418:0.10781287 2461:0.80543435 2813:5.5194588 3043:1.818157 3065:3.2168739 3528:0.042995363 3668:0.97804201 3962:3.077112 4051:1.5403768 4503:3.5045559 4687:1.169181 4928:2.9167693 5375:4.8263116 6173:2.2052729 6179:3.268167 6189:3.4400175 6627:0.64808571 6651:0.86549854 6699:1.750136 6752:5.5194588 6875:6.212606 7071:2.9167693 7089:2.0694714 7102:2.7468703 7190:1.6693113 7726:2.0694714 8122:4.1331644 8351:6.2431273 8365:5.1139936 8367:0.18674012 8414:2.3005831 8480:5.5194588 8704:0.12898609 8960:0.35424933 9099:9.6526232 9270:0.60313427 9504:0.58139431 10155:0.13267291 10351:0.94991589 10569:1.549167 10743:0.72780919 10796:2.152163 10902:0.46238378 11132:0.032193333 11547:1.3763242 11705:0.0080240751 11729:0.038819991 11733:1.7398151 11806:4.8263116 12088:0.77912039 12106:6.212606 12210:3.1680837 12360:0.99225026 12552:1.1756535 12691:1.7352693 12699:3.9100211 13120:1.3684191 13377:1.908541 13402:1.1006184 13439:1.0593145 14342:0.32650205 14383:0.62535745 14443:0.39289787 14462:1.0196493 14491:1.1132286 14642:1.9499263 14952:0.88857019 15063:0.17473517 15282:0.020080348 15381:0.12356122 15630:0.81897855 16047:4.4208465 16423:3.3793929 16499:0.6442616 16554:2.9167693 16684:4.0153813 16871:2.4059436 17014:3.3222344 17125:4.266696 17462:3.5045559 17655:6.212606 17719:1.4419215 18416:4.266696 18906:3.1680837 19019:9.8045015 19150:3.268167 19474:4.4208465 19594:3.1680837 20229:0.58742446 20403:4.603168 20442:1.6800066 20730:1.5397773 20843:3.4400175 20930:1.4226958 21293:3.8147109 21331:1.6693113 21379:4.266696 21562:1.0768076 21570:1.5121257 21751:2.2807806 21861:0.44116497 21869:0.052794944 21871:1.1953262 21874:0.034102317 21888:0.39549494 21912:2.2748647 21949:1.118856 21973:0.057748001 22171:6.212606 22189:0.020080348 22240:0.73614252 22293:2.8453102 23009:4.0153813 23016:5.1139936 23036:6.212606 23655:1.5212582 23693:3.8147109 23754:0.71954465 23891:1.2043953 23914:0.40747112 23959:0.17951988 23961:2.2807806 24423:0.33207312 24429:1.5586457 #
-0.00061525773722515442621522341326568 154:0.04929129 155:0.04929129 159:0.052208904 426:6.212606 535:3.268167 739:0.040241666 974:3.3793929 1257:0.24134426 1330:3.8147109 1431:0.70934182 1454:0.012036112 1536:2.2236221 1828:0.173244 2186:0.64045209 2418:0.21562573 2461:0.80543435 2626:2.141885 3475:4.4208465 3553:0.38432005 3729:5.5194588 3761:2.1872544 4038:0.7403354 4375:2.451406 4602:5.5194588 4856:5.5194588 5171:3.7276995 5226:1.5490535 5602:4.603168 5822:2.5490444 6156:3.5045559 6379:3.5045559 7049:4.1331644 7164:2.9167693 7268:6.212606 7626:1.9930984 7691:0.4195925 7796:3.3222344 7842:5.5194588 8222:2.5750198 8226:2.657258 8367:1.4939209 8523:3.7276995 8704:0.042995363 8713:2.4990339 9351:1.4251144 9660:3.4122968 9897:0.68317699 10105:4.603168 10155:0.13267291 10185:0.41250587 10417:1.8058869 10495:0.16523391 10650:3.7276995 10902:0.23119189 10971:3.6476567 11473:1.5030758 11591:0.41654834 11705:0.0060180561 11729:0.077639982 11788:2.0537231 11950:1.5397773 11985:4.8263116 12390:12.425212 12873:0.28036091 13048:1.1887256 13120:1.3684191 13190:4.8263116 13319:1.9845005 13425:16.558376 13704:1.4504322 14104:2.6862457 14491:0.55661428 14661:11.444133 14881:6.536334 14975:9.6526232 14976:12.425212 15109:2.4990339 15282:0.032128558 15370:0.068420462 15487:4.8263116 15503:2.2423141 15621:4.603168 15690:4.4208465 15711:6.212606 15770:3.5045559 16115:4.266696 16151:1.4168155 16152:2.0382187 16160:1.818157 16275:4.603168 16495:4.8263116 16540:4.8263116 17186:3.1215637 17219:6.212606 17677:3.7276995 17869:5.1139936 18764:4.1331644 18957:0.94991589 18990:2.1350687 19147:3.1680837 19494:3.2168739 19643:4.8263116 20372:4.4208465 20744:6.212606 20930:1.4226958 21334:5.5194588 21593:4.0153813 21738:6.212606 21816:9.6526232 21874:0.026078243 21973:0.173244 21998:1.0651116 22189:0.016064279 22393:4.603168 22394:4.8263116 22566:4.6415715 22868:6.212606 22953:1.549167 23042:3.4400175 23364:4.8118873 23370:0.7920711 23529:4.4208465 23659:5.7608032 23695:0.26196355 23821:0.79650569 23901:0.32096189 24022:1.2961714 24119:0.10398594 24129:2.3839648 24194:3.5735488 24207:1.1250098 24223:1.4764076 #
-0.00059642975241666065181617151225169 7:0.5554238 124:3.4400175 154:0.04929129 155:0.04929129 159:0.044176765 739:0.048289999 845:3.6476567 1256:3.268167 1257:0.24134426 1431:0.28373674 1454:0.012036112 1542:0.86549854 1597:0.636657 1700:6.212606 1763:3.268167 1828:0.230992 1944:0.13267291 2159:1.0709425 2345:4.0153813 2348:1.9930984 2418:0.10781287 2444:6.212606 2484:0.59583497 2518:2.1182616 2626:1.0709425 2690:3.268167 2707:10.227987 2708:5.5194588 2760:1.6276386 3149:4.1331644 3528:0.17198145 3668:0.97804201 4038:0.7403354 4394:3.4400175 4984:2.8804016 5365:3.4400175 6304:3.3793929 6426:3.1215637 7040:4.4208465 7520:2.6016881 7557:3.0345523 7564:4.1331644 7691:0.4195925 7700:1.3450717 7710:2.141885 7718:1.7127964 7895:4.4208465 8128:4.4208465 8367:0.37348023 8409:1.1627501 9041:3.4400175 9042:1.2221735 9270:0.60313427 9475:3.6476567 9531:4.603168 9533:3.2168739 9610:5.5194588 9762:2.0537231 9905:6.212606 10118:11.038918 10125:0.26980671 10155:0.26534581 10193:1.7937655 10226:2.4059436 10351:0.94991589 10456:2.9545095 10470:0.65192449 10495:0.49570176 10569:1.549167 10770:6.212606 10818:1.9221467 10932:1.7127964 10957:0.31820327 11026:4.8263116 11132:0.048289999 11667:2.7160985 11705:0.020060187 11721:1.1627501 11729:0.15527996 11733:0.43495378 11745:0.63287628 12088:0.38956019 12449:3.8147109 12573:2.0694714 12578:6.212606 12670:2.4990339 12846:1.1374323 12873:0.28036091 13079:2.8838429 13120:1.3684191 13319:0.99225026 13607:8.750308 13608:10.227987 13743:6.212606 13861:4.2034645 14071:3.3222344 14271:1.7817893 14342:0.32650205 14406:4.8263116 14443:0.39289787 14491:0.55661428 14639:1.818157 14709:5.1139936 14831:1.0478201 15063:0.52420551 15246:2.0079136 15282:0.032128558 15311:4.603168 15339:2.833631 15370:0.13684092 15381:0.37068367 15423:0.36616731 15491:0.32928371 15528:1.4852183 15625:6.212606 15821:4.266696 15967:3.8147109 16260:7.455399 16413:1.5304749 16425:2.6862457 16460:1.2999512 16609:4.0153813 17418:2.9167693 17658:6.212606 18001:4.4208465 18233:4.603168 18339:2.8114088 18537:1.2709637 18918:2.4059436 18974:4.4208465 19291:6.212606 19366:5.5194588 19372:3.4034932 19654:1.0768076 19785:6.212606 20010:6.212606 20106:1.9641109 20292:0.31820327 20583:3.5735488 20766:3.7276995 20832:2.8453102 21072:2.3624585 21562:1.0768076 21568:2.451406 21748:5.0474534 21861:0.88232994 21869:0.10558989 21871:1.1953262 21874:0.040120374 21878:3.3793929 21890:0.61048728 21896:0.77888411 21909:0.41654834 21973:0.173244 22189:0.0040160697 22240:1.472285 22298:2.9937303 22562:2.1872544 23204:2.3839648 23695:0.78589064 23891:0.40146509 23918:0.80096006 24022:0.64808571 24112:3.0345523 24119:0.034661982 24165:2.3414052 24423:0.66414624 24435:1.3374088 #
-0.00026188469203096718723386415739185 154:0.24645646 155:0.24645646 159:0.072289251 160:3.0425165 354:4.8263116 560:0.47926483 739:0.0080483332 825:4.266696 869:4.4208465 918:1.2358724 979:2.3005831 1218:8.533392 1304:4.603168 1389:4.2701373 1454:0.014042131 1542:0.86549854 1605:1.3450717 1646:2.0229514 1669:3.0345523 1713:0.11228714 1944:0.26534581 1957:2.8114088 2008:3.3793929 2050:3.7276995 2377:5.5194588 2418:0.21562573 2453:2.657258 2466:1.6587292 2506:4.3745089 2652:1.2289995 2838:5.5194588 2872:5.1139936 3115:11.038918 3126:6.212606 3320:2.5237267 3326:2.7160985 3528:0.085990727 3553:0.89674675 3668:0.489021 3669:1.3527937 3983:4.1331644 4101:2.4749365 4249:3.5045559 4388:5.5194588 4417:3.9100211 4708:4.4208465 5325:4.603168 5364:3.3222344 5709:3.3793929 5819:3.5735488 6065:3.077112 6195:6.212606 6361:6.212606 6381:1.9930984 6833:2.5490444 7036:4.6759372 7256:2.4990339 7415:1.8998318 7639:6.212606 7697:2.4284165 7997:8.9811907 8119:2.5750198 8262:2.5237267 8367:0.56022036 8384:4.4105458 8397:3.3793929 8414:2.3005831 8574:2.5237267 8648:6.212606 8704:0.085990727 8960:0.17712466 9153:4.603168 9260:6.212606 9270:0.60313427 9274:1.169181 9342:2.4749365 9362:6.212606 9686:10.227987 10043:1.9784995 10082:2.8114088 10155:0.13267291 10185:0.20625293 10278:6.212606 10495:0.49570176 10507:4.1331644 10508:4.1331644 10657:9.206336 10864:2.9167693 11109:2.6016881 11132:0.048289999 11180:4.266696 11460:3.3222344 11473:1.5030758 11523:3.9100211 11547:1.3763242 11591:0.41654834 11705:0.0060180561 11723:4.0153813 12130:5.1139936 12262:4.4208465 12534:5.5194588 12563:1.7699548 12910:6.212606 13120:1.3684191 13513:1.0421221 13840:3.9100211 13873:4.4208465 14386:8.533392 14387:6.212606 14553:3.8147109 14831:1.0478201 15041:4.4208465 15083:2.4059436 15246:2.0079136 15282:0.052208904 15346:3.077112 15381:0.24712244 15470:4.1331644 15528:2.9704366 15559:0.636657 15655:5.1139936 15753:6.212606 16013:6.212606 16294:3.3793929 16301:4.1331644 16413:1.5304749 16417:3.077112 16460:5.1998048 16499:0.6442616 16731:3.4400175 16843:2.3207858 16892:4.856833 16939:3.8147109 17065:6.212606 17190:4.266696 17237:7.6294217 17241:3.9100211 17612:1.5212582 17638:4.1331644 18018:3.8147109 18537:1.2709637 18540:2.1872544 18635:3.1215637 18708:2.5490444 18837:4.603168 19321:1.7699548 19449:2.5750198 19557:12.425212 19715:5.1139936 19792:2.5750198 19988:3.3793929 20106:1.9641109 20292:0.31820327 20311:2.2236221 20390:5.1139936 20442:1.6800066 20775:4.8263116 20833:2.8804016 20843:3.4400175 20862:1.1756535 20924:11.183099 20962:4.1331644 21190:0.93960655 21331:1.6693113 21768:2.4749365 21790:3.077112 21869:0.052794944 21874:0.0320963 21888:1.5819798 21890:0.61048728 21909:0.83309668 21973:0.115496 22040:2.451406 22141:1.6074359 22189:0.020080348 22206:1.6693113 22240:0.73614252 22431:6.212606 22438:6.212606 22682:0.65964651 22927:4.1331644 22953:1.549167 23113:1.8688006 23135:0.30452317 23187:1.2153938 23287:2.9937303 23507:2.9167693 23618:4.266696 23636:3.6476567 23695:0.78589064 23712:4.603168 23754:0.71954465 23774:5.1139936 23914:0.40747112 23959:0.35903975 24004:1.8058869 24024:2.451406 24119:0.17330991 24254:0.51887393 24387:1.3923246 24454:12.425212 24483:12.425212 #
0.0002869680826160446690357985755071 133:0.036284294 150:7.8883343 976:6.2788968 1157:7.8883343 1280:7.8883343 2645:3.9763114 3692:4.4871373 5474:4.0816722 6031:4.1747622 9470:3.3033671 #
4.1614944529966858821883740615633e-05 123:0.57311612 133:0.036284294 845:6.2788968 1501:6.2788968 2281:5.9424243 2926:6.5020399 3363:5.8088927 3878:5.9424243 4355:1.5639756 4359:6.0965753 4393:6.7897224 4592:2.5823777 4600:1.6677443 4886:7.8883343 5902:0.89899921 6361:5.9424243 6922:6.2788968 7886:2.851382 8616:1.6441675 8619:0.55139756 #
0.00025954755340880180346230243770833 133:0.072568588 851:4.8926024 2093:7.8883343 2133:6.7897224 2225:5.1802845 3466:1.9994565 5540:5.4034281 5790:6.5020399 9681:5.1157455 9686:3.6836419 #
-0.00023883751787478181235514773650408 7:2.2216952 154:0.14787388 155:0.14787388 159:0.072289251 160:3.0425165 207:2.4284165 217:2.4749365 284:5.5194588 343:4.266696 448:3.3793929 532:12.399493 739:0.064386666 942:1.6800066 1079:4.8263116 1237:3.9100211 1322:0.76586872 1454:0.012036112 1459:7.1470976 1715:3.8147109 1828:0.115496 1831:6.212606 1906:3.3222344 1925:6.212606 1943:5.5194588 1944:0.13267291 2029:6.212606 2314:5.5194588 2418:0.10781287 3036:3.4400175 3058:6.212606 3124:4.0153813 3153:5.1139936 3528:0.042995363 3553:0.64053339 3627:1.7699548 3668:0.489021 3830:6.212606 3915:5.5194588 3941:4.8263116 3988:6.212606 4003:4.603168 4250:3.268167 4618:5.5194588 4872:3.2168739 5120:2.8453102 5153:5.5194588 5201:4.8263116 5399:3.3793929 5407:2.657258 5731:18.637817 5741:2.451406 5779:2.1182616 5895:6.212606 6041:4.8263116 6042:5.1139936 6130:4.4208465 6149:4.8263116 6434:5.5194588 6627:0.64808571 6860:3.7276995 7075:1.5778772 7272:6.212606 7455:6.212606 7547:5.5194588 7588:6.212606 7700:1.3450717 7898:5.1139936 8034:4.4208465 8316:6.212606 8367:0.18674012 8368:1.7017466 8382:3.268167 8386:1.0196493 8455:0.76586872 8611:6.212606 8704:0.085990727 8835:3.5045559 8960:0.53137398 9167:4.8263116 9270:0.60313427 9280:6.212606 9286:4.603168 9405:4.8263116 9623:4.8263116 9624:4.8263116 9707:4.603168 9778:4.8263116 9822:6.212606 10182:6.212606 10495:0.33046782 10508:4.1331644 10695:7.455399 10734:6.212606 10902:0.23119189 10972:3.7276995 11098:2.6290872 11132:0.032193333 11298:5.5194588 11436:5.5194588 11665:2.2807806 11668:2.2613623 11705:0.014042131 11721:1.1627501 11724:5.1139936 11745:0.63287628 11993:4.266696 12034:5.1139936 12088:0.38956019 12441:5.1139936 12451:2.7468703 12873:0.28036091 12997:6.212606 13010:4.266696 13194:4.603168 13209:3.1680837 13237:4.8263116 13420:4.8263116 13463:6.212606 13501:4.4208465 13634:3.9100211 13759:0.87988728 13849:2.8114088 13871:3.5045559 14069:3.4400175 14342:0.65300411 14383:0.62535745 14443:0.19644894 14479:3.2168739 14520:6.212606 14531:3.9100211 14639:1.818157 15246:2.0079136 15265:3.8147109 15282:0.032128558 15366:4.4208465 15370:0.068420462 15381:0.37068367 15528:1.4852183 15749:1.3073313 15937:2.4284165 16021:2.3839648 16153:5.1139936 16203:2.9937303 16205:4.0153813 16229:2.4284165 16460:1.2999512 16611:5.5194588 16686:4.603168 16805:6.212606 17727:3.9100211 17841:6.212606 17852:4.4208465 18025:4.1331644 18282:2.0537231 18661:6.212606 18697:1.9221467 18809:6.212606 18949:2.7160985 19055:5.1139936 19106:1.1563603 19208:1.5586457 19213:1.0535508 19397:13.809505 19398:6.212606 19448:6.212606 19780:2.6290872 19820:1.3073313 20229:0.58742446 20292:0.31820327 20305:2.6290872 20686:6.212606 20811:6.212606 20930:0.71134788 21037:8.2663288 21208:3.6476567 21350:6.212606 21380:4.266696 21644:3.2168739 21827:4.266696 21861:0.88232994 21869:0.13198736 21874:0.026078243 21888:1.1864848 21931:0.28568006 21934:1.7817893 21973:0.057748001 22002:1.7127964 22132:1.0512614 22179:2.0694714 22189:0.012048209 22323:2.6862457 22566:2.3207858 22574:5.5194588 23188:4.266696 23411:5.5194588 23721:2.6862457 23796:3.4400175 23865:0.90930116 23901:0.32096189 23905:0.8466301 23914:0.40747112 23959:0.17951988 24119:0.069323964 24129:2.3839648 24150:1.7239697 24215:2.4749365 24423:0.33207312 24429:1.5586457 24435:1.3374088 #
-0.00041379164496861112112341407609506 154:0.19716516 155:0.19716516 159:0.076305322 243:6.212606 263:4.8263116 561:0.94991589 585:5.5194588 587:6.212606 595:5.5194588 609:6.212606 626:6.212606 739:0.072434999 961:1.2153938 1176:2.657258 1336:1.4251144 1431:0.28373674 1454:0.014042131 1597:0.636657 1713:0.11228714 1944:0.13267291 2000:3.3222344 2024:1.1563603 2418:0.10781287 2465:1.7582588 2466:1.6587292 2511:5.1139936 2683:4.266696 2766:3.5045559 3036:3.4400175 3064:1.3763242 3160:4.8263116 3380:4.8263116 3528:0.12898609 3553:0.12810668 3668:0.489021 3931:4.1331644 4038:0.7403354 4402:6.212606 4710:2.0537231 5017:5.5194588 5059:3.9100211 5553:5.5194588 5583:4.603168 5615:4.8263116 6168:3.0345523 6383:2.3414052 6387:1.6654174 6449:4.8263116 6627:0.64808571 6651:0.86549854 6782:1.0946122 6843:6.212606 7094:6.212606 7152:3.5045559 7228:1.7817893 7418:5.5194588 7442:2.9167693 8367:0.18674012 8704:0.12898609 9071:11.444133 9482:9.206336 9504:0.58139431 9518:6.212606 9668:4.8263116 9775:3.4400175 9856:4.8263116 9897:0.68317699 10023:5.5194588 10058:1.5876333 10125:0.26980671 10155:0.13267291 10173:5.5194588 10185:0.6187588 10351:0.94991589 10356:6.212606 10470:0.65192449 10495:0.33046782 10585:3.3600132 10935:5.1500397 10957:0.31820327 11132:0.032193333 11329:6.212606 11469:4.8263116 11545:2.1872544 11546:2.6290872 11591:0.41654834 11642:4.8263116 11705:0.012036112 11733:0.43495378 11849:3.5735488 11930:1.8305795 12005:3.5735488 12039:5.1139936 12184:3.6476567 12341:2.7160985 12536:3.6476567 12575:5.5194588 12852:3.3793929 12959:0.7920711 13319:1.9845005 13439:1.0593145 13803:3.6476567 13820:2.5490444 13903:2.6290872 14107:1.2567791 14342:0.32650205 14383:0.62535745 14491:1.1132286 14562:16.061525 14607:3.1215637 14689:3.0345523 14816:4.0153813 15063:0.17473517 15282:0.012048209 15370:0.068420462 15423:0.36616731 15690:4.4208465 15701:6.212606 15765:4.1331644 15927:1.3763242 16467:1.2221735 16892:2.4284165 16917:4.4208465 17012:3.3222344 17077:5.5194588 17107:3.5045559 17361:2.8804016 17442:1.549167 17625:5.1139936 17923:6.212606 18135:3.8147109 18355:10.227987 18356:12.425212 18555:2.8114088 18797:11.038918 18884:5.1139936 19006:6.212606 19208:1.5586457 19320:6.212606 19325:5.1139936 19631:8.2663288 19964:5.5194588 20073:3.077112 20088:6.212606 20292:0.31820327 20527:8.2663288 20533:5.5194588 20730:1.5397773 20812:3.6476567 20944:2.3414052 21190:0.93960655 21249:4.603168 21326:4.1331644 21399:4.4208465 21869:0.052794944 21874:0.026078243 21925:0.90930116 21973:0.115496 22014:4.8263116 22189:0.012048209 22218:2.8804016 22257:5.5194588 22470:4.4208465 22959:2.6016881 23113:1.8688006 23135:0.30452317 23743:0.73196715 23901:0.32096189 23918:0.80096006 23959:0.53855962 23973:2.6862457 24119:0.069323964 24254:1.0377479 24294:2.5750198 24387:1.3923246 #
-0.00031973804030609035472382251086287 7:2.2216952 154:0.5422042 155:0.5422042 159:0.052208904 217:2.4749365 239:6.212606 560:0.47926483 561:3.7996635 739:0.032193333 757:4.603168 778:2.1182616 789:1.228977 914:2.3839648 918:1.2358724 942:1.6800066 965:3.4400175 979:2.3005831 1431:0.14186837 1454:0.012036112 1536:2.2236221 1605:1.3450717 1613:3.3222344 1635:3.0345523 1828:0.115496 1860:4.0153813 1933:5.5194588 2418:0.10781287 2523:0.77018839 2626:1.0709425 2732:5.5194588 3284:4.266696 3289:4.603168 3332:3.6476567 3408:6.212606 3528:0.085990727 3553:0.12810668 3656:4.0153813 3812:4.1331644 3972:2.0537231 4051:0.77018839 4307:2.7468703 4372:3.268167 4700:1.3527937 4814:5.5194588 5004:3.0345523 5433:5.1139936 5637:20.455975 5675:4.1331644 5779:2.1182616 5796:2.2423141 6685:5.5194588 7129:3.6476567 7166:3.8147109 7296:1.6587292 7424:2.3207858 8005:2.1350687 8262:2.5237267 8409:2.3255002 8704:0.085990727 8933:1.818157 8960:0.17712466 9021:1.6276386 9173:3.6476567 9189:4.8263116 9433:0.99225026 9467:1.3684191 9864:1.5682153 10046:2.7468703 10058:1.5876333 10104:6.212606 10125:0.26980671 10155:0.26534581 10160:1.5304749 10344:0.65577805 10394:6.212606 10456:2.9545095 10495:0.33046782 10529:6.212606 10686:4.603168 10743:1.4556184 10785:4.8263116 10840:5.1139936 11132:0.0080483332 11422:4.8263116 11705:0.0080240751 11733:0.43495378 11930:1.8305795 12259:2.0229514 12579:3.1680837 12691:1.7352693 12936:6.212606 13194:4.603168 13266:4.266696 13343:3.7276995 13520:6.212606 13522:21.333479 13523:6.212606 13783:2.6862457 13973:1.9930984 14013:6.212606 14342:0.32650205 14491:0.55661428 14581:4.266696 15063:0.34947035 15282:0.0040160697 15338:4.8263116 15370:0.068420462 15381:0.12356122 15423:0.36616731 15528:1.4852183 15696:3.6476567 15845:12.425212 15897:5.5194588 16145:2.5490444 16152:2.0382187 16203:2.9937303 16328:2.3005831 17006:1.5974855 17008:1.9930984 17297:4.266696 18388:1.3374088 18452:5.1139936 18479:9.5358591 18555:2.8114088 18562:2.4749365 18571:5.1139936 18585:4.603168 19184:4.266696 19239:5.1139936 19489:3.0345523 19534:5.5194588 19874:6.212606 20292:0.31820327 20481:2.8114088 20552:3.6476567 20769:3.3222344 21041:3.4400175 21190:0.93960655 21331:1.6693113 21819:2.2613623 21861:0.44116497 21869:0.026397472 21874:0.020060187 21888:1.1864848 21925:0.90930116 22022:1.5682153 22148:5.1139936 22189:0.028112488 22268:6.212606 22510:3.6476567 22579:1.4334826 22614:5.5194588 22895:5.5194588 23370:0.7920711 23409:4.603168 23743:1.4639343 23914:0.40747112 23924:11.038918 23925:16.558376 23972:5.5194588 24025:3.0345523 24119:0.10398594 24296:4.603168 24427:1.908541 24459:6.212606 #
-0.00020021333833759367526287931138285 6:2.0729127 7:1.1108476 154:0.04929129 155:0.04929129 159:0.10441781 393:6.212606 567:0.38660598 739:0.072434999 1187:9.6526232 1257:0.24134426 1310:2.2613623 1389:2.1350687 1417:5.1139936 1431:0.14186837 1454:0.01604815 1459:14.294195 1460:5.1139936 1597:0.636657 1605:1.3450717 1641:2.7160985 1713:0.22457428 1715:3.8147109 1895:5.1139936 1944:0.26534581 1992:2.5750198 2006:5.5194588 2010:5.5194588 2146:12.800088 2168:2.8453102 2291:3.3793929 2295:31.06303 2353:6.212606 2523:0.77018839 2652:2.457999 2947:2.3839648 3202:10.720646 3625:4.6415715 3627:1.7699548 3647:1.9930984 3839:12.425212 3858:1.4085851 3878:2.9937303 4039:3.1680837 4051:0.77018839 4340:4.8263116 4411:5.1139936 4715:4.8263116 4912:5.5194588 5226:0.77452677 5638:5.6906204 5741:2.451406 6156:3.5045559 6254:6.212606 6627:0.64808571 6699:0.87506801 6881:3.5735488 7424:2.3207858 7467:4.603168 7492:4.0153813 7494:0.98149747 7691:0.4195925 7710:1.0709425 7799:2.2052729 7983:4.4208465 8005:2.1350687 8038:1.2358724 8101:2.7786188 8262:2.5237267 8345:2.3624585 8348:4.8263116 8349:4.8263116 8367:0.37348023 8386:1.0196493 8455:0.76586872 8696:3.4400175 8704:0.12898609 8706:5.1139936 8714:3.4400175 8762:5.1500397 8893:4.266696 8960:0.53137398 9270:0.60313427 9274:1.169181 9571:3.268167 9572:6.212606 9970:5.5194588 10040:2.7786188 10056:6.212606 10082:2.8114088 10125:0.26980671 10312:1.6378951 10318:5.1139936 10344:6.5577803 10442:4.8263116 10495:0.16523391 10688:3.9100211 10852:6.212606 10957:0.63640654 11107:2.9937303 11132:0.072434999 11233:2.8114088 11591:0.41654834 11682:3.9100211 11705:0.0080240751 11729:0.077639982 11885:4.266696 11965:5.1139936 12058:3.5735488 12166:1.9499263 12369:2.4059436 12663:1.1627501 12664:4.8263116 12670:2.4990339 12681:2.451406 12682:4.8263116 12842:3.2168739 12873:0.28036091 12913:1.7582588 12924:5.5194588 13079:1.4419215 13156:3.5045559 13257:6.212606 13259:5.5194588 13405:1.5212582 13415:3.268167 13419:4.603168 13759:0.87988728 13849:2.8114088 13994:2.3005831 14236:2.9937303 14271:1.7817893 14443:0.58934683 14623:4.4208465 14712:6.212606 15063:0.52420551 15079:3.9100211 15172:4.4208465 15282:0.044176765 15283:0.74454594 15370:0.068420462 15381:0.37068367 15423:1.0985019 15449:2.0382187 15471:2.8804016 15559:0.636657 15571:0.26196355 15749:1.3073313 15840:10.227987 15973:1.9784995 16427:4.266696 16499:0.6442616 16994:3.3222344 17907:5.1139936 18165:11.038918 18245:6.212606 18635:3.1215637 18708:2.5490444 19168:2.0079136 19681:2.6862457 19731:2.3207858 19761:3.5045559 19774:5.5194588 19939:4.4208465 20102:4.8263116 20358:3.5735488 20370:2.4990339 20511:6.212606 20791:5.1139936 20861:6.212606 20937:3.4400175 20974:6.212606 21018:5.5194588 21089:3.5735488 21090:6.212606 21576:2.152163 21728:3.3222344 21869:0.10558989 21874:0.056168523 21896:0.77888411 21909:0.83309668 21973:0.115496 22055:2.2613623 22189:0.024096418 22255:2.2423141 22323:2.6862457 22350:4.0153813 22453:3.9100211 22975:5.1139936 23135:0.30452317 23364:2.4059436 23370:1.5841422 23659:2.8804016 23695:0.26196355 23754:0.71954465 23959:0.53855962 24004:1.8058869 24089:28.95787 24119:0.069323964 24403:1.6276386 24429:1.5586457 #
-0.00024097284886932861204186795411886 7:0.5554238 154:0.24645646 155:0.24645646 159:0.048192836 333:4.8263116 498:5.1139936 516:4.0153813 560:0.47926483 561:1.8998318 739:0.056338333 789:0.30724424 971:6.6444688 1051:3.9100211 1257:0.24134426 1324:4.4208465 1431:0.14186837 1454:0.020060187 1478:4.603168 1622:5.5194588 1638:2.8114088 1646:2.0229514 1713:0.33686143 1806:5.1139936 1812:5.5194588 1828:0.115496 1944:0.26534581 2309:2.8453102 2338:4.8263116 2418:0.21562573 2722:5.9874606 2979:3.0345523 2983:5.5194588 3064:1.3763242 3084:4.0153813 3505:4.4208465 3528:0.085990727 3553:0.64053339 3645:2.9167693 3646:3.5735488 3930:4.8263116 4274:3.7276995 4695:6.212606 4700:1.3527937 4847:6.212606 5280:3.5045559 6114:4.8263116 6288:1.2427928 6292:1.3527937 6293:6.212606 6386:3.5735488 6699:0.87506801 6885:4.8263116 7015:6.212606 7446:4.1331644 7626:1.9930984 7885:2.6862457 7893:2.6016881 8072:5.5194588 8158:5.1139936 8221:5.1139936 8243:1.7352693 8292:6.212606 8311:9.6526232 8704:0.042995363 8805:1.8818728 9042:1.2221735 9270:0.60313427 9376:6.212606 9433:0.99225026 9461:6.212606 9504:0.58139431 10188:1.2289995 10299:2.3207858 10351:0.94991589 10363:6.212606 10470:0.65192449 10473:1.4764076 10495:0.49570176 10743:0.72780919 10747:1.2427928 10902:0.23119189 10905:2.5490444 10910:2.1182616 10953:15.341982 10957:0.31820327 11132:0.048289999 11188:2.7160985 11705:0.01604815 11729:0.11645997 11980:3.6476567 12031:5.5194588 12043:7.1470976 12044:5.5194588 12073:4.266696 12569:3.1680837 12585:2.3839648 12855:4.603168 12873:0.28036091 13079:1.4419215 13162:10.227987 13343:3.7276995 13392:0.62535745 13403:3.8147109 13472:6.212606 13681:2.9545095 13781:2.9937303 14171:3.5045559 14218:4.8263116 14443:0.19644894 14578:1.9499263 14826:0.83270872 15057:8.2663288 15063:0.52420551 15091:0.99767035 15094:6.8800349 15247:6.212606 15282:0.028112488 15339:1.4168155 15370:0.068420462 15381:0.12356122 15423:0.73233461 15528:1.4852183 15559:1.273314 15749:1.3073313 15874:4.0153813 16026:5.5194588 16080:5.1139936 16289:5.1139936 16456:1.8558973 16465:1.9499263 16499:0.6442616 16511:3.7276995 16697:6.212606 17086:2.3207858 17186:3.1215637 17628:6.212606 17680:2.5750198 17690:1.3374088 17706:2.657258 17853:3.9100211 18447:3.268167 18473:16.558376 18474:12.425212 18551:3.4400175 18562:2.4749365 18818:1.1500111 18836:9.206336 18957:0.94991589 19213:2.1071017 19237:3.6476567 19399:1.549167 19632:4.8263116 19766:3.5735488 19780:2.6290872 19830:11.444133 19950:6.212606 20297:1.6908175 20460:6.212606 20714:2.9167693 20832:2.8453102 20900:3.0345523 21098:3.5735488 21202:3.0345523 21244:5.5194588 21331:3.3386226 21525:4.4208465 21562:1.0768076 21716:6.212606 21869:0.052794944 21874:0.038114354 21890:0.61048728 21931:0.57136011 21936:4.1331644 22054:0.84196806 22141:1.6074359 22189:0.036144625 22206:1.6693113 22240:0.73614252 23140:6.212606 23166:6.212606 23451:2.5490444 23582:3.9100211 23607:5.5194588 23758:4.8118873 23788:9.8045015 23790:4.603168 23793:4.8263116 23865:0.90930116 23893:2.5750198 23959:0.17951988 23969:1.5586457 24119:0.069323964 24306:1.8431582 24423:0.33207312 24431:3.1680837 24435:1.3374088 #
0.00015642294103378911497570502575627 133:0.036284294 1369:1.8552483 1756:7.8883343 2602:4.1994553 3487:7.8883343 3771:7.1951871 5009:2.5702145 5141:6.7897224 6017:7.1951871 6357:4.8926024 6940:6.5020399 7973:6.2788968 #
0.000221820235427443125317270578023 133:0.036284294 2354:5.9424243 3202:7.1951871 3224:4.2774167 3985:2.8449094 4069:6.7897224 4211:4.0596933 4602:2.383003 7436:4.6694589 8765:1.1072769 #
0.00012386274042142564246610225708878 133:0.036284294 582:2.3431571 770:7.8883343 4264:3.2248955 4600:1.6677443 4834:4.997963 5902:0.89899921 5978:2.8710546 6165:5.5857496 6243:7.8883343 8765:1.1072769 9073:7.1951871 9099:7.8883343 9377:3.5063078 9386:4.7972922 9562:2.201359 #
0.00012773710987460352929596940629864 133:0.072568588 314:6.5020399 361:3.7612002 388:5.6911101 549:7.1951871 1203:4.5924978 1431:7.8883343 1544:5.8088927 1545:6.7897224 2485:3.8810012 2626:6.7897224 3351:4.4225984 3376:6.7897224 4211:4.0596933 4602:2.383003 4757:6.2788968 5213:3.7612002 5233:7.1951871 5761:4.1506648 5902:0.89899921 7521:5.1802845 7930:3.9965143 8619:0.55139756 8765:3.3218305 #
-0.0003499062663691294245912888349892 7:0.5554238 154:0.098582581 155:0.098582581 158:4.0153813 159:0.020080348 160:13.691324 176:4.0153813 199:4.0153813 383:6.212606 560:0.47926483 739:0.096579999 935:3.7276995 1029:5.1139936 1159:4.266696 1431:0.14186837 1454:0.0080240751 1636:2.3839648 1828:0.057748001 1944:0.13267291 2290:18.637817 2348:1.9930984 2418:0.32343858 2678:1.1374323 3528:0.12898609 3553:0.25621337 3672:5.1139936 3728:3.8147109 4304:2.8804016 4768:3.4400175 4997:3.3222344 5234:3.077112 6175:6.212606 6381:1.9930984 6607:5.1139936 6649:1.6839361 6805:4.8263116 6837:2.6862457 7120:5.1139936 7415:0.94991589 7726:2.0694714 7887:4.266696 7982:4.603168 8088:3.5735488 8104:1.9499263 8367:0.18674012 8409:1.1627501 8704:0.085990727 8755:2.657258 8933:1.818157 8960:0.17712466 9274:1.169181 9351:1.4251144 9442:6.212606 9504:0.58139431 9739:4.8263116 10082:2.8114088 10125:0.26980671 10155:0.13267291 10185:0.20625293 10244:4.266696 10560:3.5045559 10646:4.3391094 10697:6.212606 11132:0.064386666 11563:3.4400175 11658:5.5194588 11705:0.020060187 11729:0.11645997 11950:10.77844 12535:2.657258 12836:6.212606 12846:1.1374323 12873:0.56072181 12959:0.7920711 12966:2.1872544 13073:1.0827074 13120:1.3684191 13565:4.1331644 13869:6.212606 13994:2.3005831 14033:6.212606 14097:2.9545095 14111:4.8263116 14342:0.65300411 14443:0.19644894 14585:2.8502288 14844:16.558376 15063:0.17473517 15149:5.5194588 15282:0.032128558 15283:0.74454594 15370:0.20526138 15381:0.24712244 15927:1.3763242 16077:6.212606 16127:0.86074793 16328:2.3005831 16436:4.1331644 16613:2.2052729 16623:5.5194588 16624:6.212606 16800:5.5194588 17032:4.1331644 17719:2.8838429 17953:2.5490444 18215:4.4472442 18282:2.0537231 18374:4.0153813 18879:3.7276995 18906:3.1680837 19106:1.1563603 19197:0.86549854 19202:2.1872544 19213:1.0535508 19214:1.2638462 19334:6.8800349 19375:2.3005831 19634:1.9784995 19755:2.9937303 19953:4.4208465 20106:1.9641109 20292:0.63640654 20296:2.657258 20554:4.0153813 20665:4.4208465 20988:2.8453102 21360:2.9167693 21571:2.4990339 21861:0.44116497 21869:0.052794944 21874:0.030090282 21878:3.3793929 21909:0.41654834 21953:1.4004217 21973:0.115496 22000:1.1821681 22189:0.044176765 22220:5.5194588 22278:4.266696 22556:3.8147109 22635:2.0694714 23025:3.6476567 23295:5.5194588 23487:4.1331644 23499:3.4400175 23580:5.1139936 23624:3.5735488 23716:3.8147109 23959:0.17951988 24022:0.64808571 24119:0.034661982 24223:2.9528153 24247:2.0537231 24306:1.8431582 24448:6.212606 #
-0.00044280686895703519475805953753422 154:0.04929129 155:0.04929129 159:0.072289251 367:4.1331644 560:0.47926483 567:0.77321196 739:0.064386666 789:0.30724424 918:1.2358724 1250:3.2168739 1257:0.24134426 1346:1.6587292 1431:0.14186837 1454:0.014042131 1713:0.11228714 1769:2.1536152 1828:0.173244 1874:5.5194588 1944:0.13267291 2198:6.212606 2202:6.212606 2344:6.212606 2484:0.59583497 2776:2.0229514 3136:6.212606 3340:2.8804016 3528:0.042995363 3553:0.12810668 3644:2.3005831 3669:1.3527937 3977:3.8147109 4051:1.5403768 4997:3.3222344 4999:6.212606 6260:1.3073313 6292:1.3527937 6306:2.0694714 6645:5.5194588 6913:4.0153813 7087:2.9167693 7415:0.94991589 7438:21.333479 7442:2.9167693 7579:4.266696 7700:1.3450717 7718:1.7127964 7778:2.0854716 7810:4.0153813 7819:2.6016881 7973:3.7276995 8038:1.2358724 8047:3.5735488 8308:2.061645 8355:2.4284165 8386:2.0392985 8440:6.212606 9206:3.3222344 9270:0.60313427 9274:1.169181 9276:3.5399096 9560:1.5876333 9571:3.268167 9731:4.8263116 9864:1.5682153 9893:8.533392 10008:2.7786188 10125:0.53961343 10155:0.13267291 10185:0.41250587 10312:1.6378951 10417:1.8058869 10495:0.16523391 10569:1.549167 10704:3.1680837 10725:2.4990339 10743:0.72780919 10902:0.46238378 11132:0.048289999 11386:6.212606 11504:11.038918 11516:3.1215637 11547:1.3763242 11591:0.83309668 11705:0.0060180561 11729:0.077639982 11745:1.2657526 12088:0.38956019 12266:2.6016881 12360:1.9845005 12483:2.451406 12552:1.1756535 12617:3.4400175 12873:0.28036091 13350:4.8263116 13759:0.87988728 13809:3.268167 13861:2.1017323 14342:0.32650205 14443:0.19644894 14555:5.5194588 14585:1.4251144 14811:4.8263116 15063:0.17473517 15244:6.212606 15282:0.024096418 15339:1.4168155 15381:0.12356122 15423:0.36616731 15559:0.636657 15571:0.52392709 15578:6.212606 15596:6.212606 15630:0.81897855 15719:6.212606 15949:4.856833 16465:1.9499263 16499:0.6442616 16501:6.212606 16583:3.5735488 16766:2.9167693 17385:2.451406 17387:5.1139936 17690:1.3374088 18388:1.3374088 18537:1.2709637 18697:5.7664399 18818:1.1500111 19210:5.5194588 19654:1.0768076 20070:3.3793929 20135:15.840418 20292:0.31820327 20296:5.3145161 20479:2.6290872 20730:1.5397773 20762:2.9167693 20930:0.71134788 20944:2.3414052 21303:3.0345523 21389:2.7160985 21503:4.266696 21584:2.4990339 21622:4.1331644 21754:2.8804016 21861:0.44116497 21869:0.079192415 21874:0.030090282 21904:3.7276995 21925:0.90930116 21973:0.057748001 22042:3.5045559 22132:0.52563071 22189:0.0040160697 22461:3.7276995 22556:3.8147109 22682:1.319293 23695:0.78589064 23720:2.9180317 23721:2.6862457 23754:0.71954465 23821:0.79650569 23901:0.96288568 23959:0.17951988 24022:1.2961714 24036:3.2168739 24119:0.034661982 24246:1.746698 24379:1.7127964 24423:0.33207312 #
-0.00053276463495546778556533062953804 159:0.068273187 201:3.077112 245:8.0307627 362:3.4400175 385:4.266696 560:0.47926483 567:0.38660598 739:0.072434999 1111:0.69917732 1336:1.4251144 1431:0.42560509 1454:0.018054169 1504:3.5045559 1662:3.3793929 1713:0.11228714 1763:6.536334 1828:0.230992 1899:3.9100211 1944:0.13267291 2341:6.212606 2461:0.80543435 2484:0.59583497 2827:4.1331644 3175:4.4208465 3340:5.7608032 3528:0.12898609 3553:0.38432005 3627:1.7699548 3971:2.5237267 4038:0.7403354 4687:1.169181 4742:3.6476567 4800:3.4400175 4928:2.9167693 5038:6.212606 6112:3.5045559 6288:1.2427928 6292:1.3527937 6313:2.7786188 6490:6.212606 6627:0.64808571 6821:5.5194588 7123:5.2581744 7363:3.268167 7415:0.94991589 7501:5.1139936 7729:6.212606 7912:3.5735488 8243:1.7352693 8261:2.6862457 8308:1.0308225 8327:6.212606 8355:4.856833 8409:2.3255002 8893:4.266696 8960:0.17712466 9062:8.3358564 9321:4.8263116 9433:0.99225026 9897:0.68317699 10058:1.5876333 10125:0.53961343 10157:2.5750198 10160:1.5304749 10470:1.9557734 10495:0.33046782 10722:2.1182616 10805:6.2431273 10902:0.92476755 10957:0.31820327 11132:0.040241666 11545:2.1872544 11591:0.83309668 11662:6.212606 11705:0.022066206 11720:6.212606 11729:0.23291995 11733:1.3048613 12168:3.5045559 12259:2.0229514 12360:0.99225026 12552:1.1756535 12635:2.9545095 12873:0.28036091 12979:2.5750198 13048:1.1887256 13061:2.8804016 13073:1.0827074 13513:1.0421221 13759:0.87988728 13874:2.7468703 13902:8.8416929 14294:9.206336 14311:4.266696 14342:0.32650205 14383:0.62535745 14443:1.1786937 14599:2.6252041 14718:2.5490444 14746:1.895118 14952:0.44428509 15063:0.17473517 15282:0.028112488 15370:0.068420462 15381:0.24712244 15423:1.0985019 15491:0.65856743 15515:4.4208465 15569:1.6174862 15571:0.78589064 15959:3.8147109 15973:1.9784995 16127:0.86074793 16635:7.2953134 16778:3.8147109 16946:2.9937303 17198:4.4208465 17328:3.5735488 17612:3.0425165 17706:2.657258 17708:4.266696 17710:0.84196806 17719:2.8838429 18158:5.1139936 18684:4.8263116 19028:3.7276995 19160:3.8147109 19214:1.2638462 19313:4.603168 20919:2.9545095 20930:0.71134788 21105:2.2613623 21377:4.603168 21644:3.2168739 21751:4.5615611 21838:3.9100211 21869:0.079192415 21874:0.044132411 21931:0.28568006 21973:0.173244 22002:1.7127964 22081:3.1215637 22189:0.028112488 22240:0.73614252 22247:2.7786188 22367:3.7276995 22740:3.2168739 23187:1.2153938 23370:2.3762133 23490:4.0153813 23713:1.3605758 23717:3.077112 23720:1.4590158 23821:2.3895171 23865:0.90930116 23891:0.40146509 23901:0.64192379 23984:0.99767035 24036:3.2168739 24037:4.603168 24088:6.212606 24106:2.8453102 24119:0.034661982 24207:1.1250098 24223:2.9528153 24225:8.2663288 24403:1.6276386 24423:0.33207312 24428:2.7468703 #
-0.00054197200469504312227153608461094 7:0.5554238 154:0.098582581 155:0.098582581 159:0.072289251 567:1.1598179 739:0.048289999 778:2.1182616 819:5.1139936 1257:0.48268852 1310:2.2613623 1389:2.1350687 1391:4.8263116 1431:0.28373674 1454:0.012036112 1603:1.5682153 1642:2.9545095 1650:6.212606 1713:0.11228714 1828:0.230992 1944:0.13267291 1965:3.9100211 2024:1.1563603 2027:3.077112 2126:5.1139936 2155:6.212606 2259:3.1215637 2287:4.8263116 2418:0.10781287 2665:6.212606 2769:3.3793929 3326:2.7160985 3528:0.042995363 4179:3.3222344 4502:6.212606 4723:5.1139936 5235:4.603168 5336:2.7468703 5590:3.4400175 5697:7.455399 6260:1.3073313 6288:1.2427928 6742:6.212606 6935:4.4208465 7309:5.5194588 7626:1.9930984 7691:0.4195925 7768:6.212606 7810:4.0153813 8259:3.1680837 8367:0.18674012 8414:2.3005831 8455:1.5317374 8482:3.3793929 8704:0.12898609 8739:2.8804016 8762:2.5750198 8960:0.17712466 9042:1.2221735 9142:9.6526232 9173:3.6476567 9270:0.60313427 9274:1.169181 9471:1.0364563 9781:5.5194588 10125:0.26980671 10155:0.26534581 10223:2.8453102 10244:4.266696 10312:1.6378951 10351:1.8998318 10562:3.8147109 10612:3.9100211 11029:2.6862457 11069:5.5194588 11132:0.024145 11133:6.212606 11191:1.8558973 11343:6.212606 11591:0.41654834 11705:0.014042131 11758:2.657258 11788:2.0537231 11950:1.5397773 11967:2.5750198 12022:5.5194588 12461:3.268167 12598:4.8263116 12721:12.425212 13281:5.5194588 13527:4.4208465 13529:6.212606 13861:2.1017323 13862:11.038918 13903:2.6290872 14071:3.3222344 14266:2.0079136 14383:1.2507149 14443:0.39289787 14579:3.2168739 14599:0.87506801 14993:6.212606 15121:6.212606 15143:2.5490444 15282:0.036144625 15303:5.5194588 15339:1.4168155 15346:3.077112 15370:0.068420462 15381:0.12356122 15571:0.26196355 15630:0.81897855 15658:4.4208465 16114:4.0153813 16145:2.5490444 16156:4.1331644 16462:3.3222344 16584:6.212606 16761:2.4990339 16813:5.5194588 16904:3.7276995 16954:4.0153813 17047:5.5194588 17135:4.8263116 17400:6.212606 17513:5.1139936 17636:4.8263116 17853:3.9100211 18164:4.603168 18196:1.5397773 18458:6.212606 18582:2.2236221 19046:4.603168 19202:2.1872544 19769:4.0153813 19835:2.1350687 20071:6.212606 20292:0.31820327 20730:1.5397773 21141:5.5194588 21328:2.2807806 21339:1.5121257 21589:6.212606 21638:6.212606 21819:2.2613623 21874:0.034102317 21888:0.79098988 21909:0.83309668 21931:0.28568006 21973:0.173244 22000:1.1821681 22040:2.451406 22054:0.84196806 22132:0.52563071 22165:3.6476567 22189:0.016064279 22229:2.8114088 22375:6.212606 23187:2.4307876 23393:4.266696 23431:2.8453102 23679:3.5735488 23707:2.2236221 23891:0.80293018 23901:0.32096189 24022:0.64808571 24113:6.212606 24243:2.2423141 24423:0.33207312 24427:1.908541 24452:5.5194588 #
-0.00045460465064831658303298733692088 6:1.0364563 7:1.6662714 154:0.14787388 155:0.14787388 159:0.052208904 160:1.5212582 560:0.95852965 739:0.072434999 918:1.2358724 920:2.4443469 1257:0.48268852 1319:1.9499263 1431:0.28373674 1454:0.010030094 1542:0.86549854 1713:0.11228714 1815:3.8147109 1828:0.057748001 1957:2.8114088 2159:2.141885 2186:1.2809042 2418:0.10781287 2536:2.9937303 2645:0.93449146 2652:1.2289995 2678:1.1374323 2773:5.5194588 2789:3.7276995 2900:6.212606 3070:3.077112 3528:0.085990727 3668:0.489021 3886:3.7276995 3952:3.5735488 4752:4.8263116 4863:5.5194588 5130:2.4749365 5624:6.212606 5709:3.3793929 5765:4.266696 5806:6.212606 5852:3.268167 6162:4.8263116 6358:4.603168 6387:0.83270872 6627:0.64808571 6679:4.8263116 6782:1.0946122 8397:3.3793929 8423:4.266696 8455:0.76586872 8704:0.085990727 8733:4.266696 8753:3.5045559 8961:2.6290872 9062:5.5572376 9068:6.212606 9270:0.60313427 9305:6.212606 9504:0.58139431 10125:0.26980671 10155:0.26534581 10185:0.20625293 10188:2.457999 10334:3.6476567 10368:2.2807806 10495:0.49570176 10743:0.72780919 10921:4.8263116 10957:0.31820327 11073:5.5194588 11132:0.048289999 11190:2.9937303 11331:3.077112 11705:0.01604815 11721:1.1627501 11729:0.038819991 11745:0.63287628 11930:1.8305795 11953:10.138178 12158:8.0307627 12259:2.0229514 12552:1.1756535 12913:1.7582588 13048:1.1887256 13058:6.212606 13066:6.212606 13120:1.3684191 13242:6.212606 13679:6.212606 13859:3.6476567 13919:2.1872544 13958:4.0153813 14059:1.9221467 14085:5.5194588 14104:2.6862457 14107:1.2567791 14207:11.038918 14383:0.62535745 15282:0.020080348 15370:0.068420462 15381:0.24712244 15569:1.6174862 15571:0.26196355 15749:1.3073313 15943:6.212606 15973:1.9784995 16151:1.4168155 16300:3.4400175 16417:3.077112 16456:1.8558973 16460:1.2999512 16653:4.603168 16817:5.1139936 16912:6.212606 16935:1.5586457 17006:1.5974855 17020:6.212606 17441:4.8263116 17687:3.0345523 17847:7.8200421 18205:5.1139936 18479:2.3839648 18552:4.8263116 18704:3.9100211 18708:2.5490444 19213:1.0535508 19358:1.9784995 19708:3.9100211 19780:2.6290872 19820:1.3073313 19869:2.5750198 19946:3.2168739 20070:3.3793929 20157:6.212606 20466:3.5045559 20852:6.212606 20879:5.1139936 20988:2.8453102 21028:2.657258 21829:4.4208465 21869:0.10558989 21874:0.018054169 21890:0.61048728 21973:0.115496 21998:1.0651116 22132:0.52563071 22189:0.024096418 22240:1.472285 22285:5.5194588 22655:3.2168739 23370:0.7920711 23384:4.1331644 23495:4.1331644 23570:5.5194588 23621:3.3222344 23713:2.7211516 23743:1.4639343 23754:1.4390893 23758:2.4059436 23881:6.212606 23882:6.212606 23905:0.8466301 23914:0.81494224 23959:0.17951988 24024:2.451406 24090:5.5194588 24119:0.034661982 24130:1.3842924 24184:4.0153813 24258:2.0229514 24372:6.212606 24403:1.6276386 #
0.00028601420191277568665783048729168 133:0.036284294 2295:7.8883343 4758:6.5020399 6532:7.8883343 8619:0.55139756 #
5.3320633129255373748416058088395e-05 123:2.8655806 133:0.036284294 420:7.1951871 592:1.7470403 733:2.0623343 789:5.5857496 859:3.5316257 1018:7.8883343 1418:3.5842695 2378:7.1951871 3904:6.2788968 4222:7.8883343 4355:1.5639756 4521:6.7897224 4934:7.8883343 5615:7.1951871 6041:6.5020399 6640:6.0965753 7031:7.8883343 7876:7.8883343 8119:7.1951871 8616:1.6441675 8765:1.1072769 9197:7.1951871 #
0.00040049494808662542029431552492724 133:0.036284294 291:0.71131575 918:7.8883343 1447:5.9424243 1713:6.7897224 1764:7.8883343 3326:5.9424243 3329:2.1294327 4140:5.8088927 5570:2.5800669 6096:5.4034281 7826:5.2492771 8610:2.7292793 9562:2.201359 #
-0.00025540590149885787542988202503125 7:0.5554238 154:0.04929129 155:0.04929129 159:0.10040174 560:0.47926483 739:0.12877333 775:2.7468703 1257:0.24134426 1297:4.1331644 1304:4.603168 1431:0.14186837 1454:0.012036112 1501:7.2953134 1627:4.603168 1828:0.115496 1944:0.13267291 1973:2.9937303 1981:5.5194588 2024:1.1563603 2418:0.10781287 2492:1.0535508 2626:2.141885 2645:0.93449146 2736:6.212606 2737:6.212606 2740:6.212606 2766:3.5045559 3043:1.818157 3528:0.042995363 3553:0.25621337 3654:6.212606 3668:0.489021 4004:6.212606 4038:0.7403354 4087:6.212606 4446:4.4208465 4984:2.8804016 5087:3.4400175 5226:0.77452677 5386:2.3624585 5506:4.603168 5558:6.212606 5810:1.9784995 6093:4.603168 6219:2.5237267 6260:1.3073313 6387:0.83270872 6651:0.86549854 6653:5.3724914 6672:3.5735488 6724:3.077112 7077:4.603168 7190:3.3386226 7197:5.5194588 7316:12.425212 7492:4.0153813 7654:5.9874606 7898:5.1139936 8119:2.5750198 8367:0.93370062 8409:1.1627501 8413:4.4846282 8531:2.6016881 8704:0.085990727 8752:3.5045559 8805:1.8818728 8933:1.818157 8960:0.35424933 9220:5.5194588 9259:5.5194588 9355:2.152163 9499:2.3005831 9504:0.58139431 9769:6.212606 9798:6.212606 10003:4.8263116 10185:0.20625293 10333:18.637817 10344:0.65577805 10383:5.9874606 10495:0.49570176 10665:6.212606 10682:4.3391094 10902:0.92476755 11105:4.266696 11132:0.024145 11431:2.7160985 11616:6.212606 11705:0.0060180561 11729:0.11645997 11733:0.86990756 12011:6.212606 12041:5.5194588 12445:2.0694714 12495:4.8263116 12512:4.4208465 12669:2.5490444 12695:4.8263116 12750:6.212606 12873:0.84108275 12883:4.0153813 13048:1.1887256 13061:2.8804016 13376:5.5194588 13441:3.2168739 13697:10.94297 14008:1.3222569 14045:2.6016881 14443:0.19644894 14491:0.55661428 14599:0.87506801 14642:1.9499263 14661:3.8147109 14746:1.895118 14763:5.5194588 15001:6.212606 15062:6.212606 15083:2.4059436 15282:0.036144625 15302:2.9167693 15305:4.1331644 15308:6.1542239 15370:0.068420462 15423:0.36616731 15444:2.7786188 15630:0.81897855 15750:4.8263116 16030:6.212606 16422:6.212606 16456:1.8558973 16467:1.2221735 16499:0.6442616 16613:2.2052729 16615:2.8804016 16900:3.5045559 17034:3.0345523 17163:4.8263116 17197:5.5194588 17385:2.451406 17598:3.3793929 17711:4.603168 17768:6.212606 17953:2.5490444 17969:3.077112 18086:4.1331644 18196:1.5397773 18215:2.2236221 18543:3.8147109 18713:3.6476567 19081:1.4590158 19106:1.1563603 19539:2.484333 19547:24.850424 19572:6.212606 19723:3.3222344 19869:2.5750198 20166:3.7276995 20210:5.1139936 20229:0.29371223 20442:3.3600132 20748:1.7699548 20930:0.71134788 20992:3.7276995 21122:5.5194588 21167:6.212606 21330:2.9937303 21411:4.266696 21562:2.1536152 21570:1.5121257 21574:2.9167693 21706:6.212606 21869:0.079192415 21874:0.048144449 21875:5.0980887 21890:0.61048728 22054:0.84196806 22112:4.8263116 22189:0.024096418 22452:4.0153813 22460:4.603168 22519:6.212606 22772:6.212606 22953:1.549167 23020:12.425212 23098:5.5194588 23106:4.266696 23156:4.5615611 23605:2.7468703 23695:0.26196355 23757:3.5735488 23821:0.79650569 23865:0.90930116 23901:0.32096189 23914:0.40747112 23918:0.80096006 23980:1.7582588 24119:0.17330991 24167:2.0854716 24294:2.5750198 24298:3.7276995 24307:1.8058869 #
-0.00018963449997748819714389612034466 7:1.1108476 25:6.212606 154:0.29574776 155:0.29574776 159:0.08835353 352:4.8263116 560:0.47926483 657:15.341982 659:6.212606 739:0.064386666 918:1.2358724 920:1.2221735 961:1.2153938 1077:4.1331644 1104:8.533392 1106:8.2663288 1257:0.72403276 1288:5.5194588 1300:6.212606 1389:2.1350687 1431:0.42560509 1447:6.212606 1448:6.212606 1454:0.028084261 1580:6.212606 1603:1.5682153 1691:6.212606 1713:0.67372286 1761:4.0153813 1762:6.212606 1857:10.227987 1906:3.3222344 1944:0.39801869 2159:2.141885 2186:0.64045209 2418:0.21562573 2626:1.0709425 2652:1.2289995 2760:1.6276386 2824:4.603168 2915:12.425212 3064:1.3763242 3100:2.8804016 3252:2.9545095 3267:2.4284165 3377:6.212606 3516:4.266696 3548:3.2168739 3553:0.25621337 3655:3.0345523 3840:1.7582588 4389:6.212606 4704:1.2926252 4846:6.212606 4853:5.5194588 4933:10.227987 4934:6.212606 5034:4.0153813 5573:6.212606 5822:2.5490444 6296:4.4208465 6451:5.1139936 6787:6.212606 6982:5.5194588 7226:6.212606 7231:6.212606 7415:1.8998318 7428:18.637817 7429:6.212606 7437:4.1331644 7472:2.9545095 7494:1.9629949 7622:3.5735488 7710:1.0709425 7801:3.1215637 7819:2.6016881 7885:2.6862457 7909:3.1680837 8066:2.7786188 8090:1.93594 8110:2.5490444 8308:1.0308225 8363:4.9980679 8367:0.56022036 8396:2.1695547 8413:2.2423141 8704:0.21497682 8891:3.0345523 8960:0.35424933 8992:6.212606 9342:4.949873 9504:0.58139431 9805:6.212606 9849:3.2168739 9948:3.3793929 10155:0.26534581 10185:0.20625293 10332:18.637817 10492:4.4208465 10495:0.82616961 10580:6.212606 10902:0.46238378 10957:0.31820327 11132:0.016096666 11418:6.212606 11598:4.603168 11705:0.028084261 11729:0.15527996 11733:0.43495378 11807:7.2953134 11950:3.0795546 11953:3.3793929 12069:3.4400175 12239:3.9100211 12269:3.4400175 12427:6.212606 12495:9.6526232 12552:3.5269604 12939:4.0153813 12959:0.7920711 13392:0.62535745 13513:1.0421221 13706:6.212606 13903:2.6290872 13995:4.603168 14008:1.3222569 14321:3.6476567 14342:0.32650205 14383:0.62535745 14443:0.98224467 14462:1.0196493 14557:4.0153813 14561:4.266696 14642:1.9499263 14718:2.5490444 14781:2.2423141 14826:1.6654174 15031:2.2052729 15109:2.4990339 15282:0.048192836 15339:1.4168155 15381:0.24712244 15423:0.73233461 15491:0.32928371 15559:0.636657 15702:6.212606 15795:3.9100211 16021:2.3839648 16359:3.8147109 16460:1.2999512 16499:0.6442616 16583:3.5735488 16690:4.2365232 16802:6.212606 17148:5.5194588 17442:4.647501 17472:5.1139936 17680:2.5750198 17723:3.2168739 17830:6.212606 18196:1.5397773 18300:11.038918 18760:2.7786188 18827:18.637817 18828:18.637817 18916:5.5194588 18959:6.212606 18961:3.7276995 18963:0.93960655 19150:3.268167 19202:2.1872544 19237:3.6476567 19321:1.7699548 19393:4.8263116 19648:2.1350687 19802:2.3839648 19946:3.2168739 20079:6.212606 20583:3.5735488 20762:2.9167693 20821:3.5735488 20930:0.71134788 21144:3.6476567 21146:4.8263116 21158:6.212606 21190:0.93960655 21383:3.2168739 21437:4.4208465 21474:8.8416929 21832:3.9100211 21861:0.44116497 21869:0.13198736 21874:0.052156486 21890:0.61048728 21931:0.28568006 21973:0.115496 21998:1.0651116 22000:1.1821681 22054:1.6839361 22163:2.9167693 22189:0.036144625 22433:3.8147109 22440:4.0153813 22622:1.9641109 22912:5.1139936 23021:2.8453102 23203:2.6016881 23370:0.7920711 23376:4.1331644 23428:4.8263116 23713:1.3605758 23864:2.3005831 23901:0.32096189 23914:0.40747112 23959:0.17951988 23973:2.6862457 24004:1.8058869 24115:6.212606 24119:0.24263388 24129:2.3839648 24423:0.66414624 24485:6.212606 #
-0.00068825097508618871856855836455225 159:0.060241044 375:6.5086646 560:0.47926483 561:0.94991589 567:0.38660598 739:0.040241666 789:0.30724424 920:2.4443469 1176:2.657258 1187:4.8263116 1257:0.24134426 1306:1.2086598 1339:8.2663288 1431:0.14186837 1454:0.012036112 1828:0.173244 1944:0.13267291 2186:0.64045209 2259:3.1215637 2484:0.59583497 2523:0.77018839 2796:3.0345523 3528:0.042995363 3553:0.12810668 3667:3.7276995 3750:4.0153813 4051:0.77018839 4244:5.5194588 4407:6.212606 4427:3.077112 4503:3.5045559 4687:1.169181 4704:1.2926252 4976:4.1331644 5078:4.0153813 5088:2.8804016 5122:3.8147109 5226:0.77452677 5381:4.0153813 5610:4.603168 5805:3.2168739 5991:4.8263116 6260:1.3073313 6294:9.9961357 6381:1.9930984 6387:0.83270872 6627:0.64808571 6651:0.86549854 6766:4.603168 6782:1.0946122 6808:3.7276995 6996:6.212606 7228:1.7817893 7691:0.4195925 7710:2.141885 8038:1.2358724 8308:1.0308225 8314:5.1139936 8367:0.37348023 8368:1.7017466 8704:0.21497682 8713:2.4990339 8960:0.17712466 9504:0.58139431 9906:6.212606 10058:4.7628999 10076:4.603168 10096:11.038918 10125:0.26980671 10155:0.26534581 10743:0.72780919 10818:1.9221467 10841:3.6476567 11079:3.4400175 11098:2.6290872 11132:0.024145 11313:4.266696 11667:2.7160985 11705:0.0060180561 11729:0.15527996 11733:0.43495378 11950:1.5397773 12497:3.268167 12573:4.1389427 12654:2.8453102 12671:2.7468703 12773:2.6862457 12913:3.5165176 13756:4.8263116 14104:2.6862457 14443:0.19644894 14491:0.55661428 14826:1.6654174 15063:0.17473517 15269:5.1139936 15282:0.024096418 15283:0.74454594 15319:2.1350687 15370:0.068420462 15491:0.32928371 15528:2.9704366 15630:0.81897855 15992:2.8114088 16318:3.9100211 16413:1.5304749 16428:4.603168 16499:0.6442616 16833:6.212606 17357:1.6800066 17672:3.7276995 17807:2.9937303 17839:5.1139936 18043:5.5194588 18183:3.4400175 18345:5.5194588 18855:5.1139936 19086:2.2423141 19106:1.1563603 19213:1.0535508 19376:2.3005831 19654:1.0768076 19658:4.1331644 19708:3.9100211 20112:4.603168 20229:0.58742446 20391:5.5194588 20645:4.8263116 20720:6.212606 20787:4.266696 20833:2.8804016 20930:0.71134788 20962:4.1331644 21389:2.7160985 21562:2.1536152 21569:5.5194588 21833:4.603168 21874:0.034102317 21888:0.39549494 21953:1.4004217 21973:0.057748001 22032:5.5194588 22189:0.016064279 22320:5.5194588 22952:3.3222344 23135:0.30452317 23605:2.7468703 23743:0.73196715 23821:1.5930114 23901:0.32096189 23959:0.53855962 24119:0.034661982 24313:2.9545095 24423:0.66414624 24487:3.5045559 #
-0.00042828641547142001604064898145907 39:2.7786188 154:0.04929129 155:0.04929129 159:0.076305322 564:6.212606 567:0.77321196 739:0.064386666 789:0.61448848 1132:4.0153813 1312:1.6276386 1322:0.76586872 1426:5.3724914 1438:4.8263116 1454:0.0040120375 1597:0.636657 1713:0.22457428 1827:12.425212 1828:0.115496 1848:2.5490444 1944:0.13267291 2150:2.8453102 2186:0.64045209 2291:3.3793929 2356:2.3839648 2418:0.10781287 2626:3.2128277 2774:3.1215637 3059:6.212606 3332:7.2953134 3528:0.085990727 3763:6.212606 4687:1.169181 4795:2.2052729 5266:1.3374088 5269:6.212606 5278:6.212606 5301:8.0307627 5386:2.3624585 5470:7.2953134 6651:0.86549854 6699:0.87506801 7654:2.9937303 8086:2.3624585 8090:3.8718801 8263:6.212606 8308:1.0308225 8367:0.93370062 8409:1.1627501 8768:2.8804016 8914:4.8263116 8933:3.6363139 8960:0.17712466 9042:2.4443469 9185:4.1331644 9433:0.99225026 9504:0.58139431 9533:3.2168739 9897:0.68317699 10112:3.2168739 10155:0.13267291 10157:2.5750198 10185:0.20625293 10493:5.1139936 10747:1.2427928 10796:2.152163 10902:0.92476755 10957:1.2728131 11132:0.056338333 11635:4.4208465 11668:2.2613623 11705:0.020060187 11729:0.15527996 11745:0.63287628 11972:2.1350687 12048:7.2953134 12088:1.1686805 12207:2.3414052 12284:1.5974855 12369:2.4059436 13120:4.105257 13143:4.8078833 13392:0.62535745 13415:3.268167 13671:4.603168 13764:2.152163 13817:2.4284165 13930:3.7276995 14008:2.6445138 14271:1.7817893 14285:1.7017466 14383:1.8760723 14437:2.7160985 14443:0.19644894 14462:1.0196493 14491:0.55661428 15063:0.34947035 15094:3.4400175 15282:0.052208904 15370:0.13684092 15449:2.0382187 15491:0.98785114 15656:3.3222344 15813:2.9167693 16423:3.3793929 16499:0.6442616 16546:1.2638462 16590:4.8263116 17612:1.5212582 17710:1.6839361 17769:2.9545095 18282:2.0537231 18443:4.1331644 18784:7.4235892 18802:5.5194588 18917:1.2019708 19197:0.86549854 19214:3.7915387 19358:1.9784995 19427:1.9221467 19445:4.266696 19539:0.82811105 19634:1.9784995 19835:2.1350687 19881:6.212606 20229:0.29371223 20292:0.31820327 20480:3.6476567 20730:1.5397773 20822:17.200087 21360:2.9167693 21748:2.5237267 21861:0.44116497 21874:0.034102317 21879:3.268167 21909:1.249645 21925:0.90930116 21949:1.118856 21955:1.1887256 21973:0.28874001 22132:0.52563071 22189:0.020080348 22206:1.6693113 23191:1.8431582 23197:2.7786188 23204:2.3839648 23370:1.5841422 23416:1.9641109 23573:5.1139936 23659:2.8804016 23695:0.26196355 23707:2.2236221 23713:1.3605758 23720:1.4590158 23821:1.5930114 23866:2.8804016 23891:0.40146509 23892:2.1872544 23901:0.32096189 23914:0.40747112 23959:0.8975994 24150:3.4479394 24199:2.3839648 24258:2.0229514 24423:1.3282925 24428:2.7468703 #
