SVM-light Version V6.02
0 # kernel type
3 # kernel parameter -d 
1 # kernel parameter -g 
1 # kernel parameter -s 
1 # kernel parameter -r 
empty# kernel parameter -u 
25081 # highest feature index 
1000 # number of training documents 
475 # number of support vectors plus 1 
0.025161681 # threshold b, each following line is a SV (starting with alpha*y)
-3.0644152666171771144231622541199e-05 8:0.44129333 156:0.14757073 157:0.14127482 164:1.5324769 279:6.2146082 376:3.1235657 422:6.2146082 425:6.2146082 514:6.2146082 731:6.2146082 734:6.2146082 753:0.86304623 877:1.2241755 1058:1.7394555 1201:2.8473122 1202:0.89257419 1317:5.521461 1348:2.4304185 1371:0.21072103 1517:6.2146082 1748:0.25646648 1767:3.0365543 1938:6.2146082 1944:4.8283138 1945:6.2146082 1946:9.2103405 1955:4.6051702 2047:6.2146082 2076:3.0365543 2295:0.43034086 2313:4.2686977 2352:3.9120231 2363:1.7602608 2403:4.3431139 2544:3.1323724 2891:5.521461 3048:6.2146082 3133:9.2373419 3171:9.2373419 3313:4.4228487 3352:0.17925002 3368:4.8283138 3376:0.25566673 3433:2.5770218 3541:3.7297015 3610:3.5065579 3662:2.6036901 3697:3.7297015 3838:3.4420195 3848:3.6496587 4162:6.2146082 4173:6.2146082 4174:4.6051702 4233:2.8473122 4488:2.154165 4515:5.1159959 4570:4.8283138 4751:4.0173836 4898:2.9957323 5010:0.77652878 5041:2.8134108 5212:4.6051702 5309:3.9120231 5514:4.6051702 5582:1.8708026 5618:4.6051702 5670:6.2146082 5831:2.9957323 6071:1.461018 6162:2.1037343 6396:1.0484973 6427:2.5257287 6466:0.86750054 6701:3.9120231 7121:2.6036901 7380:3.8167129 7554:3.5065579 7579:3.6496587 7803:2.9187713 7806:2.4079456 7840:4.0173836 7854:2.1892564 7939:2.154165 7962:5.521461 8126:0.97511357 8279:3.5065579 8288:2.5010359 8400:2.65926 8419:2.8473122 8450:0.32964125 8510:4.2686977 8537:1.8838748 8623:5.1159959 8683:0.50880837 8776:5.521461 8837:9.370697 8888:4.8283138 8934:4.4228487 9003:0.56563383 9085:2.3227878 9153:2.032222 9187:2.5459313 9192:1.1841701 9778:3.079114 9825:0.22064666 9853:6.2146082 9866:0.34870678 9893:1.4600775 9897:1.0613165 9901:2.0557251 9941:2.7488723 9944:4.8283138 10084:6.2146082 10119:3.9120231 10169:1.9387908 10172:1.5324769 10196:1.7264445 10231:4.2686977 10281:1.7147985 10319:4.1351666 10342:2.2072749 10356:4.1351666 10390:8.8456974 10604:4.2686977 10645:0.34814003 11065:4.2686977 11334:5.1159959 11365:0.014014019 11395:0.038740829 11453:18.643824 11456:3.3813949 11458:6.2146082 11543:6.2146082 11650:3.079114 11750:7.8240461 11808:6.2146082 11833:36.496586 11834:15.347987 12101:3.9120231 12155:6.2146082 12185:2.7488723 12260:3.079114 12358:3.3813949 12491:1.2241755 12524:0.27443683 12559:5.521461 12757:1.5141277 12848:4.2686977 12928:4.8283138 12968:3.3813949 12985:4.2686977 13145:3.5065579 13644:6.2146082 13933:3.5755508 14016:0.67374462 14019:4.0173836 14044:6.2146082 14063:2.1715569 14064:4.4228487 14150:1.217612 14212:4.6051702 14242:1.551169 14263:0.92634106 14418:51.159958 14419:24.858433 14532:1.820159 14940:4.1351666 14943:2.5770218 15014:0.49295726 15066:1.1393921 15098:2.5770218 15111:3.1700857 15247:11.042922 15297:0.88188928 15453:3.6496587 15538:4.4228487 15779:1.0051219 16094:2.6036901 16123:1.7837913 16254:11.316822 16306:4.0804415 16399:5.521461 16428:4.8283138 16472:6.2146082 16563:4.4228487 16611:3.3813949 16682:6.2146082 16750:4.6051702 17004:1.7037486 17189:5.521461 17190:6.2146082 17251:1.469676 17315:6.2146082 17528:4.4228487 17763:6.2146082 17844:1.7719568 17914:6.4377518 17986:2.9565115 17989:4.4228487 17990:6.2146082 18118:4.6051702 18130:2.5510464 18146:2.9957323 18189:4.6051702 18210:4.8283138 18333:3.3242364 18465:6.2146082 18586:2.1715569 18624:0.98886144 18778:1.0555528 18869:2.2523289 18873:1.89712 18876:5.1159959 18879:2.154165 18881:2.7806208 18884:1.3019532 19011:3.7297015 19012:5.1159959 19071:1.6607312 19227:6.2146082 19384:6.2146082 19475:6.2146082 19529:6.2146082 19891:0.27180871 19892:4.4228487 19936:4.1351666 19953:0.37979737 19958:1.7602608 19965:1.0216513 19987:1.8838748 20186:5.1159959 20214:4.2686977 20432:3.8167129 20581:0.66943067 20635:4.8283138 20836:6.2146082 20866:4.2686977 20883:3.7297015 20892:4.6051702 21028:5.521461 21167:4.2686977 21226:2.3227878 21322:4.8283138 21357:5.521461 21399:2.9187713 21401:2.4079456 21498:1.3295009 21507:0.024292693 21532:0.77219039 21564:0.66815025 21604:0.16261595 21611:1.1776555 21621:3.9120231 21666:1.8832171 21777:5.521461 21865:4.1351666 21931:3.6496587 21995:6.4377518 22047:3.7297015 22049:5.521461 22184:5.521461 22193:3.270169 22195:4.4228487 22296:0.68915516 22447:1.6502599 22534:4.4228487 22889:6.2146082 22951:2.3434072 23113:2.5010359 23119:4.4228487 23151:5.521461 23248:2.8878469 23292:0.85505688 23342:6.2146082 23358:0.64245409 23505:1.130633 23519:1.2261007 23529:1.4244455 23575:0.42469069 23726:0.091377623 23849:2.154165 23918:5.521461 23987:1.2729657 24015:0.34249032 #
-0.00014057177969191111174124264593388 8:0.44129333 156:0.098380491 157:0.094183214 873:2.2443161 876:2.6186666 877:1.2241755 1202:0.22314355 1484:0.96758401 1641:0.12556322 1696:2.0433025 1989:2.8824036 2066:1.0671136 2137:11.189104 2258:4.6051702 2462:2.9957323 2573:1.120858 2822:2.154165 3011:3.6496587 3127:3.7297015 3167:2.7181005 3236:3.9120231 3767:3.8167129 3876:2.5010359 4476:1.2729657 5061:2.7566524 5196:5.6268215 5368:8.5373955 5460:3.2188759 5905:4.6051702 5912:3.5755508 6396:0.52424866 6466:2.6025016 6471:3.6496587 6699:6.2146082 7153:3.3813949 7439:0.38272563 8007:2.4769385 8066:1.1270118 8277:3.5755508 8287:3.7297015 8450:0.094183214 8683:0.16960278 9003:0.56563383 9192:2.3683403 9219:0.53785431 9260:6.3401713 9272:1.5232602 9581:4.8283138 9660:3.4420195 9748:2.5010359 9825:0.22064666 9897:1.0613165 9901:2.0557251 10062:0.58698696 10067:2.7042065 10068:2.8824036 10104:3.0365543 10207:2.0874736 10645:0.34814003 11252:0.46203545 11365:0.006006008 11395:0.038740829 11400:1.0614656 11475:3.7297015 11749:0.73633868 11869:7.459403 12008:3.5275571 12341:2.65926 12424:2.65926 12524:0.82331055 12528:2.5510464 12530:2.8824036 12634:0.76787072 13661:2.3859668 13785:4.6051702 14016:0.33687231 14114:1.2938536 14150:0.60880601 14621:0.44316697 14766:2.7806208 14883:3.2188759 15014:0.2112674 15178:4.6051702 15224:2.8134108 15231:0.48669252 15297:0.88188928 15602:2.4769385 15779:1.0051219 15977:4.6051702 16026:4.8283138 16443:5.6946244 16593:1.4271164 17058:2.65926 17333:1.1907276 17352:1.6419611 17537:4.4228487 17926:2.0249534 18135:4.1351666 18138:9.2103405 18372:3.3813949 18661:6.2146082 19035:2.0099156 19273:8.7563133 19335:2.1715569 19891:0.27180871 19953:0.75959474 19959:4.2686977 20350:4.8283138 20369:1.6820086 20387:2.4079456 20391:1.8708026 20505:1.120858 20581:0.66943067 20616:5.1159959 20741:5.521461 20815:3.270169 20927:6.2146082 21065:7.6334257 21351:5.521461 21507:0.09717077 21542:0.4462871 21559:0.98349947 21564:0.66815025 21581:1.2106618 21604:0.065046385 21668:2.4079456 21742:0.50087529 21870:2.7806208 22215:5.521461 22236:2.0402207 22955:0.88188928 23076:4.6051702 23292:0.28501895 23304:2.2633643 23358:1.9273622 23437:0.77652878 23505:0.37687767 23519:0.30652517 23598:2.2540236 23642:2.7181005 23692:6.2146082 23726:0.030459208 23734:2.5010359 23812:1.0051219 23947:5.521461 24015:0.34249032 24020:1.7957675 24031:1.3470737 #
-3.5629588472129451921528026092645e-05 122:6.2146082 156:0.19676098 157:0.18836643 310:11.042922 565:1.130633 876:1.3093333 997:4.0173836 1058:0.57981849 1202:0.4462871 1262:1.9951004 1322:2.1715569 1371:0.42144206 1532:0.73396915 1545:2.9187713 1568:2.8824036 1579:2.1892564 1641:0.37668967 1645:2.1715569 1748:0.30775976 1851:0.16016875 1881:1.9519283 1920:3.4183028 1995:3.079114 2021:2.4079456 2235:5.7316289 2248:6.2146082 2295:0.21517043 2353:0.74233741 2364:1.551169 2384:1.1454021 2420:1.0498221 2525:0.99967235 2549:1.2241755 2771:4.6051702 2908:5.521461 2912:2.8824036 2936:1.461018 3352:0.059750006 3376:0.12783337 3472:0.51082563 3545:1.8708026 3556:1.8578993 3631:3.1700857 3644:1.3019532 3761:1.9241487 3842:2.1523197 3879:3.6496587 3910:6.2146082 4147:7.2993174 4203:5.4362011 4217:2.9565115 4274:3.5755508 4476:1.2729657 4576:2.453408 4769:4.8283138 4822:3.2188759 4900:4.0173836 4908:7.5771861 4923:2.7806208 4998:4.4228487 5001:3.6496587 5026:5.1159959 5061:1.3783262 5151:3.3813949 5212:4.6051702 5258:3.7297015 5388:2.8473122 5399:3.6496587 5476:6.2146082 5477:5.521461 5767:3.4420195 5898:3.5065579 5940:2.1715569 6042:1.6502599 6396:0.52424866 6422:1.5793161 6425:0.83471072 6444:3.7297015 6466:0.86750054 7010:2.2256241 7138:5.1159959 7252:2.2914078 7332:5.521461 7377:2.9187713 7388:1.9241487 7439:1.5309025 7461:1.0966142 7468:1.7147985 7474:3.3242364 7724:2.5257287 7788:1.2801342 8093:3.3242364 8126:1.3001515 8150:0.93649346 8178:4.2686977 8216:0.68915516 8450:0.094183214 8683:0.50880837 8911:4.8283138 9009:0.99425226 9062:5.521461 9153:2.032222 9611:9.6566277 9625:1.7602608 9694:2.2256241 9757:1.7147985 9866:0.17435339 9897:1.0613165 10081:3.079114 10180:3.7297015 10426:1.9951004 10428:6.2146082 10451:1.1841701 10592:0.24590054 10645:0.69628006 10727:2.8473122 10925:5.1159959 10932:6.2146082 11003:3.4420195 11133:1.4524342 11252:0.46203545 11284:5.521461 11365:0.034034044 11383:1.0671136 11395:0.38740829 11449:4.8283138 11546:4.8283138 11691:3.9120231 11754:3.9120231 11757:4.1351666 12008:0.88188928 12213:4.1749473 12524:1.0977473 12528:2.5510464 12576:1.9805017 12626:3.1235657 12755:1.7037486 13041:1.4596224 13082:1.0441241 13337:2.0557251 13529:3.8167129 13592:2.1202636 13742:9.6566277 13782:1.3625778 13847:2.8824036 13895:10.231992 14016:0.67374462 14053:0.61989671 14114:0.51754147 14131:1.0328245 14150:1.217612 14232:4.0499067 14263:0.92634106 14309:1.7037486 14538:6.1671748 14632:3.1235657 14716:1.0536052 14735:2.1576192 14787:4.7719336 14891:5.1159959 14988:3.4420195 15004:5.521461 15014:0.5633797 15039:0.89563334 15066:0.75959474 15076:2.9187713 15143:0.36240563 15231:0.24334626 15261:4.6051702 16140:1.2241755 16173:1.4185531 16254:2.2633643 16309:2.5770218 16505:2.2072749 16706:2.2072749 16740:3.9120231 17053:6.2146082 17058:2.65926 17064:2.0874736 17240:4.6051702 17252:3.079114 17352:2.4629416 17458:4.1351666 17517:5.1159959 17607:3.9120231 17666:5.521461 17800:6.2146082 17978:5.1159959 18480:1.2106618 18567:1.89712 18752:1.3783262 18873:1.89712 18878:1.551169 18884:1.3019532 19356:9.0847664 19372:1.9951004 19499:1.89712 19524:2.5770218 19568:2.9187713 19700:4.4228487 19891:0.27180871 19968:2.7181005 20027:2.6310892 20028:2.9565115 20055:5.521461 20095:3.9120231 20118:4.1351666 20206:6.2146082 20268:10.231992 20545:3.8167129 20656:4.6051702 20732:2.2443161 21057:4.8283138 21233:2.65926 21289:3.2188759 21376:6.2146082 21377:6.4377518 21395:10.63704 21399:2.9187713 21401:2.4079456 21498:0.44316697 21501:5.521461 21507:0.29151231 21511:1.2658482 21523:0.52424866 21524:0.7256704 21559:0.98349947 21564:1.0022253 21581:1.2106618 21586:1.1147417 21604:0.097569577 21635:1.5702173 21742:0.50087529 21756:1.5896353 21757:6.2146082 21866:0.74654794 21951:2.8473122 22016:6.2146082 22296:0.68915516 22362:2.7488723 22447:3.3005197 22452:4.0173836 22553:1.551169 22680:5.521461 22730:0.38272563 22773:2.2294834 22995:2.0402207 23011:2.7181005 23310:3.2592812 23317:1.4784096 23337:1.4513408 23362:5.913023 23519:0.30652517 23529:0.94963038 23575:0.14156356 23703:3.8167129 23726:0.091377623 23775:2.0874736 23793:3.5755508 23849:2.154165 23855:0.58339632 23911:1.9519283 23912:1.7372713 24015:0.34249032 24019:2.453408 24025:1.551169 #
-4.4100226785881836786412657502865e-05 8:4.4129333 42:3.1700857 125:3.3242364 156:0.34433171 157:0.32964125 164:9.1948614 362:4.1351666 395:4.6051702 565:1.130633 741:2.0874736 812:3.6496587 900:1.3625778 1003:3.270169 1010:4.1351666 1202:0.22314355 1286:1.7602608 1371:0.21072103 1386:5.521461 1425:3.3813949 1443:8.5373955 1532:0.73396915 1641:0.50225288 1658:5.1159959 1696:1.0216513 1711:4.2686977 1729:18.643824 1748:0.30775976 1763:2.8824036 1851:0.64067501 1881:1.9519283 2022:3.8167129 2139:6.2146082 2279:2.5770218 2295:0.64551127 2330:3.4420195 2364:1.551169 2426:5.521461 2525:0.99967235 2573:1.120858 2725:4.1351666 2881:6.2146082 2912:2.8824036 3060:2.5257287 3153:5.1159959 3163:3.8167129 3352:0.23900002 3376:0.12783337 3447:2.65926 3448:24.858433 3472:0.51082563 3573:5.521461 3617:6.540338 3627:1.89712 3644:1.3019532 3730:5.521461 3753:3.3813949 3787:6.2146082 3804:2.3434072 3842:0.71743989 3976:2.3859668 4235:4.4228487 4281:4.8283138 4285:6.2146082 4445:4.0173836 4474:1.3394108 4541:4.0173836 4576:2.453408 4612:5.1159959 4826:4.4228487 5280:5.1159959 5486:3.4420195 5545:2.3859668 5582:1.8708026 6093:6.2146082 6150:6.2146082 6282:3.3813949 6283:8.2703333 6464:3.2188759 6466:0.86750054 6592:4.6051702 6593:6.2146082 6626:3.1700857 6732:2.3025851 6830:6.2146082 6831:6.2146082 7007:2.9565115 7066:6.2146082 7137:5.1159959 7173:1.0328245 7252:1.1457039 7281:4.6051702 7351:3.4420195 7363:4.6051702 7396:5.1159959 7439:0.76545125 7449:1.3862944 7478:2.0557251 7510:6.2146082 7532:6.2146082 7618:2.5510464 7788:1.2801342 7834:6.2146082 7872:2.453408 7940:4.0173836 7982:5.1159959 8066:1.1270118 8101:3.7297015 8126:0.16251893 8166:2.9220359 8216:0.68915516 8301:4.1351666 8419:2.8473122 8444:6.540338 8448:4.8283138 8450:0.28254965 8475:4.0173836 8486:4.1351666 8556:3.7297015 8620:5.521461 8683:0.84801394 8733:6.2146082 8871:6.2146082 8872:6.2146082 8875:2.9187713 9009:0.99425226 9054:6.2146082 9083:1.4188175 9187:1.2729657 9219:0.53785431 9409:5.521461 9600:0.86274999 9711:5.521461 9825:0.22064666 10036:1.6094379 10062:2.3479478 10064:6.2146082 10066:5.1159959 10067:0.90140212 10126:1.8838748 10532:5.1159959 10574:6.2146082 10592:0.24590054 10595:1.461018 10640:4.8283138 10645:0.69628006 11132:4.4228487 11205:1.4105871 11365:0.012012016 11383:1.0671136 11395:0.11622249 11400:1.0614656 11413:2.1523197 11414:1.8578993 11464:6.2146082 11480:4.6051702 11559:6.2146082 11749:0.36816934 11810:18.643824 11811:6.2146082 11823:3.270169 11928:2.8824036 11930:5.521461 11993:5.1159959 12095:2.3644605 12204:1.2517635 12312:2.6310892 12319:2.2664075 12524:0.27443683 12568:5.521461 12644:4.2686977 12730:1.3019532 12787:3.2188759 12789:4.4228487 13000:3.7297015 13001:4.2686977 13478:6.2146082 13479:2.9565115 13524:6.2146082 13592:4.2405272 13675:1.3862944 13847:2.8824036 13923:4.4228487 13942:1.9241487 14026:3.0365543 14053:1.8596902 14095:4.1351666 14150:1.826418 14233:3.3813949 14242:1.551169 14263:0.92634106 14395:2.0874736 14541:3.270169 14621:0.88633394 14678:2.154165 14735:1.0788096 14964:5.1159959 14991:4.6051702 15014:0.2112674 15039:0.35825333 15066:0.75959474 15219:0.65392649 15222:2.5510464 15235:6.2146082 15469:5.1159959 15477:5.521461 15863:5.9914646 15986:2.3859668 16021:6.2146082 16213:5.1159959 16312:6.2146082 16593:1.4271164 16665:1.5798792 16706:2.2072749 16761:3.1700857 16843:3.3813949 16852:4.0173836 16932:4.6051702 16975:3.6496587 17051:19.560116 17108:3.0365543 17216:4.2686977 17349:3.3813949 17363:1.5702173 17381:3.7297015 17393:2.453408 17683:3.3813949 17844:1.7719568 17948:3.7297015 18003:6.2146082 18272:4.1351666 18310:6.2146082 18347:6.2146082 18480:1.2106618 18560:3.1700857 18630:1.0106014 18716:2.4769385 18869:1.5015526 19118:4.8283138 19129:6.2146082 19186:5.1159959 19210:0.80743635 19370:5.521461 19372:1.9951004 19391:4.8283138 19413:2.1715569 19452:3.3813949 19521:6.2146082 19891:0.27180871 19965:1.0216513 19977:3.5065579 20021:2.3859668 20090:4.1351666 20431:3.270169 20433:3.7297015 20520:6.2146082 20581:0.66943067 20604:4.6051702 20806:5.521461 21145:4.6051702 21194:8.2703333 21234:2.1202636 21395:2.65926 21494:5.521461 21507:0.09717077 21509:6.2146082 21511:1.2658482 21523:1.0484973 21524:1.4513408 21545:0.99425226 21564:0.33407512 21581:1.2106618 21604:0.16261595 21611:1.1776555 21613:2.4757488 21651:5.521461 21664:5.521461 21666:0.94160855 21715:4.4228487 21741:6.2146082 21742:0.50087529 21866:0.74654794 22302:6.2146082 22730:0.38272563 22772:6.2146082 22955:0.88188928 23113:2.5010359 23116:4.4228487 23267:6.2146082 23275:3.9120231 23292:0.28501895 23317:1.4784096 23337:0.7256704 23358:0.64245409 23519:0.61305034 23529:0.47481519 23560:2.3025851 23575:0.14156356 23637:1.4596224 23659:3.3813949 23726:0.18275525 23840:4.4228487 23849:2.154165 23981:1.5994875 24015:0.34249032 24018:2.6882477 #
8.9860349046036672583485926946167e-05 3:0.64041054 135:0.051293295 136:0.051293295 144:0.034034044 200:6.2146082 447:9.2103405 517:0.98859262 528:0.64245409 754:2.5010359 876:1.3704211 904:2.7181005 1168:4.1351666 1343:1.4784096 1430:0.13696586 1530:1.9457222 1590:0.7940731 1597:1.5050778 1839:0.11622249 1943:0.69741356 2086:3.079114 2197:1.3704211 2359:4.6051702 2389:0.3203375 2500:0.90634042 2644:0.98886144 2676:1.2587811 2910:3.079114 3215:5.1159959 3487:0.12801066 3981:24.810999 4115:2.6882477 4178:11.450138 4225:2.9187713 4459:12.429216 4486:5.521461 4812:2.6310892 4883:2.9187713 5058:6.2146082 5341:2.7886531 5635:5.521461 5757:3.4420195 5849:2.2633643 5882:2.0557251 5960:3.1700857 6088:5.0020719 6280:3.079114 6400:3.1792705 6474:1.0272223 6811:1.0498221 7031:3.7297015 7058:4.1351666 7091:4.8283138 7252:3.4420195 7572:7.6334257 7656:1.9661129 7883:1.1086626 7968:6.2146082 8305:2.7181005 8310:2.7806208 8322:2.9565115 8402:3.6496587 8426:2.3227878 8508:1.0613165 8549:4.2741413 8555:2.8473122 8572:0.26021737 8599:6.2146082 8614:6.2146082 8655:0.64245409 8815:4.8283138 8890:0.1287225 9219:1.4439235 9497:0.61248928 9583:1.7147985 10080:2.3227878 10106:0.83932972 10261:2.3025851 10339:0.19358476 10400:4.4228487 10671:2.65926 10680:2.1370707 10694:0.51082563 10727:0.23756707 10954:8.7570257 10955:4.4512482 11126:1.7602608 11198:2.9187713 11366:0.006006008 11752:6.2146082 11863:3.8167129 11866:4.0173836 11886:2.2827826 11967:0.034591444 11971:0.98204601 12011:3.3242364 12015:3.2188759 12307:6.2146082 12326:0.95607162 12450:4.0173836 12477:4.2686977 12741:6.2146082 12768:1.1973282 12866:1.5141277 13282:1.3167683 13562:1.9519283 13579:0.73814452 13586:0.99967235 13840:3.079114 13886:1.9661129 14116:3.1235657 14204:2.1202636 14686:6.2146082 14689:4.8283138 14698:0.33128572 14732:0.58698696 14806:3.5755508 14898:1.9241487 15155:3.3242364 15176:1.8078889 15256:4.1351666 15333:0.18392284 15572:0.88188928 15597:5.7648072 15664:0.18862136 15750:2.8473122 15892:0.64592779 16059:1.1394343 16255:2.9187713 16804:4.6051702 16851:1.7957675 17299:1.8325815 17379:3.8758841 17778:4.8283138 17882:6.2146082 18058:1.2106618 18074:3.270169 18691:2.2256241 19140:13.296946 19168:2.4079456 19253:2.3683403 19397:0.93140435 19402:0.90140212 19818:3.2188759 20660:0.67935473 20739:0.449417 20743:1.9951004 20806:2.2827826 21305:3.5065579 21389:4.2686977 21559:4.1351666 21809:1.6194882 22039:1.0498221 22092:6.2146082 22307:2.5770218 22359:0.09717077 22363:1.4024237 22377:0.48776037 22417:1.75414 22420:0.35953617 22438:1.2729657 22459:0.076881044 22593:0.48776037 22654:6.2146082 22660:0.0080080107 22943:3.5065579 23079:2.0874736 23098:16.069534 23165:3.2188759 23209:2.9565115 23666:3.9120231 23691:1.0788096 23937:2.9565115 24222:0.32573014 24231:3.9120231 24324:3.1700857 24357:1.80444 24442:0.44005656 24443:2.5257287 24459:0.85331595 24509:2.3644605 24675:0.14575616 24766:0.98886144 24947:1.3019532 24967:0.81894624 24969:4.7289209 24984:1.2106618 25049:4.8283138 #
6.6439308499982143775032528143498e-05 3:0.64041054 144:0.032032043 145:2.9922185 379:4.2686977 431:6.2146082 517:0.98859262 720:2.8824036 735:0.99385715 1150:3.3813949 1281:4.6051702 1304:1.3242589 1321:0.53785431 1388:3.1792705 1430:0.27393171 1493:3.5065579 1542:3.3242364 1590:0.7940731 1597:1.5050778 1616:5.1159959 1717:0.13238919 1839:0.23244497 1943:0.69741356 1956:2.65926 2167:1.0729445 2488:5.521461 2587:6.2146082 2714:6.2146082 2731:1.4961092 2745:2.9565115 2750:1.9661129 2775:6.2146082 2910:3.079114 3218:3.8167129 3246:2.1202636 3487:0.19201599 3510:0.2285783 3691:8.0347672 3810:1.3093333 3862:2.8824036 3935:2.7488723 3947:1.910543 4011:1.3624372 4158:3.079114 4296:2.5010359 4487:4.8283138 4880:4.8283138 5148:2.7488723 5276:6.2146082 5437:2.5257287 5439:2.8134108 5440:2.7488723 6002:2.453408 6101:4.4228487 6262:3.7297015 6287:3.079114 6420:4.8283138 6466:1.820159 6474:1.0272223 6486:3.6496587 6502:3.3242364 6622:4.8283138 6759:0.70521975 6762:1.9563323 6819:1.6928195 6901:1.2241755 7251:3.3813949 7265:2.9957323 7370:2.8824036 7488:2.3227878 7731:2.7181005 7869:2.3644605 7889:1.5896353 7891:1.6194882 8223:4.1351666 8362:5.1159959 8383:3.7297015 8422:2.3859668 8572:0.13010868 8573:1.6820086 8716:3.2188759 8719:3.7297015 8734:5.9914646 8740:4.4228487 8835:2.6036901 8890:0.085815005 9042:2.8473122 9144:0.17435339 9309:2.1037343 9632:6.2146082 9694:1.4439235 9866:0.91130316 10312:3.3242364 10339:0.19358476 10357:3.7297015 10398:1.4062506 10480:5.1159959 10574:1.0441241 10727:0.23756707 10730:3.5755508 10777:2.7488723 10785:2.9957323 10837:5.913023 10841:4.1351666 10875:3.9120231 10922:5.521461 10957:4.4512482 11007:3.4974 11292:4.8283138 11366:0.010010013 11414:1.8078889 11443:2.8134108 11638:2.5510464 11967:0.034591444 11971:1.473069 11986:0.63487828 11988:1.8708026 11997:3.1235657 12033:1.9805017 12167:4.1351666 12169:1.469676 12189:1.551169 12768:1.1973282 12786:2.3025851 12846:4.6051702 12899:8.2703333 13033:0.80296206 13104:1.89712 13261:2.4213235 13320:3.9120231 13390:3.7297015 13541:7.6334257 13574:6.2146082 13590:1.4105871 13625:0.87707001 13648:11.042922 13863:2.7181005 14310:5.521461 14423:5.1159959 14471:2.453408 14630:0.43386459 14649:2.65926 14698:0.33128572 14725:3.5065579 14732:0.58698696 14820:2.8134108 15103:0.93649346 15217:27.631021 15218:12.429216 15220:1.1811812 15333:0.18392284 15531:3.9120231 15645:3.3813949 15673:1.469676 15677:0.45246866 15708:1.0825697 15847:2.2827826 15961:0.79850769 16006:6.2146082 16059:2.2788687 16357:2.4769385 16484:1.0729445 16672:1.5141277 16676:5.521461 16688:2.3859668 16852:1.2310015 16961:2.7806208 16966:6.7627897 17270:5.1159959 17271:3.1235657 17272:4.6051702 17274:4.8283138 17390:3.0365543 17865:4.4228487 18599:3.5065579 18603:1.6928195 18751:2.3859668 18756:6.2146082 18898:2.3227878 19108:5.1159959 19123:2.2633643 19205:7.6334257 19253:2.3683403 19493:2.2443161 19835:2.3025851 19856:1.469676 19930:4.2686977 19998:0.87227386 20057:2.9957323 20159:5.0020719 20221:5.521461 20276:1.910543 20318:4.1351666 20322:3.7297015 20417:3.2188759 20718:2.3859668 20745:1.0272223 20811:4.2686977 21114:5.1159959 21148:3.2188759 21226:6.2146082 21248:6.2146082 21316:1.0788096 21359:9.8105078 21360:4.8283138 21387:0.61989671 21505:2.0099156 21925:5.521461 21941:4.1351666 21993:2.9187713 21999:3.4420195 22071:5.1159959 22359:0.072878078 22380:0.68121862 22401:0.50749785 22403:1.3625778 22459:0.076881044 22501:5.521461 22573:5.1159959 22593:0.97552073 22605:1.4024237 22660:0.0080080107 22723:0.75077629 22763:4.6051702 23080:1.7037486 23365:2.9957323 23864:1.2849082 24144:4.6051702 24259:5.1159959 24265:0.73814452 24469:0.37396646 24496:6.6218247 24561:2.9187713 24583:4.0173836 24675:0.072878078 24743:3.7297015 24807:1.8838748 24987:3.5755508 #
-5.8950600247568158275394967215988e-05 8:0.44129333 156:0.29514146 157:0.28254965 164:1.5324769 553:1.2647835 554:2.1812882 738:3.5755508 751:4.6051702 753:0.57536417 876:1.3093333 1209:5.1159959 1262:1.9951004 1278:1.5994875 1370:4.2686977 1371:0.21072103 1484:0.96758401 1532:0.73396915 1539:1.3093333 1575:2.7806208 1607:2.9957323 1641:0.62781614 1748:0.35905308 1864:3.3242364 1920:2.2788687 2086:6.2146082 2093:0.72981119 2295:0.32275563 2382:10.231992 2384:1.1454021 2417:1.9519283 2596:5.1159959 2784:4.1351666 2934:6.2146082 2979:2.6310892 3155:5.521461 3217:5.1159959 3352:0.11950001 3376:0.25566673 3470:9.6566277 3472:0.51082563 3477:12.429216 3593:6.2146082 3648:3.1235657 3761:1.9241487 3800:6.2146082 4002:3.1700857 4073:5.1159959 4328:7.8240461 4330:6.2146082 4426:2.8473122 4672:4.8283138 4927:5.521461 4949:3.3813949 5024:3.1235657 5041:2.8134108 5094:6.2146082 5095:6.2146082 5157:4.1351666 5183:4.8283138 5337:6.2146082 5562:4.8283138 5582:1.8708026 5608:1.937942 5655:4.8283138 5659:6.2146082 5804:5.521461 5878:9.6566277 5912:3.5755508 5940:2.1715569 6396:0.52424866 6474:1.9241487 6554:1.1647521 6653:3.6496587 6668:3.5065579 6929:2.453408 6974:1.6194882 7010:2.2256241 7134:6.2146082 7439:0.76545125 7468:1.7147985 7876:4.4228487 8216:0.68915516 8400:2.65926 8445:7.6334257 8446:12.429216 8450:0.23545803 8455:2.9187713 8543:2.453408 8771:2.9565115 8832:3.3242364 8930:5.521461 8957:2.3227878 9024:2.7488723 9067:2.453408 9084:1.8325815 9187:2.5459313 9272:1.5232602 9523:6.2146082 9753:4.8283138 9825:0.44129333 9834:2.9565115 9893:0.48669252 9897:1.0613165 9901:2.0557251 9928:6.2146082 9976:3.2188759 10072:6.2146082 10079:2.5510464 10126:3.7677495 10196:0.57548147 10451:1.1841701 10645:0.34814003 10870:2.4304185 10923:6.2146082 11042:3.9120231 11133:1.4524342 11365:0.020020027 11383:1.0671136 11395:0.19370414 11400:0.35382187 11412:4.8283138 11413:1.4348798 11470:3.8210859 11621:1.4105871 11646:3.3242364 11712:3.2188759 11749:0.36816934 11911:11.450138 12141:4.6051702 12204:2.5035269 12299:2.3434072 12524:0.54887366 12528:2.5510464 12791:1.89712 13022:1.7147985 13028:3.8167129 13041:0.72981119 13056:3.270169 13082:1.0441241 13100:4.4145498 13163:6.2146082 13213:4.6051702 13479:2.9565115 13675:1.3862944 13842:5.521461 14016:0.33687231 14053:1.2397934 14056:2.4079456 14114:0.77631217 14138:11.042922 14146:3.6496587 14147:4.8283138 14150:1.217612 14242:1.551169 14395:2.0874736 14490:1.8526821 14496:1.0613165 14507:5.521461 14689:2.5257287 14716:0.84288412 14735:2.1576192 14944:2.7181005 15014:0.35211232 15039:0.17912666 15143:0.72481126 15219:1.307853 15231:0.24334626 15440:4.1351666 15603:2.9187713 15679:2.3859668 15814:1.4105871 16107:3.1700857 16140:1.2241755 16235:2.7488723 16627:4.0173836 17037:5.1159959 17133:3.7297015 17368:2.7806208 17546:5.521461 17604:2.2256241 17641:4.4228487 17643:4.0173836 17683:3.3813949 17773:4.2686977 17877:4.8283138 18041:1.3394108 18182:1.2801342 18455:4.8283138 18670:4.953877 18837:1.89712 18878:1.551169 18957:3.5755508 19035:2.0099156 19071:1.6607312 19080:3.1235657 19107:3.7677495 19439:5.1159959 19485:9.6566277 19578:6.2146082 19713:6.2146082 19777:2.65926 19838:6.2146082 19891:0.27180871 20067:5.521461 20215:3.3813949 20360:4.6051702 20369:1.6820086 20374:4.4228487 20388:1.8451602 20401:3.0365543 20416:4.8283138 20673:6.2146082 21007:1.6820086 21273:6.2146082 21334:2.3025851 21339:3.8167129 21409:5.521461 21490:4.0173836 21507:0.048585385 21532:0.77219039 21545:2.9827569 21559:0.98349947 21564:0.33407512 21597:3.7297015 21604:0.097569577 21611:1.1776555 21666:0.94160855 21796:4.2686977 22260:3.3242364 22275:6.2146082 22276:6.2146082 22296:2.0674655 22478:4.2686977 22528:5.1159959 22553:1.551169 22570:5.1159959 22623:6.2146082 22670:6.2146082 22790:2.7806208 22852:5.8375425 22882:4.8283138 23122:8.5373955 23212:4.6051702 23337:0.7256704 23437:0.77652878 23486:5.8375425 23519:0.30652517 23529:0.47481519 23544:4.8283138 23637:0.72981119 23726:0.15229604 23812:1.0051219 23868:4.1351666 23912:1.7372713 23981:1.5994875 23982:2.6882477 23987:1.2729657 24025:1.551169 #
9.9604130629399879035858200726494e-05 135:0.051293295 136:0.051293295 144:0.056056075 528:1.2849082 735:0.66257143 754:2.5010359 868:2.3859668 873:1.5050778 905:1.2801342 934:3.8167129 1111:3.1023381 1113:1.7259717 1251:1.5994387 1313:5.1159959 1317:2.1037343 1430:0.13696586 1590:0.7940731 1717:0.26477838 1778:2.2052407 1839:0.34866744 1943:0.17435339 2008:3.5755508 2176:3.8167129 2345:2.7488723 2389:0.16016875 2434:3.1940308 2440:1.461018 2458:0.71334988 2639:2.5892544 2741:3.7297015 2834:3.9120231 2920:2.3434072 2968:4.1351666 2986:4.6051702 2992:3.1235657 3037:0.99967235 3474:2.6036901 3487:0.32002664 3510:0.11428915 3571:1.9951004 3810:1.3093333 3816:2.8824036 3961:3.9120231 4162:3.6496587 4423:3.5065579 4437:2.9565115 4622:4.6051702 4682:1.3093333 4781:3.4420195 4812:2.6310892 4885:4.6051702 5084:2.8824036 5091:3.6496587 5244:8.0347672 5304:2.4769385 5341:1.3943266 5691:3.079114 5694:5.521461 5757:3.4420195 6029:4.4228487 6230:2.6310892 6464:2.65926 6538:5.521461 6544:2.8134108 6736:1.2925272 6759:2.1156592 6886:2.3434072 7173:1.3862944 7559:1.6502599 7606:2.2827826 7672:1.7037486 7803:3.5755508 7859:1.0552654 7909:4.2686977 8166:2.1715569 8231:3.8167129 8283:6.2146082 8508:1.0613165 8557:4.2686977 8567:2.5257287 8572:0.13010868 8589:2.9187713 8592:0.85331595 8655:0.64245409 8890:0.17163001 8919:6.2146082 9008:9.8105078 9144:0.17435339 9694:1.4439235 9724:0.60148001 9765:3.9038565 10106:0.83932972 10238:3.7297015 10260:3.9120231 10357:3.7297015 10374:0.55414379 10376:2.8134108 10530:5.1159959 10566:0.60148001 10809:3.5065579 10955:2.2256241 10967:0.81193072 11123:2.0212338 11167:6.8840389 11185:0.53785431 11320:4.7719336 11366:0.014014019 11621:11.042922 11747:1.3783262 11769:3.6496587 11857:3.3813949 11883:2.1715569 11951:1.3547957 11967:0.20754866 11971:1.964092 12182:2.6310892 12245:3.1235657 12376:4.8283138 12411:12.429216 12569:1.016111 12575:1.9805017 12664:2.2827826 12850:2.0874736 12894:1.820159 13071:0.35667494 13073:8.2703333 13075:2.8824036 13172:0.78965807 13344:2.2052407 13560:9.6566277 13562:1.9519283 13579:0.73814452 13586:0.99967235 13668:8.2703333 13670:4.1351666 14045:4.2686977 14116:3.1235657 14135:3.9120231 14257:4.6051702 14471:2.453408 14584:0.29840603 14698:0.66257143 14732:1.7609609 14818:6.2146082 14832:1.3862944 15056:2.9565115 15108:0.89159811 15139:1.9519283 15220:0.5905906 15333:0.36784568 15617:2.7181005 15706:4.8283138 15708:1.0825697 15726:2.1370707 15774:0.45255673 15788:1.9951004 15823:1.4961092 15870:1.7501889 15892:0.32296389 15961:0.79850769 16009:3.4420195 16062:3.5065579 16243:1.4105871 16272:3.0365543 16529:4.8283138 16852:2.462003 17008:2.5770218 17203:2.9565115 17307:2.5010359 17437:5.521461 17508:5.1159959 17676:2.9565115 17763:2.0557251 17803:1.3470737 18023:5.1159959 18058:1.2106618 18077:0.8580218 18332:2.1037343 18603:1.6928195 18793:1.1841701 18865:5.521461 19161:6.3401713 19164:6.2146082 19253:1.1841701 19397:0.93140435 19537:2.7408421 19622:4.6051702 19805:3.6496587 19844:3.1235657 19967:5.1540437 20098:10.948977 20476:5.1159959 20554:1.6928195 20585:4.4228487 20660:1.0190321 20739:0.449417 20745:2.0544446 20776:1.7487 21185:3.79424 21379:3.079114 21387:0.61989671 21395:3.1700857 21609:4.1351666 21642:2.1370707 21653:0.92634106 21809:1.6194882 22168:4.4228487 22305:4.8283138 22350:0.97552073 22359:0.12146346 22368:2.453408 22380:0.68121862 22386:1.7929763 22401:1.5224935 22420:1.7976809 22459:0.15376209 22593:0.48776037 22605:1.4024237 22660:0.014014019 22694:2.3859668 23055:3.4295969 23171:3.0365543 23174:2.1894336 23634:0.71334988 23717:4.1351666 23864:0.64245409 24222:0.97719043 24357:0.60148001 24371:5.521461 24410:1.1394343 24442:0.44005656 24457:0.35097691 24531:1.469676 24675:0.048585385 24707:1.8078889 24754:2.3227878 24766:0.98886144 24782:1.6607312 24919:2.9220359 24947:1.3019532 24967:0.40947312 24971:5.0514574 #
7.6032392376222597855581208925457e-05 3:0.32020527 44:4.4228487 135:0.10258659 136:0.10258659 144:0.052052069 146:3.6903205 189:3.1700857 205:3.8167129 359:3.1700857 498:6.2146082 517:0.49429631 518:1.9563323 527:3.5065579 528:0.64245409 722:1.7259717 766:6.2146082 839:7.459403 1110:3.6496587 1251:0.5331462 1413:2.6036901 1430:0.27393171 1595:1.910543 1717:0.13238919 1778:1.1026204 1839:0.15496331 2022:6.2146082 2024:1.1841701 2206:3.6496587 2389:0.64067501 2434:1.5970154 2494:1.8325815 2731:1.4961092 2742:5.521461 2799:5.521461 3018:3.2188759 3092:7.459403 3177:5.521461 3195:3.3813949 3208:4.8283138 3487:0.06400533 3510:0.11428915 3570:2.4304185 3597:4.2686977 4682:1.3093333 5083:4.2686977 5091:3.6496587 5200:6.2146082 5503:3.9120231 5512:2.8473122 5757:3.4420195 5873:1.4784096 6083:3.5755508 6087:4.0173836 6100:6.2146082 6218:4.2686977 6240:4.8283138 6248:3.1700857 6394:3.079114 6474:1.0272223 6759:1.4104395 6762:0.97816616 6840:4.8283138 7742:4.4228487 7831:3.8167129 7992:2.4769385 8572:0.26021737 8589:2.9187713 8711:3.6496587 8890:0.1287225 8951:2.6036901 9144:0.17435339 9194:1.4784096 9235:2.7806208 9484:3.5755508 9585:1.551169 9724:0.60148001 9767:6.2146082 10119:2.9187713 10339:0.19358476 10398:0.60267884 10566:1.20296 10873:3.3242364 11044:8.0347672 11123:0.33687231 11158:3.3242364 11185:1.0757086 11366:0.0080080107 11443:2.8134108 11449:2.6310892 11620:4.0173836 11828:3.079114 11909:3.7297015 11967:0.31132302 12188:6.2146082 12326:0.47803581 12487:2.5510464 12511:3.8167129 12771:5.521461 12776:4.6868143 12870:2.154165 13033:0.80296206 13071:0.71334988 13164:3.270169 13172:0.78965807 13245:37.287647 13274:2.9187713 13282:1.3167683 13325:2.0249534 13360:3.8167129 13503:1.0613165 13579:0.73814452 13680:5.521461 13758:11.450138 13886:1.9661129 13916:1.1394343 14300:1.6713133 14347:4.6819434 14515:1.9661129 14584:0.29840603 14698:2.319 14714:2.1111057 14732:1.1739739 15016:4.4145498 15103:0.93649346 15133:1.6713133 15220:0.5905906 15283:4.6051702 15333:0.36784568 15392:5.1159959 15523:4.8283138 15532:2.8473122 15572:0.88188928 15595:2.8134108 15608:1.8451602 15664:0.094310679 15677:0.30164579 15774:0.45255673 15823:1.4961092 15937:5.1159959 16078:2.7181005 16492:3.2797942 16495:2.7181005 16633:3.4420195 16852:1.2310015 17256:2.4079456 17676:2.9565115 17677:4.2686977 18126:4.2686977 18194:5.521461 18195:2.8134108 18735:5.521461 18953:6.2146082 19123:18.106915 19132:2.2072749 19134:2.453408 19344:2.4304185 19668:1.5798792 19677:1.1394343 19835:2.3025851 19998:1.7445477 20000:4.6051702 20499:4.8283138 20595:4.1351666 20660:0.67935473 20739:0.89883399 20742:2.4769385 20745:4.1088891 20748:1.9951004 20752:6.2146082 20829:2.5010359 21059:6.2146082 21294:6.2146082 21296:2.9187713 21568:2.2256241 21617:3.7297015 21632:5.521461 22192:5.1159959 22350:0.97552073 22359:0.14575616 22382:10.231992 22401:1.5224935 22459:0.23064314 22482:7.6334257 22514:2.5010359 22517:3.5755508 22642:3.3813949 22660:0.0080080107 22694:2.3859668 22817:4.0173836 22962:3.8167129 23017:4.0173836 23059:4.0804415 23151:6.3401713 23192:12.429216 23634:0.35667494 23864:0.64245409 23920:2.453408 24000:2.4769385 24222:0.97719043 24246:1.6713133 24265:0.73814452 24357:0.60148001 24472:1.3388613 24538:3.5065579 24551:5.521461 24574:1.1525068 24662:4.6051702 24675:0.19434154 24680:2.4769385 24967:0.81894624 25072:4.8283138 #
-2.5685807664488534353582072089495e-05 156:0.34433171 157:0.32964125 163:4.9196916 241:12.429216 507:4.8283138 565:1.130633 655:5.521461 656:12.429216 665:6.2146082 667:6.2146082 668:6.2146082 669:6.2146082 676:37.287647 677:6.2146082 698:11.042922 703:6.2146082 704:4.6051702 753:0.57536417 754:2.7806208 776:3.4420195 848:5.521461 893:4.4228487 909:1.1776555 986:4.4228487 1068:1.3167683 1103:5.521461 1146:3.8167129 1147:6.2146082 1202:1.1157178 1256:1.5050778 1286:1.7602608 1366:5.521461 1371:0.63216311 1426:4.4228487 1515:3.8167129 1571:3.270169 1641:0.62781614 1696:1.0216513 1711:4.2686977 1739:3.8167129 1748:0.20517318 1759:5.1159959 1779:4.8283138 1792:4.4228487 1808:4.6051702 1851:0.48050627 1874:4.0173836 1907:3.4420195 1920:1.1394343 2149:4.0173836 2295:0.21517043 2677:3.4420195 2687:2.6882477 2915:1.7372713 2958:3.9120231 2986:6.2146082 2988:6.2146082 2989:5.521461 3066:5.1159959 3376:0.25566673 3435:1.8708026 3472:0.51082563 3521:4.1351666 3644:2.6039064 3658:6.2146082 3747:4.6051702 3760:2.5010359 3842:2.8697596 3853:4.0173836 3933:4.8283138 4119:3.8167129 4214:2.7181005 4217:2.9565115 4426:2.8473122 4474:2.6788216 4476:1.2729657 4523:4.8283138 4629:3.1235657 4873:4.8283138 4898:2.9957323 4903:4.1351666 4907:4.2686977 5010:2.3295863 5050:3.7416053 5061:2.7566524 5147:5.1159959 5152:6.2146082 5277:3.270169 5391:5.1159959 5416:3.5065579 5429:3.3242364 5637:2.3434072 5874:2.7806208 5921:4.6051702 5940:2.1715569 6042:1.6502599 6425:0.83471072 6611:3.6496587 6619:3.2188759 6732:2.3025851 6819:1.6398971 7173:4.1312981 7255:3.7297015 7288:2.8473122 7331:4.6051702 7439:0.76545125 7468:1.7147985 7717:4.8283138 7795:6.2146082 7852:4.6051702 7879:3.8167129 7882:1.4961092 7917:3.1235657 7939:2.154165 7981:2.5010359 7983:6.7627897 8126:0.32503787 8128:1.5606477 8166:1.461018 8186:3.5065579 8262:4.4228487 8281:6.2146082 8374:4.1351666 8418:2.9957323 8421:3.3813949 8429:6.2146082 8450:0.094183214 8511:3.1235657 8524:4.8283138 8613:8.0347672 8639:3.3242364 8644:5.1159959 8683:0.50880837 8734:6.2146082 8760:1.4784096 8827:2.3434072 8913:5.1159959 8957:2.3227878 9009:0.99425226 9041:12.429216 9063:1.8078889 9072:5.6946244 9219:0.53785431 9250:6.2146082 9272:1.5232602 9472:4.4228487 9565:1.5417793 9600:0.86274999 9709:4.2686977 9740:4.4886322 9825:0.66194004 9847:6.1582279 9852:5.1159959 9866:0.52306014 10058:3.7297015 10067:0.90140212 10146:3.9120231 10172:1.5324769 10207:4.1749473 10403:4.0173836 10409:2.7806208 10440:4.4228487 10451:1.1841701 10512:1.8838748 10592:0.49180108 10633:3.4420195 10721:6.2146082 10742:6.2146082 10747:6.2146082 10798:2.6036901 10870:2.4304185 11173:2.7806208 11187:6.2146082 11252:0.46203545 11365:0.020020027 11395:0.077481657 11400:1.0614656 11637:2.3025851 11677:13.768078 11709:7.8240461 11749:0.36816934 11820:1.910543 11918:1.6296406 12008:0.88188928 12069:6.2146082 12204:1.2517635 12221:2.5770218 12236:2.9565115 12324:2.4079456 12491:1.2241755 12524:0.27443683 12730:1.3019532 12753:2.6882477 12864:3.5065579 13022:1.7147985 13041:0.72981119 13373:1.7037486 13436:0.95191789 13437:4.6051702 13489:2.5257287 13556:2.9957323 13690:3.6496587 13791:4.4228487 13959:5.521461 14016:0.67374462 14114:0.25877073 14131:3.0984735 14132:6.2146082 14428:6.2146082 14510:4.6051702 14543:6.2146082 14621:0.44316697 14713:4.2686977 14716:0.21072103 14764:1.0613165 14877:1.9241487 14878:2.3227878 14883:3.2188759 14922:0.74654794 14956:2.1715569 14983:2.6941473 15014:0.35211232 15027:1.4439235 15039:0.17912666 15066:2.6585815 15154:5.1159959 15155:2.2072749 15160:5.1159959 15196:5.521461 15220:6.2146082 15231:0.48669252 15524:3.8167129 15580:1.3943266 15825:1.8325815 16067:6.2146082 16094:2.6036901 16173:0.70927656 16328:2.6036901 16339:3.8167129 16389:2.8134108 16608:3.5065579 16644:16.540667 16704:2.7806208 16733:3.7297015 16743:2.3025851 17104:4.8283138 17127:6.2146082 17277:6.2146082 17349:3.3813949 17489:4.0173836 17523:4.4228487 17650:3.5065579 17776:5.521461 17848:4.8283138 17857:2.4769385 17858:3.7297015 18182:1.2801342 18197:11.253643 18275:5.1159959 18345:2.2633643 18580:1.2658482 18621:4.2686977 18622:6.2146082 18752:2.7566524 18879:2.154165 18888:4.1351666 18959:5.1159959 19033:2.1037343 19205:5.1159959 19340:0.95191789 19356:1.5141277 19372:1.9951004 19373:6.2146082 19965:2.0433025 19973:2.5257287 19995:5.521461 20008:2.1370707 20034:4.4228487 20356:2.8473122 20369:1.6820086 20490:4.1351666 20501:11.042922 20568:4.6051702 20576:3.8167129 20581:0.66943067 20661:3.8167129 20715:6.2146082 20850:1.935168 20886:3.3813949 20993:3.3813949 21088:5.521461 21224:6.2146082 21231:2.2633643 21234:2.1202636 21306:5.521461 21334:2.3025851 21374:5.913023 21377:6.4377518 21492:10.231992 21498:0.88633394 21507:0.17004885 21508:12.429216 21523:0.52424866 21564:1.0022253 21581:1.2106618 21586:2.2294834 21604:0.065046385 21821:1.7372713 21950:3.270169 22204:1.4188175 22260:3.3242364 22402:5.521461 22576:3.8167129 22614:7.1511016 22626:5.521461 23195:4.8283138 23214:3.3242364 23272:4.8283138 23292:0.28501895 23337:0.7256704 23361:2.1892564 23430:3.270169 23437:0.77652878 23477:1.0328245 23519:0.61305034 23521:0.74654794 23529:0.94963038 23531:5.1159959 23575:0.28312713 23581:1.5798792 23637:0.72981119 23681:10.231992 23726:0.18275525 23812:2.0102439 23848:1.5417793 23855:1.1667926 23981:1.5994875 23997:2.0874736 24015:0.68498063 24017:49.716866 24022:2.453408 24025:3.1023381 24056:5.521461 #
-5.5705185573786727547696689955004e-05 7:2.645668 8:0.88258666 62:6.2146082 68:6.2146082 131:6.2146082 156:0.49190244 157:0.47091606 553:0.4215945 798:2.8473122 1068:1.3167683 1142:5.521461 1202:0.22314355 1237:3.9120231 1251:1.3470737 1264:0.759287 1278:1.5994875 1371:0.10536052 1479:2.4304185 1532:0.73396915 1568:2.8824036 1574:2.5010359 1579:2.1892564 1641:0.50225288 1642:4.0173836 1696:1.0216513 1748:0.35905308 1802:4.0173836 1849:5.1159959 2180:9.2103405 2295:0.10758521 2363:1.7602608 2436:1.9519283 2508:11.042922 2783:6.2146082 2915:1.7372713 2967:5.1159959 3094:5.521461 3095:6.2146082 3114:4.2686977 3126:2.2827826 3352:0.11950001 3366:12.429216 3376:0.63916683 3505:2.8824036 3532:3.2188759 3610:14.026232 3644:2.6039064 3662:5.2073803 3826:0.67334455 3848:3.6496587 4476:1.2729657 4576:2.453408 4682:6.2146082 4742:5.521461 4789:5.1159959 5024:3.1235657 5041:2.8134108 5046:5.1159959 5284:4.4228487 5334:5.1159959 5442:12.429216 5767:3.4420195 5922:6.2146082 5926:6.2146082 5970:3.3813949 6062:13.268546 6134:6.2146082 6363:6.2146082 6402:5.1159959 6422:0.78965807 6466:0.86750054 6518:3.2188759 6526:6.2146082 6534:2.9957323 6543:7.2993174 6827:5.6946244 6930:2.7488723 7386:5.521461 7542:5.521461 7569:4.4228487 7678:4.4228487 7735:2.9565115 7826:3.0365543 7866:12.429216 8126:0.32503787 8150:0.93649346 8166:1.461018 8283:12.429216 8450:0.14127482 8631:3.2188759 8683:0.33920556 8760:1.4784096 8837:6.2471313 9072:2.8473122 9083:1.4188175 9192:1.1841701 9367:1.3862944 9807:12.429216 9808:6.2146082 9825:0.44129333 9855:11.042922 9893:0.24334626 9902:6.2146082 10044:3.7297015 10062:2.3479478 10067:0.90140212 10126:1.8838748 10152:3.9120231 10161:3.0365543 10169:1.2925272 10196:0.86322224 10243:5.521461 10342:2.2072749 10435:6.2146082 10437:6.2146082 10451:1.1841701 10808:4.8283138 10869:2.8824036 10897:4.8283138 10900:3.6496587 10994:4.4228487 11162:5.521461 11167:5.521461 11365:0.032032043 11395:0.11622249 11413:0.71743989 11427:5.3764954 11445:4.8283138 11446:6.2146082 11456:3.3813949 11470:7.6421719 11471:5.1159959 11600:3.7297015 11611:9.6566277 11637:4.6051702 11749:0.73633868 11750:3.9120231 11820:1.910543 11840:13.815511 12204:3.7552905 12781:3.0365543 12968:3.3813949 12971:6.2146082 13209:4.6051702 13242:4.4228487 13523:2.9957323 13689:6.2146082 14074:3.8167129 14114:0.77631217 14150:0.60880601 14202:4.8283138 14232:2.0249534 14395:2.0874736 14621:0.88633394 14678:2.154165 14716:0.42144206 14723:7.6334257 14788:4.0173836 14894:5.521461 14983:1.3470737 15014:0.35211232 15015:6.2146082 15021:4.0173836 15027:1.4439235 15066:1.1393921 15158:4.0173836 15416:5.521461 15534:6.2146082 15580:2.7886531 15806:4.4228487 15814:5.6423483 15858:3.7297015 15889:4.6455755 16130:1.2587811 16140:1.2241755 16308:5.521461 16653:4.6051702 17004:1.7037486 17251:1.469676 17452:6.2146082 17453:6.2146082 17555:3.5065579 17557:4.6051702 17733:6.2146082 17919:12.429216 18111:5.521461 18112:18.643824 18176:9.6566277 18182:1.2801342 18185:2.1715569 18262:5.521461 18356:6.2146082 18668:6.2146082 18778:2.1111057 18878:1.551169 18883:1.0788096 18901:4.8283138 19040:4.2686977 19107:1.8838748 19210:0.80743635 19269:4.8283138 19412:20.463984 19418:3.8167129 19501:5.521461 19544:14.484941 19769:2.0714734 20159:4.4228487 20214:4.2686977 20319:5.1159959 20352:2.7488723 20384:6.2146082 20505:1.120858 20622:12.429216 20642:2.7806208 20993:3.3813949 21059:4.1351666 21082:6.2146082 21229:1.4354846 21232:5.521461 21468:6.2146082 21507:0.072878078 21523:1.0484973 21532:0.77219039 21542:0.89257419 21559:0.98349947 21564:2.0044506 21604:0.097569577 21666:0.94160855 21839:5.3764954 22066:4.4228487 22246:31.07304 22247:12.429216 22447:1.6502599 22951:2.3434072 23087:3.9120231 23519:0.61305034 23529:0.47481519 23575:0.14156356 23586:2.7488723 23643:6.0731087 23672:11.042922 23726:0.030459208 23911:1.9519283 24031:1.3470737 #
-2.6576842248605688867699875510553e-05 64:6.2146082 98:6.2146082 104:6.2146082 150:6.2146082 156:0.54109269 157:0.5180077 163:1.6398971 219:5.1159959 323:5.521461 553:0.4215945 741:2.0874736 753:0.28768209 876:1.3093333 902:2.5770218 937:4.4228487 1058:0.57981849 1070:12.429216 1202:0.22314355 1264:0.759287 1278:1.5994875 1368:2.7806208 1371:0.10536052 1479:4.860837 1572:7.1511016 1579:2.1892564 1641:0.50225288 1748:0.56422621 1800:4.0173836 1809:3.9120231 1851:0.16016875 1895:5.521461 2180:4.6051702 2295:0.32275563 2340:12.429216 2364:3.1023381 2508:11.042922 2510:6.2146082 2525:0.99967235 2570:6.2146082 2600:2.9957323 2604:4.1351666 2829:12.429216 2833:20.463984 3094:11.042922 3226:18.643824 3352:0.29875001 3376:0.63916683 3433:2.5770218 3472:0.51082563 3610:14.026232 3695:4.4228487 3696:3.6496587 3715:5.1159959 3826:1.3466891 3842:0.71743989 3857:10.726652 3966:3.3242364 3996:5.521461 4258:2.2633643 4694:3.2188759 4871:4.8283138 4921:6.2146082 4922:6.2146082 4927:16.564383 5545:2.3859668 5563:1.6296406 5596:2.5770218 5620:2.9957323 5914:3.3813949 5921:4.6051702 6165:2.9957323 6234:2.9187713 6422:1.5793161 6490:2.9187713 6554:1.1647521 6573:5.521461 7142:5.1159959 7173:1.0328245 7242:5.1159959 7272:4.2686977 7388:1.9241487 7792:13.268546 8005:2.5257287 8021:3.1235657 8066:1.1270118 8126:0.48755679 8382:6.2146082 8450:0.094183214 8467:5.1159959 8612:4.4228487 8655:2.0874736 8683:0.50880837 8760:1.4784096 9153:2.032222 9192:2.3683403 9194:5.1159959 9219:0.53785431 9367:1.3862944 9462:2.0874736 9468:3.5755508 9825:0.44129333 9855:22.085844 9866:0.34870678 9878:12.429216 9893:0.73003876 10062:2.9349349 10169:1.2925272 10196:1.0070926 10316:6.2146082 10387:7.0131159 10444:10.231992 10451:2.3683403 10490:6.2146082 10517:7.2993174 10518:5.521461 10645:0.34814003 11078:6.2146082 11133:1.4524342 11202:2.2256241 11236:4.2686977 11252:0.46203545 11319:2.2827826 11365:0.028028037 11395:0.15496331 11413:0.71743989 11432:6.2146082 11445:19.313255 11470:3.8210859 11600:7.459403 11637:4.6051702 11840:18.420681 12008:0.88188928 12324:2.4079456 12338:3.5065579 12454:4.1351666 12639:2.0249534 12689:4.6051702 12792:1.4524342 12814:1.2517635 12975:0.99967235 13022:1.7147985 13030:4.8283138 13035:2.2256241 13052:1.5896353 13100:2.2072749 13165:6.2146082 13167:5.1159959 13256:11.042922 13380:6.2146082 13452:2.8473122 13690:3.6496587 13741:3.8167129 13772:3.1700857 13840:2.7806208 13897:4.1351666 13950:1.6194882 13980:2.9957323 13994:4.1351666 13998:8.0347672 14053:0.61989671 14063:2.1715569 14114:0.77631217 14150:0.60880601 14271:6.2146082 14496:1.0613165 14532:1.820159 14716:0.84288412 14735:1.0788096 14813:18.643824 15014:0.49295726 15027:2.8878469 15066:0.37979737 15143:0.36240563 15155:2.2072749 15231:0.73003876 15297:0.88188928 15333:5.1159959 15580:4.1829796 15649:5.1159959 15672:5.521461 15814:2.8211741 15816:6.1206627 16037:9.6566277 16199:14.484941 16306:2.0402207 16499:5.1159959 16503:4.6051702 16508:6.2146082 16592:5.521461 17064:2.0874736 17108:3.0365543 17110:4.4228487 17251:1.469676 17339:5.1159959 17696:8.5373955 17752:5.1159959 17813:5.1159959 17896:3.0365543 17987:5.3185201 18182:1.2801342 18185:2.1715569 18262:5.521461 18292:6.2146082 18630:1.0106014 18785:5.1159959 18819:5.521461 18883:1.0788096 19071:1.6607312 19210:0.80743635 19412:20.463984 19501:11.042922 19502:6.2146082 19508:1.2873545 19565:2.65926 19708:4.0173836 19769:2.0714734 19891:0.27180871 19937:3.1700857 19953:0.75959474 19973:5.0514574 20058:24.858433 20059:6.2146082 20312:4.4228487 20356:2.8473122 20392:3.270169 20588:2.9187713 20664:3.8167129 20666:4.0173836 20713:5.521461 20838:2.5010359 20850:0.96758401 20869:6.8840389 20888:5.1159959 20993:3.3813949 21226:2.3227878 21232:5.521461 21460:3.9120231 21507:0.072878078 21523:0.52424866 21524:0.7256704 21542:0.4462871 21564:0.33407512 21592:2.6310892 21604:0.13009277 21780:3.1235657 21782:3.9120231 21825:12.052151 22123:1.6928195 22162:2.6036901 22203:2.1202636 22296:1.3783103 22556:2.9187713 22589:4.8283138 22790:2.7806208 22955:1.7637786 22974:12.429216 23007:5.521461 23011:2.7181005 23292:0.5700379 23353:6.2146082 23354:6.2146082 23370:5.1159959 23519:0.30652517 23521:0.74654794 23527:2.5257287 23532:0.83471072 23575:0.14156356 23595:1.8708026 23598:1.1270118 23618:3.6403179 23620:6.2146082 23637:0.72981119 23643:6.0731087 23672:5.521461 23684:11.042922 23726:0.12183683 23731:6.2146082 23771:2.2633643 23774:3.8167129 23812:1.0051219 23815:4.8283138 23855:0.58339632 24031:1.3470737 #
-0.00014057177969191111174124264593388 8:1.3238801 156:0.29514146 157:0.28254965 307:5.521461 404:5.521461 565:0.37687767 876:1.3093333 1278:1.5994875 1371:0.10536052 1537:1.6928195 1641:0.25112644 1809:3.9120231 1851:0.16016875 2056:3.1700857 2066:1.0671136 2295:0.32275563 2323:3.8167129 2936:1.461018 3011:3.6496587 3145:4.6051702 3352:0.059750006 3826:0.67334455 3908:3.0365543 4096:2.8824036 4453:5.1159959 4607:2.6036901 4941:3.8167129 5010:0.77652878 5014:2.2633643 5170:3.7297015 5952:3.9120231 6075:4.8283138 6290:5.521461 6490:2.9187713 6732:2.3025851 6867:4.8283138 6929:2.453408 6933:1.7957675 7010:2.2256241 7274:2.1892564 7439:0.38272563 7441:3.7297015 7628:2.3859668 7833:2.2072749 7872:2.453408 7920:2.8473122 7970:3.2188759 7981:2.5010359 8126:0.48755679 8288:2.5010359 8443:3.8167129 8450:0.18836643 8683:0.16960278 8739:1.6398971 8760:1.4784096 8934:4.4228487 9003:0.56563383 9009:0.99425226 9184:8.0347672 9185:6.2146082 9192:1.1841701 9219:0.53785431 9600:0.86274999 9825:0.44129333 10124:4.2686977 10196:0.14387037 10373:5.1159959 10592:0.24590054 10645:0.34814003 11252:0.46203545 11365:0.006006008 11395:0.038740829 11491:4.0173836 11637:2.3025851 11744:4.2686977 11749:0.36816934 12131:2.6036901 12671:5.1159959 12814:1.2517635 13048:1.1520131 13191:4.6051702 13344:3.3242364 13382:4.6051702 13638:1.937942 13675:1.3862944 13970:3.3242364 14016:0.33687231 14189:6.2146082 14490:0.92634106 14496:1.0613165 14621:0.88633394 14956:2.1715569 14983:1.3470737 15014:0.14084493 15039:0.17912666 15066:0.37979737 15219:0.65392649 15435:4.2686977 15562:3.270169 16062:6.2146082 17299:5.521461 17333:1.1907276 17363:1.5702173 17478:4.1351666 18480:1.2106618 18752:1.3783262 18840:5.1159959 18873:1.89712 18878:1.551169 18898:6.2146082 18995:1.5994875 19095:6.2146082 19953:0.37979737 20035:3.7297015 20215:3.3813949 20581:0.66943067 20833:4.6051702 21124:5.521461 21248:3.9120231 21498:0.44316697 21507:0.024292693 21542:0.4462871 21604:0.097569577 21821:1.7372713 21955:2.3859668 22019:5.1159959 22052:6.2146082 22225:6.2146082 22409:3.2188759 23248:1.4439235 23303:2.2256241 23532:0.83471072 23575:0.14156356 23598:1.1270118 23726:0.030459208 23810:2.3434072 23855:1.1667926 23911:1.9519283 23987:1.2729657 24008:2.6036901 24015:0.34249032 24031:1.3470737 #
-0.00014057177969191111174124264593388 7:1.7637786 8:0.88258666 156:0.34433171 157:0.32964125 201:2.5257287 210:2.9187713 447:2.8824036 1058:0.57981849 1149:3.3242364 1254:2.453408 1321:10.231992 1368:2.7806208 1371:0.21072103 1532:0.73396915 1537:1.6928195 1641:0.12556322 1672:4.4228487 1717:4.1351666 1748:0.20517318 1810:6.2146082 1883:3.2188759 2038:4.2686977 2245:2.2256241 2295:0.10758521 2393:1.0498221 2549:1.2241755 2611:6.8840389 3352:0.059750006 3376:0.12783337 3556:1.8578993 3644:1.3019532 3678:3.5065579 3827:3.4420195 3842:0.71743989 3853:4.0173836 4023:6.2146082 4056:3.1235657 4324:5.1159959 4451:6.2146082 4474:1.3394108 4649:12.429216 4864:2.8824036 5181:2.3644605 5224:6.2146082 5317:11.736069 5318:5.521461 5373:4.6051702 5374:5.521461 5409:4.1351666 5843:6.2146082 6071:1.461018 6162:2.1037343 6166:0.86274999 6343:4.4228487 6367:4.4228487 6466:0.86750054 6891:3.5065579 6908:3.0365543 6953:6.2146082 7122:4.4228487 7252:1.1457039 7264:5.521461 7574:8.8456974 7618:2.5510464 7883:6.2146082 7888:6.2146082 8066:2.2540236 8113:3.5065579 8128:1.5606477 8258:6.2146082 8450:0.094183214 8512:3.7297015 8562:5.1159959 8691:6.2146082 8760:1.4784096 8896:4.4228487 9085:2.3227878 9119:6.2146082 9328:4.4228487 9329:4.4228487 9552:5.521461 9570:5.1159959 9571:5.521461 9725:3.8167129 9866:0.17435339 9893:0.48669252 10036:1.6094379 10179:4.6051702 10196:0.14387037 10253:3.8167129 10405:4.0173836 11321:2.8824036 11365:0.0080080107 11383:1.0671136 11395:0.077481657 11400:0.70764375 11614:3.0365543 11621:1.4105871 11666:5.521461 11705:5.1159959 11709:3.9120231 11739:5.1159959 12100:3.3813949 12197:4.0173836 12238:2.453408 12423:2.1370707 12524:0.27443683 12730:1.3019532 12824:3.270169 13096:3.3242364 13149:6.2146082 13494:6.2146082 13980:2.9957323 14114:0.77631217 14153:6.2146082 14320:5.521461 14406:3.2188759 14877:1.9241487 14985:5.1159959 15014:0.070422463 15033:6.2146082 15045:3.6496587 15053:3.270169 15066:0.37979737 15095:2.2633643 15143:0.36240563 15151:6.2146082 15861:2.9957323 15889:2.3227878 15943:4.1351666 16388:2.3025851 16505:2.2072749 16536:2.2827826 16572:3.2188759 16855:5.1159959 16908:6.2146082 17092:4.2686977 17423:4.6051702 17531:6.2146082 17663:2.5010359 17926:2.0249534 18124:8.8456974 18187:3.5065579 18203:5.2073803 18226:2.3859668 18234:3.4420195 18261:6.2146082 18547:3.3813949 18595:5.521461 18770:6.2146082 18869:0.75077629 19162:3.3242364 19356:1.5141277 19568:2.9187713 19765:5.521461 19891:0.27180871 19985:5.1159959 20057:5.1159959 20364:4.1351666 20388:1.8451602 20472:3.9120231 20581:0.66943067 20661:3.8167129 20722:2.8134108 20912:5.521461 20954:3.9120231 21044:3.8167129 21112:11.042922 21236:2.6036901 21386:6.2146082 21507:0.072878078 21523:0.52424866 21524:0.7256704 21559:0.98349947 21564:1.0022253 21566:4.6051702 21567:1.7372713 21604:0.032523192 21614:1.8578993 21828:5.521461 21866:0.74654794 22210:5.521461 22245:1.7837913 22447:1.6502599 22501:4.8283138 22726:5.521461 22730:0.38272563 22821:4.8283138 22897:3.6496587 22960:3.3813949 23211:4.6051702 23300:2.0557251 23303:2.2256241 23358:0.64245409 23505:0.75375533 23519:0.30652517 23542:4.8283138 23575:0.14156356 23600:5.521461 23726:0.030459208 23775:2.0874736 24079:4.4228487 24081:11.042922 #
-4.3490748801470080920489325038147e-05 8:0.44129333 156:0.24595122 157:0.23545803 553:0.4215945 840:4.0173836 909:1.1776555 1058:0.57981849 1202:0.22314355 1256:1.5050778 1371:0.21072103 1394:4.0173836 1479:2.4304185 1532:0.73396915 1539:1.3093333 1637:5.521461 1641:0.50225288 1645:2.1715569 1712:3.8167129 1748:0.10258659 1759:5.1159959 1767:3.0365543 1802:4.0173836 1851:0.16016875 1920:1.1394343 2066:1.0671136 2093:1.4596224 2295:0.53792608 2347:2.3227878 2393:1.0498221 2420:1.0498221 2437:4.2686977 2461:4.0173836 2544:1.0441241 2600:2.9957323 2608:6.2146082 2638:4.1351666 2801:3.5065579 2896:4.2686977 2915:1.7372713 3008:6.2146082 3020:4.1351666 3171:6.1582279 3221:3.7297015 3280:5.521461 3352:0.059750006 3376:0.12783337 3462:3.5065579 3532:3.2188759 3568:5.521461 3609:5.521461 3612:3.5755508 3644:1.3019532 3721:6.2146082 3749:3.270169 3780:6.2146082 4474:1.3394108 4544:3.5755508 4791:3.9120231 5039:3.4420195 5429:3.3242364 5637:2.3434072 5681:27.607306 5682:37.287647 5831:2.9957323 6090:2.0714734 6191:2.8473122 6231:2.8473122 6250:6.2146082 6282:3.3813949 6311:5.521461 6396:0.52424866 6427:2.5257287 6434:4.1351666 6543:3.6496587 6565:4.2686977 6741:2.453408 6745:4.2686977 6768:4.0173836 7025:5.521461 7059:11.042922 7254:5.1159959 7270:6.2146082 7276:2.5770218 7287:1.9519283 7351:3.4420195 7569:4.4228487 7628:2.3859668 7788:1.2801342 7824:4.4228487 7859:6.4377518 8087:5.521461 8126:0.32503787 8150:0.93649346 8167:7.6334257 8226:5.521461 8475:4.0173836 8506:2.7488723 8525:3.8167129 8539:5.1159959 8585:3.8167129 8683:0.16960278 8760:1.4784096 9011:6.2146082 9153:1.016111 9219:0.53785431 9744:2.1370707 9825:0.44129333 9866:0.17435339 9872:6.2146082 9893:0.24334626 9901:2.0557251 10009:6.2146082 10067:0.90140212 10121:4.4228487 10196:0.28774074 10281:1.7147985 10356:4.1351666 10633:3.4420195 10960:4.0173836 11091:4.4228487 11133:5.8097367 11205:2.8211741 11252:0.46203545 11275:6.2146082 11309:5.521461 11365:0.012012016 11383:2.1342273 11395:0.11622249 11400:0.70764375 11413:0.71743989 11423:3.270169 11560:4.6051702 11621:1.4105871 11749:1.1045079 12009:3.9120231 12166:6.2146082 12230:2.3025851 12524:0.27443683 12567:1.7957675 12864:3.5065579 13485:10.524357 13538:4.1351666 13575:2.7806208 13713:4.6051702 13802:4.8283138 13858:4.2686977 13935:2.0402207 14016:0.33687231 14080:4.1351666 14150:0.60880601 14352:4.1351666 14360:2.8473122 14395:4.1749473 14490:0.92634106 14496:1.0613165 14621:0.44316697 14716:0.63216311 14983:1.3470737 15039:0.53737998 15066:0.37979737 15102:5.521461 15143:0.72481126 15219:1.307853 15228:4.8283138 15234:6.2146082 15371:5.521461 15376:6.2146082 15428:4.1351666 15468:3.1235657 15562:16.350845 15580:5.5773063 15679:2.3859668 15779:1.0051219 15803:2.6882477 15922:12.806094 16022:6.2146082 16094:2.6036901 16123:1.7837913 16173:0.70927656 16459:6.2146082 16670:3.4074972 17209:24.858433 17251:1.469676 17353:4.1351666 17449:5.1159959 17503:3.8167129 17683:3.3813949 17790:4.4228487 17857:2.4769385 18193:3.7297015 18284:3.270169 18348:6.2146082 18883:1.0788096 19071:1.6607312 19094:3.9322257 19338:2.5257287 19495:5.521461 19499:1.89712 19662:4.8283138 19716:6.2146082 19984:10.231992 20008:2.1370707 20218:3.6496587 20455:5.1159959 20480:2.7181005 20483:6.2146082 20581:0.66943067 20598:2.4304185 20660:5.1159959 20738:4.6051702 20743:5.1159959 20753:1.7957675 20917:4.6051702 20998:1.7602608 21009:16.564383 21233:2.65926 21334:2.3025851 21366:4.2686977 21498:0.88633394 21507:0.048585385 21523:1.0484973 21524:2.177011 21545:1.9885045 21564:0.66815025 21567:1.7372713 21604:0.032523192 21611:1.1776555 21622:4.6051702 21878:2.0557251 22279:4.0173836 22296:2.0674655 22315:2.6036901 22553:3.1023381 22730:0.38272563 22746:2.1892564 22805:4.8283138 22852:2.9187713 23212:4.6051702 23252:1.8325815 23337:1.4513408 23346:2.6036901 23403:3.4420195 23519:0.30652517 23521:1.4930959 23529:1.4244455 23575:0.14156356 23726:0.15229604 23837:6.2146082 23855:0.58339632 23929:16.564383 23993:12.429216 24015:0.34249032 24019:2.453408 #
0.00014057177969191111174124264593388 3:3.2020526 135:0.46163964 136:0.46163964 144:0.040040053 145:2.9922185 193:2.7806208 199:3.1700857 491:3.4420195 820:4.8283138 1000:2.8824036 1226:5.1159959 1317:2.1037343 1430:0.27393171 1529:5.521461 1530:0.97286111 1778:1.1026204 1808:5.1159959 1839:0.11622249 1943:0.17435339 1993:2.0874736 2035:6.2146082 2050:6.2146082 2051:5.1159959 2077:5.521461 2167:1.0729445 2389:0.16016875 2535:12.429216 2871:6.2146082 3021:2.9187713 3028:3.1700857 3487:0.19201599 3510:0.11428915 3548:4.6051702 3988:2.2633643 4311:6.2146082 4416:2.5257287 4476:9.6566277 4530:4.2686977 4689:1.5232602 4904:5.521461 4922:11.042922 5087:6.2146082 5262:5.521461 5300:0.96758401 5342:3.4420195 5478:6.2146082 5784:7.0131159 6076:3.2188759 6088:2.5010359 6159:11.042922 6474:1.0272223 6544:2.8134108 6548:5.521461 6554:5.521461 6648:6.2146082 6677:5.521461 6759:0.70521975 7031:3.7297015 7293:2.154165 7348:3.9120231 7459:4.2686977 7532:4.8283138 7586:2.7806208 7859:0.52763271 7889:1.5896353 7898:3.9120231 7935:5.521461 8216:1.2801342 8221:9.6566277 8320:4.1351666 8321:5.521461 8455:5.1159959 8592:0.85331595 8612:1.8078889 8642:4.6051702 8783:5.521461 8835:2.6036901 8857:5.521461 8898:2.3644605 9038:3.7297015 9041:5.521461 9051:4.4228487 9096:3.5065579 9125:3.6496587 9144:0.17435339 9373:4.6051702 9380:6.540338 9478:9.2103405 9497:0.61248928 9695:1.2447948 9832:4.6051702 9833:4.6051702 9972:6.2146082 10398:0.80357176 10401:2.4347916 10403:2.0874736 10680:2.1370707 10697:1.4188175 10727:0.95026827 10797:1.6928195 10828:5.521461 10830:4.6051702 11114:5.1159959 11185:0.53785431 11366:0.010010013 11469:5.521461 11810:6.2146082 11813:0.91141266 11826:4.4228487 11967:0.034591444 11971:0.491023 12169:4.4090281 12639:2.9957323 12757:6.2146082 12826:5.1159959 12869:6.2146082 13002:6.2146082 13071:0.35667494 13221:4.8283138 13255:3.4420195 13322:3.5065579 13449:5.1159959 13486:4.4228487 13561:6.2146082 13625:1.75414 13634:5.1159959 14206:5.521461 14207:5.521461 14271:5.1159959 14353:5.1159959 14630:0.43386459 14698:0.33128572 14739:5.1159959 14898:1.9241487 15046:3.5755508 15333:0.36784568 15532:2.8473122 15582:6.2146082 15664:0.28293204 15677:0.15082289 15708:1.0825697 15727:4.6051702 15774:0.45255673 16059:1.1394343 16186:4.4228487 16257:2.0714734 16414:6.2146082 16474:6.2146082 16485:1.5232602 16492:1.6398971 16642:4.6051702 16706:18.643824 16707:12.429216 16820:5.1159959 16961:2.7806208 17139:6.2146082 17219:6.2146082 17320:4.2686977 17565:5.521461 17845:6.2146082 18018:6.2146082 18513:5.1159959 18615:4.0173836 18691:2.2256241 18781:3.9120231 18849:3.3242364 19134:2.453408 19217:6.2146082 19736:5.521461 19890:2.2827826 19898:5.4977446 19998:1.7445477 20191:4.2686977 20618:6.2146082 20660:0.67935473 20758:2.0557251 21156:6.2146082 21188:2.1037343 21555:4.6051702 21659:2.7181005 21682:3.6496587 21689:4.0173836 21782:4.4228487 21852:3.6496587 22210:3.8167129 22359:0.048585385 22377:0.48776037 22380:0.68121862 22386:0.89648813 22432:5.521461 22459:0.076881044 22660:0.012012016 23763:6.2146082 23796:6.2146082 23838:6.2146082 24457:0.70195383 24507:0.16251893 24546:5.1159959 24675:0.048585385 24727:3.5065579 24847:3.6496587 #
0.00014057177969191111174124264593388 2:1.2801342 3:0.64041054 135:0.051293295 136:0.051293295 144:0.03003004 517:0.49429631 1099:0.638659 1102:5.521461 1113:1.7259717 1205:4.0173836 1251:0.2665731 1321:1.6135629 1343:1.4784096 1430:0.13696586 1631:3.079114 1717:0.26477838 1839:0.11622249 1943:0.17435339 2116:2.9568193 2489:3.5755508 2501:3.8167129 2727:4.8283138 3037:0.99967235 3291:23.472137 3580:6.2146082 3590:3.2188759 3702:2.5257287 4223:4.8283138 4257:6.2146082 4324:4.4886322 4689:1.5232602 4703:1.9519283 5182:3.6496587 5342:3.4420195 5372:4.6051702 5415:3.6496587 5497:6.2146082 5882:4.1114502 5953:5.521461 6021:4.8283138 6022:5.1159959 6072:4.6051702 6901:1.2241755 7121:1.3167683 7155:3.3813949 7198:2.8134108 7205:6.2146082 7645:3.270169 7716:3.7297015 7846:6.2146082 7873:1.3394108 7956:2.0557251 8036:3.1700857 8081:3.5755508 8426:2.3227878 8572:0.13010868 8685:2.4079456 8874:3.3813949 8890:0.042907503 8943:2.3025851 9144:0.17435339 9219:1.4439235 9275:3.7297015 9835:4.0173836 10339:0.19358476 10398:0.40178588 10401:1.2173958 10663:7.8240461 10680:2.1370707 10727:0.47513413 11122:5.521461 11240:4.0173836 11325:2.4769385 11366:0.016016021 11971:1.473069 11986:0.63487828 12268:9.6566277 12270:4.8283138 12828:3.4420195 12886:2.7806208 12960:1.6296406 13033:1.6059241 13188:2.0557251 13347:6.2146082 13490:6.2146082 13701:0.81644541 14151:4.6051702 14300:1.6713133 14630:0.43386459 14698:0.66257143 14832:1.3862944 15117:4.1351666 15664:0.37724271 16104:4.2686977 16255:2.9187713 16287:4.0173836 16672:1.5141277 16808:6.2146082 16921:3.6496587 17006:4.4228487 17313:3.3813949 17517:5.521461 17680:6.2146082 18433:4.8283138 18560:4.8283138 18830:4.2686977 19317:4.0173836 19402:0.90140212 19537:1.3704211 20063:5.521461 20492:4.0173836 21185:1.89712 21451:4.8283138 22039:1.0498221 22124:5.521461 22359:0.024292693 22417:0.87707001 22660:0.0080080107 22755:11.189104 22975:3.9120231 23079:2.0874736 23166:3.4420195 23174:0.72981119 23415:4.0173836 23634:0.71334988 23916:2.6882477 23956:5.1159959 23990:3.270169 24117:4.6051702 24132:3.9120231 24459:0.85331595 24472:0.66943067 24507:0.48755679 24675:0.024292693 24811:3.3813949 24846:4.8283138 24971:2.5257287 24984:1.2106618 #
0.00014057177969191111174124264593388 3:0.64041054 144:0.016016021 320:5.521461 905:1.2801342 1251:0.2665731 1361:2.3434072 1497:5.8375425 1590:0.7940731 1943:0.17435339 2187:6.2146082 2252:3.1700857 2459:4.8283138 2511:3.8167129 2652:2.4769385 2669:6.2146082 2670:6.2146082 3099:6.2146082 3312:5.9914646 3510:0.11428915 4324:2.2443161 4388:14.484941 4800:5.521461 4891:4.4228487 6328:4.0173836 6623:3.7297015 6762:0.97816616 7054:4.8283138 7656:1.9661129 7817:3.3242364 7859:0.52763271 7873:1.3394108 8463:2.8824036 8880:5.521461 8882:6.0731087 9042:2.8473122 9043:5.1159959 9144:0.17435339 10039:5.1159959 10130:5.521461 10167:4.2686977 10430:2.5770218 10553:5.521461 10727:0.11878353 10954:2.1892564 11127:1.8708026 11366:0.0040040053 11967:0.069182888 13071:0.71334988 13282:1.3167683 13289:1.9241487 14015:3.8167129 14082:2.9565115 14607:6.2146082 14631:2.2827826 14698:0.66257143 15108:0.89159811 15728:2.3644605 15774:0.45255673 15870:0.58339632 15909:6.2146082 15921:4.2686977 16137:6.2146082 16484:1.0729445 16844:1.4105871 16846:6.2146082 18300:6.2146082 18603:1.6928195 20164:1.7259717 20299:6.2146082 20728:6.2146082 21790:6.2146082 22324:4.4228487 22359:0.024292693 22459:0.15376209 22494:1.5417793 22657:6.2146082 23634:0.35667494 23759:2.9187713 23864:0.64245409 23916:2.6882477 24029:2.4769385 24675:0.09717077 24963:2.6882477 25021:6.2146082 25072:4.8283138 #
0.00014057177969191111174124264593388 135:0.10258659 136:0.10258659 144:0.020020027 193:2.7806208 363:2.453408 517:0.49429631 528:3.2122703 738:2.453408 864:6.2146082 1099:1.277318 1111:1.551169 1251:0.2665731 1309:2.5510464 1321:1.0757086 1430:0.13696586 1530:1.9457222 1717:0.26477838 2389:0.16016875 2434:0.79850769 3167:2.7181005 3296:2.5510464 3382:6.2146082 4150:2.2633643 4161:2.3227878 4197:6.2146082 4365:2.4769385 4695:1.1973282 4728:4.1351666 4772:4.2686977 4981:5.1159959 4985:4.2686977 5210:2.9957323 5283:4.8283138 5874:6.2146082 5920:1.8451602 6759:1.4104395 6811:2.0996442 6901:1.2241755 7042:6.2146082 7219:2.5010359 7814:6.2146082 7859:0.52763271 7974:4.6051702 8071:4.4228487 8216:1.2801342 8613:3.9038565 8825:5.521461 8890:0.17163001 8936:6.2146082 9505:1.2447948 9698:6.2146082 9828:4.6051702 9900:4.8283138 10253:2.5010359 10339:0.38716951 10378:1.5994875 10445:6.2146082 10566:0.60148001 10674:6.2146082 10727:0.11878353 11000:5.521461 11075:2.5257287 11123:0.33687231 11153:3.4420195 11340:4.8283138 11366:0.016016021 11967:0.069182888 12106:6.2146082 12642:4.6051702 12773:6.2146082 12863:6.2146082 12870:2.154165 12954:4.1351666 12967:4.1351666 13033:0.80296206 13164:3.270169 13207:4.8283138 13247:6.2146082 13261:1.2106618 13322:3.5065579 13586:0.99967235 13916:1.1394343 14092:3.4420195 14209:4.1351666 14300:1.6713133 14408:3.5065579 14636:1.8838748 14698:1.3251429 14732:0.58698696 14850:2.2052407 14896:2.0099156 15084:3.5755508 15220:1.1811812 15333:0.73569137 15549:7.6334257 15664:0.094310679 15673:1.469676 15677:0.75411445 15708:0.54128486 15774:1.3576702 15792:3.8167129 16454:6.2146082 16484:1.0729445 16593:4.6051702 16851:1.7957675 16852:1.2310015 17375:1.4872203 17710:2.6310892 18031:2.9565115 18419:4.2686977 18666:6.2146082 18944:1.1086626 19210:1.9241487 19358:1.2173958 19628:1.8325815 19780:4.4228487 19805:3.6496587 19998:1.7445477 20660:1.0190321 20745:1.0272223 20806:2.2827826 21190:3.4420195 21520:5.521461 22039:1.0498221 22093:6.2146082 22171:4.4228487 22249:6.2146082 22359:0.21863423 22380:0.68121862 22401:0.50749785 22438:1.2729657 22459:0.30752417 22482:3.8167129 22519:4.2686977 22660:0.010010013 22680:4.8283138 22965:4.4228487 23368:4.1351666 23634:0.35667494 23811:5.1159959 23864:0.64245409 24171:1.5994875 24248:2.7488723 24357:0.60148001 24442:0.44005656 24457:1.4039077 24466:2.4079456 24507:0.16251893 24525:4.6051702 24553:3.1597583 24574:0.57625341 24675:0.048585385 24947:1.3019532 24984:1.2106618 #
5.7204463634545038683461293249621e-05 2:3.8404026 3:2.5616422 44:4.4228487 135:0.41034636 136:0.41034636 144:0.082082108 161:5.1159959 429:6.2146082 518:0.97816616 528:2.5698164 720:2.8824036 735:0.66257143 927:2.8134108 1017:3.0365543 1099:1.277318 1108:5.1159959 1111:1.551169 1150:3.3813949 1251:0.2665731 1340:4.2686977 1430:0.54786342 1496:11.982929 1497:2.9187713 1526:4.1351666 1540:6.2146082 1590:0.7940731 1768:4.8283138 1772:2.9957323 1778:1.1026204 1839:0.038740829 1943:0.34870678 2004:3.7297015 2139:3.7297015 2440:1.461018 2526:5.521461 2639:1.2946272 2911:4.6051702 3487:0.25602132 3510:0.5714457 3571:1.9951004 3620:0.48776037 3802:3.9038565 3876:6.2146082 3929:2.9187713 4011:1.3624372 4030:4.0173836 4095:5.1159959 4149:6.2146082 4175:5.521461 4426:5.521461 4477:3.8167129 4674:5.521461 4695:1.1973282 4719:3.6496587 4860:4.6051702 5332:2.0402207 5346:4.2686977 5458:2.8473122 5557:3.3813949 5695:5.521461 5717:3.079114 5843:2.7806208 5856:1.910543 5992:5.521461 6599:6.540338 6600:7.459403 6611:5.521461 6672:4.4228487 6694:6.2146082 6886:2.3434072 6901:1.2241755 6938:3.7297015 7060:3.9120231 7080:2.3025851 7186:2.2827826 7252:3.4420195 7370:2.8824036 7497:3.9120231 7580:3.1235657 7687:5.1159959 7727:3.5065579 7883:1.1086626 7891:1.6194882 7956:2.0557251 8201:2.154165 8277:4.8283138 8280:1.4784096 8353:2.6310892 8371:1.6928195 8372:3.6496587 8422:2.3859668 8426:2.3227878 8463:2.8824036 8466:6.2471313 8508:2.122633 8572:0.13010868 8836:3.8167129 8874:3.3813949 8890:0.1287225 8957:6.540338 8958:6.2146082 9144:0.52306014 9186:4.8283138 9257:6.2146082 9583:1.7147985 9662:1.016111 9695:1.2447948 9721:3.7297015 9866:0.91130316 9978:6.2146082 10038:5.1159959 10213:4.4228487 10252:2.3434072 10268:3.1597583 10339:0.19358476 10374:0.27707189 10566:2.40592 10597:2.9565115 10606:6.2146082 10611:2.7181005 10659:6.2146082 10670:3.9120231 10880:5.521461 10906:2.2256241 10954:2.1892564 10967:0.81193072 10973:1.0906441 11032:3.3242364 11054:4.8283138 11125:2.7181005 11185:0.53785431 11233:3.5065579 11292:9.6566277 11366:0.018018024 11385:5.1159959 11410:3.0365543 11412:6.2146082 11417:5.521461 11525:6.2146082 11745:2.3859668 11758:5.521461 11839:5.1159959 11951:1.3547957 11967:0.069182888 11971:0.491023 11986:1.2697566 12478:2.1715569 12712:3.5065579 12768:1.1973282 12786:2.3025851 12844:2.0402207 12866:3.0282555 12870:2.154165 13071:1.0700248 13172:0.78965807 13195:6.2146082 13279:5.1159959 13288:1.8451602 13306:5.521461 13344:1.1026204 13499:5.521461 13579:2.2144337 13625:1.75414 13747:2.4769385 13856:5.521461 13891:3.270169 13918:4.6868143 14089:2.4304185 14098:3.6496587 14276:6.2146082 14319:4.6051702 14359:3.8167129 14504:2.0557251 14518:6.2146082 14543:6.2146082 14584:0.29840603 14685:3.0365543 14752:29.880886 14753:4.8283138 14754:6.2146082 14807:5.521461 14820:2.8134108 15004:5.1159959 15007:3.0365543 15220:0.5905906 15333:0.55176854 15393:1.0671136 15421:2.3644605 15598:2.8134108 15664:0.094310679 15673:1.469676 15677:0.45246866 15774:2.2627835 15887:1.6094379 15892:0.32296389 15930:6.2146082 15961:1.5970154 16040:6.2146082 16123:4.6051702 16278:3.3242364 16308:3.6496587 16443:4.1351666 16457:5.1159959 16458:6.2146082 16648:3.2188759 16795:3.5755508 16852:1.2310015 16868:5.521461 16908:5.521461 16923:1.5702173 16993:4.2686977 17052:4.8283138 17119:4.8283138 17307:2.5010359 17549:4.1351666 18058:1.2106618 18128:2.3227878 18400:2.5257287 18526:4.2686977 18693:4.6051702 19055:4.2686977 19537:1.3704211 19844:3.1235657 19955:4.8283138 20001:2.2443161 20143:1.5606477 20146:6.2146082 20205:3.6496587 20206:6.2146082 20238:4.0173836 20276:1.910543 20287:1.3318062 20431:6.2146082 20529:2.4769385 20573:6.2146082 20645:4.8283138 20660:0.33967736 20739:0.449417 20766:3.1700857 20789:6.2146082 20829:2.5010359 20917:3.3813949 21243:3.079114 21434:5.521461 21505:2.0099156 21509:4.2686977 21539:7.2993174 21661:3.7297015 22049:2.2443161 22053:3.4420195 22231:1.89712 22270:4.1351666 22359:0.072878078 22377:0.97552073 22438:1.2729657 22441:1.2517635 22489:5.1159959 22493:5.1159959 22569:4.2686977 22570:5.1159959 22593:0.97552073 22660:0.024024032 22670:3.8167129 22678:1.461018 23006:6.2146082 23109:3.9120231 23174:0.72981119 23294:7.459403 23634:1.0700248 23708:2.7181005 24020:4.8283138 24033:3.7297015 24133:3.7297015 24148:5.521461 24169:5.521461 24246:1.6713133 24275:0.74654794 24406:4.8283138 24457:0.35097691 24469:1.1218994 24472:0.66943067 24529:1.7259717 24564:5.1159959 24574:0.57625341 24653:5.1159959 24667:3.4420195 24675:0.072878078 24682:6.2146082 24707:1.8078889 24731:4.2686977 24928:1.0906441 24967:0.40947312 24970:2.1715569 24984:2.4213235 25053:5.1159959 #
-0.00014057177969191111174124264593388 8:1.7651733 156:0.049190246 157:0.047091607 399:5.1159959 565:0.37687767 1202:0.4462871 1851:0.16016875 2384:0.57270104 2552:4.4228487 3030:4.0173836 3380:6.2146082 3594:4.2686977 3595:4.6051702 6166:0.86274999 6167:3.5065579 6466:0.86750054 6959:4.8283138 7082:4.4228487 7288:2.8473122 7377:2.9187713 8323:2.4304185 8450:0.094183214 8526:4.8283138 8683:0.50880837 8781:2.5257287 8782:4.6051702 8944:5.521461 9003:0.56563383 9019:4.4228487 9212:2.65926 9555:6.2146082 9660:3.4420195 9866:0.34870678 9907:5.1159959 10281:3.4295969 10350:3.6496587 10383:2.3025851 10397:5.521461 10497:3.5065579 10523:3.7297015 10592:0.24590054 10645:0.34814003 11261:3.079114 11365:0.0040040053 11395:0.038740829 11413:0.71743989 11621:1.4105871 12221:2.5770218 12524:0.27443683 12639:2.0249534 12751:1.1841701 12757:1.5141277 12810:3.3242364 13041:0.72981119 13234:6.540338 13330:11.042922 14016:0.33687231 14131:1.0328245 14309:3.4074972 14481:3.9120231 14496:1.0613165 15014:0.14084493 15277:6.2146082 15297:0.88188928 15367:6.2146082 15779:1.0051219 16099:2.5510464 16150:2.7488723 16593:1.4271164 16706:2.2072749 16790:4.2686977 17462:2.65926 17627:3.3242364 19071:1.6607312 19568:2.9187713 19910:6.4377518 20027:2.6310892 20063:5.521461 20385:6.2146082 20598:2.4304185 20620:6.2146082 20960:6.2146082 21008:3.8167129 21223:1.2310015 21451:12.429216 21517:3.270169 21523:0.52424866 21604:0.032523192 21621:3.9120231 21793:4.0499067 22730:0.76545125 22775:5.1159959 23300:2.0557251 23437:0.77652878 23489:3.8167129 23521:0.74654794 23726:0.030459208 23812:1.0051219 23827:1.5232602 23855:1.1667926 24008:2.6036901 24031:1.3470737 #
-0.00014057177969191111174124264593388 8:0.44129333 41:5.4977446 156:0.14757073 157:0.14127482 370:4.0804415 554:1.0906441 565:0.37687767 753:0.28768209 877:1.2241755 922:4.4228487 1090:2.3859668 1371:0.10536052 1641:0.12556322 1722:2.8473122 1748:0.15387988 1764:5.521461 1851:0.3203375 1893:2.4079456 2040:2.9957323 2270:5.9914646 2363:1.7602608 2443:4.2686977 2675:16.564383 2736:4.8283138 3352:0.059750006 3376:0.25566673 4101:3.3242364 4129:4.4145498 4256:4.0173836 4476:1.2729657 4540:5.521461 4713:3.2188759 5938:5.521461 6069:1.2801342 6071:1.461018 6160:1.9951004 6162:2.1037343 6554:1.1647521 6819:1.6398971 6974:1.6194882 7166:3.9120231 7449:1.3862944 7571:2.9187713 8126:0.16251893 8131:6.2146082 8450:0.047091607 8628:4.2686977 8860:4.8283138 8978:2.7806208 9024:2.7488723 9219:0.53785431 9275:9.6566277 9427:4.8283138 9825:0.44129333 9893:0.24334626 9897:1.0613165 10416:3.5065579 10592:0.49180108 10593:2.453408 10598:1.9805017 10952:4.2686977 11365:0.006006008 11383:1.0671136 11419:4.6051702 11616:3.5755508 11621:1.4105871 11749:0.36816934 12008:0.88188928 12197:4.0173836 12319:1.1332037 12524:0.27443683 12730:1.3019532 13041:0.72981119 13979:4.0173836 14011:5.1159959 14114:0.25877073 14142:2.6310892 14360:2.8473122 14532:1.820159 14541:3.270169 14716:0.21072103 14764:1.0613165 14906:7.1511016 15014:0.14084493 15039:0.35825333 15066:0.37979737 15231:0.24334626 15297:0.88188928 15357:6.2146082 15391:6.2146082 15524:3.8167129 15601:6.2146082 15981:3.7416053 16106:4.2686977 16173:0.70927656 16226:1.3242589 16238:4.6051702 16586:4.4228487 16768:4.1351666 17097:2.8824036 17333:1.1907276 17730:3.6496587 17927:5.1159959 18130:2.5510464 18624:0.98886144 18685:4.2686977 18690:4.0173836 19032:3.8167129 19367:4.0173836 19508:1.2873545 19987:1.8838748 20086:5.521461 20104:6.3401713 20407:3.3242364 20906:2.4079456 21204:5.521461 21223:1.2310015 21507:0.048585385 21532:0.77219039 21604:0.097569577 21694:4.6051702 21742:0.50087529 21878:2.0557251 22057:4.8283138 22193:3.270169 22371:4.6051702 22472:6.2146082 22897:3.6496587 22955:0.88188928 23147:6.2146082 23292:0.28501895 23417:6.2146082 23519:0.30652517 23529:0.94963038 23575:0.14156356 23726:0.030459208 23848:1.5417793 23854:3.3813949 23919:2.7488723 24031:1.3470737 #
0.00011139718494417495556290248481801 2:3.8404026 3:2.5616422 144:0.03003004 413:6.2146082 517:0.49429631 528:1.2849082 735:1.6564286 738:2.453408 762:4.6051702 1099:0.638659 1163:5.1159959 1310:1.4354846 1482:3.9120231 1595:1.910543 1717:0.13238919 1833:4.2686977 1839:0.038740829 1861:4.8283138 1943:0.17435339 2024:2.3683403 2389:0.16016875 2458:1.4266998 2494:1.8325815 2627:7.459403 2652:2.4769385 2731:1.4961092 2981:4.2686977 3250:2.1892564 3304:2.9565115 3487:0.32002664 3570:4.860837 3598:3.3242364 3620:0.48776037 3621:1.5896353 3714:2.1037343 3734:3.7297015 3988:2.2633643 4011:0.68121862 4049:4.8283138 4051:2.9957323 4324:2.2443161 4389:6.2146082 4599:4.8283138 4695:2.3946564 4777:3.5755508 6037:4.1351666 6038:6.8483472 6074:3.7297015 6370:6.2146082 6383:1.6928195 6404:2.4304185 6539:5.521461 6736:0.6462636 6785:8.0347672 6901:1.2241755 6915:3.4420195 6975:2.8134108 7080:2.3025851 7234:3.3242364 7608:2.5510464 7859:1.0552654 7889:1.5896353 7891:1.6194882 7914:4.1351666 8216:1.2801342 8264:2.4079456 8389:3.8167129 8444:3.2188759 8572:0.39032605 8573:1.6820086 8582:2.8824036 8609:1.1907276 8685:2.4079456 8854:3.6496587 8890:0.2145375 9144:0.34870678 9430:6.2146082 9695:1.2447948 9843:8.5373955 9866:0.91130316 10106:3.3573189 10261:2.3025851 10268:1.5798792 10339:0.38716951 10374:0.27707189 10376:2.8134108 10398:0.20089294 10566:1.20296 10694:0.51082563 10822:3.9120231 10873:3.3242364 11097:3.5755508 11123:3.3687232 11165:5.521461 11185:0.53785431 11263:2.5510464 11366:0.006006008 11813:0.45570633 11967:0.20754866 11971:1.473069 12326:0.95607162 12356:6.2146082 12569:2.032222 12570:3.6496587 12574:2.0714734 12688:4.1351666 12960:6.5185623 13033:3.2118483 13326:1.3167683 13351:5.1159959 13503:1.0613165 13916:1.1394343 13918:2.3434072 13961:8.2703333 13986:3.0153658 14383:4.2686977 14431:3.6496587 14584:0.29840603 14698:0.99385715 14714:1.0555528 14820:2.8134108 14850:1.1026204 14877:5.1159959 15103:0.93649346 15176:1.8078889 15333:0.9196142 15677:0.15082289 15774:1.8102269 15788:1.9951004 15792:15.266851 15823:1.4961092 15936:4.0173836 16078:2.7181005 16453:1.5617722 16861:3.7297015 16871:3.3813949 17231:2.3644605 17375:1.4872203 17415:5.521461 17801:3.5065579 18074:3.270169 18077:0.8580218 18603:1.6928195 18793:1.1841701 18965:2.6882477 19243:5.1159959 19253:1.1841701 19308:5.1159959 19664:1.9519283 19678:1.1086626 19820:1.89712 20253:2.9187713 20276:1.910543 20660:0.33967736 20739:0.89883399 20748:1.9951004 20753:7.0933814 20805:4.0173836 21387:0.61989671 21655:4.1351666 21809:1.6194882 21824:2.2827826 21840:4.0173836 22164:2.3025851 22359:0.09717077 22377:0.48776037 22438:1.2729657 22443:1.3783262 22459:0.5381673 22494:1.5417793 22548:2.8134108 22660:0.016016021 22856:8.5373955 22913:4.6051702 23201:5.0514574 23415:4.0173836 23489:5.1159959 23691:2.1576192 23710:5.521461 24222:1.6286507 24246:1.6713133 24275:0.74654794 24357:0.60148001 24442:0.44005656 24457:0.70195383 24466:2.4079456 24467:5.521461 24520:2.2256241 24675:0.072878078 24782:3.3214624 24812:0.66943067 24967:0.81894624 24984:2.4213235 #
-0.00014057177969191111174124264593388 8:0.44129333 156:0.049190246 157:0.047091607 419:2.6310892 537:4.4228487 553:1.2647835 554:1.0906441 565:0.37687767 567:6.2146082 828:5.521461 858:5.1159959 1013:6.2146082 1058:0.57981849 1371:0.21072103 1484:0.96758401 1696:1.0216513 1851:0.3203375 2056:3.1700857 3046:5.1159959 3352:0.059750006 3376:0.25566673 3451:2.1037343 3530:3.3813949 4194:6.2146082 4996:15.347987 5002:5.521461 5582:1.8708026 5590:3.4420195 5910:3.3242364 6165:2.9957323 6166:0.86274999 6422:0.78965807 6481:4.8283138 6645:5.521461 7141:6.2146082 7173:1.0328245 7577:5.521461 7749:2.4769385 7912:3.7297015 8126:0.16251893 8343:4.2686977 8450:0.094183214 8683:0.16960278 8900:2.8824036 9304:4.6051702 9321:6.2146082 9456:2.8473122 9611:3.2188759 9710:2.8824036 9866:0.17435339 9897:1.0613165 10172:1.5324769 10188:6.2146082 10196:0.14387037 10269:1.7719568 10426:3.9902008 10592:0.24590054 10623:6.2146082 11252:0.46203545 11365:0.0040040053 11395:0.038740829 11591:6.2146082 11691:3.9120231 11820:1.910543 11855:2.4304185 12730:1.3019532 13022:1.7147985 13041:0.72981119 13052:1.5896353 13207:2.6882477 13950:1.6194882 13985:5.521461 14114:0.51754147 14263:1.8526821 14312:5.1159959 14389:6.2146082 14496:2.122633 14538:2.0557251 14716:0.21072103 14782:6.2146082 15014:0.14084493 15039:0.17912666 15231:0.24334626 15418:1.4188175 16140:1.2241755 16231:4.8283138 16277:6.2146082 16394:5.521461 16399:5.521461 17052:2.1370707 17297:6.2146082 17409:4.4228487 17483:4.6051702 17891:2.7806208 17926:2.0249534 18188:4.4228487 18380:4.8283138 18806:5.1159959 18837:1.89712 18869:0.75077629 18931:6.2146082 18983:6.2146082 18995:1.5994875 19563:2.8824036 19910:3.2188759 20481:3.0365543 20850:0.96758401 21301:3.0365543 21498:0.44316697 21507:0.024292693 21589:2.4079456 21604:0.097569577 21742:0.50087529 22194:6.2146082 22245:1.7837913 22384:6.2146082 22445:5.1159959 22568:5.521461 22775:5.1159959 23092:3.1235657 23292:0.5700379 23325:5.521461 23388:6.2146082 23477:1.0328245 23505:0.37687767 23519:0.30652517 23575:0.28312713 23827:1.5232602 #
-0.00014057177969191111174124264593388 156:0.34433171 157:0.32964125 565:0.37687767 753:0.28768209 766:6.2146082 909:1.1776555 930:4.6051702 1069:2.0714734 1202:0.22314355 1277:4.0173836 1371:0.21072103 1488:4.2686977 1574:2.5010359 1641:0.75337934 1700:4.2686977 1748:0.30775976 1851:0.3203375 2295:0.32275563 2420:2.0996442 2440:4.2686977 2474:5.521461 2655:4.1351666 2750:2.7181005 2886:6.2146082 2958:3.9120231 3053:18.643824 3172:10.231992 3195:3.8167129 3324:6.2146082 3352:0.17925002 3472:0.51082563 3838:3.4420195 3842:1.4348798 4040:2.7488723 4369:5.521461 4396:2.9565115 4465:1.2447948 4582:9.6566277 4685:4.8283138 4701:5.521461 4795:4.8283138 4879:4.2686977 4937:3.1700857 5114:5.521461 5631:5.521461 5633:12.429216 5641:6.2146082 5686:2.4769385 5920:4.0173836 5937:4.2686977 5963:6.2146082 6042:3.3005197 6422:0.78965807 6554:1.1647521 6825:4.2686977 7043:4.4228487 7156:5.521461 7208:3.270169 7527:2.0874736 8066:1.1270118 8126:0.48755679 8128:1.5606477 8280:3.8167129 8288:2.5010359 8450:0.14127482 8456:2.5010359 8537:1.8838748 8825:4.4228487 9003:0.56563383 9191:6.2146082 9272:1.5232602 9522:2.9565115 9707:3.3813949 9866:0.17435339 9870:1.5141277 10196:0.43161112 10330:5.521461 10447:1.5881462 10451:2.3683403 10776:2.65926 11118:4.0173836 11129:3.3813949 11295:4.0173836 11301:4.8283138 11365:0.024024032 11395:0.077481657 11413:0.71743989 11647:6.2146082 11661:4.4228487 11839:18.643824 12076:3.1700857 12091:6.2146082 12319:1.1332037 12389:4.0173836 12412:1.7487 12484:4.1351666 12528:2.5510464 12634:0.76787072 12648:2.4304185 12679:2.4769385 12725:4.2686977 12751:1.1841701 12791:3.79424 12795:2.7806208 13082:1.0441241 13169:1.1647521 13226:4.0173836 13300:5.521461 13337:2.0557251 13638:1.937942 13993:6.2146082 14016:0.67374462 14114:0.25877073 14163:3.8167129 14207:2.3227878 14363:6.2146082 14420:2.0099156 14425:4.6051702 14490:0.92634106 14716:0.21072103 14735:1.0788096 14787:2.3859668 14922:0.74654794 15014:0.14084493 15039:0.35825333 15143:1.0872169 15229:5.1159959 15330:6.2146082 15361:3.3813949 15418:1.4188175 15640:6.2146082 15645:2.8473122 15769:4.8283138 15940:3.270169 16114:4.6051702 16164:2.9187713 16173:4.9649358 16215:5.521461 16235:2.7488723 16514:6.2146082 16791:4.4228487 16821:4.2686977 17251:1.469676 17333:1.1907276 17696:4.2686977 17857:2.4769385 18222:6.2146082 18244:6.2146082 18260:4.2686977 18284:3.270169 18757:1.9519283 18813:3.3813949 18878:1.551169 18995:1.5994875 19494:2.5510464 19891:0.81542617 19908:5.521461 19957:2.2827826 20591:3.9120231 20821:6.2146082 20837:3.6496587 20850:0.96758401 21023:7.2993174 21046:3.2188759 21048:3.9120231 21164:3.1235657 21195:4.4228487 21223:1.2310015 21233:2.65926 21399:2.9187713 21401:2.4079456 21478:3.6496587 21498:0.44316697 21507:0.09717077 21523:1.0484973 21524:0.7256704 21530:2.4079456 21542:0.89257419 21545:0.99425226 21559:0.98349947 21564:1.6703756 21604:0.032523192 21740:2.8134108 21756:1.5896353 21793:2.0249534 22164:4.2686977 22179:2.3644605 22245:5.3513737 22285:3.2188759 22291:2.9187713 22292:6.2146082 22296:0.68915516 22409:3.2188759 22535:6.2146082 22790:2.7806208 22852:2.9187713 23174:5.521461 23292:0.28501895 23341:12.429216 23371:3.7297015 23505:0.75375533 23519:0.30652517 23532:0.83471072 23575:0.14156356 23595:1.8708026 23598:1.1270118 23618:1.820159 23726:0.030459208 23756:5.1159959 23810:2.3434072 23812:1.0051219 23854:6.7627897 23898:6.2146082 24025:1.551169 24067:4.4228487 #
5.6411445105990977335989888796774e-05 3:1.9212316 135:0.15387988 136:0.15387988 144:0.094094127 227:5.521461 230:4.4228487 254:3.9120231 517:1.4828889 527:3.5065579 735:0.33128572 1113:1.7259717 1117:2.4079456 1251:0.2665731 1430:0.13696586 1595:3.8210859 1597:1.5050778 1717:0.39716756 1839:0.11622249 1888:6.2146082 1943:0.34870678 2000:2.9957323 2139:3.7297015 2197:1.3704211 2336:1.6398971 2389:0.48050627 2431:5.521461 2500:0.90634042 2518:1.7372713 2627:3.7297015 2652:2.4769385 2684:7.6334257 3021:2.9187713 3487:0.4480373 3496:5.521461 3501:2.8134108 3510:0.2285783 3620:0.48776037 3624:4.1351666 3649:2.7488723 3785:18.643824 3868:4.6051702 3929:2.9187713 4230:3.8167129 4460:4.2686977 4552:4.6051702 4625:4.0173836 4689:1.5232602 4695:1.1973282 5084:2.8824036 5260:3.8167129 5341:1.3943266 5364:4.2686977 5572:4.6051702 5681:12.429216 6386:2.65926 6394:3.079114 6736:0.6462636 6759:0.70521975 6778:2.0402207 6886:2.3434072 7020:3.3242364 7425:2.0714734 7449:4.6051702 7609:3.9120231 7656:1.9661129 7715:3.4420195 7883:1.1086626 7989:4.1351666 8165:3.6496587 8185:4.1351666 8341:5.521461 8360:4.0173836 8572:0.13010868 8609:1.1907276 8637:5.7648072 8890:0.085815005 8992:4.1351666 9144:0.17435339 9219:1.4439235 9380:3.270169 9471:2.5510464 9497:1.8374678 9505:1.2447948 9506:1.7837913 9662:2.032222 9694:1.4439235 9724:1.20296 10002:4.2686977 10339:0.38716951 10398:0.20089294 10403:2.0874736 10522:2.453408 10574:1.0441241 10727:0.47513413 10814:4.8283138 10830:4.6051702 10855:4.2686977 10866:2.0557251 11003:6.2146082 11123:0.33687231 11185:1.0757086 11366:0.010010013 11638:2.5510464 11951:2.7095914 11967:0.10377433 12131:4.8283138 12402:1.7372713 12424:19.313255 12461:7.8932676 12478:8.6862278 12487:2.5510464 12635:10.231992 12636:6.2146082 12638:2.9957323 12796:2.5257287 12804:6.2471313 12806:2.453408 12859:2.3227878 12862:2.9187713 12866:1.5141277 12870:2.154165 12899:4.1351666 13055:2.3025851 13255:3.4420195 13274:5.8375425 13360:3.8167129 13625:0.87707001 13701:0.81644541 13883:3.0365543 13986:2.0102439 13994:4.8283138 14007:2.4079456 14159:6.2146082 14160:4.1351666 14340:4.2686977 14502:3.7297015 14584:0.89521813 14698:3.3128572 14721:4.6051702 15108:0.89159811 15220:0.5905906 15333:0.55176854 15355:1.5417793 15572:0.88188928 15586:4.1351666 15590:3.9120231 15664:0.28293204 15677:0.15082289 15728:2.3644605 15774:2.2627835 15873:1.8451602 15892:0.64592779 15961:1.5970154 16046:5.521461 16217:4.2686977 16226:17.974394 16228:4.1351666 16368:2.8473122 16453:0.78088611 16621:13.815511 16958:6.2146082 16997:5.1159959 16998:2.7181005 17008:2.5770218 17383:2.3025851 17418:4.2686977 17564:3.8167129 17816:2.8824036 17966:2.7488723 18289:6.8840389 18466:4.2686977 18603:1.6928195 19186:6.2146082 19210:1.9241487 19309:5.1159959 19660:0.67727381 19678:1.1086626 20130:2.6335366 20143:3.1212955 20200:1.89712 20295:3.6496587 20660:0.33967736 20739:0.449417 20748:1.9951004 20763:2.7488723 20839:20.288368 21140:10.231992 21185:1.89712 21359:3.270169 21505:2.0099156 21824:2.2827826 21912:2.8824036 22039:2.0996442 22064:7.459403 22127:4.2686977 22301:16.564383 22359:0.14575616 22377:0.48776037 22385:2.1715569 22386:0.89648813 22401:0.50749785 22420:1.0786085 22438:1.2729657 22459:0.38440523 22561:8.8456974 22593:0.48776037 22660:0.024024032 22723:0.75077629 22973:6.2146082 23042:2.8134108 23140:4.8158913 23195:2.65926 23199:3.6496587 23209:2.9565115 23320:10.231992 23328:3.9322257 23362:2.4769385 23395:4.6051702 23634:0.35667494 23864:0.64245409 24036:3.4420195 24238:1.5798792 24265:0.73814452 24457:0.70195383 24469:0.37396646 24472:1.3388613 24507:0.48755679 24569:4.2686977 24574:1.7287602 24675:0.09717077 24681:1.3019532 24713:2.3025851 24760:2.2827826 24784:1.1270118 24967:1.6378925 24968:3.5755508 24984:2.4213235 24986:3.1700857 #
0.00014057177969191111174124264593388 144:0.016016021 517:1.4828889 1430:0.13696586 1674:3.0365543 1717:0.13238919 1806:2.5010359 1828:5.1159959 1839:0.077481657 2032:5.521461 2116:1.4784096 2458:0.71334988 2500:0.90634042 3342:12.429216 3487:0.06400533 3767:3.5755508 3965:5.521461 4174:7.8240461 4246:4.0173836 4296:2.5010359 4682:1.3093333 4765:5.521461 4879:4.2686977 5133:2.9565115 5511:4.6051702 5634:4.4228487 5636:3.1235657 5663:3.6496587 5741:18.643824 6087:4.0173836 6232:3.079114 6736:0.6462636 6759:0.70521975 6811:1.0498221 6975:2.8134108 8032:5.1159959 8572:0.13010868 8655:0.64245409 8890:0.085815005 9144:0.17435339 9497:0.61248928 9628:4.8283138 10339:0.19358476 10403:2.0874736 10542:2.9187713 10727:0.23756707 10967:0.81193072 11123:0.33687231 11366:0.0040040053 11747:2.7566524 11813:0.45570633 11967:0.13836578 11986:1.2697566 12621:11.042922 12664:2.2827826 12693:18.643824 12753:5.521461 12847:4.6051702 13033:0.80296206 13670:4.1351666 13701:0.81644541 13702:6.2146082 13793:2.7488723 14041:2.3859668 14158:2.9187713 14922:3.0365543 15027:2.3025851 15333:0.18392284 15486:6.2146082 15532:2.8473122 15664:0.094310679 15677:0.15082289 15708:0.54128486 15950:2.8824036 16009:3.4420195 16481:2.2443161 16531:2.4769385 16537:3.3813949 16961:8.3418627 17046:2.7181005 17375:1.4872203 17969:1.4188175 19043:4.8283138 19500:9.2103405 19501:4.8283138 19677:1.1394343 19821:2.1202636 19856:1.469676 19882:1.6398971 20139:4.8283138 20522:5.521461 20748:1.9951004 20915:4.0173836 20984:4.1351666 20986:5.1159959 21188:2.1037343 21514:3.2188759 21542:3.0365543 21641:2.9187713 21651:5.521461 21959:4.6051702 22253:4.6051702 22350:0.48776037 22359:0.024292693 22443:1.3783262 22556:6.2146082 22557:6.2146082 22660:0.012012016 22927:4.1351666 23151:3.1700857 23925:3.5065579 24265:1.476289 24357:0.60148001 24457:0.35097691 24469:0.37396646 24472:0.66943067 24675:0.024292693 24681:1.3019532 24782:1.6607312 24928:1.0906441 24947:1.3019532 #
0.00014057177969191111174124264593388 2:1.2801342 36:6.2146082 135:0.15387988 136:0.15387988 144:0.036036048 735:0.66257143 1030:3.7297015 1237:2.7181005 1246:6.0731087 1251:0.79971933 1321:0.53785431 1430:0.13696586 1512:4.6051702 1717:0.52955675 1778:1.1026204 1973:4.6051702 2116:1.4784096 2345:2.7488723 2389:0.3203375 2467:2.1111057 2577:6.2146082 2618:0.74233741 2639:1.2946272 2731:1.4961092 3293:4.8283138 3294:4.4228487 3461:3.9120231 3487:0.12801066 3510:0.34286743 3810:1.3093333 3865:3.2188759 4011:0.68121862 4290:4.8158913 4461:2.3434072 5322:4.1351666 5790:2.9565115 5873:1.4784096 6263:4.8283138 6460:5.521461 6689:3.0365543 7198:5.6268215 7384:4.4228487 7565:2.1892564 7606:2.2827826 7646:4.8283138 7647:4.6051702 8093:5.521461 8443:2.4769385 8512:6.2146082 8572:0.78065211 8598:3.5755508 8881:4.0173836 8890:0.042907503 9144:0.17435339 9182:2.0714734 9194:1.4784096 9421:2.453408 9425:2.8473122 9506:1.7837913 9621:3.8167129 9761:3.9120231 9866:1.8226063 10062:7.6334257 10257:5.521461 10339:0.19358476 10374:0.27707189 10381:4.4228487 10420:3.079114 10534:1.4439235 10688:12.429216 10727:0.11878353 10863:6.2146082 10967:0.81193072 11123:1.3474892 11127:1.8708026 11366:0.0020020027 11451:5.521461 11578:3.4420195 11851:13.268546 11886:4.5655651 11967:0.034591444 11986:0.63487828 12003:2.6310892 12326:0.47803581 12487:2.5510464 12679:3.5065579 12714:4.6051702 12806:2.453408 12894:1.820159 13071:0.35667494 13172:0.78965807 13199:5.1159959 13261:1.2106618 13295:5.1159959 13327:6.1582279 13496:3.7297015 13579:0.73814452 13701:0.81644541 13791:5.521461 13792:22.085844 13793:2.7488723 14257:4.6051702 14282:2.6036901 14584:0.29840603 14630:0.43386459 14698:0.33128572 14714:1.0555528 14732:0.58698696 14832:1.3862944 15084:3.5755508 15151:8.5373955 15220:0.5905906 15418:5.521461 15603:5.1159959 15664:0.094310679 15870:1.1667926 16453:1.5617722 16485:1.5232602 16672:1.5141277 16690:3.1235657 16695:4.0173836 16852:1.2310015 16923:1.5702173 17271:3.1235657 17995:7.8240461 18058:1.2106618 19077:5.521461 19168:2.4079456 19359:2.8134108 19397:0.93140435 19470:5.521461 19493:2.2443161 19678:1.1086626 19856:1.469676 20105:1.9661129 20159:2.5010359 20253:2.9187713 21036:3.7297015 21082:5.521461 21163:1.5896353 21184:2.5510464 21185:1.89712 21368:2.4304185 21387:0.61989671 22018:5.521461 22047:2.3434072 22350:0.48776037 22359:0.024292693 22386:0.89648813 22401:0.50749785 22420:1.4381447 22459:0.46128628 22591:2.9565115 22593:0.48776037 22605:1.4024237 22660:0.010010013 22984:3.9120231 23079:2.0874736 23209:2.9565115 23634:0.35667494 23706:2.1892564 24175:1.7259717 24200:4.0173836 24222:1.3029206 24265:0.73814452 24410:2.2788687 24442:0.44005656 24507:0.32503787 24812:0.66943067 24863:2.154165 #
0.00014057177969191111174124264593388 15:9.2103405 135:0.15387988 136:0.15387988 144:0.064064085 225:6.2146082 273:4.6051702 454:4.4228487 517:0.98859262 518:3.9126647 725:3.8167129 735:0.33128572 868:2.3859668 1141:3.6496587 1251:0.5331462 1321:1.0757086 1357:4.2686977 1430:0.27393171 1530:0.97286111 1590:0.7940731 1680:5.1159959 1784:5.521461 1839:0.077481657 1866:3.0365543 1924:4.1351666 1943:0.52306014 2167:1.0729445 2197:1.3704211 2252:3.1700857 2458:0.71334988 2694:2.5257287 2703:3.1235657 2986:2.3025851 3037:0.99967235 3380:5.1159959 3487:0.19201599 3510:0.2285783 3554:4.6051702 3599:3.9120231 3714:2.1037343 3946:4.7719336 4023:0.79850769 4130:4.2686977 4506:4.6051702 4695:2.3946564 5323:2.6310892 5373:6.2146082 5503:3.9120231 5871:4.6051702 5920:1.8451602 5943:3.9120231 6197:5.1159959 6259:3.8167129 6347:4.8283138 6371:4.1351666 6736:0.6462636 6778:2.0402207 6785:4.0173836 6836:3.6496587 6838:4.4228487 6964:7.1511016 7297:1.7259717 7425:2.0714734 7487:10.326058 7781:2.5010359 7859:0.52763271 7873:1.3394108 7883:1.1086626 8069:3.9120231 8101:4.4228487 8106:4.8283138 8166:2.1715569 8215:4.6051702 8216:1.2801342 8369:4.6051702 8440:1.551169 8445:2.3227878 8465:2.453408 8515:6.2146082 8572:0.65054345 8655:1.2849082 8890:0.042907503 8985:3.3242364 9182:2.0714734 9309:2.1037343 9457:2.8824036 9637:4.2686977 9699:3.6496587 9980:3.0365543 10339:0.38716951 10398:0.40178588 10435:2.1715569 10566:0.60148001 10597:2.9565115 10727:0.23756707 10732:2.0714734 10765:4.6051702 10967:0.81193072 11007:1.7487 11123:0.33687231 11366:0.012012016 11449:2.6310892 11717:2.3434072 11813:0.45570633 11967:0.13836578 11986:1.9046348 12003:10.524357 12033:1.9805017 12373:3.6496587 12720:5.521461 12785:1.8838748 12850:2.0874736 12944:4.1351666 13071:0.35667494 13344:1.1026204 13503:2.122633 13579:0.73814452 13586:0.99967235 13625:0.87707001 13857:3.079114 14282:5.2073803 14300:1.6713133 14515:1.9661129 14584:0.59681207 14630:0.86772919 14698:0.66257143 14732:0.58698696 14892:6.2146082 15114:4.0173836 15176:1.8078889 15220:0.5905906 15333:0.36784568 15393:1.0671136 15410:11.042922 15545:4.4228487 15628:1.4354846 15664:0.28293204 15672:5.521461 15870:0.58339632 16112:3.9120231 16366:7.8240461 16453:1.5617722 16478:1.8838748 16484:1.0729445 16485:1.5232602 16942:4.1351666 17043:4.2686977 17256:2.4079456 17435:4.4228487 18058:1.2106618 18965:2.6882477 19012:11.450138 19482:3.8167129 19677:2.2788687 19998:0.87227386 20053:3.5755508 20058:9.6566277 20062:6.2146082 20164:1.7259717 20346:2.7181005 20369:6.2146082 20377:4.4228487 20508:4.6051702 20538:2.65926 20660:0.33967736 20739:0.449417 20902:1.6928195 20940:2.4304185 20943:2.6310892 21185:1.89712 21198:1.9805017 21387:0.61989671 21399:3.3242364 21523:3.8167129 21734:4.6051702 21812:3.5065579 22045:1.3167683 22228:4.8283138 22314:3.9120231 22350:0.97552073 22359:0.09717077 22386:0.89648813 22401:0.50749785 22417:1.75414 22450:6.2146082 22459:0.38440523 22560:3.5065579 22593:0.97552073 22642:6.7627897 22660:0.006006008 22678:1.461018 22686:2.2443161 22910:4.1351666 23127:1.7147985 23246:3.5065579 23691:2.1576192 23864:0.64245409 23865:4.2686977 24015:3.8167129 24196:4.8283138 24222:0.65146029 24246:1.6713133 24357:0.60148001 24442:0.44005656 24457:0.35097691 24459:0.85331595 24529:1.7259717 24574:0.57625341 24630:3.6496587 24634:5.521461 24675:0.024292693 24707:3.6157777 24784:1.1270118 24833:5.1159959 24919:1.461018 24928:1.0906441 24947:1.3019532 24976:2.6039064 25014:4.4228487 #
0.00014057177969191111174124264593388 135:0.15387988 136:0.15387988 144:0.032032043 145:2.9922185 230:4.4228487 528:2.5698164 735:0.33128572 838:3.9120231 935:3.0365543 948:4.0173836 1117:2.4079456 1251:0.79971933 1304:1.3242589 1321:0.53785431 1336:1.2241755 1400:10.231992 1430:0.41089755 1433:9.2103405 1568:4.8283138 1597:1.5050778 1717:0.26477838 1729:3.9120231 1844:6.2146082 2153:4.4228487 2197:2.7408421 2389:1.1211812 2434:0.79850769 2518:1.7372713 2639:2.5892544 2644:0.98886144 2685:2.6310892 2726:3.5065579 2731:2.9922185 2836:3.8167129 3289:5.521461 3487:0.25602132 3510:0.4571566 3620:0.48776037 3680:6.2146082 3896:5.521461 3911:5.1159959 3935:2.7488723 3988:2.2633643 4023:0.79850769 4230:3.8167129 4236:3.9120231 4344:6.8840389 4351:5.1159959 4715:7.2993174 4882:6.2146082 4883:2.9187713 4884:6.2146082 5026:2.9957323 5814:2.1037343 5830:4.1351666 5873:1.4784096 6034:4.6051702 6164:3.8167129 6238:6.2146082 6255:1.8578993 6352:5.1159959 6736:1.2925272 6886:2.3434072 6901:1.2241755 7297:1.7259717 7475:5.1159959 7542:3.2188759 7550:1.0216513 7672:1.7037486 7883:1.1086626 7914:4.1351666 7964:5.521461 7966:5.521461 7970:2.6036901 8070:2.2072749 8196:4.6051702 8216:3.8404026 8248:3.5755508 8314:2.9220359 8345:3.1700857 8609:1.1907276 8890:0.085815005 8896:9.721674 9144:0.34870678 9471:5.1020927 9505:1.2447948 9571:2.6036901 10078:1.89712 10119:5.8375425 10339:0.96792376 10398:0.20089294 10566:1.20296 10591:6.2146082 10594:2.3227878 10646:1.7602608 10694:0.51082563 10727:0.11878353 10938:6.2146082 10967:0.81193072 11020:6.2146082 11123:0.67374462 11185:0.53785431 11257:5.521461 11366:0.020020027 11473:3.079114 11514:4.6051702 11745:2.3859668 11747:2.7566524 11967:0.10377433 11971:0.491023 12086:7.8240461 12156:4.8283138 12425:4.1351666 12486:2.4304185 12558:4.0173836 12560:4.8283138 12575:1.9805017 12664:2.2827826 12670:3.9120231 12847:4.6051702 12848:6.2146082 12883:2.7181005 12944:4.1351666 12972:2.2827826 13006:4.2686977 13033:0.80296206 13178:2.0714734 13259:5.521461 13344:1.1026204 13396:7.1511016 13579:2.2144337 13586:0.99967235 13894:3.3813949 13961:4.1351666 13993:2.4769385 14007:2.4079456 14189:6.2146082 14212:6.2146082 14262:5.1159959 14392:3.6496587 14408:3.5065579 14431:3.6496587 14584:0.29840603 14630:0.86772919 14631:2.2827826 14698:0.66257143 14732:0.58698696 14832:1.3862944 14938:4.0173836 15029:4.4228487 15133:1.6713133 15220:1.7717718 15333:0.73569137 15477:8.2703333 15664:0.094310679 15677:0.60329157 15708:1.0825697 15806:5.521461 15887:1.6094379 15892:0.32296389 15950:2.8824036 15975:2.3644605 16257:2.0714734 16484:1.0729445 16605:4.4228487 16739:6.2146082 16810:2.8473122 16813:2.8134108 16881:0.96758401 17041:4.2686977 17048:3.079114 17131:2.2827826 17195:3.7297015 17255:2.4769385 17740:4.2686977 17755:5.913023 17771:4.6051702 18040:3.9120231 19101:6.2146082 19344:2.4304185 19397:0.93140435 19559:1.4961092 19660:0.67727381 19998:1.7445477 20130:2.6335366 20345:2.5010359 20424:8.5373955 20745:1.0272223 20806:2.2827826 20819:2.2443161 20902:1.6928195 21163:1.5896353 21246:6.2146082 21354:3.7297015 21647:4.6051702 21809:1.6194882 22039:1.0498221 22183:3.1235657 22265:4.0173836 22298:5.9914646 22350:0.48776037 22357:2.6882477 22359:0.048585385 22380:1.3624372 22397:3.8167129 22401:1.0149957 22417:0.87707001 22445:2.8473122 22459:0.23064314 22569:4.2686977 22660:0.026026035 23055:1.7147985 23495:3.6496587 23634:0.35667494 23691:1.0788096 23731:4.1351666 23864:1.2849082 23921:2.9565115 24213:3.079114 24238:1.5798792 24469:1.4958658 24507:0.81259465 24516:1.8078889 24529:1.7259717 24574:0.57625341 24680:2.4769385 24707:1.8078889 24812:0.66943067 24928:1.0906441 24957:5.521461 24976:2.6039064 #
