SVM-light Version V6.02
0 # kernel type
3 # kernel parameter -d 
1 # kernel parameter -g 
1 # kernel parameter -s 
1 # kernel parameter -r 
empty# kernel parameter -u 
9568 # highest feature index 
5330 # number of training documents 
1543 # number of support vectors plus 1 
0.03505623 # threshold b, each following line is a SV (starting with alpha*y)
-0.002346028528407040347758538700873 101:0.58209932 110:0.033966251 542:0.9209922 7582:4.5206637 7593:5.5853744 8382:5.2489018 #
0.0010367164004923767016419500208713 82:0.51270354 88:0.03241466 394:5.5853744 561:0.65161997 2871:5.0547462 4235:3.0676777 5778:2.6894624 6672:4.7524652 7210:5.32301 8706:4.6690836 #
-0.0017468284588379521908574343314058 101:0.58209932 110:0.033966251 1125:6.0962 2896:4.486762 3386:5.5853744 3504:7.8879595 3852:2.7880929 5782:0.9381029 5889:3.2151306 7127:6.0962 8501:1.8890228 #
0.00024630598996924226405658142624588 79:4.1267591 80:4.1267591 82:0.51270354 88:0.03241466 143:6.2785215 186:3.996139 537:6.0962 561:0.65161997 719:2.1742265 1295:7.8879595 1302:7.8879595 1528:5.942049 3236:6.0962 3931:2.806555 4684:3.5704713 5329:6.7893472 5368:5.6907349 5850:7.8879595 5859:1.5725667 6866:7.8879595 7043:4.486762 7066:7.8879595 8363:0.57207584 #
-0.00059844874326692089772788962775962 110:0.033966251 264:0.748299 542:1.8419844 1260:1.8405871 2731:5.942049 2951:4.9435205 3258:6.5016651 4238:1.5318516 5546:7.8879595 5569:7.1948123 5842:6.7893472 8118:4.9435205 9051:6.7893472 9139:5.942049 #
-0.00087927851105205900861250256639323 110:0.033966251 944:6.7893472 3852:2.7880929 4780:4.7099056 4930:3.4571426 5481:1.9557141 5793:5.5853744 8447:0.57473892 8581:1.0603302 8928:6.2785215 9086:3.7448246 #
-0.00013192469499518404900222090514461 110:0.10189874 264:0.748299 820:5.942049 868:2.3664985 1095:5.6907349 1552:6.5016651 5889:3.2151306 6393:6.2785215 8447:0.57473892 8581:1.0603302 8775:4.8922272 9301:3.4935102 #
0.002346028528407040347758538700873 1043:7.1948123 1315:1.8939979 2753:5.4900641 8511:7.8879595 #
0.002346028528407040347758538700873 82:0.51270354 88:0.03241466 253:0.64874434 2871:5.0547462 5313:5.5853744 7640:6.2785215 #
-0.00082138856657732654906883817957919 101:0.58209932 110:0.067932501 264:0.748299 318:7.8879595 627:7.8879595 697:7.8879595 1298:7.8879595 1695:6.7893472 1853:7.8879595 2076:6.7893472 2157:7.8879595 2285:7.8879595 2301:7.8879595 2368:7.8879595 2626:6.5016651 2716:7.1948123 2864:7.8879595 2868:7.1948123 3191:7.8879595 3840:7.8879595 5657:3.1004677 5741:5.942049 6152:7.8879595 6639:12.1924 6693:7.8879595 7228:7.8879595 8337:7.8879595 8416:7.8879595 #
-0.0012002286528103682777118832447627 30:7.8879595 101:0.58209932 110:0.033966251 199:5.4900641 2611:5.8085179 4478:3.9367156 5344:3.9561336 5406:7.8879595 5782:0.9381029 5821:2.7061758 7287:4.4222236 8447:0.57473892 8469:3.7448246 8556:3.3340824 8744:5.1153708 8779:7.8879595 #
-0.0013370503406826077762159510342599 101:0.58209932 110:0.033966251 264:0.748299 542:0.9209922 2592:4.3326111 3992:5.8085179 4107:7.8879595 4849:6.2785215 4930:3.4571426 8769:7.1948123 #
-0.0022975873473551149638038904043924 2:14.673806 99:3.8275163 100:3.8104219 110:0.033966251 264:0.748299 2364:7.8879595 3973:6.5016651 5293:6.7893472 5443:6.2785215 5716:7.1948123 7055:6.0962 8528:4.5557547 #
-0.002346028528407040347758538700873 110:0.033966251 264:0.748299 882:6.0962 2562:6.7893472 5064:3.7936149 5782:0.9381029 6192:5.4030528 8990:7.1948123 #
0.00025762609524027335313259290394683 88:0.06482932 253:0.64874434 547:2.0018554 871:7.1948123 1513:7.1948123 1745:7.8879595 2533:7.8879595 3102:7.1948123 3295:6.7893472 3356:5.6907349 3944:3.0516775 4067:2.7820139 4292:7.1948123 4312:1.5249312 5950:7.1948123 8360:1.5689912 8363:0.57207584 8436:5.8085179 8759:6.5016651 9083:7.8879595 9306:7.1948123 #
0.0022209102426419911197053025375681 88:0.03241466 265:6.7893472 547:2.0018554 813:6.2785215 1187:7.8879595 3195:5.5853744 4721:7.8879595 7645:6.0962 9278:1.8840723 #
0.00056103280534201360827545324028165 88:0.03241466 494:5.6907349 3013:5.1153708 3421:2.2112055 4070:6.2785215 4210:3.6112933 4571:2.1449561 5546:7.8879595 6802:6.2785215 7327:4.0167584 7550:7.1948123 8360:1.5689912 8407:2.0919015 9214:7.8879595 #
0.0002886626760080650863464490907262 88:0.03241466 253:0.64874434 561:1.3032399 1128:7.8879595 1710:6.5016651 1778:7.8879595 2470:3.6983047 2900:4.0593181 4312:1.5249312 4653:7.8879595 4667:7.8879595 5555:4.4539723 6943:6.7893472 7520:4.2243977 7723:7.1948123 7911:7.8879595 8360:1.5689912 8363:0.57207584 8821:7.8879595 #
-0.00059233454220746319714846483961423 101:1.1641986 110:0.033966251 1703:7.8879595 3363:7.1948123 3367:7.1948123 3650:7.8879595 3948:7.8879595 4474:1.3017877 4805:7.8879595 5014:7.8879595 5101:4.8434367 5693:2.5219834 7162:6.0962 7732:6.7893472 9249:7.1948123 9316:4.1743875 #
0.00034057678848525412560258041061445 82:1.0254071 88:0.03241466 561:0.65161997 833:6.7893472 1315:1.8939979 4562:1.7162588 6002:4.5206637 7574:5.8085179 8706:4.6690836 9260:7.1948123 9395:2.6304641 #
-0.00060823120085391237099603500837475 110:0.033966251 542:0.9209922 673:2.1290576 4397:6.5016651 4669:7.1948123 5171:7.8879595 5508:15.775919 5632:4.796917 6402:6.2785215 6965:7.8879595 7276:7.8879595 7950:5.942049 8447:1.7242168 8581:1.0603302 #
-0.001708807896321769314099126013673 110:0.033966251 633:2.7346678 899:4.3914518 919:5.4900641 3374:6.0962 3824:4.2503734 3867:2.8003631 4485:2.3388832 4560:7.8879595 4649:7.8879595 5783:3.8806262 6582:6.5016651 7585:6.5016651 8221:5.942049 8472:4.5557547 8581:2.1206603 #
0.00019793659049045978881413432315384 88:0.03241466 187:4.6690836 1366:3.6112933 2876:4.9975877 3421:2.2112055 3935:6.2785215 4550:1.2867292 4562:3.4325175 4839:6.7893472 9183:3.1343691 9395:2.6304641 9406:6.0962 #
-0.0011976286225294481904701804353408 101:1.1641986 110:0.033966251 264:0.748299 428:7.1948123 673:2.1290576 767:4.796917 1001:7.8879595 1430:7.8879595 1514:7.1948123 2276:6.2785215 3037:5.8085179 3062:6.2785215 4238:1.5318516 4874:4.1743875 5245:7.8879595 5459:3.5059328 5551:7.8879595 5782:0.9381029 5832:7.8879595 5859:7.8879595 6429:6.2785215 7334:4.486762 7682:6.0962 8321:4.7099056 8447:1.1494778 8581:2.1206603 8953:5.6907349 9262:7.1948123 9338:5.2489018 #
-0.002346028528407040347758538700873 110:0.033966251 264:0.748299 673:2.1290576 1666:6.0962 1709:4.5206637 5624:3.6394641 8588:5.2489018 9335:4.3326111 #
-0.002346028528407040347758538700873 110:0.033966251 409:7.1948123 537:2.2748313 1883:7.1948123 1935:6.5016651 4492:2.2969723 5782:0.9381029 7856:4.7099056 8447:0.57473892 9407:4.2770414 #
-0.00097812587906188387665284977856572 101:0.58209932 110:0.033966251 264:2.2448969 868:2.3664985 1313:4.1743875 1707:3.5572259 2153:6.7893472 4157:3.0051575 4483:3.3507066 5544:7.8879595 5862:2.8445342 7071:5.1799092 8581:1.0603302 9196:5.4030528 #
0.0022363772362804434576388779021272 82:0.51270354 88:0.03241466 253:0.64874434 719:2.1742265 1954:6.5016651 2470:3.6983047 3306:1.9557141 4307:7.8879595 4792:6.5016651 8484:1.2045984 #
0.0010054677247045547359288741873229 88:0.03241466 1947:7.8879595 2157:6.2785215 2297:7.1948123 3079:7.8879595 3200:5.942049 3523:2.7521608 3823:6.7893472 5859:0.78628337 5902:2.8510067 7442:5.5853744 7537:7.1948123 8306:6.0962 8363:0.57207584 #
-0.0013576615261056566765635045257454 101:1.746298 110:0.033966251 290:7.1948123 542:0.9209922 4261:6.7893472 4474:1.3017877 4483:1.6753533 5275:6.7893472 8845:7.8879595 9097:7.1948123 #
-0.00059664617760832403675630430939236 110:0.033966251 264:1.496598 3690:5.6907349 3915:7.8879595 3928:7.1948123 5700:7.8879595 5782:1.8762058 6728:7.8879595 7325:6.5016651 7611:7.1948123 8447:0.57473892 8595:7.8879595 9402:2.0357568 9503:7.1948123 #
-0.002346028528407040347758538700873 110:0.033966251 728:6.2785215 4157:3.0051575 5260:7.1948123 5447:2.6356859 5834:3.2058282 5970:6.5016651 8042:3.1088359 8447:0.57473892 #
0.00053457976088068905398675845219714 82:0.51270354 88:0.03241466 187:4.6690836 1625:7.1948123 1754:7.8879595 1937:7.8879595 2232:4.5921226 2453:7.8879595 2687:7.1948123 2772:13.00333 2838:28.779249 2956:12.1924 2969:7.8879595 3085:7.8879595 3867:7.8879595 4272:5.4900641 4788:6.0962 4924:7.8879595 5482:7.8879595 5821:5.6907349 6076:7.8879595 6204:7.1948123 7021:7.8879595 7676:7.8879595 7702:7.8879595 8068:6.7893472 8297:7.8879595 8710:7.1948123 8711:6.7893472 #
0.002346028528407040347758538700873 88:0.03241466 234:7.8879595 561:0.65161997 971:6.2785215 2364:6.7893472 2390:6.0962 3980:7.1948123 5859:0.78628337 9216:7.1948123 #
0.0017302442115599526387820228379155 82:0.51270354 88:0.03241466 124:7.8879595 190:6.2785215 342:5.5853744 1969:6.7893472 3762:7.8879595 3795:6.7893472 5798:5.2489018 5859:0.78628337 6117:6.7893472 8137:6.0962 #
0.00088474466297753585116575569813335 88:0.03241466 253:0.64874434 394:5.5853744 561:0.65161997 1616:6.5016651 2752:6.7893472 4918:7.8879595 5051:5.5853744 5859:1.5725667 7701:7.8879595 8363:0.57207584 #
0.002346028528407040347758538700873 88:0.03241466 253:0.64874434 515:7.1948123 1991:7.8879595 5293:6.2785215 7983:3.1966114 8360:1.5689912 8363:0.57207584 8766:6.0962 9144:3.7770855 #
-0.00024738107114525052050366116240809 110:0.033966251 542:0.9209922 1278:7.8879595 1593:6.0962 2560:7.8879595 5175:4.4222236 5657:3.1004677 5853:6.0962 8447:0.57473892 8581:1.0603302 8735:7.8879595 9402:2.0357568 #
-0.002346028528407040347758538700873 110:0.033966251 542:0.9209922 547:7.1948123 1528:7.1948123 3724:7.8879595 4042:6.2785215 5005:7.8879595 5412:5.942049 5627:3.9367156 5782:0.9381029 7414:6.7893472 8456:4.0812969 9007:7.1948123 9530:7.8879595 #
-0.002346028528407040347758538700873 110:0.033966251 1991:7.8879595 4270:5.8085179 #
-0.00069970570254182518077357144647976 110:0.033966251 148:7.8879595 1174:6.0962 3195:5.1153708 3358:5.5853744 3436:2.8253644 3867:2.8003631 3996:7.8879595 5261:7.1948123 5427:6.5016651 5912:7.8879595 7599:9.6868734 8079:7.8879595 8174:5.4900641 8447:0.57473892 #
-0.0012342744897313095899654689091562 110:0.033966251 264:0.748299 2198:6.0962 2762:5.1799092 3069:4.8922272 3259:4.9975877 4168:6.0962 4483:1.6753533 5393:7.8879595 5440:6.2785215 6593:6.5016651 7529:3.8626077 8447:0.57473892 9310:4.4539723 #
-0.00085143163334930826134649972658508 110:0.033966251 264:0.748299 1273:2.6568508 2896:4.486762 3187:2.2112055 4470:6.7893472 5087:5.8085179 5459:3.5059328 6185:4.486762 6354:6.5016651 6843:6.7893472 8096:6.0962 8447:0.57473892 #
0.0019371509348648876559784159923083 88:0.12965864 253:0.64874434 561:0.65161997 1825:4.8922272 2822:5.4900641 3318:5.1799092 5644:7.8879595 5859:0.78628337 8628:5.5853744 #
-0.002346028528407040347758538700873 110:0.033966251 917:7.1948123 3190:4.5557547 5782:0.9381029 5821:2.7061758 8447:0.57473892 9131:7.1948123 9215:5.4030528 #
0.002346028528407040347758538700873 2:6.9870205 88:0.03241466 264:5.2489018 330:5.1153708 3976:7.8879595 4017:5.8085179 4571:2.1449561 5390:6.2785215 5493:6.7893472 5859:0.78628337 7055:6.7893472 8242:6.0962 8363:1.1441517 9353:5.8085179 #
-0.00040419694662454156135894534074282 29:7.8879595 101:1.746298 346:7.8879595 2129:14.390751 2349:7.8879595 2367:7.8879595 2852:6.5016651 4183:7.8879595 5102:7.8879595 6102:7.8879595 6629:7.8879595 7071:5.1799092 7598:7.1948123 8552:7.8879595 8817:7.1948123 8819:7.1948123 9077:7.8879595 9502:14.389625 9568:7.8879595 #
-0.00019035287988583126511654697310405 101:0.58209932 110:0.033966251 270:7.1948123 542:0.9209922 633:2.7346678 665:6.5016651 1769:6.2785215 3116:6.5016651 4181:6.0962 4238:1.5318516 4474:1.3017877 5359:7.8879595 5525:6.7893472 5767:7.8879595 5782:0.9381029 6019:5.4900641 6053:6.7893472 8395:6.7893472 8447:0.57473892 9025:6.5016651 9310:4.4539723 9325:7.8879595 #
-0.002346028528407040347758538700873 110:0.033966251 618:5.4030528 2211:7.1948123 4660:6.7893472 4979:6.5016651 8256:5.4900641 8447:0.57473892 #
0.00082710175302513791288638866916472 84:3.028147 88:0.12965864 125:7.8879595 428:7.8879595 547:2.0018554 1315:1.8939979 2419:7.8879595 2936:7.8879595 3633:5.942049 5072:7.8879595 6066:7.8879595 7133:7.1948123 7953:3.713572 8363:0.57207584 8463:7.8879595 8956:5.0547462 #
0.002346028528407040347758538700873 88:0.19448796 561:0.65161997 2781:7.8879595 9267:6.0962 #
0.0003652223202890307650683721085727 82:1.0254071 88:0.03241466 626:7.8879595 979:7.8879595 2151:7.1948123 2232:4.5921226 2550:6.7893472 2916:7.8879595 2980:7.8879595 3309:6.7893472 3782:7.8879595 4073:7.8879595 4462:7.8879595 5224:7.8879595 5820:7.8879595 5821:5.6907349 6206:7.8879595 6211:15.775919 7439:7.1948123 7704:7.8879595 8250:7.8879595 8522:7.8879595 8708:6.7893472 8709:14.389625 9431:7.8879595 #
0.002346028528407040347758538700873 82:1.5381107 88:0.06482932 1229:5.942049 1410:7.8879595 2847:6.2785215 3910:4.796917 8478:7.1948123 9073:4.9975877 #
0.002346028528407040347758538700873 547:2.0018554 3216:5.4900641 4491:3.2629864 7139:7.8879595 7767:6.2785215 8363:1.1441517 8581:7.8879595 8875:5.8085179 8984:5.942049 #
0.0009086929322317067667102996608719 82:0.51270354 88:0.03241466 253:0.64874434 561:0.65161997 666:7.8879595 1730:7.8879595 1775:3.2629864 6732:5.1153708 7664:4.796917 #
0.002346028528407040347758538700873 82:0.51270354 88:0.03241466 253:0.64874434 501:6.7893472 542:7.1948123 561:1.3032399 1222:5.942049 1367:4.796917 2505:7.8879595 3277:4.361599 3955:4.1502895 4015:5.32301 4067:2.7820139 4312:1.5249312 5241:5.6907349 5859:0.78628337 6032:4.1037698 7336:4.5921226 8407:2.0919015 8439:6.7893472 8534:6.0962 9278:1.8840723 #
-0.002346028528407040347758538700873 101:0.58209932 110:0.033966251 1169:7.1948123 1317:6.5016651 1820:6.7893472 2644:6.7893472 3027:6.2785215 3420:7.1948123 3934:4.2243977 4474:1.3017877 4590:7.8879595 4718:4.9975877 6422:6.7893472 8265:7.1948123 8363:7.8879595 8439:2.6098447 8447:0.57473892 8507:4.4222236 8579:7.8879595 8581:1.0603302 #
-0.00098130610939441381516956663944029 101:0.58209932 110:0.033966251 300:6.7893472 537:2.2748313 542:0.9209922 1311:3.3770998 2462:5.5853744 3215:7.8879595 4134:3.1004677 4186:4.9975877 4460:7.1948123 4634:5.8085179 4908:7.8879595 5818:2.4586136 5821:2.7061758 5834:3.2058282 7179:4.3914518 7842:7.8879595 8193:7.8879595 8439:2.6098447 8446:4.0378118 8447:0.57473892 8484:7.9922781 8752:4.9435205 9455:5.0547462 #
-0.002346028528407040347758538700873 110:0.033966251 569:3.9561336 902:7.8879595 3076:7.8879595 3706:7.8879595 5821:2.7061758 #
0.002346028528407040347758538700873 88:0.03241466 4166:4.0378118 4264:6.0962 4763:5.4900641 5149:3.5838943 5979:4.2770414 8484:1.2045984 9297:5.6907349 #
-0.002346028528407040347758538700873 110:0.033966251 3054:6.2785215 3852:2.7880929 3976:4.8434367 4184:5.942049 4624:7.8879595 8501:1.8890228 8556:3.3340824 #
0.0010988893616266860904506774687661 88:0.03241466 209:7.8879595 265:6.7893472 547:2.0018554 561:0.65161997 745:6.2785215 1356:5.4900641 4562:1.7162588 5149:3.5838943 6043:7.8879595 7387:4.2243977 8428:4.3044405 #
0.002346028528407040347758538700873 2:6.9870205 82:0.51270354 88:0.03241466 253:0.64874434 264:5.2489018 674:2.6950026 2027:6.0962 2686:7.1948123 2784:7.8879595 3692:7.8879595 4245:7.8879595 4571:2.1449561 5337:7.8879595 5522:6.2009354 5782:7.8879595 5859:2.35885 6475:6.7893472 8360:1.5689912 8363:0.57207584 8383:3.7608249 8394:5.2489018 #
0.002346028528407040347758538700873 2:6.9870205 88:0.03241466 263:2.8445342 472:3.0051575 4260:6.7893472 4566:2.2821572 8363:0.57207584 #
0.0007398888913888867092244483458785 2:6.9870205 88:0.06482932 263:2.8445342 748:6.2785215 4020:3.8989754 4566:2.2821572 5734:3.7448246 8244:6.2785215 8245:6.5016651 8389:6.0962 8484:1.2045984 9297:5.6907349 #
0.002346028528407040347758538700873 2:6.9870205 253:0.64874434 1926:5.8085179 4381:7.8879595 5320:7.1948123 5504:2.9976101 7290:5.32301 8356:3.1257854 #
8.3319378810840720559101335584984e-05 82:0.51270354 88:0.03241466 561:1.3032399 674:2.6950026 990:7.1948123 1753:6.7893472 2014:6.7893472 2301:7.8879595 2306:6.5016651 2470:3.6983047 3764:5.942049 4312:1.5249312 5544:2.441222 5859:0.78628337 6255:6.0962 7434:6.5016651 7518:5.4030528 8363:1.1441517 #
-0.002346028528407040347758538700873 1:4.5206637 2:7.3369031 4474:1.3017877 5657:3.1004677 8501:1.8890228 9227:7.8879595 #
-0.0015504206719706078998477494224062 2:7.3369031 101:0.58209932 110:0.067932501 212:3.6112933 348:4.8434367 788:4.5557547 4610:7.8879595 5127:7.8879595 5412:5.942049 5657:3.1004677 8442:6.7893472 9298:7.8879595 #
0.002346028528407040347758538700873 88:0.03241466 855:7.8879595 1323:2.6622126 1525:3.5974998 1749:7.8879595 1873:7.8879595 2830:6.7893472 4555:7.1948123 5002:7.8879595 5859:0.78628337 8363:0.57207584 8385:4.5557547 8447:7.8879595 8484:1.2045984 #
0.002346028528407040347758538700873 88:0.03241466 1971:7.1948123 4186:7.8879595 4483:7.8879595 4491:3.2629864 7126:7.8879595 8328:7.8879595 8363:0.57207584 9211:7.8879595 #
0.0016411578760066266886169517036365 88:0.03241466 253:0.64874434 328:7.8879595 561:1.3032399 757:2.6839526 798:7.1948123 820:7.1948123 1633:7.1948123 2504:7.8879595 2759:5.4900641 2861:5.32301 2869:6.2785215 3658:7.8879595 4397:7.1948123 4636:6.0962 5149:3.5838943 5818:7.8879595 5839:5.8085179 6368:7.1948123 8342:4.8922272 8363:0.57207584 9278:1.8840723 #
0.002346028528407040347758538700873 88:0.03241466 3307:4.3326111 3439:7.1948123 3631:5.6907349 4415:5.32301 5152:3.6252794 5269:7.8879595 5843:7.1948123 6012:7.8879595 8363:0.57207584 #
-0.0011959733263534224993740462394953 110:0.135865 1285:7.8879595 2014:6.7893472 3551:4.0593181 4474:1.3017877 5021:7.8879595 5782:0.9381029 5867:7.1948123 6663:7.8879595 8447:0.57473892 9238:4.1743875 9301:3.4935102 9402:2.0357568 #
-0.00050631269070905079998645703653892 110:0.033966251 199:5.4900641 264:0.748299 1739:6.7893472 4238:1.5318516 4386:7.8879595 5344:3.9561336 5782:0.9381029 5951:4.1267591 7789:7.8879595 8850:5.1153708 9457:4.7099056 #
-0.002346028528407040347758538700873 110:0.10189874 264:0.748299 385:7.1948123 542:0.9209922 2175:7.8879595 4415:4.2503734 5522:7.8879595 6002:7.8879595 6539:7.8879595 7338:4.2243977 7760:5.6907349 9029:7.8879595 #
0.001806157059300516178404483191855 82:0.51270354 88:0.03241466 561:0.65161997 3306:1.9557141 4550:1.2867292 6662:5.1153708 8363:0.57207584 8422:7.8879595 8803:6.2785215 #
-0.0008236184164247649245119142769056 110:0.033966251 264:0.748299 353:5.942049 1572:5.1799092 2209:7.8879595 4555:7.8879595 4857:7.8879595 5436:7.8879595 5459:3.5059328 5782:0.9381029 6903:7.8879595 7060:7.8879595 7236:6.7893472 7599:4.8434367 8436:6.7893472 8447:1.1494778 #
-0.00069567435966269119788918384728049 101:0.58209932 103:3.1517608 110:0.10189874 264:0.748299 536:7.8879595 569:3.9561336 740:7.1948123 808:7.8879595 820:5.942049 2271:7.8879595 2626:6.5016651 3036:7.8879595 4134:3.1004677 6027:7.8879595 6549:7.1948123 6644:6.5016651 7069:7.8879595 7882:6.5016651 8356:7.8879595 9402:2.0357568 #
0.00043025882578711884722880154363622 1:4.6690836 2:6.9870205 82:0.51270354 84:3.028147 915:7.1948123 1198:6.2785215 2394:4.796917 3256:4.9435205 5028:4.4222236 5696:4.0812969 5734:3.7448246 6041:5.8085179 7141:5.8085179 7248:6.0962 7286:7.8879595 7621:7.8879595 8360:1.5689912 8363:1.1441517 8384:4.2503734 8460:3.4336121 #
0.0023211598808120909552543675857805 2:6.9870205 88:0.09724398 919:2.545625 1315:1.8939979 4312:1.5249312 4562:1.7162588 4834:5.1153708 5259:3.7608249 5778:2.6894624 6090:7.8879595 8254:7.8879595 #
0.00042823989863703188418417311389419 2:6.9870205 88:0.19448796 253:0.64874434 561:0.65161997 1177:7.8879595 1756:7.8879595 2525:7.1948123 3306:1.9557141 3421:2.2112055 6899:5.5853744 8415:5.6907349 #
0.00084766692815905879138799194905118 2:6.9870205 88:0.03241466 327:7.8879595 547:2.0018554 561:0.65161997 1048:6.5016651 3340:4.1037698 3433:7.8879595 3662:5.2489018 4550:1.2867292 5544:2.441222 #
0.002346028528407040347758538700873 732:7.1948123 4484:7.1948123 5439:5.942049 5734:3.7448246 6780:6.2785215 8363:0.57207584 8384:4.2503734 8484:1.2045984 9278:1.8840723 #
0.00083512239608193828896420818352908 88:0.03241466 561:0.65161997 674:2.6950026 864:5.942049 4178:6.2785215 4183:4.0812969 4312:1.5249312 5479:6.5016651 5859:0.78628337 6187:4.9435205 8363:0.57207584 9126:5.6907349 #
-0.00073570259779953933298307644506053 2:7.3369031 110:0.033966251 189:7.8879595 264:0.748299 2830:5.942049 3134:4.3914518 3603:6.7893472 3904:6.0962 4474:1.3017877 5693:2.5219834 5782:0.9381029 5917:5.2489018 8447:0.57473892 8940:6.7893472 9224:4.3326111 #
-0.0019022852630920055166247051303685 2:7.3369031 3631:3.4691188 4408:6.0962 4800:6.7893472 6063:7.8879595 7037:6.5016651 8038:6.2785215 8447:1.1494778 8581:1.0603302 9101:4.4222236 9402:2.0357568 #
-0.0013877802018083882761717573472993 110:0.033966251 919:5.4900641 1311:3.3770998 4134:3.1004677 4599:6.2785215 4945:7.1948123 5657:3.1004677 5782:0.9381029 8501:1.8890228 9234:3.7608249 #
0.002346028528407040347758538700873 88:0.03241466 561:0.65161997 674:2.6950026 4055:4.9435205 4922:6.7893472 8436:5.8085179 8444:7.1948123 #
0.00053085902760069414441090884793084 88:0.03241466 1697:5.942049 1866:7.8879595 2435:6.0962 2659:7.8879595 3285:7.1948123 3306:1.9557141 4043:5.0547462 4138:7.8879595 5544:2.441222 5561:3.5059328 5859:0.78628337 7951:7.8879595 8356:3.1257854 8363:1.1441517 8484:1.2045984 8501:5.32301 8956:5.0547462 #
0.002346028528407040347758538700873 82:0.51270354 88:0.03241466 385:5.2489018 583:5.32301 3134:7.8879595 4544:7.8879595 7767:6.2785215 9415:7.8879595 #
-0.002346028528407040347758538700873 110:0.033966251 2597:7.8879595 3701:7.1948123 5818:2.4586136 6259:3.8104219 8447:0.57473892 9402:2.0357568 9510:7.8879595 #
0.002346028528407040347758538700873 88:0.12965864 1441:6.2785215 4443:7.8879595 4550:1.2867292 4572:4.7524652 5077:7.1948123 5859:0.78628337 8026:6.7893472 8212:7.8879595 8363:0.57207584 9029:7.8879595 #
-0.002346028528407040347758538700873 110:0.033966251 6441:4.8434367 9415:7.8879595 #
-0.00085610436383949716030589138782148 25:7.8879595 101:0.58209932 110:0.067932501 625:7.8879595 1280:6.7893472 1815:7.8879595 1950:7.1948123 2076:6.7893472 2129:4.796917 2365:7.8879595 2450:7.8879595 2716:7.1948123 2853:7.8879595 3378:7.8879595 4524:6.5016651 4748:7.8879595 5230:7.8879595 5408:7.1948123 5740:7.8879595 5741:5.942049 5878:7.8879595 6090:7.8879595 6372:7.8879595 6639:6.0962 6936:7.8879595 7093:7.8879595 7412:7.8879595 #
-0.0013171232886136498112239490154707 101:0.58209932 110:0.033966251 303:6.5016651 673:2.1290576 915:4.0593181 3306:7.1948123 3459:6.7893472 3771:6.7893472 3848:6.5016651 3849:7.1948123 4404:7.8879595 4474:1.3017877 4810:4.6690836 5657:3.1004677 5782:0.9381029 5818:2.4586136 6041:6.7893472 7286:7.8879595 8161:4.5557547 8447:0.57473892 8484:3.996139 8581:1.0603302 8607:2.8127856 8685:7.8879595 9523:5.0547462 #
-0.002346028528407040347758538700873 110:0.033966251 327:6.0962 542:0.9209922 2243:6.2785215 3794:7.8879595 8571:7.1948123 #
-0.00038330187277144111852172914112202 110:0.033966251 381:6.0962 523:6.5016651 542:0.9209922 1048:7.8879595 1449:6.7893472 1566:7.8879595 2801:7.8879595 2930:6.2785215 3187:2.2112055 4524:6.5016651 5092:3.7448246 5681:5.942049 6802:6.5016651 7334:4.486762 7578:7.8879595 8444:1.5335892 8501:1.8890228 8873:7.1948123 #
0.00073539035609333129953069096984564 2:6.9870205 88:0.03241466 514:5.6907349 615:4.1743875 2016:4.3044405 2599:7.8879595 3181:5.8085179 3735:7.8879595 4579:7.8879595 5522:3.1004677 5859:0.78628337 8053:7.1948123 8135:7.8879595 8363:0.57207584 9065:4.6690836 #
0.0019264050313631557367205493491724 88:0.03241466 253:0.64874434 370:5.942049 1578:7.1948123 3523:2.7521608 4222:7.1948123 4662:4.7524652 5217:7.8879595 7350:7.1948123 8484:1.2045984 #
0.002346028528407040347758538700873 88:0.12965864 1331:6.5016651 3866:6.7893472 3931:2.806555 4052:7.1948123 5793:6.5016651 5821:5.6907349 5859:0.78628337 5917:7.1948123 9034:6.7893472 #
0.002346028528407040347758538700873 88:0.03241466 269:5.2489018 569:7.8879595 1323:2.6622126 1516:4.3326111 8043:4.9975877 #
0.0004408578777997343325738277552972 82:0.51270354 88:0.12965864 300:7.8879595 561:0.65161997 871:7.1948123 1005:3.445308 1111:7.8879595 1135:7.8879595 1323:2.6622126 1392:6.0962 2558:7.1948123 2854:6.0962 3447:5.942049 3641:4.6690836 4007:7.8879595 4154:7.8879595 4312:1.5249312 5533:7.8879595 5844:5.1153708 7037:7.8879595 7295:7.8879595 8363:1.1441517 8484:1.2045984 8902:5.942049 9218:4.9975877 #
-0.0010063672525722035851897251390596 101:1.1641986 110:0.033966251 264:0.748299 789:7.8879595 1260:1.8405871 1969:7.8879595 3208:6.2785215 3558:7.8879595 3866:7.8879595 4474:1.3017877 5096:3.7936149 7106:5.4030528 7141:7.8879595 7506:6.0962 8447:1.1494778 #
-6.9266465184429832670220950063822e-05 101:0.58209932 110:0.033966251 264:0.748299 542:0.9209922 1273:2.6568508 3259:4.9975877 3773:7.1948123 4007:7.8879595 5957:5.6907349 6957:6.7893472 7441:7.8879595 7700:6.7893472 8240:6.2785215 #
-0.002346028528407040347758538700873 110:0.033966251 264:0.748299 3439:7.8879595 4930:3.4571426 5447:2.6356859 6513:5.1153708 8439:2.6098447 9050:6.7893472 #
-5.8127344606748431723661219017174e-05 110:0.033966251 264:0.748299 736:4.2243977 1139:7.8879595 1429:4.1267591 1441:6.7893472 1446:5.1153708 2037:7.8879595 2888:3.3881497 3025:7.8879595 3523:6.2785215 3988:3.0127621 4238:1.5318516 4414:6.5016651 4627:5.4030528 5307:3.8989754 5447:2.6356859 5677:5.4030528 5782:0.9381029 5862:2.8445342 8444:1.5335892 8447:0.57473892 9034:7.1948123 #
-0.002346028528407040347758538700873 110:0.033966251 499:7.8879595 3187:2.2112055 4847:7.1948123 4895:2.5173213 5782:0.9381029 5821:2.7061758 6241:4.6690836 7043:5.4900641 8328:7.8879595 8447:0.57473892 9440:5.2489018 #
-0.00097464183557248863613853284704192 110:0.033966251 264:0.748299 2762:5.1799092 3506:7.8879595 3551:4.0593181 4492:2.2969723 4963:3.9367156 8319:4.5921226 8475:3.8989754 8556:3.3340824 8581:2.1206603 #
0.0018820849792443869810676382314796 253:0.64874434 657:7.1948123 994:7.8879595 3197:4.2770414 3221:7.8879595 3594:7.8879595 4183:4.0812969 4267:6.2785215 4831:7.8879595 7247:6.7893472 7544:5.942049 8193:6.7893472 8905:6.0962 9191:5.1153708 #
0.002346028528407040347758538700873 82:0.51270354 188:4.5206637 253:0.64874434 2797:5.942049 4035:7.8879595 5673:5.8085179 7529:6.5016651 9209:3.0676777 #
0.002346028528407040347758538700873 88:0.03241466 6593:6.2785215 7226:6.7893472 #
0.002346028528407040347758538700873 88:0.03241466 6593:6.2785215 7000:5.8085179 #
-0.002346028528407040347758538700873 110:0.033966251 264:0.748299 2730:4.9435205 2983:5.4900641 4267:7.8879595 9352:6.0962 #
-0.002346028528407040347758538700873 110:0.033966251 264:0.748299 540:7.8879595 542:0.9209922 2319:6.7893472 2452:4.796917 2592:4.3326111 3604:7.8879595 7772:7.1948123 #
-0.002346028528407040347758538700873 39:7.1948123 110:0.033966251 673:4.2581153 2401:6.0962 3295:7.8879595 3957:7.1948123 4562:7.8879595 5270:4.8922272 5582:6.7893472 8447:0.57473892 9518:7.8879595 #
-0.002346028528407040347758538700873 110:0.033966251 542:0.9209922 2527:4.4222236 2926:7.8879595 3245:7.1948123 4574:6.2785215 7695:5.32301 #
-0.001253505995345368219731629899627 101:0.58209932 110:0.033966251 264:0.748299 2129:4.796917 2187:7.8879595 2852:6.5016651 2866:7.8879595 3522:7.8879595 4052:7.8879595 4705:6.7893472 4755:7.8879595 5049:7.8879595 5728:7.8879595 6130:7.8879595 6322:7.1948123 6639:6.0962 7266:6.2785215 #
0.00089356742834872265358880927266227 82:0.51270354 1315:1.8939979 1721:7.8879595 3014:7.8879595 3400:6.7893472 3551:3.7770855 3959:5.5853744 4566:2.2821572 6002:4.5206637 7043:4.486762 8363:0.57207584 9236:3.2151306 #
-0.002346028528407040347758538700873 110:0.033966251 264:0.748299 491:4.8434367 1273:2.6568508 5160:6.5016651 5175:4.4222236 5782:0.9381029 6269:7.8879595 6957:6.7893472 7277:6.5016651 8505:5.942049 #
0.001839622165580068278295522432586 79:4.1267591 80:4.1267591 88:0.03241466 662:7.8879595 789:7.8879595 1022:7.8879595 1276:7.8879595 1857:7.8879595 2144:7.8879595 2232:4.5921226 4788:6.0962 5872:7.8879595 5937:7.8879595 6165:7.1948123 6647:6.0962 7302:6.7893472 8711:6.7893472 8916:7.1948123 #
0.002346028528407040347758538700873 88:0.03241466 253:0.64874434 1385:5.942049 3560:3.5312505 6513:7.8879595 9235:6.2785215 #
0.00097037189096648064374345254989862 82:1.0254071 84:3.028147 88:0.03241466 319:4.7524652 561:0.65161997 2047:7.8879595 2902:4.5921226 5586:4.3326111 5766:7.1948123 7096:5.1799092 8178:5.942049 #
-0.002346028528407040347758538700873 278:2.8127856 2520:7.8879595 2523:6.5016651 #
-0.002346028528407040347758538700873 110:0.033966251 2336:7.8879595 4101:4.4539723 7015:7.8879595 7209:7.8879595 8447:0.57473892 9407:4.2770414 #
-0.00071845149079427094319233448871387 101:0.58209932 110:0.033966251 1980:6.2785215 3187:2.2112055 4238:1.5318516 4640:6.5016651 4990:5.4030528 6259:3.8104219 8447:1.1494778 9308:3.5441539 #
-0.00098802329640864652512965982111837 101:0.58209932 110:0.033966251 877:7.8879595 1174:6.0962 1201:6.5016651 2836:6.0962 2950:7.8879595 3494:6.0962 4483:1.6753533 4759:4.6690836 5264:6.2785215 5481:1.9557141 5897:7.8879595 6984:7.8879595 7335:6.7893472 7455:6.7893472 8263:7.1948123 8447:0.57473892 8501:1.8890228 8581:1.0603302 9312:7.8879595 9515:5.8085179 #
-0.002346028528407040347758538700873 110:0.033966251 394:7.8879595 5999:7.1948123 6600:7.8879595 #
0.002346028528407040347758538700873 88:0.03241466 1739:7.1948123 2184:7.1948123 2319:4.796917 3188:4.5921226 3323:5.5853744 3421:2.2112055 3733:7.8879595 7262:7.1948123 8363:0.57207584 #
0.0015132444948627676948454956473711 88:0.03241466 253:0.64874434 561:1.3032399 1816:7.1948123 2037:7.1948123 2628:3.8626077 2707:5.6907349 3806:7.8879595 5394:7.1948123 7970:7.8879595 #
-0.0017190032095728655526373218620506 110:0.033966251 1073:7.8879595 1224:7.8879595 1707:3.5572259 2816:5.6907349 3464:6.2785215 3620:4.9435205 4238:3.0637033 4474:1.3017877 5714:6.5016651 7967:7.8879595 8444:1.5335892 8447:1.7242168 8484:3.996139 8501:1.8890228 8900:7.8879595 8916:5.32301 9443:5.1153708 #
0.002346028528407040347758538700873 88:0.03241466 561:0.65161997 1125:7.1948123 2859:5.6907349 6582:5.6907349 #
0.00016837243712021802630185440818877 88:0.03241466 561:0.65161997 1679:5.942049 1791:4.9435205 2601:6.7893472 3306:1.9557141 4115:6.0962 5412:7.8879595 5859:1.5725667 6008:6.7893472 6416:6.2785215 6862:7.8879595 7392:7.1948123 8363:1.1441517 9278:1.8840723 #
0.00018794798973709763898441715834764 5:4.4222236 28:7.8879595 82:0.51270354 88:0.03241466 2232:9.1842451 2698:6.0962 2772:6.5016651 2956:6.0962 2964:7.8879595 3311:7.8879595 4445:7.8879595 4788:6.0962 4801:7.8879595 5957:7.8879595 5963:7.8879595 6165:7.1948123 6382:7.8879595 6447:7.8879595 6647:6.0962 6987:7.8879595 8068:6.7893472 8842:7.1948123 8916:7.1948123 8948:7.8879595 #
-0.00094020793328717267457045325684817 110:0.067932501 142:7.1948123 493:4.4539723 868:2.3664985 1105:7.8879595 1910:7.8879595 3476:7.8879595 4485:2.3388832 4544:7.8879595 4556:4.796917 5193:4.0593181 5203:7.8879595 5687:7.8879595 6862:5.6907349 7165:6.7893472 8114:7.8879595 8147:7.8879595 8439:2.6098447 8814:7.8879595 #
-0.002346028528407040347758538700873 101:0.58209932 110:0.033966251 264:0.748299 1125:12.1924 4085:7.8879595 4485:2.3388832 5805:6.5016651 #
-0.0011168732530045138214708222434979 110:0.033966251 264:0.748299 1273:2.6568508 1392:7.8879595 2184:7.8879595 4006:7.1948123 4238:1.5318516 4483:1.6753533 5000:4.2770414 6551:6.2785215 7801:5.942049 8132:7.8879595 8461:6.5016651 8501:1.8890228 8709:6.7893472 #
-0.002346028528407040347758538700873 110:0.033966251 2680:7.8879595 #
0.002346028528407040347758538700873 88:0.03241466 289:5.942049 394:5.5853744 561:0.65161997 6902:5.942049 #
0.002346028528407040347758538700873 1:4.6690836 88:0.09724398 1366:3.6112933 1449:6.7893472 4235:3.0676777 4562:1.7162588 9395:2.6304641 #
0.002346028528407040347758538700873 88:0.12965864 1394:5.4900641 2295:5.4900641 3542:7.1948123 8306:6.0962 8363:0.57207584 9268:7.8879595 #
0.002346028528407040347758538700873 88:0.03241466 719:2.1742265 948:3.996139 2821:4.6298628 3277:4.361599 3319:3.844908 3944:3.0516775 4312:1.5249312 5624:7.8879595 6957:7.8879595 8368:3.4106226 8407:2.0919015 9377:4.796917 #
-0.0010022474119524879109660586706809 101:0.58209932 110:0.033966251 1273:2.6568508 1435:3.5441539 2628:5.4900641 4002:6.7893472 5543:5.32301 5818:2.4586136 5882:3.9759364 6933:7.1948123 8447:1.1494778 8957:7.8879595 9316:4.1743875 #
-0.002346028528407040347758538700873 110:0.033966251 264:0.748299 2455:3.6394641 3518:6.7893472 5481:1.9557141 7594:4.5921226 8444:1.5335892 9268:5.942049 #
-0.00025231079201061231472719148527517 101:1.746298 110:0.067932501 264:2.2448969 1260:1.8405871 1643:20.368042 5679:7.1948123 6741:4.5206637 8511:7.1948123 9268:5.942049 9274:7.1948123 #
0.00066727821156348991575579798762874 88:0.03241466 547:2.0018554 561:0.65161997 638:7.8879595 2319:4.796917 4571:2.1449561 4687:7.1948123 4852:5.2489018 5859:0.78628337 7478:5.6907349 7673:7.8879595 8360:1.5689912 8617:6.7893472 #
-0.002346028528407040347758538700873 110:0.033966251 8421:6.2785215 8746:5.1799092 #
-0.0020944721487043452788634478878294 110:0.033966251 374:7.8879595 1313:4.1743875 2306:7.1948123 3436:2.8253644 4492:2.2969723 4742:7.8879595 5048:7.8879595 5444:7.8879595 6114:4.796917 6913:7.1948123 7664:7.8879595 7812:6.7893472 8904:6.2785215 #
0.0012360602763754262138629069767148 88:0.03241466 253:1.2974887 392:6.5016651 944:7.8879595 1273:7.8879595 3067:6.2785215 3106:7.1948123 3616:5.6907349 4415:5.32301 4491:3.2629864 5000:5.0547462 5859:1.5725667 6444:6.5016651 6579:6.7893472 7160:5.6907349 8360:1.5689912 8363:1.1441517 8368:3.4106226 8684:7.8879595 9198:3.7770855 #
0.002346028528407040347758538700873 1:4.6690836 82:0.51270354 88:0.09724398 842:7.8879595 1535:4.6690836 8363:0.57207584 8400:6.7893472 8461:7.8879595 9376:7.1948123 #
0.00076356080277039815786682686038489 88:0.03241466 253:1.2974887 700:7.1948123 2393:7.8879595 4312:1.5249312 4997:6.5016651 5000:5.0547462 5859:1.5725667 6063:6.7893472 6267:4.3044405 6662:5.1153708 7910:6.2785215 #
0.00034828394204772597248648269285809 88:0.03241466 262:7.8879595 547:2.0018554 678:7.8879595 1432:5.942049 3421:2.2112055 3788:7.8879595 4235:3.0676777 5152:3.6252794 5167:5.5853744 8363:0.57207584 #
0.002346028528407040347758538700873 82:0.51270354 88:0.03241466 561:0.65161997 865:6.7893472 4550:1.2867292 6781:7.8879595 6840:6.7893472 8363:0.57207584 8501:5.32301 #
-0.002346028528407040347758538700873 110:0.033966251 264:0.748299 5255:7.1948123 6444:7.8879595 9441:7.1948123 #
-0.00022534409430278385983066613551529 101:0.58209932 110:0.033966251 328:4.486762 776:6.7893472 1055:7.8879595 1552:6.5016651 1934:7.8879595 2305:4.5557547 2393:7.8879595 3248:7.1948123 3333:2.0858409 4474:1.3017877 5479:7.1948123 5847:7.8879595 5956:6.5016651 7752:5.2489018 8042:3.1088359 8142:6.7893472 8444:1.5335892 8447:0.57473892 9402:2.0357568 9492:5.6907349 #
-0.002346028528407040347758538700873 110:0.033966251 1246:7.8879595 3034:6.5016651 3106:7.8879595 3436:2.8253644 5229:5.32301 #
-0.002346028528407040347758538700873 10:4.2503734 79:7.1948123 110:0.033966251 5481:1.9557141 8165:6.7893472 #
-0.0023038610589825097782479268460065 110:0.033966251 264:0.748299 542:0.9209922 865:6.5016651 954:4.3914518 1217:7.8879595 2131:7.8879595 5179:7.1948123 8452:7.1948123 #
0.0015533034419831649296933617776517 88:0.03241466 2232:9.1842451 4463:7.8879595 5048:15.775919 5611:7.1948123 6361:7.8879595 8453:7.8879595 8842:7.1948123 9429:7.8879595 #
0.002346028528407040347758538700873 7081:7.8879595 7812:7.8879595 #
-0.00089772614325003656510215677144515 110:0.033966251 586:3.7608249 633:2.7346678 1222:7.1948123 1435:3.5441539 2797:3.8104219 3272:7.1948123 4413:5.1799092 5677:5.4030528 5782:0.9381029 5862:2.8445342 6260:7.8879595 8447:0.57473892 8581:1.0603302 #
0.002346028528407040347758538700873 88:0.03241466 561:0.65161997 1161:3.8989754 1539:7.8879595 2242:7.8879595 2281:5.32301 9139:6.5016651 #
0.002346028528407040347758538700873 88:0.03241466 95:7.1948123 264:5.2489018 452:6.5016651 561:0.65161997 674:2.6950026 2886:3.7448246 3259:6.7893472 4067:2.7820139 4232:6.7893472 4571:2.1449561 4942:7.8879595 5544:2.441222 6310:7.8879595 6464:6.0962 8175:7.1948123 8363:0.57207584 8484:1.2045984 #
-0.002346028528407040347758538700873 110:0.033966251 278:2.8127856 1311:3.3770998 2232:7.8879595 3187:2.2112055 4493:4.2243977 4874:4.1743875 8447:0.57473892 9531:2.7231734 #
-0.0017104993976070927402116650384301 110:0.033966251 1251:6.5016651 1368:4.8434367 2667:6.0962 2773:6.5016651 3454:4.5206637 3839:7.8879595 5624:3.6394641 6750:3.7936149 8447:0.57473892 8581:1.0603302 #
-0.002346028528407040347758538700873 110:0.033966251 1859:7.8879595 8991:6.7893472 #
-0.002346028528407040347758538700873 110:0.033966251 1875:7.1948123 4788:6.7893472 6391:7.1948123 8073:6.2785215 8447:0.57473892 8581:1.0603302 #
-0.002346028528407040347758538700873 110:0.033966251 264:0.748299 662:7.8879595 3334:7.8879595 4751:5.4900641 #
0.002346028528407040347758538700873 4416:5.6907349 8165:5.1799092 #
0.00060387048960213569274296796507429 88:0.03241466 512:7.8879595 540:6.5016651 561:1.3032399 1323:2.6622126 1580:5.4900641 3755:7.8879595 4264:6.0962 8363:0.57207584 8370:8.2075396 9236:3.2151306 9405:3.8626077 #
0.002346028528407040347758538700873 88:0.03241466 561:0.65161997 6426:4.8922272 8165:5.1799092 8823:6.0962 #
7.0217184324789734040962729810786e-05 88:0.03241466 253:0.64874434 561:0.65161997 4042:7.8879595 4571:2.1449561 6008:6.7893472 6191:3.5185115 7296:5.0547462 7481:5.1153708 8027:5.32301 9012:4.9975877 9278:1.8840723 #
0.0011443492043773746333346075232384 82:0.51270354 88:0.03241466 253:0.64874434 561:1.3032399 905:5.5853744 1657:7.8879595 2145:5.6907349 2338:6.5016651 2495:7.1948123 3436:7.8879595 3443:7.8879595 5834:6.7893472 5859:1.5725667 5982:3.48124 6692:6.7893472 6748:7.8879595 7048:6.7893472 7447:5.32301 7593:7.8879595 7706:5.942049 8360:1.5689912 8363:0.57207584 8380:7.1948123 8662:7.8879595 9278:1.8840723 #
-0.00014724784145669634867828468038908 110:0.033966251 489:5.1153708 3064:6.2785215 3499:7.1948123 4483:3.3507066 4604:2.9534855 4806:7.8879595 5782:0.9381029 6255:7.8879595 6647:6.7893472 6910:7.8879595 7004:7.8879595 7748:2.806555 8444:1.5335892 8581:1.0603302 8823:7.8879595 9220:4.6298628 9402:2.0357568 #
-0.00089069115244511066695198842069203 101:0.58209932 110:0.135865 537:2.2748313 618:5.4030528 913:5.4030528 1203:6.5016651 1260:1.8405871 3187:2.2112055 3436:2.8253644 4057:7.8879595 4093:6.7893472 4817:6.7893472 5611:7.8879595 7861:6.2785215 8165:6.7893472 8447:1.1494778 8892:7.8879595 8969:7.8879595 9265:6.7893472 #
-0.00046023668468563548854949329935948 101:0.58209932 110:0.033966251 264:1.496598 713:2.8907471 1666:6.0962 1707:3.5572259 2318:5.1799092 3092:6.5016651 3177:6.7893472 3488:5.4900641 4592:7.8879595 5693:2.5219834 5862:2.8445342 5889:3.2151306 6218:7.1948123 6358:7.1948123 7301:7.8879595 7519:6.0962 7936:7.8879595 8444:1.5335892 #
-0.0012472614679525648780783475544354 110:0.033966251 264:0.748299 537:2.2748313 542:0.9209922 561:7.8879595 664:6.2785215 673:4.2581153 713:2.8907471 876:6.0962 1930:6.5016651 2407:7.8879595 2410:6.5016651 3237:7.8879595 3534:7.8879595 4485:2.3388832 4492:2.2969723 5481:1.9557141 5950:6.7893472 7826:6.0962 8444:1.5335892 8447:0.57473892 8581:1.0603302 #
-0.002346028528407040347758538700873 110:0.033966251 952:3.8989754 1387:7.8879595 2318:5.1799092 4015:7.8879595 4483:1.6753533 #
0.0022100419430983973823057198160313 82:0.51270354 88:0.03241466 253:0.64874434 1055:7.1948123 1064:5.942049 1775:3.2629864 2307:7.8879595 5503:7.8879595 #
0.0016137790754537143216723604766116 88:0.06482932 899:7.1948123 1533:7.1948123 1618:7.1948123 1821:7.8879595 2232:4.5921226 2698:12.1924 3204:7.8879595 4242:7.8879595 4702:6.5016651 5965:7.8879595 8226:7.8879595 8825:7.8879595 #
0.002346028528407040347758538700873 82:0.51270354 88:0.03241466 432:6.7893472 527:4.2503734 713:7.8879595 757:2.6839526 1095:7.1948123 3908:7.8879595 4874:4.9975877 4947:7.8879595 4958:2.9976101 5859:0.78628337 6060:7.1948123 6155:7.8879595 #
0.002346028528407040347758538700873 88:0.03241466 1775:3.2629864 3023:7.1948123 4043:5.0547462 6346:7.8879595 8164:5.32301 8484:1.2045984 8904:5.1799092 #
0.002346028528407040347758538700873 88:0.03241466 561:0.65161997 8962:7.6208439 9145:5.6907349 9168:6.7893472 #
-0.00160373890249022334718309590329 101:0.58209932 110:0.033966251 264:0.748299 976:7.1948123 2504:7.8879595 3793:7.8879595 3908:5.4900641 4029:5.2489018 5271:5.4030528 5442:7.8879595 6126:7.8879595 #
-0.002346028528407040347758538700873 110:0.033966251 1260:1.8405871 2637:5.5853744 3908:5.4900641 #
0.00049388569244587917847488789391264 82:2.0508142 88:0.03241466 468:7.1948123 547:2.0018554 867:7.8879595 2974:6.7893472 3046:6.7893472 5859:0.78628337 7050:7.8879595 9145:5.6907349 9152:7.1948123 9154:7.8879595 9168:6.7893472 #
-0.002346028528407040347758538700873 110:0.033966251 264:0.748299 2281:7.8879595 2759:6.0962 4474:1.3017877 6286:5.6907349 8810:4.4222236 #
-0.00069439826589840175467827076971616 110:0.033966251 713:2.8907471 1540:6.2785215 3323:7.1948123 3681:7.8879595 4474:1.3017877 4492:2.2969723 4599:6.2785215 8501:1.8890228 #
0.002346028528407040347758538700873 88:0.03241466 3306:1.9557141 4093:5.942049 5773:7.1948123 8363:0.57207584 8492:4.6298628 #
0.002346028528407040347758538700873 88:0.03241466 547:2.0018554 3082:4.6298628 4492:7.1948123 #
0.002346028528407040347758538700873 88:0.03241466 3720:3.445308 4888:7.1948123 5879:7.8879595 8044:4.9975877 8892:5.8085179 #
0.002346028528407040347758538700873 88:0.03241466 253:0.64874434 5238:5.4030528 5459:6.2785215 #
0.0020479056974116328221358074301861 88:0.12965864 198:7.8879595 253:0.64874434 3300:6.5016651 3444:5.1153708 3818:6.0962 5420:5.942049 5521:7.8879595 8170:7.8879595 8363:0.57207584 8892:5.8085179 #
-0.002346028528407040347758538700873 110:0.135865 542:0.9209922 7941:5.32301 8924:5.942049 #
-0.002346028528407040347758538700873 110:0.033966251 2945:7.8879595 #
-0.002346028528407040347758538700873 110:0.135865 7171:7.8879595 7593:5.5853744 #
-0.002346028528407040347758538700873 110:0.033966251 496:7.1948123 542:0.9209922 3444:5.942049 6988:6.7893472 #
-0.002346028528407040347758538700873 110:0.033966251 1618:5.4900641 1710:7.1948123 3333:2.0858409 5252:6.2785215 6159:7.1948123 8581:1.0603302 8607:2.8127856 #
0.001576646332989531471696631470536 88:0.03241466 561:1.3032399 1540:7.1948123 1709:7.1948123 2594:7.1948123 4015:5.32301 5213:6.2785215 5223:7.8879595 5859:0.78628337 6007:7.1948123 6094:6.0962 6525:7.8879595 6671:4.9435205 6794:7.8879595 7296:5.0547462 8363:1.1441517 #
0.00039140621306686429513657654588599 82:0.51270354 88:0.03241466 246:7.8879595 561:1.3032399 1430:6.7893472 2165:6.5016651 2449:6.5016651 2637:7.8879595 2756:7.8879595 3300:6.5016651 3523:2.7521608 3659:7.1948123 3955:4.1502895 4312:1.5249312 5271:5.1799092 5485:6.7893472 5859:0.78628337 5880:4.6298628 5982:3.48124 6120:7.8879595 6254:7.1948123 6637:7.8879595 6909:6.5016651 7127:7.8879595 8348:6.7893472 8370:4.1037698 8492:4.6298628 9197:4.1037698 9332:4.2503734 #
0.002346028528407040347758538700873 88:0.03241466 2759:5.4900641 8363:0.57207584 8484:1.2045984 9096:4.8922272 9329:4.4222236 #
0.002346028528407040347758538700873 2311:6.2785215 6917:7.1948123 #
0.002346028528407040347758538700873 8532:7.8879595 #
-0.002346028528407040347758538700873 110:0.033966251 264:0.748299 1158:6.7893472 2129:4.796917 5984:7.1948123 6041:6.7893472 6326:6.7893472 6917:6.5016651 7768:6.5016651 #
-0.002346028528407040347758538700873 1449:6.7893472 2311:7.1948123 3932:8.2535181 4238:1.5318516 5459:3.5059328 5889:3.2151306 6114:4.796917 9251:6.0962 9266:6.2785215 #
-0.002346028528407040347758538700873 110:0.033966251 1260:1.8405871 1540:6.2785215 2770:7.8879595 2954:6.5016651 5000:4.2770414 #
-0.002346028528407040347758538700873 101:0.58209932 110:0.033966251 264:0.748299 952:3.8989754 1992:5.4900641 5489:4.1267591 5782:0.9381029 5882:3.9759364 5982:6.5016651 9499:7.8879595 #
-0.0022425849926463415837107895356439 110:0.033966251 264:0.748299 542:0.9209922 2594:7.8879595 4876:5.6907349 5965:7.1948123 7423:7.8879595 8390:6.5016651 8581:1.0603302 #
0.002346028528407040347758538700873 88:0.03241466 281:7.8879595 561:0.65161997 757:2.6839526 2951:7.8879595 4018:7.8879595 4549:7.8879595 4550:1.2867292 5358:6.7893472 7800:7.8879595 7941:7.1948123 9027:7.8879595 #
0.002346028528407040347758538700873 82:0.51270354 88:0.12965864 436:6.7893472 542:7.1948123 757:2.6839526 923:7.1948123 2024:6.7893472 3819:7.8879595 4571:2.1449561 4708:4.8922272 4726:4.8922272 5067:6.7893472 5840:6.5016651 6089:5.8085179 6734:7.8879595 7520:4.2243977 8363:0.57207584 9198:3.7770855 9278:1.8840723 #
0.002346028528407040347758538700873 88:0.12965864 253:0.64874434 1262:5.942049 1528:5.942049 2572:4.0812969 3444:5.1153708 4650:6.0962 5859:0.78628337 5866:6.0962 #
0.002346028528407040347758538700873 88:0.03241466 3177:4.1743875 3200:5.942049 #
0.002346028528407040347758538700873 88:0.03241466 1814:7.1948123 9097:6.2785215 #
0.00023318016637734439696141852671474 88:0.03241466 503:7.1948123 547:2.0018554 1021:7.8879595 2209:6.7893472 2542:7.8879595 3234:7.8879595 3931:2.806555 4312:1.5249312 5166:4.7099056 5859:1.5725667 7078:6.7893472 7156:7.8879595 7399:6.5016651 7544:5.942049 8358:6.2785215 8363:0.57207584 9239:5.942049 #
-0.002346028528407040347758538700873 110:0.033966251 1779:6.7893472 2899:3.9759364 3436:2.8253644 5840:7.8879595 6324:7.1948123 #
-0.0017585083667123848401997454615753 101:0.58209932 110:0.033966251 542:0.9209922 633:2.7346678 757:6.5016651 1244:6.7893472 2569:7.1948123 2935:6.5016651 4238:1.5318516 4492:2.2969723 5782:0.9381029 6288:5.4900641 7055:6.0962 7173:7.8879595 7597:7.8879595 7723:7.1948123 8447:0.57473892 9484:5.6907349 #
-0.00091725006114291916629877032818285 110:0.033966251 264:0.748299 771:5.1799092 1319:7.8879595 1836:7.8879595 2024:7.8879595 2456:5.4900641 4483:1.6753533 4708:7.8879595 6471:4.8922272 7748:2.806555 8444:1.5335892 8581:1.0603302 8964:7.8879595 #
-0.002346028528407040347758538700873 110:0.033966251 264:0.748299 326:5.5853744 1313:4.1743875 4871:7.8879595 5067:6.7893472 8009:4.5206637 #
0.00064221857268991909724331623721127 88:0.06482932 115:7.8879595 253:0.64874434 952:5.2489018 1504:5.8085179 1535:4.6690836 1631:4.6690836 1642:6.2785215 1643:7.8879595 3015:5.0547462 4210:3.6112933 4312:1.5249312 5056:3.6112933 5107:7.1948123 5663:5.4030528 5699:3.8989754 5859:0.78628337 5886:7.8879595 5926:6.5016651 6344:5.6907349 7251:4.6690836 7527:6.2785215 8363:1.1441517 9262:7.1948123 9392:6.5016651 #
0.002346028528407040347758538700873 88:0.03241466 5662:7.1948123 5906:7.8879595 #
0.002346028528407040347758538700873 88:0.03241466 2865:4.9435205 4053:5.4900641 #
0.002346028528407040347758538700873 88:0.03241466 935:4.8922272 6532:7.1948123 #
0.002346028528407040347758538700873 88:0.03241466 1390:5.5853744 9014:5.2489018 #
-0.0012859657218429556592431683981204 99:3.8275163 100:3.8104219 110:0.033966251 542:0.9209922 962:4.1267591 2148:5.4900641 2362:5.942049 5632:4.796917 5699:7.8879595 5702:7.8879595 8447:0.57473892 8485:7.8879595 #
-0.0019026869419560795467644132017426 110:0.033966251 286:6.2785215 491:4.8434367 3763:7.1948123 4134:3.1004677 5710:3.7290761 5796:5.2489018 7339:4.7524652 #
-0.002346028528407040347758538700873 101:0.58209932 110:0.033966251 3273:4.7099056 5208:6.2785215 5311:6.0962 8385:5.8085179 #
-0.002346028528407040347758538700873 101:0.58209932 110:0.033966251 1707:3.5572259 3814:6.5016651 4729:5.5853744 8385:5.8085179 #
-0.0021544620802030818064454198434987 101:0.58209932 110:0.033966251 542:0.9209922 1176:7.1948123 1709:4.5206637 2016:7.1948123 2064:7.8879595 4716:5.4030528 7524:7.8879595 7823:6.7893472 8137:6.2785215 8439:2.6098447 8995:3.1784291 #
0.002346028528407040347758538700873 88:0.03241466 547:2.0018554 1779:7.8879595 4265:5.6907349 #
0.002346028528407040347758538700873 88:0.03241466 253:0.64874434 1583:6.7893472 7317:7.8879595 7723:7.1948123 #
0.002346028528407040347758538700873 88:0.03241466 1315:1.8939979 2569:4.1267591 2877:4.5921226 7643:6.2785215 #
0.002346028528407040347758538700873 88:0.03241466 561:0.65161997 1122:6.7893472 2178:7.8879595 2569:4.1267591 #
0.002346028528407040347758538700873 88:0.03241466 561:0.65161997 2315:7.1948123 2569:4.1267591 2900:4.0593181 4665:7.1948123 5219:7.8879595 #
-0.002346028528407040347758538700873 110:0.033966251 1097:7.8879595 2569:7.1948123 4238:1.5318516 5204:4.2243977 6311:6.2785215 8447:0.57473892 #
-0.002346028528407040347758538700873 1310:6.7893472 2797:3.8104219 4604:2.9534855 5693:2.5219834 #
-0.002346028528407040347758538700873 5765:5.2489018 #
-0.002346028528407040347758538700873 4054:6.5016651 #
-0.002346028528407040347758538700873 110:0.033966251 1291:6.5016651 8276:7.8879595 #
0.002346028528407040347758538700873 82:0.51270354 88:0.03241466 253:0.64874434 1176:7.8879595 3421:2.2112055 3978:7.8879595 6796:7.1948123 8346:7.1948123 #
0.002346028528407040347758538700873 88:0.03241466 561:0.65161997 1161:3.8989754 2731:7.1948123 4428:6.5016651 4550:1.2867292 4663:6.5016651 6621:5.4900641 8385:4.5557547 9100:4.796917 #
-0.00051818654265888225516484277832774 101:0.58209932 110:0.033966251 868:2.3664985 956:5.1799092 1260:1.8405871 3004:7.1948123 4346:7.1948123 4483:1.6753533 4939:6.5016651 5480:6.5016651 5624:3.6394641 5885:6.2785215 6142:6.5016651 8230:7.1948123 8456:4.0812969 8472:4.5557547 8581:1.0603302 9068:7.1948123 9421:6.7893472 #
0.002346028528407040347758538700873 88:0.03241466 472:3.0051575 825:4.8434367 1221:6.2785215 3373:6.5016651 3421:2.2112055 4562:1.7162588 4666:7.1948123 5057:7.8879595 5467:5.5853744 5859:0.78628337 8363:0.57207584 8439:6.7893472 #
0.002346028528407040347758538700873 82:0.51270354 88:0.03241466 253:1.2974887 537:6.0962 561:0.65161997 840:7.1948123 1485:5.6907349 3051:5.942049 3160:6.5016651 3209:6.7893472 3618:7.8879595 3646:7.8879595 3931:2.806555 5859:0.78628337 #
-0.0021050302074409324090686901342906 82:7.8879595 110:0.135865 542:0.9209922 840:6.7893472 895:3.5185115 1112:6.5016651 1260:1.8405871 1273:2.6568508 1288:7.8879595 3359:5.2489018 3600:7.8879595 3852:2.7880929 5782:1.8762058 6896:6.7893472 7582:4.5206637 8447:1.7242168 9444:7.8879595 #
-0.0018799419547947213583044545615053 101:0.58209932 110:0.135865 542:0.9209922 890:5.32301 1544:4.9435205 2235:7.8879595 2592:4.3326111 4483:1.6753533 6185:4.486762 6279:6.0962 6535:7.8879595 6861:5.6907349 8055:7.1948123 8447:0.57473892 8507:4.4222236 8581:1.0603302 8895:7.1948123 9278:7.8879595 #
-0.002346028528407040347758538700873 110:0.033966251 264:0.748299 1098:4.7099056 3618:7.8879595 5481:1.9557141 5782:0.9381029 7699:7.8879595 #
-0.0012321902630950786871472102390612 24:7.8879595 101:0.58209932 110:0.033966251 542:1.8419844 566:7.8879595 601:5.942049 787:7.8879595 954:4.3914518 1273:2.6568508 1304:7.8879595 3800:7.8879595 4550:7.8879595 4893:6.5016651 5012:6.2785215 5481:1.9557141 5657:3.1004677 5841:7.8879595 6122:5.942049 6491:5.4030528 7527:5.4900641 8283:6.5016651 8447:0.57473892 9084:7.8879595 9402:2.0357568 #
-0.002346028528407040347758538700873 110:0.033966251 1274:6.2785215 9509:6.5016651 #
0.002346028528407040347758538700873 88:0.03241466 6843:5.4030528 #
0.002346028528407040347758538700873 88:0.09724398 780:6.7893472 7775:5.942049 9387:4.2770414 #
0.002346028528407040347758538700873 88:0.03241466 1356:5.4900641 1371:6.7893472 5357:7.8879595 5897:2.5946546 #
0.002346028528407040347758538700873 88:0.03241466 561:0.65161997 7664:4.796917 8277:6.0962 #
0.0017544641690243399471949015122618 41:7.8879595 63:7.8879595 1011:4.5557547 4806:7.8879595 5859:0.78628337 8356:6.2515707 8363:0.57207584 9326:6.7893472 #
-0.0005559889833148979210869500278136 101:0.58209932 110:0.135865 264:2.2448969 2041:6.7893472 2067:7.1948123 3286:6.7893472 3330:6.7893472 3444:5.942049 3867:2.8003631 4384:4.5921226 4463:7.8879595 4873:7.1948123 5064:3.7936149 5307:3.8989754 5357:6.7893472 5657:3.1004677 5782:0.9381029 5818:2.4586136 7081:5.942049 7208:5.5853744 7802:5.942049 8161:4.5557547 8444:1.5335892 8484:3.996139 8706:7.8879595 #
-0.002346028528407040347758538700873 110:0.033966251 510:7.1948123 2489:7.8879595 #
-0.002346028528407040347758538700873 110:0.033966251 1170:7.1948123 3759:6.5016651 4551:5.8085179 #
-0.002346028528407040347758538700873 110:0.033966251 2810:5.1799092 7751:7.8879595 #
-0.002346028528407040347758538700873 110:0.033966251 6124:6.0962 6192:5.4030528 8483:5.2489018 #
0.0020411983052827887760716230047819 88:0.03241466 561:0.65161997 1015:4.361599 1543:7.8879595 1675:7.8879595 2112:7.1948123 2442:7.8879595 3600:7.8879595 6521:7.1948123 8363:1.1441517 9374:7.8879595 #
0.00010219519213186263172782330954647 82:1.0254071 88:0.03241466 1275:7.8879595 1625:7.1948123 1820:7.8879595 2232:9.1842451 2327:7.8879595 2550:6.7893472 2771:7.8879595 2772:6.5016651 2919:7.8879595 2956:12.1924 5003:7.1948123 5611:7.1948123 6453:7.8879595 6625:7.8879595 6647:12.1924 7200:7.8879595 7571:6.7893472 8068:6.7893472 8710:7.1948123 9368:13.00333 #
0.001295193890207751953244641462959 82:0.51270354 88:0.03241466 566:7.8879595 1315:1.8939979 2530:7.8879595 2531:7.8879595 2716:7.8879595 2905:7.8879595 4550:1.2867292 5778:2.6894624 5912:4.0167584 6002:4.5206637 6212:5.1799092 6968:6.0962 7044:7.8879595 8356:3.1257854 8484:1.2045984 9007:5.6907349 #
0.002346028528407040347758538700873 88:0.03241466 253:0.64874434 1402:7.8879595 4550:1.2867292 4742:7.1948123 6190:3.996139 7003:6.7893472 #
-0.002346028528407040347758538700873 101:0.58209932 110:0.033966251 2442:7.8879595 3885:7.8879595 5666:7.1948123 7008:5.5853744 #
-0.002346028528407040347758538700873 1:9.0413275 6750:3.7936149 7003:7.8879595 7076:7.8879595 7118:7.8879595 8501:1.8890228 9402:2.0357568 9493:5.2489018 #
-0.002346028528407040347758538700873 110:0.033966251 264:0.748299 1260:1.8405871 1717:6.5016651 1789:7.8879595 2530:6.7893472 3510:5.942049 7600:5.942049 8321:4.7099056 #
-0.002346028528407040347758538700873 110:0.033966251 3853:7.8879595 9203:7.1948123 #
-0.002346028528407040347758538700873 110:0.033966251 7467:5.5853744 #
0.0019518538324610464149838628955536 88:0.03241466 499:4.0812969 561:0.65161997 2263:7.1948123 2796:7.1948123 5308:6.7893472 6192:7.8879595 6250:7.1948123 7034:6.7893472 8729:7.8879595 9278:1.8840723 9387:4.2770414 #
0.0014499339797209259521337809673014 88:0.03241466 510:7.8879595 1439:3.9367156 2865:4.9435205 3523:2.7521608 3641:4.6690836 4067:2.7820139 4826:6.2785215 5144:7.1948123 6191:3.5185115 8812:6.5016651 #
0.002346028528407040347758538700873 82:0.51270354 88:0.03241466 6784:7.1948123 6995:7.1948123 8886:7.8879595 #
0.002346028528407040347758538700873 82:0.51270354 88:0.03241466 3063:7.8879595 4858:7.1948123 8270:7.8879595 #
0.002346028528407040347758538700873 88:0.12965864 504:4.4222236 3631:5.6907349 5556:7.8879595 6899:5.5853744 #
-0.0013789545404814488194916721752747 101:0.58209932 110:0.033966251 264:0.748299 1092:7.8879595 1557:5.942049 1783:7.8879595 1873:7.8879595 3187:2.2112055 4243:7.8879595 4474:1.3017877 5144:7.8879595 5818:2.4586136 #
-0.0019610447744244207529673573731088 101:1.1641986 110:0.033966251 1516:7.8879595 2730:4.9435205 2832:6.7893472 3584:5.2489018 4384:4.5921226 4619:7.1948123 5782:0.9381029 5993:7.8879595 8044:5.8085179 8270:7.1948123 8447:0.57473892 8540:7.8879595 8866:7.1948123 9017:4.1267591 #
-0.002346028528407040347758538700873 110:0.033966251 2013:7.8879595 5782:0.9381029 6192:5.4030528 7676:6.2785215 #
-0.002346028528407040347758538700873 110:0.033966251 487:4.3044405 3482:4.8922272 3641:7.1948123 4492:2.2969723 5818:2.4586136 5951:4.1267591 #
-0.002346028528407040347758538700873 110:0.033966251 1095:5.6907349 4485:2.3388832 4963:3.9367156 5821:2.7061758 #
0.002346028528407040347758538700873 1:4.6690836 2898:5.8085179 8233:7.1948123 8484:1.2045984 #
0.002346028528407040347758538700873 82:1.0254071 88:0.03241466 253:0.64874434 561:0.65161997 1233:6.7893472 2443:5.1153708 7008:7.8879595 7406:5.6907349 8088:6.0962 #
0.00051431626151284296974419696368841 1:9.3381672 82:0.51270354 253:0.64874434 843:4.796917 3720:3.445308 4104:7.1948123 4312:1.5249312 4550:1.2867292 5109:7.1948123 5179:7.8879595 5227:7.8879595 5881:5.942049 7626:7.8879595 7828:7.8879595 #
0.002346028528407040347758538700873 1:4.6690836 88:0.09724398 433:7.8879595 4550:1.2867292 7007:5.6907349 8195:4.796917 #
0.002346028528407040347758538700873 82:1.5381107 88:0.03241466 253:0.64874434 264:5.2489018 472:3.0051575 561:0.65161997 1008:6.7893472 3166:6.7893472 5056:3.6112933 5859:0.78628337 7007:5.6907349 8188:6.7893472 8239:4.0167584 #
-0.002346028528407040347758538700873 1:4.5206637 3436:2.8253644 7719:6.7893472 8447:0.57473892 8535:6.7893472 8664:7.1948123 #
-7.7459963512389913976689814756327e-05 110:0.033966251 542:0.9209922 673:4.2581153 759:7.8879595 964:6.5016651 4303:6.2785215 5782:0.9381029 6863:7.8879595 8447:1.1494778 9295:6.7893472 9348:11.617036 #
-0.0018940263631856604081837858188919 110:0.033966251 330:4.1267591 1199:7.8879595 2351:7.8879595 4238:1.5318516 4535:6.7893472 5782:0.9381029 6304:7.8879595 6619:7.8879595 6957:6.7893472 7643:7.1948123 8195:6.0962 8447:0.57473892 8784:7.1948123 8816:7.8879595 #
-0.002346028528407040347758538700873 110:0.135865 957:7.8879595 #
-0.002346028528407040347758538700873 110:0.135865 655:5.4900641 4012:6.5016651 4077:5.6907349 6438:6.7893472 #
0.00073483740039219217800303685095287 88:0.03241466 299:6.7893472 561:0.65161997 1092:7.8879595 2358:5.8085179 3004:4.3044405 3248:6.5016651 3559:6.7893472 4550:1.2867292 5522:3.1004677 5859:0.78628337 8155:6.0962 8363:0.57207584 9183:3.1343691 9348:7.8879595 #
0.002346028528407040347758538700873 88:0.12965864 253:0.64874434 4056:7.1948123 4312:1.5249312 4909:6.5016651 6461:7.8879595 #
0.002346028528407040347758538700873 88:0.03241466 5696:4.0812969 5901:4.8922272 6457:5.2489018 #
0.0013494138433487320397757835976904 82:0.51270354 88:0.03241466 936:5.1153708 2887:7.8879595 4410:7.8879595 4571:2.1449561 5545:5.32301 5603:6.0962 6520:6.7893472 7052:7.8879595 8321:7.8879595 8363:0.57207584 8412:4.0593181 8484:1.2045984 9236:3.2151306 9241:5.942049 #
-0.002346028528407040347758538700873 110:0.135865 3497:6.5016651 4472:5.8085179 7825:7.1948123 #
0.00047930629446501973184302514141564 82:0.51270354 88:0.03241466 561:0.65161997 1029:7.8879595 2206:5.942049 2568:6.7893472 3197:4.2770414 4550:1.2867292 4562:1.7162588 5504:2.9976101 6363:5.5853744 6634:5.942049 7467:6.5016651 7584:7.8879595 7695:3.2532303 8484:1.2045984 8664:7.8879595 #
-0.002346028528407040347758538700873 110:0.135865 1761:7.8879595 5524:7.1948123 5997:7.1948123 9026:5.942049 #
-0.002346028528407040347758538700873 110:0.20379749 5243:6.7893472 5931:6.2785215 #
-0.002346028528407040347758538700873 110:0.033966251 633:2.7346678 962:4.1267591 2797:3.8104219 3333:2.0858409 4018:6.2785215 4656:6.5016651 6259:3.8104219 7476:7.8879595 8277:7.8879595 8447:0.57473892 8469:3.7448246 8533:3.9561336 8581:1.0603302 9299:6.7893472 #
-0.002346028528407040347758538700873 101:0.58209932 110:0.033966251 569:7.9122672 1682:5.942049 1708:7.8879595 3710:6.0962 9258:6.7893472 #
-0.002346028528407040347758538700873 101:0.58209932 110:0.033966251 3474:7.8879595 7241:6.2785215 7941:5.32301 #
0.002346028528407040347758538700873 82:0.51270354 88:0.03241466 561:0.65161997 6042:5.942049 8535:4.7524652 9144:3.7770855 9286:5.2489018 #
0.002346028528407040347758538700873 88:0.03241466 561:0.65161997 3630:6.5016651 4185:6.7893472 8535:4.7524652 #
0.002346028528407040347758538700873 88:0.03241466 561:0.65161997 3560:3.5312505 8535:4.7524652 #
-0.002346028528407040347758538700873 110:0.033966251 3630:7.1948123 5782:0.9381029 8447:0.57473892 9461:6.2785215 #
-0.00050289349262325417147523332062065 101:0.58209932 110:0.033966251 542:0.9209922 639:7.8879595 1260:1.8405871 1825:7.8879595 2495:7.8879595 2527:4.4222236 3890:6.7893472 3988:3.0127621 4081:3.9176674 4238:1.5318516 4307:7.1948123 4474:1.3017877 4556:4.796917 4909:5.1153708 5107:7.8879595 5632:4.796917 5834:3.2058282 6525:7.8879595 6796:7.8879595 8447:1.1494778 8581:1.0603302 8725:7.8879595 9168:6.0962 9353:3.5974998 #
-0.0023313514281996963566079283936006 110:0.033966251 927:15.775919 2975:6.7893472 4474:1.3017877 9267:4.1743875 #
-0.002346028528407040347758538700873 110:0.033966251 264:0.748299 2983:5.4900641 6625:7.8879595 #
-0.0015089965460768309680333887357051 101:1.746298 110:0.033966251 542:0.9209922 1670:5.2489018 1749:6.0962 5786:7.8879595 6264:6.7893472 7609:7.8879595 7795:5.942049 #
0.002346028528407040347758538700873 547:2.0018554 719:2.1742265 1903:7.8879595 2714:7.8879595 3474:6.5016651 4102:6.7893472 4215:7.8879595 5632:7.1948123 #
0.002346028528407040347758538700873 88:0.03241466 1595:6.5016651 4550:1.2867292 6501:7.1948123 8469:7.1948123 #
0.0014568610994058063361211718955701 88:0.12965864 561:0.65161997 1748:7.8879595 3202:7.8879595 3406:7.8879595 5171:4.8434367 5997:7.1948123 6309:5.8085179 7087:5.32301 8098:6.7893472 8358:6.2785215 8363:1.1441517 8484:2.4091969 9244:7.8879595 9324:7.8879595 #
0.002346028528407040347758538700873 88:0.03241466 253:0.64874434 4159:5.4030528 7806:6.0962 8484:1.2045984 8690:4.0378118 9107:3.2629864 9330:5.942049 #
0.002346028528407040347758538700873 88:0.03241466 757:2.6839526 1627:4.361599 3333:5.942049 4571:2.1449561 6176:4.0812969 #
-0.002346028528407040347758538700873 110:0.033966251 542:0.9209922 836:6.7893472 2267:4.3914518 3761:5.942049 4455:5.942049 5391:7.1948123 6176:7.1948123 7071:5.1799092 #
-0.002346028528407040347758538700873 110:0.033966251 1544:4.9435205 6309:7.8879595 #
-0.0016674710563101440615602077954804 110:0.033966251 448:7.8879595 542:0.9209922 2616:7.8879595 2693:7.8879595 3333:4.1716819 3879:3.6394641 3988:3.0127621 6057:7.8879595 6100:4.1502895 6529:7.8879595 7601:7.8879595 8333:7.1948123 8532:7.8879595 9316:4.1743875 #
-0.002346028528407040347758538700873 110:0.033966251 728:6.2785215 2327:5.942049 2628:5.4900641 3138:3.844908 3176:6.5016651 3333:2.0858409 4895:2.5173213 5489:4.1267591 5882:3.9759364 7622:6.5016651 #
-0.0017525178312482712645464788536742 110:0.033966251 713:2.8907471 4134:3.1004677 4483:1.6753533 4777:7.1948123 5834:3.2058282 5970:6.5016651 6100:4.1502895 7330:3.8989754 8447:1.1494778 8484:3.996139 8581:1.0603302 9289:4.3326111 9330:3.4571426 #
0.0006503023700587673297870972000112 88:0.03241466 561:0.65161997 1005:3.445308 1432:5.942049 1566:7.8879595 1612:7.8879595 3421:2.2112055 4922:6.7893472 6519:5.32301 7572:4.7524652 8363:0.57207584 #
0.002346028528407040347758538700873 88:0.03241466 561:0.65161997 1825:4.8922272 2304:6.7893472 6348:5.4900641 #
0.002346028528407040347758538700873 88:0.03241466 253:0.64874434 6320:5.32301 8637:4.5921226 #
0.002346028528407040347758538700873 88:0.03241466 253:0.64874434 2063:7.8879595 3749:6.7893472 7878:7.8879595 #
0.002346028528407040347758538700873 88:0.03241466 253:0.64874434 5225:7.1948123 8273:5.942049 #
-0.0021262945191067392919359591019202 110:0.033966251 542:0.9209922 1268:6.0962 1391:7.8879595 3187:2.2112055 3588:6.5016651 6163:6.5016651 7645:6.0962 7832:6.0962 8447:1.1494778 #
-0.002346028528407040347758538700873 110:0.033966251 264:0.748299 3962:7.8879595 7741:7.8879595 #
-0.002346028528407040347758538700873 110:0.033966251 264:0.748299 5543:5.32301 5672:7.8879595 #
-0.002346028528407040347758538700873 110:0.033966251 264:0.748299 4853:6.7893472 6838:7.1948123 #
-0.002346028528407040347758538700873 110:0.135865 264:0.748299 998:5.2489018 5512:7.8879595 9511:7.8879595 #
0.002346028528407040347758538700873 82:1.0254071 88:0.03241466 3551:3.7770855 8192:7.8879595 8333:7.1948123 8342:4.8922272 #
0.002346028528407040347758538700873 88:0.03241466 2693:7.8879595 4366:6.2785215 4550:1.2867292 4571:2.1449561 7492:6.2785215 #
0.0017182492663444309203418791653917 88:0.03241466 120:7.8879595 948:3.996139 1323:2.6622126 1562:7.8879595 2662:6.7893472 2928:7.8879595 2942:7.8879595 3633:5.942049 3869:4.7524652 3944:3.0516775 4268:7.1948123 4312:1.5249312 4550:1.2867292 5384:4.3914518 5489:7.8879595 5964:7.8879595 8382:7.8879595 8487:6.7893472 9183:3.1343691 #
0.002346028528407040347758538700873 88:0.12965864 561:0.65161997 819:7.8879595 4565:7.1948123 4708:4.8922272 8333:7.1948123 8962:3.8104219 9221:6.7893472 9395:2.6304641 #
0.002346028528407040347758538700873 88:0.03241466 253:0.64874434 2628:3.8626077 3815:5.6907349 #
-0.002346028528407040347758538700873 110:0.033966251 4255:7.1948123 5497:3.2058282 5765:5.2489018 5964:6.7893472 8607:2.8127856 #
-0.002216549958751101896681223735186 101:1.746298 110:0.033966251 542:0.9209922 1756:7.8879595 4157:3.0051575 4170:7.8879595 5361:7.8879595 5679:7.1948123 7352:7.1948123 9221:6.5016651 #
-0.002346028528407040347758538700873 110:0.033966251 328:4.486762 537:2.2748313 673:2.1290576 2951:4.9435205 2967:7.1948123 4366:7.8879595 5768:5.1799092 8464:4.2770414 #
-0.002346028528407040347758538700873 110:0.033966251 264:0.748299 2662:5.6907349 3273:4.7099056 6368:6.2785215 6441:4.8434367 7120:7.1948123 8423:6.0962 #
-0.002346028528407040347758538700873 110:0.033966251 1707:3.5572259 3132:7.1948123 #
0.0011171325072126252631737886034102 88:0.03241466 404:6.7893472 2385:7.8879595 3879:7.8879595 4571:2.1449561 5544:2.441222 6535:6.0962 7917:6.0962 8359:5.1153708 8363:0.57207584 8484:1.2045984 #
0.002346028528407040347758538700873 88:0.03241466 757:2.6839526 1005:3.445308 4571:2.1449561 5552:6.0962 5882:7.8879595 #
0.002346028528407040347758538700873 88:0.03241466 1315:1.8939979 2310:5.4030528 3174:5.4030528 8913:5.942049 #
0.002346028528407040347758538700873 88:0.03241466 637:5.4030528 1315:1.8939979 4954:6.7893472 #
0.0022254217764745760389788475919204 413:5.1153708 561:0.65161997 1646:7.8879595 3668:6.0962 3718:13.00333 9229:6.0962 #
-0.002346028528407040347758538700873 110:0.033966251 1722:6.0962 1914:7.8879595 2505:6.5016651 5447:2.6356859 8439:2.6098447 9321:6.7893472 #
-0.002346028528407040347758538700873 110:0.033966251 419:7.1948123 542:0.9209922 8382:5.2489018 #
-0.002346028528407040347758538700873 110:0.033966251 405:4.6298628 952:3.8989754 3368:7.8879595 3554:4.5206637 4816:5.2489018 4930:3.4571426 7081:5.942049 8444:1.5335892 #
-0.0017614269491486890788917163419569 110:0.033966251 1454:5.32301 1680:7.1948123 3000:7.1948123 3120:6.2785215 3525:5.942049 4023:4.5557547 4027:7.1948123 4613:6.7893472 5725:7.1948123 5782:0.9381029 5887:5.4900641 8140:6.5016651 8411:5.8085179 8581:1.0603302 #
-0.002346028528407040347758538700873 110:0.135865 1046:7.8879595 5368:5.8085179 8447:0.57473892 8475:3.8989754 #
0.002346028528407040347758538700873 88:0.03241466 494:5.6907349 5149:3.5838943 5361:6.2785215 7330:5.4030528 8363:0.57207584 9016:5.942049 9329:4.4222236 #
0.002346028528407040347758538700873 561:0.65161997 1077:7.1948123 2391:6.2785215 8799:7.8879595 #
0.002346028528407040347758538700873 88:0.03241466 561:0.65161997 2902:4.5921226 4380:6.0962 6966:7.8879595 #
0.002346028528407040347758538700873 88:0.03241466 561:0.65161997 3264:7.8879595 8731:6.7893472 #
0.002346028528407040347758538700873 88:0.03241466 2569:4.1267591 4235:3.0676777 4253:6.7893472 6016:6.7893472 8247:7.8879595 #
-0.002346028528407040347758538700873 110:0.033966251 997:7.8879595 2902:7.8879595 3934:4.2243977 8581:1.0603302 #
-0.0021217770881267338130282684716121 110:0.033966251 569:3.9561336 2867:7.8879595 3270:7.1948123 3333:2.0858409 4141:7.8879595 4380:6.7893472 6885:5.8085179 8447:0.57473892 #
-0.002346028528407040347758538700873 101:0.58209932 110:0.033966251 7700:6.7893472 8600:7.8879595 8899:5.6907349 #
-0.002346028528407040347758538700873 110:0.033966251 264:0.748299 5782:0.9381029 7008:5.5853744 7246:4.6298628 7410:6.0962 7517:7.1948123 #
-0.002346028528407040347758538700873 110:0.033966251 264:0.748299 3058:5.8085179 5658:7.1948123 #
0.002346028528407040347758538700873 88:0.03241466 2877:4.5921226 8411:5.6907349 #
0.00056420222489114626313044809080566 82:1.5381107 83:5.2489018 88:0.03241466 143:6.2785215 149:7.1948123 162:7.1948123 472:3.0051575 561:0.65161997 949:7.8879595 1105:7.8879595 1366:3.6112933 2030:7.8879595 2648:7.8879595 3514:6.0962 4566:2.2821572 5391:7.8879595 6040:7.8879595 6821:7.1948123 7027:7.8879595 7071:7.8879595 8363:1.1441517 8387:4.0378118 8705:5.6907349 #
0.002346028528407040347758538700873 82:0.51270354 88:0.03241466 561:0.65161997 1918:6.7893472 2853:6.2785215 4448:4.796917 4512:5.4030528 4566:2.2821572 7217:7.1948123 7541:7.8879595 #
0.0022796714901250707784041704684341 82:0.51270354 88:0.03241466 253:0.64874434 3306:1.9557141 4145:5.0547462 4991:3.7448246 7613:7.1948123 7640:6.2785215 #
-0.002346028528407040347758538700873 110:0.033966251 264:0.748299 1313:4.1743875 2888:3.3881497 5357:6.7893472 6080:6.7893472 7217:6.5016651 8444:1.5335892 8767:7.1948123 #
-0.002346028528407040347758538700873 110:0.033966251 542:0.9209922 1053:6.7893472 1918:7.1948123 2527:4.4222236 2835:7.8879595 6024:6.0962 6256:5.8085179 #
-0.0011587264110207173579275563568558 110:0.033966251 217:7.8879595 264:0.748299 1260:1.8405871 1468:6.7893472 2632:6.7893472 2797:3.8104219 3349:5.8085179 4197:7.8879595 5782:0.9381029 7027:6.0962 9434:4.1267591 #
-0.002346028528407040347758538700873 110:0.033966251 542:0.9209922 2412:7.8879595 3299:7.1948123 #
-0.002346028528407040347758538700873 110:0.033966251 542:0.9209922 5772:5.8085179 9264:5.942049 #
0.002346028528407040347758538700873 88:0.03241466 111:7.8879595 253:0.64874434 5291:6.2785215 5657:5.8085179 5859:0.78628337 5897:2.5946546 6901:5.4030528 7014:6.7893472 8363:0.57207584 #
0.002346028528407040347758538700873 88:0.03241466 919:5.0912499 973:6.5016651 5593:5.4030528 7337:4.3914518 8484:1.2045984 #
0.002346028528407040347758538700873 88:0.03241466 219:7.8879595 4426:6.2785215 4874:4.9975877 5859:0.78628337 5902:2.8510067 9320:4.5557547 #
0.0023032124857614443176612173402873 88:0.03241466 547:2.0018554 1791:4.9435205 3497:5.0547462 3626:4.9975877 3672:4.5557547 4501:4.7099056 8363:0.57207584 8484:1.2045984 8685:5.942049 #
0.002346028528407040347758538700873 88:0.03241466 253:0.64874434 856:5.2489018 962:6.5016651 3560:3.5312505 5857:7.1948123 6058:6.2785215 8484:1.2045984 #
-0.002346028528407040347758538700873 110:0.033966251 3497:6.5016651 4474:1.3017877 4604:2.9534855 8484:3.996139 8501:1.8890228 #
-0.00094789769946855995802481587020338 101:0.58209932 110:0.033966251 264:2.2448969 542:0.9209922 804:6.0962 1358:7.8879595 1637:7.8879595 3626:7.8879595 3698:7.8879595 4312:7.1948123 4501:6.5016651 4664:7.8879595 5270:4.8922272 5782:0.9381029 5821:2.7061758 5910:4.19908 7473:7.8879595 7530:7.1948123 7724:6.5016651 8082:7.8879595 8501:1.8890228 8533:3.9561336 9249:7.1948123 9402:2.0357568 #
-0.002346028528407040347758538700873 110:0.033966251 264:0.748299 962:4.1267591 3109:6.0962 5971:6.5016651 #
-0.00055117233835469989049193895169765 10:4.2503734 33:7.8879595 54:7.8879595 110:0.033966251 583:7.8879595 1474:7.8879595 1480:7.8879595 3187:2.2112055 4238:1.5318516 5627:3.9367156 5782:0.9381029 5865:7.8879595 6620:5.942049 8447:1.7242168 #
0.002346028528407040347758538700873 82:0.51270354 88:0.12965864 253:0.64874434 7205:5.6907349 7722:4.6298628 9157:7.8879595 #
0.002346028528407040347758538700873 88:0.03241466 253:0.64874434 1631:4.6690836 5736:7.8879595 8597:5.5853744 #
0.002346028528407040347758538700873 82:0.51270354 88:0.03241466 561:0.65161997 2166:6.2785215 3438:5.942049 4945:4.9435205 #
0.002346028528407040347758538700873 82:0.51270354 88:0.03241466 561:0.65161997 2779:6.2785215 5186:7.8879595 8296:6.7893472 #
0.002346028528407040347758538700873 82:0.51270354 88:0.03241466 561:0.65161997 1323:2.6622126 2866:7.1948123 3184:6.7893472 3817:7.1948123 6675:7.8879595 8672:5.1153708 #
-0.002346028528407040347758538700873 110:0.033966251 542:0.9209922 3498:7.1948123 6303:6.7893472 #
-0.002346028528407040347758538700873 1592:7.8879595 2449:4.1267591 4081:3.9176674 7866:6.7893472 9531:2.7231734 #
-0.0011459055000415789039858172060349 110:0.033966251 537:2.2748313 855:6.5016651 2030:7.8879595 2830:5.942049 3436:2.8253644 4485:2.3388832 5782:0.9381029 5930:6.7893472 8326:6.7893472 8447:0.57473892 #
-0.002346028528407040347758538700873 110:0.033966251 213:6.2785215 5481:1.9557141 6714:4.1743875 8491:7.8879595 #
-0.002346028528407040347758538700873 110:0.033966251 3138:3.844908 7682:6.0962 8048:5.6907349 #
0.0015438946874216600418927569648986 88:0.03241466 253:1.2974887 537:6.0962 584:5.4030528 934:4.796917 1416:7.8879595 1680:7.8879595 2318:6.7893472 3010:4.5557547 4600:6.0962 4604:7.1948123 5504:2.9976101 5663:5.4030528 5859:0.78628337 7207:7.8879595 8356:3.1257854 8360:1.5689912 8883:7.8879595 9198:3.7770855 9313:3.6538529 #
0.0019709982896640135426047368838454 88:0.03241466 719:2.1742265 3123:7.8879595 4448:4.796917 4550:1.2867292 4605:7.8879595 4613:7.1948123 5971:7.8879595 6190:3.996139 8249:7.8879595 8363:0.57207584 #
0.002346028528407040347758538700873 88:0.03241466 273:6.2785215 547:2.0018554 7810:7.8879595 9124:7.8879595 #
0.002346028528407040347758538700873 82:0.51270354 88:0.03241466 1396:7.8879595 1757:7.8879595 2232:4.5921226 2396:7.8879595 5821:5.6907349 5980:7.8879595 6369:7.8879595 8966:7.8879595 #
0.0006444798403025389166645653382659 82:1.0254071 88:0.03241466 253:0.64874434 333:7.1948123 561:0.65161997 693:4.9435205 774:5.6907349 1011:4.5557547 1637:7.8879595 1708:7.8879595 2639:5.942049 4020:3.8989754 4762:6.7893472 4958:2.9976101 5128:7.8879595 5199:5.4030528 5707:7.8879595 5979:4.2770414 9043:7.8879595 #
-0.0012016047701296024476785850865213 110:0.033966251 264:1.496598 1600:7.8879595 4474:1.3017877 5684:5.1799092 5693:2.5219834 5817:7.8879595 7993:7.1948123 8966:7.8879595 #
-0.002346028528407040347758538700873 110:0.033966251 264:0.748299 2356:5.32301 4238:1.5318516 5128:6.5016651 5976:7.8879595 #
-0.002346028528407040347758538700873 110:0.10189874 2320:10.230742 4134:9.301403 4773:5.32301 7714:7.8879595 8249:7.8879595 #
-0.002346028528407040347758538700873 110:0.033966251 771:5.1799092 8505:5.942049 #
-0.00025151016186472933879730851103318 110:0.033966251 264:0.748299 1272:7.1948123 1804:7.8879595 3291:7.8879595 3879:3.6394641 4082:6.7893472 4604:2.9534855 5782:0.9381029 5889:3.2151306 5948:6.5016651 6040:5.4030528 6961:7.8879595 7748:2.806555 7992:7.8879595 8242:7.8879595 8268:7.8879595 8447:0.57473892 9091:6.7893472 9532:5.4030528 #
0.002346028528407040347758538700873 88:0.03241466 382:5.942049 387:6.7893472 540:6.5016651 561:0.65161997 4312:1.5249312 6585:7.8879595 7790:7.1948123 8947:7.8879595 9236:3.2151306 #
0.00089077060951763334384345682792627 82:0.51270354 88:0.03241466 253:0.64874434 435:7.1948123 561:0.65161997 1884:7.8879595 2010:7.1948123 3176:7.1948123 5897:2.5946546 6364:5.4900641 7724:6.7893472 7884:7.8879595 8089:7.8879595 8236:4.4539723 8488:7.1948123 9278:1.8840723 #
0.002346028528407040347758538700873 88:0.03241466 4055:4.9435205 5873:4.3044405 #
0.002346028528407040347758538700873 88:0.03241466 2737:7.8879595 3635:7.8879595 4550:1.2867292 5368:5.6907349 6049:6.0962 7251:4.6690836 7296:5.0547462 8315:6.5016651 9278:1.8840723 #
0.002346028528407040347758538700873 88:0.03241466 253:0.64874434 1519:7.8879595 1775:3.2629864 9299:5.2489018 #
-0.00081344819471268199444213831128536 101:0.58209932 110:0.033966251 542:0.9209922 748:7.1948123 1124:6.5016651 1519:7.8879595 3175:6.2785215 3704:7.1948123 3974:7.8879595 4240:7.8879595 4492:2.2969723 5173:7.8879595 5242:5.4030528 5594:4.9975877 5921:7.8879595 6462:6.0962 6585:7.8879595 6646:7.1948123 7784:6.2785215 8123:6.7893472 8884:6.7893472 9186:7.8879595 9402:2.0357568 #
-0.002346028528407040347758538700873 110:0.135865 519:4.7524652 673:2.1290576 4483:1.6753533 5782:0.9381029 5818:2.4586136 6190:6.5016651 8487:4.5921226 9041:7.8879595 #
-0.002346028528407040347758538700873 110:0.033966251 797:3.2629864 3022:6.2785215 #
-0.002346028528407040347758538700873 110:0.033966251 954:4.3914518 4492:2.2969723 5209:7.8879595 5409:4.8434367 6376:6.7893472 #
-0.002346028528407040347758538700873 110:0.033966251 542:0.9209922 673:4.2581153 1435:3.5441539 3594:7.1948123 3821:7.8879595 4492:2.2969723 9097:7.1948123 #
0.00049654562495724950850484180620015 82:1.0254071 88:0.03241466 547:2.0018554 561:0.65161997 1230:6.2785215 2320:6.7893472 2428:4.9435205 3797:7.8879595 4005:7.8879595 4550:1.2867292 5724:7.8879595 6721:7.1948123 8342:4.8922272 8484:1.2045984 8485:7.8879595 8802:6.7893472 #
0.002346028528407040347758538700873 88:0.03241466 561:0.65161997 7100:4.0812969 7450:5.8085179 #
0.002346028528407040347758538700873 88:0.03241466 547:2.0018554 3062:5.6907349 3082:4.6298628 #
0.002346028528407040347758538700873 88:0.03241466 919:2.545625 1252:6.5016651 1306:7.8879595 3306:1.9557141 5259:3.7608249 5270:7.8879595 7572:4.7524652 8029:7.8879595 8363:0.57207584 8407:2.0919015 #
0.002346028528407040347758538700873 88:0.03241466 3523:2.7521608 3972:4.1743875 5902:2.8510067 8363:0.57207584 #
-0.002346028528407040347758538700873 110:0.033966251 4999:6.5016651 5481:1.9557141 5821:2.7061758 #
-0.002346028528407040347758538700873 110:0.033966251 268:7.8879595 5853:6.0962 9217:6.2785215 #
-0.002346028528407040347758538700873 110:0.033966251 542:0.9209922 820:5.942049 6404:4.8922272 #
-0.002346028528407040347758538700873 110:0.033966251 264:0.748299 2266:7.1948123 3635:7.1948123 4330:7.8879595 5796:5.2489018 6114:4.796917 #
-0.002346028528407040347758538700873 110:0.033966251 2237:5.942049 4718:4.9975877 #
0.002346028528407040347758538700873 88:0.03241466 253:0.64874434 2470:3.6983047 3783:3.9176674 3852:7.8879595 5149:3.5838943 5209:7.8879595 5902:2.8510067 5982:3.48124 7075:7.8879595 8484:1.2045984 9171:6.7893472 #
0.002346028528407040347758538700873 82:0.51270354 88:0.03241466 593:7.8879595 1583:6.7893472 2758:7.8879595 8123:7.8879595 #
0.002346028528407040347758538700873 88:0.03241466 4053:5.4900641 8044:4.9975877 9097:6.2785215 #
0.002346028528407040347758538700873 88:0.12965864 253:0.64874434 2308:6.5016651 8637:4.5921226 #
0.00098483461071467194580808524051463 88:0.03241466 326:5.2489018 561:0.65161997 719:2.1742265 2429:7.8879595 2572:4.0812969 3330:4.796917 3497:5.0547462 3636:7.8879595 4312:1.5249312 4814:6.5016651 5215:7.8879595 5891:6.5016651 6191:3.5185115 6632:4.9975877 7030:7.8879595 #
-0.0008271059481419088064285682904142 110:0.033966251 264:0.748299 326:5.5853744 411:5.4900641 2477:7.8879595 2944:5.6907349 3333:2.0858409 3988:3.0127621 5519:7.1948123 6232:5.6907349 6453:7.8879595 7356:7.1948123 7556:6.7893472 8490:7.1948123 8581:1.0603302 9063:7.8879595 9272:7.8879595 9363:6.7893472 #
-0.0023228405794453888671968755375019 110:0.033966251 537:2.2748313 3134:4.3914518 3852:2.7880929 4570:7.1948123 5782:0.9381029 6142:6.5016651 8447:0.57473892 8890:7.8879595 #
-0.002346028528407040347758538700873 110:0.033966251 2401:6.0962 6013:6.2785215 #
-0.0019053713202882068683541305631479 110:0.033966251 264:0.748299 279:5.6907349 5624:3.6394641 7031:6.0962 8051:7.8879595 8212:6.7893472 8444:1.5335892 8528:4.5557547 #
-0.002346028528407040347758538700873 110:0.033966251 5190:6.0962 5447:2.6356859 7482:6.5016651 8439:2.6098447 #
0.0018082956336644626094134480354114 82:1.0254071 88:0.03241466 253:1.2974887 2237:6.5016651 3931:2.806555 5124:5.4900641 5544:2.441222 6185:7.8879595 7714:6.7893472 8178:5.942049 8363:0.57207584 #
0.00088959627292711047560902493103185 88:0.03241466 268:5.942049 1434:7.8879595 1511:7.8879595 2612:4.9975877 4166:4.0378118 4566:2.2821572 4698:7.8879595 4968:7.8879595 5955:4.7099056 7043:4.486762 7457:7.8879595 7839:6.2785215 8363:1.1441517 8484:1.2045984 9023:6.2785215 #
0.0019321648637120774402026190941228 88:0.03241466 253:0.64874434 1323:2.6622126 1492:7.8879595 2466:5.4030528 4259:7.8879595 6261:7.8879595 6961:6.7893472 9278:1.8840723 9293:6.5016651 #
0.002346028528407040347758538700873 88:0.09724398 2466:5.4030528 4566:2.2821572 8062:7.8879595 8961:7.1948123 9278:1.8840723 #
0.002346028528407040347758538700873 88:0.03241466 1453:7.8879595 3170:6.2785215 3551:3.7770855 3720:3.445308 4491:3.2629864 5666:7.1948123 5859:0.78628337 8055:7.1948123 8363:0.57207584 #
-0.00071795279767585722455192076552066 103:3.1517608 110:0.033966251 209:3.7936149 1165:6.7893472 1260:1.8405871 2130:5.32301 3333:2.0858409 3772:5.0547462 3988:3.0127621 4259:7.1948123 5561:6.7893472 5862:2.8445342 6040:10.806106 6153:7.8879595 6456:6.7893472 7309:6.0962 8637:6.5016651 9352:6.0962 #
-0.002346028528407040347758538700873 897:7.8879595 2918:5.1153708 4683:6.7893472 5693:2.5219834 8447:0.57473892 #
-0.002346028528407040347758538700873 2:7.3369031 209:3.7936149 212:3.6112933 1337:5.6907349 5461:7.1948123 5537:4.486762 5632:4.796917 8447:0.57473892 9302:4.8922272 #
-0.002346028528407040347758538700873 101:0.58209932 110:0.033966251 264:0.748299 542:0.9209922 4398:7.1948123 4960:7.8879595 5270:4.8922272 6165:7.8879595 #
-0.002346028528407040347758538700873 895:3.5185115 2713:7.8879595 3867:2.8003631 7529:3.8626077 7796:5.4900641 #
0.002346028528407040347758538700873 88:0.03241466 561:0.65161997 3306:1.9557141 5322:5.32301 8195:4.796917 #
0.002346028528407040347758538700873 88:0.03241466 561:0.65161997 6426:4.8922272 8635:7.1948123 #
0.002346028528407040347758538700873 4022:4.6298628 4550:1.2867292 8383:3.7608249 8643:5.4900641 #
0.002346028528407040347758538700873 88:0.03241466 469:7.8879595 535:5.32301 3097:7.1948123 4501:4.7099056 5522:3.1004677 5859:0.78628337 8363:0.57207584 9378:5.5853744 #
0.002346028528407040347758538700873 88:0.03241466 561:0.65161997 6928:7.8879595 8019:5.8085179 9005:7.8879595 9014:5.2489018 #
-0.0018003546918988172064607367062194 110:0.033966251 264:0.748299 952:3.8989754 1661:7.8879595 2253:7.8879595 4022:5.942049 8331:7.8879595 8439:2.6098447 8447:0.57473892 8710:7.1948123 #
-0.002346028528407040347758538700873 110:0.135865 2592:4.3326111 4129:7.8879595 #
-0.0019891690681476206260802630509943 110:0.033966251 282:7.8879595 1396:7.8879595 3436:2.8253644 7500:7.1948123 7815:7.8879595 8410:7.8879595 8447:0.57473892 8581:2.1206603 8601:5.942049 #
-0.002346028528407040347758538700873 110:0.033966251 537:2.2748313 1739:6.7893472 2458:7.8879595 5782:0.9381029 5941:7.1948123 8386:7.8879595 #
0.002346028528407040347758538700873 82:0.51270354 88:0.03241466 4562:1.7162588 5561:3.5059328 5669:5.2489018 6372:7.8879595 6783:6.7893472 7695:3.2532303 7982:5.4900641 8363:0.57207584 8706:4.6690836 9110:4.0593181 #
0.0021286347661478711816573916593143 82:0.51270354 88:0.03241466 212:7.8879595 253:0.64874434 561:0.65161997 1516:4.3326111 1763:5.942049 1825:4.8922272 1985:5.8085179 2065:6.2785215 2861:5.32301 3103:7.8879595 4017:5.8085179 4447:5.942049 5859:0.78628337 6256:6.2785215 8846:7.1948123 #
0.002346028528407040347758538700873 88:0.03241466 472:3.0051575 3421:2.2112055 5476:7.8879595 5561:3.5059328 #
0.0016291379377746570931984049224184 88:0.09724398 757:2.6839526 1315:1.8939979 1365:6.5016651 3369:5.5853744 4312:1.5249312 4937:3.6394641 5037:3.7290761 6896:7.1948123 7153:5.8085179 8701:6.2785215 9331:5.4900641 #
-0.0018167335789038773722486874717674 110:0.033966251 212:3.6112933 962:4.1267591 2136:6.0962 2681:6.5016651 3399:6.7893472 3770:7.8879595 4828:7.1948123 5657:3.1004677 #
-0.0009469331573553316271432689354981 110:0.033966251 1273:2.6568508 2338:7.8879595 2452:4.796917 2731:5.942049 3308:7.8879595 4415:4.2503734 4435:5.8085179 4474:1.3017877 4810:4.6690836 5818:2.4586136 8044:5.8085179 8129:4.8922272 8447:0.57473892 9314:3.7290761 #
-0.002346028528407040347758538700873 110:0.033966251 264:0.748299 3170:7.8879595 3780:7.8879595 4474:1.3017877 4963:3.9367156 5344:3.9561336 5834:3.2058282 6754:4.7099056 8470:3.6112933 9339:4.4539723 #
-0.002346028528407040347758538700873 110:0.033966251 278:2.8127856 2627:7.8879595 4029:5.2489018 4474:1.3017877 5710:3.7290761 6261:7.8879595 9458:4.8434367 #
-0.002346028528407040347758538700873 110:0.033966251 1260:1.8405871 8949:6.7893472 9277:7.8879595 #
0.0018817054269007337397728862882218 88:0.06482932 253:0.64874434 317:5.32301 318:4.7099056 383:7.8879595 919:2.545625 938:4.2770414 1378:5.942049 1882:7.8879595 2207:7.8879595 4562:1.7162588 6470:6.5016651 7721:7.8879595 8386:7.8879595 #
0.0016900996981293007082741697288952 82:1.0254071 88:0.03241466 618:4.9975877 3004:4.3044405 3842:6.7893472 5540:6.7893472 5945:3.3029919 6738:7.8879595 7090:7.8879595 7508:7.8879595 8484:1.2045984 9209:3.0676777 #
0.002346028528407040347758538700873 88:0.03241466 561:0.65161997 7415:5.4900641 8416:5.4030528 #
0.002346028528407040347758538700873 88:0.03241466 253:0.64874434 5544:2.441222 7070:5.942049 7965:6.5016651 #
-0.002346028528407040347758538700873 110:0.033966251 2207:6.7893472 5459:3.5059328 5497:3.2058282 5782:0.9381029 8607:2.8127856 9109:4.9435205 #
-0.002346028528407040347758538700873 101:0.58209932 868:2.3664985 1378:7.8879595 1383:7.8879595 4157:3.0051575 4545:7.8879595 8501:1.8890228 9289:4.3326111 9462:3.6112933 #
-0.00058676932398108090117860857759524 101:0.58209932 110:0.033966251 264:0.748299 814:7.8879595 3342:6.5016651 3842:7.1948123 4613:6.7893472 5011:5.8085179 5862:2.8445342 7608:6.7893472 8342:7.8879595 8581:1.0603302 9402:2.0357568 9407:4.2770414 #
-0.002346028528407040347758538700873 110:0.20379749 4098:7.8879595 7582:4.5206637 #
-0.002346028528407040347758538700873 110:0.033966251 4155:7.1948123 4483:1.6753533 4895:2.5173213 8700:7.1948123 9420:5.32301 #
0.002346028528407040347758538700873 82:0.51270354 88:0.03241466 627:7.8879595 1907:7.8879595 2232:4.5921226 2920:7.8879595 3309:6.7893472 3780:7.8879595 5821:5.6907349 6524:7.8879595 7439:7.1948123 #
0.002346028528407040347758538700873 88:0.03241466 561:0.65161997 3071:6.7893472 9073:4.9975877 #
0.002346028528407040347758538700873 88:0.03241466 561:0.65161997 1940:7.1948123 3306:1.9557141 4550:1.2867292 5537:7.8879595 5808:7.8879595 6840:6.7893472 #
0.002346028528407040347758538700873 88:0.03241466 1224:4.9435205 2162:7.8879595 4312:1.5249312 4684:3.5704713 8407:2.0919015 #
0.002346028528407040347758538700873 88:0.03241466 674:2.6950026 1486:5.32301 6191:3.5185115 8363:0.57207584 9330:5.942049 #
-0.002346028528407040347758538700873 110:0.033966251 1260:1.8405871 4305:7.1948123 9275:6.2785215 #
-0.002346028528407040347758538700873 101:0.58209932 110:0.033966251 264:0.748299 2355:7.8879595 3887:7.8879595 5723:7.1948123 6842:6.2785215 #
-0.002346028528407040347758538700873 101:0.58209932 110:0.033966251 264:0.748299 5576:6.7893472 5795:6.0962 7834:6.5016651 #
0.0012301418076933708697223712746904 82:1.0254071 561:0.65161997 1339:7.8879595 1380:7.1948123 1394:5.4900641 2226:5.5853744 4054:7.8879595 4155:7.1948123 5008:7.8879595 6189:5.6907349 6200:7.8879595 7073:7.8879595 8360:1.5689912 8363:0.57207584 8693:7.8879595 8996:7.1948123 #
0.002346028528407040347758538700873 88:0.03241466 547:2.0018554 1865:7.8879595 2902:4.5921226 2962:6.5016651 6621:5.4900641 8362:4.19908 #
0.002346028528407040347758538700873 82:0.51270354 88:0.03241466 499:4.0812969 2753:5.4900641 3131:6.0962 4566:2.2821572 5314:5.942049 5844:5.1153708 #
0.002346028528407040347758538700873 88:0.03241466 2295:5.4900641 3356:5.6907349 3626:4.9975877 4566:2.2821572 5114:4.2243977 8864:5.5853744 9278:1.8840723 #
0.002346028528407040347758538700873 82:0.51270354 88:0.03241466 935:4.8922272 1777:7.8879595 5428:7.1948123 5832:6.5016651 8862:6.0962 #
-0.001690559693925327254537815946378 110:0.033966251 2899:3.9759364 3581:5.0547462 3760:7.8879595 4211:7.8879595 5838:7.8879595 8447:0.57473892 8581:1.0603302 8711:6.5016651 9017:4.1267591 9076:7.1948123 #
-0.002346028528407040347758538700873 212:3.6112933 4895:2.5173213 5000:4.2770414 5604:5.4900641 8501:1.8890228 9330:3.4571426 #
-0.002346028528407040347758538700873 101:0.58209932 110:0.033966251 542:0.9209922 3575:6.7893472 6087:7.8879595 6256:5.8085179 #
-0.0021349662998335133465288571130714 110:0.033966251 264:0.748299 853:5.6907349 3482:4.8922272 4238:1.5318516 4369:6.7893472 5782:0.9381029 6824:7.8879595 7571:6.0962 8077:6.0962 9157:7.8879595 #
-0.002346028528407040347758538700873 110:0.033966251 1107:4.6690836 3867:2.8003631 4483:1.6753533 6590:6.5016651 8581:1.0603302 9196:5.4030528 9236:5.8085179 #
0.002346028528407040347758538700873 88:0.03241466 547:2.0018554 4200:6.5016651 4305:5.4900641 #
0.00056406259504973728889642980988128 5:4.4222236 66:7.8879595 82:1.0254071 88:0.03241466 348:6.2785215 561:0.65161997 594:4.7524652 830:6.7893472 917:6.0962 1206:7.1948123 2076:7.1948123 2929:5.2489018 7250:6.7893472 7251:4.6690836 7794:6.7893472 8484:1.2045984 8878:3.8104219 #
0.002346028528407040347758538700873 253:0.64874434 1813:4.2770414 2836:7.1948123 5498:5.2489018 5859:0.78628337 6386:4.7524652 #
0.002346028528407040347758538700873 88:0.03241466 253:0.64874434 5859:0.78628337 6269:4.486762 8603:6.5016651 9313:3.6538529 #
-0.002346028528407040347758538700873 110:0.033966251 542:0.9209922 4717:6.5016651 5481:1.9557141 5498:7.8879595 8810:4.4222236 #
-0.002346028528407040347758538700873 110:0.033966251 264:0.748299 1515:7.8879595 1707:3.5572259 6481:7.8879595 8169:7.8879595 #
-0.002346028528407040347758538700873 110:0.033966251 1114:7.8879595 1557:5.942049 4496:7.1948123 5627:3.9367156 9192:6.5016651 #
-0.002346028528407040347758538700873 110:0.033966251 3298:7.8879595 5782:0.9381029 7593:5.5853744 9318:7.1948123 #
0.002346028528407040347758538700873 88:0.03241466 561:0.65161997 2211:6.2785215 3500:6.7893472 3560:3.5312505 4416:5.6907349 #
0.0014772381335646099682901155603076 88:0.03241466 253:0.64874434 2062:6.5016651 2767:6.5016651 3421:2.2112055 4550:1.2867292 5189:4.2243977 5728:7.8879595 7190:7.1948123 7526:7.1948123 8242:6.0962 #
0.002346028528407040347758538700873 88:0.03241466 253:0.64874434 1627:4.361599 1656:6.0962 5232:5.942049 8425:7.1948123 #
0.00098524962097060642292334353697925 88:0.03241466 561:0.65161997 3800:7.1948123 4418:7.1948123 4491:3.2629864 4705:7.1948123 5811:6.5016651 5859:0.78628337 6087:7.8879595 6233:7.8879595 6530:5.4030528 7756:6.2785215 8144:7.1948123 8363:1.1441517 8428:4.3044405 9153:7.8879595 9278:1.8840723 #
0.002346028528407040347758538700873 82:0.51270354 88:0.03241466 253:0.64874434 2628:3.8626077 3177:4.1743875 3987:6.0962 8329:5.942049 #
-0.0013342936657050480115521695623215 88:7.8879595 110:0.067932501 542:0.9209922 797:3.2629864 1460:7.8879595 1711:7.8879595 4493:4.2243977 5818:2.4586136 6959:7.8879595 8425:6.2785215 8581:1.0603302 8607:2.8127856 #
-0.002346028528407040347758538700873 110:0.033966251 264:0.748299 2454:4.0812969 5477:6.0962 5491:5.942049 5693:2.5219834 6185:4.486762 8444:1.5335892 #
-0.002346028528407040347758538700873 110:0.033966251 542:0.9209922 633:2.7346678 1410:7.8879595 2386:7.8879595 5957:5.6907349 7654:7.1948123 8087:6.7893472 #
-0.002346028528407040347758538700873 110:0.033966251 2903:5.2489018 4474:1.3017877 5783:3.8806262 #
-0.0016654415645043370818034755842518 110:0.033966251 264:0.748299 542:0.9209922 557:6.0962 2340:7.1948123 3564:7.1948123 4474:1.3017877 5782:0.9381029 5979:7.1948123 7298:3.8806262 8389:7.8879595 8447:0.57473892 #
0.0012062928830156574230847432716018 88:0.03241466 1525:3.5974998 2754:6.2785215 3523:2.7521608 4999:5.6907349 5335:7.8879595 5445:5.8085179 5618:7.8879595 5859:0.78628337 6053:7.8879595 7287:4.3914518 8363:0.57207584 8484:1.2045984 8574:7.8879595 #
0.002346028528407040347758538700873 116:7.8879595 188:4.5206637 3640:4.2503734 4562:1.7162588 6455:6.5016651 8407:2.0919015 8484:1.2045984 8512:6.5016651 #
0.002346028528407040347758538700873 88:0.03241466 185:7.1948123 2291:5.5853744 5425:5.0547462 5859:0.78628337 8460:3.4336121 9329:4.4222236 9405:3.8626077 #
9.1375767791491909223730583100576e-05 82:0.51270354 88:0.03241466 1165:14.389625 1315:1.8939979 3523:2.7521608 4210:3.6112933 4214:5.4900641 5544:2.441222 5696:4.0812969 8311:7.8879595 8407:2.0919015 #
-0.002346028528407040347758538700873 110:0.033966251 264:0.748299 4210:6.7893472 4285:7.8879595 5481:1.9557141 5782:0.9381029 6317:7.1948123 6509:7.8879595 #
-0.002346028528407040347758538700873 101:0.58209932 110:0.033966251 2474:4.1502895 2831:6.5016651 7793:7.2225866 9434:4.1267591 #
-0.0014517467545767642062015667647756 106:7.8879595 110:0.067932501 331:7.1948123 2645:5.4900641 3634:6.7893472 3747:6.7893472 3877:7.8879595 4238:1.5318516 4485:2.3388832 5238:7.8879595 5386:7.8879595 7646:7.8879595 8501:1.8890228 9536:4.796917 #
-0.00035422469252242340127107000924411 99:3.8275163 100:3.8104219 101:1.1641986 110:0.067932501 264:1.496598 597:7.8879595 1543:7.8879595 2076:6.7893472 2129:4.796917 2270:7.8879595 2325:7.8879595 2449:4.1267591 2833:7.8879595 2868:7.1948123 2959:7.8879595 3646:7.8879595 4971:7.8879595 5086:7.8879595 5189:7.8879595 5495:6.7893472 5690:7.8879595 5741:5.942049 6004:7.1948123 6508:7.8879595 6639:6.0962 8434:7.8879595 8815:7.8879595 9089:7.8879595 9566:7.8879595 #
-0.0015246188858263490586986144137427 110:0.033966251 377:5.8085179 465:2.8190551 542:0.9209922 868:2.3664985 1493:5.4030528 2375:6.5016651 2750:7.1948123 5782:0.9381029 6291:5.942049 8486:4.3044405 9422:5.1799092 #
0.002346028528407040347758538700873 88:0.03241466 561:0.65161997 3551:3.7770855 5730:7.8879595 #
0.002346028528407040347758538700873 82:0.51270354 88:0.03241466 3306:1.9557141 6363:5.5853744 9167:7.8879595 #
0.002346028528407040347758538700873 88:0.03241466 253:0.64874434 1471:6.5016651 2314:7.8879595 3261:5.4900641 5859:0.78628337 5954:7.8879595 8363:0.57207584 #
0.002346028528407040347758538700873 88:0.03241466 584:5.4030528 2516:5.5853744 3541:7.8879595 5418:6.7893472 5859:0.78628337 6946:7.8879595 8363:0.57207584 #
0.002346028528407040347758538700873 82:0.51270354 88:0.03241466 253:0.64874434 3306:1.9557141 7703:6.5016651 8277:6.0962 #
-0.002346028528407040347758538700873 101:0.58209932 110:0.033966251 542:0.9209922 3138:3.844908 7555:7.1948123 7589:5.942049 7756:7.1948123 #
-0.0022751647840784502627164975763208 110:0.033966251 246:7.8879595 2234:6.0962 2809:5.4030528 4474:1.3017877 5447:2.6356859 7359:7.8879595 8439:2.6098447 #
-0.002346028528407040347758538700873 110:0.033966251 542:0.9209922 1273:2.6568508 1987:5.8085179 2414:7.8879595 2593:7.8879595 5733:6.7893472 8775:4.8922272 #
-0.002346028528407040347758538700873 110:0.135865 3283:7.8879595 4492:2.2969723 5829:7.8879595 6528:6.5016651 9402:2.0357568 #
-0.00061347319927840336228203055313202 110:0.033966251 739:5.4900641 1371:7.8879595 3205:4.7524652 4238:1.5318516 4841:4.3044405 5257:6.0962 5307:3.8989754 5657:3.1004677 5782:0.9381029 5862:2.8445342 5975:6.7893472 6138:7.8879595 6297:6.5016651 6464:7.8879595 6813:7.8879595 7169:7.8879595 8439:2.6098447 8444:1.5335892 8447:0.57473892 8603:7.8879595 9353:3.5974998 #
0.002346028528407040347758538700873 88:0.03241466 253:0.64874434 4566:2.2821572 5238:5.4030528 #
0.002346028528407040347758538700873 88:0.03241466 253:0.64874434 356:7.8879595 493:7.1948123 1323:2.6622126 1788:7.8879595 2889:5.6907349 4712:7.8879595 4826:6.2785215 #
0.002346028528407040347758538700873 82:0.51270354 88:0.03241466 253:0.64874434 697:6.7893472 4991:3.7448246 7035:5.0547462 9139:6.5016651 #
0.002346028528407040347758538700873 88:0.03241466 561:0.65161997 674:2.6950026 1037:7.1948123 4312:1.5249312 5126:7.1948123 6187:4.9435205 7088:5.942049 8385:4.5557547 #
-0.002346028528407040347758538700873 110:0.30569625 264:0.748299 850:7.8879595 3080:6.2785215 3324:6.5016651 3977:5.4900641 3988:3.0127621 4991:7.8879595 5100:7.8879595 5782:0.9381029 7260:7.8879595 #
-0.002346028528407040347758538700873 110:0.033966251 527:6.0962 589:4.6298628 2455:3.6394641 5497:3.2058282 5782:0.9381029 8581:1.0603302 #
-0.002346028528407040347758538700873 110:0.033966251 264:0.748299 2549:6.5016651 5481:1.9557141 #
-0.002346028528407040347758538700873 110:0.033966251 264:0.748299 2542:6.7893472 4933:6.7893472 5481:1.9557141 #
0.0020796558804160678729511246842776 88:0.03241466 190:6.2785215 561:0.65161997 749:6.7893472 2414:7.8879595 2628:3.8626077 4103:6.5016651 6426:4.8922272 9020:5.6907349 #
0.002346028528407040347758538700873 82:0.51270354 88:0.03241466 1315:1.8939979 4055:4.9435205 5873:4.3044405 7357:6.7893472 7834:6.7893472 8786:6.5016651 #
0.002346028528407040347758538700873 88:0.03241466 253:0.64874434 561:0.65161997 3942:5.4900641 5261:7.1948123 5578:6.0962 5859:0.78628337 8239:4.0167584 #
0.0015158787356260123788120885990338 88:0.03241466 253:1.2974887 721:7.8879595 2028:7.8879595 2632:7.1948123 3942:5.4900641 3993:5.6907349 4550:1.2867292 5498:5.2489018 5859:0.78628337 #
0.002346028528407040347758538700873 88:0.06482932 263:2.8445342 2698:6.0962 4300:7.1948123 6323:5.8085179 8227:6.5016651 8384:4.2503734 8484:1.2045984 #
-0.002346028528407040347758538700873 110:0.033966251 264:1.496598 4103:6.7893472 4429:3.2827892 4574:6.2785215 6164:7.1948123 9148:7.1948123 #
-0.002346028528407040347758538700873 542:0.9209922 4876:5.6907349 8851:7.8879595 #
-0.002346028528407040347758538700873 110:0.033966251 1132:6.2785215 2130:5.32301 6491:5.4030528 8418:7.1948123 #
-0.002346028528407040347758538700873 110:0.033966251 213:6.2785215 3187:2.2112055 7781:7.1948123 8117:7.8879595 #
-0.002346028528407040347758538700873 110:0.033966251 264:0.748299 4846:7.8879595 8528:4.5557547 #
0.002346028528407040347758538700873 88:0.03241466 257:7.8879595 1497:6.0962 1883:6.7893472 3890:6.5016651 5859:0.78628337 6773:5.2489018 7447:5.32301 8363:0.57207584 8484:1.2045984 8900:3.7290761 #
0.0011785394633036098185202567023566 88:0.03241466 482:6.2785215 615:4.1743875 1366:3.6112933 3955:4.1502895 5154:5.1799092 5555:4.4539723 5859:0.78628337 5988:7.8879595 6268:6.5016651 7532:5.0547462 8412:4.0593181 8486:6.0962 9203:7.8879595 9401:4.3914518 #
0.002346028528407040347758538700873 88:0.03241466 253:0.64874434 7068:5.8085179 7983:3.1966114 8494:5.1799092 9144:3.7770855 #
0.00089958249733995611797238156626122 82:0.51270354 88:0.03241466 253:0.64874434 1120:6.5016651 2275:5.5853744 2901:7.1948123 3971:7.1948123 4069:7.1948123 4491:3.2629864 5606:7.8879595 6831:7.8879595 7236:7.1948123 8261:7.1948123 8363:0.57207584 #
-0.002346028528407040347758538700873 110:0.033966251 3244:7.8879595 3906:6.0962 5054:7.8879595 5782:0.9381029 7068:7.1948123 8583:7.8879595 8803:6.2785215 9402:2.0357568 #
-0.002346028528407040347758538700873 110:0.10189874 257:7.8879595 3709:6.5016651 5132:4.0167584 5782:0.9381029 5889:3.2151306 7246:4.6298628 8472:4.5557547 #
-0.002346028528407040347758538700873 110:0.033966251 264:0.748299 1495:6.7893472 1497:6.7893472 6922:7.1948123 9407:4.2770414 #
-0.00078723352145666758948594488032313 101:0.58209932 110:0.10189874 264:0.748299 353:5.942049 842:7.8879595 1572:5.1799092 2405:5.8085179 4495:6.2785215 4717:6.5016651 5050:6.2785215 5782:0.9381029 5988:7.8879595 6155:6.2785215 7408:5.4030528 8447:0.57473892 8581:1.0603302 8898:7.8879595 #
-0.002346028528407040347758538700873 110:0.033966251 3333:2.0858409 4860:5.1153708 5204:4.2243977 5657:3.1004677 5818:2.4586136 8484:3.996139 8501:1.8890228 9304:7.1948123 9440:5.2489018 #
0.00076477008972579874242214703627951 88:0.03241466 253:1.946233 264:5.2489018 317:5.32301 561:1.3032399 1239:6.5016651 1775:3.2629864 2118:7.1948123 3089:6.0962 3277:4.361599 4554:4.6690836 4991:3.7448246 7391:5.4900641 7398:5.8085179 8293:6.5016651 8360:1.5689912 8713:6.2785215 #
0.0010664930092642156515825302420808 82:0.51270354 88:0.03241466 253:0.64874434 264:5.2489018 483:6.5016651 753:7.8879595 1323:2.6622126 3195:5.5853744 3277:4.361599 4550:1.2867292 4723:7.8879595 4958:2.9976101 5784:7.1948123 5955:4.7099056 6039:7.8879595 6701:7.8879595 8363:0.57207584 8407:2.0919015 8956:5.0547462 9276:5.4900641 #
0.0018748598636488898044882844828862 88:0.03241466 547:2.0018554 561:0.65161997 2569:4.1267591 2871:5.0547462 2908:7.8879595 4367:7.8879595 #
0.002346028528407040347758538700873 88:0.03241466 2961:6.0962 3444:5.1153708 4312:1.5249312 4571:2.1449561 6623:7.1948123 #
0.002346028528407040347758538700873 88:0.03241466 253:0.64874434 1390:5.5853744 3306:1.9557141 5699:3.8989754 #
-0.002346028528407040347758538700873 110:0.033966251 264:0.748299 1260:1.8405871 1517:6.0962 2452:4.796917 3103:5.5853744 #
-0.0019877802084120616693541094832653 110:0.033966251 542:0.9209922 937:7.1948123 3852:2.7880929 4859:7.8879595 4974:6.7893472 6710:5.8085179 7501:7.1948123 7748:2.806555 #
-0.002346028528407040347758538700873 110:0.033966251 264:0.748299 783:7.1948123 3591:7.8879595 7307:7.8879595 8357:6.7893472 9402:2.0357568 #
-0.002346028528407040347758538700873 110:0.033966251 264:0.748299 3187:2.2112055 7800:5.0547462 8382:5.2489018 #
-0.002346028528407040347758538700873 110:0.033966251 1311:3.3770998 5807:7.8879595 6045:7.8879595 6381:6.7893472 7713:6.5016651 8447:0.57473892 9531:2.7231734 #
