SVM-light Version V6.02
0 # kernel type
3 # kernel parameter -d 
1 # kernel parameter -g 
1 # kernel parameter -s 
1 # kernel parameter -r 
empty# kernel parameter -u 
36805 # highest feature index 
2000 # number of training documents 
605 # number of support vectors plus 1 
0.051018257 # threshold b, each following line is a SV (starting with alpha*y)
-2.2270033621646304885849029786549e-05 11:0.49692273 269:0.14757073 270:0.14442113 275:0.062062081 277:1.6450651 462:5.8091431 586:3.2968373 657:6.9077554 662:6.9077554 789:6.2146082 1166:0.072144382 1206:6.2146082 1210:6.2146082 1235:0.89521813 1404:1.2207799 1659:1.9103005 1849:3.0365543 1850:0.92772824 2020:5.8091431 2058:2.5010359 2093:0.24659643 2128:0.015007505 2304:6.9077554 2640:0.27228093 2670:3.0365543 2913:6.9077554 2919:5.2983174 2920:6.2146082 2921:9.9236898 2933:4.6051702 3053:6.9077554 3092:2.9374633 3434:0.43034086 3457:4.6051702 3505:3.5065579 3517:1.7602608 3577:4.1429467 3774:2.9585307 4311:6.2146082 4535:6.9077554 4670:9.370697 4733:8.6472111 4947:4.4228487 5004:0.15387988 5028:4.8283138 5038:0.25566673 5139:2.4418471 5296:3.9633162 5391:3.1941831 5474:2.7806208 5519:3.9633162 5718:3.6119184 5730:3.6888795 6163:6.9077554 6176:6.9077554 6177:4.6051702 6266:2.9187713 6637:2.1715569 6677:4.7105308 6743:4.8283138 6989:4.1997051 7188:2.9187713 7338:0.77435726 7377:3.079114 7613:3.9633162 7762:3.9120231 8061:4.9618449 8153:1.9241487 8208:5.2983174 8280:6.9077554 8511:3.0365543 8825:1.4064971 8957:2.2164073 9287:1.1667926 9330:2.5902672 9391:0.87227386 9742:3.8167129 10327:2.6450753 10681:3.6888795 10944:3.7297015 10985:3.8167129 11286:2.9759297 11289:2.3434072 11334:4.2686977 11354:2.0635681 11465:2.095571 11498:4.9618449 11726:1.0461203 11945:3.8167129 11958:2.5383074 12123:2.8647039 12146:2.8824036 12190:0.31498155 12270:4.3428059 12315:1.8838748 12439:4.6051702 12531:0.51949084 12670:5.521461 12756:9.8105078 12821:4.8283138 12886:3.7297015 12982:0.58339632 13104:2.2349265 13207:2.0102439 13258:2.6410131 13264:1.1086626 14131:2.9374633 14196:0.24462259 14229:6.9077554 14245:0.30630237 14285:1.346366 14289:1.1394343 14296:1.9173226 14344:2.8134108 14347:4.6051702 14550:6.9077554 14603:3.6496587 14684:1.9445214 14688:1.5050778 14722:1.8518083 14771:4.7105308 14852:1.6982691 14911:4.2686977 14939:2.1803675 14955:4.3428059 15002:9.6566277 15323:4.1351666 15379:0.33407512 15632:0.048096258 15984:4.7105308 16348:5.2983174 16387:0.014014019 16427:0.038740829 16503:20.723267 16506:3.5404594 16509:6.2146082 16624:6.9077554 16786:3.1941831 16919:8.0347672 17011:5.8091431 17049:36.496586 17050:16.564383 17445:3.8632329 17532:6.9077554 17570:2.7030628 17668:3.1010928 17794:3.4112477 17989:1.1809075 18029:0.27707189 18077:5.2983174 18336:1.4784096 18466:4.1997051 18596:4.6051702 18650:3.2441936 18675:4.6051702 18902:3.1010928 19610:6.9077554 20024:3.7297015 20130:0.66257143 20139:4.1997051 20176:6.9077554 20203:2.3227878 20204:4.9618449 20339:1.1632116 20441:4.8283138 20478:1.4828053 20504:0.90140212 20718:55.214611 20719:27.631021 20882:1.6982691 21475:0.020020027 21505:4.1351666 21508:2.7968814 21604:0.48545054 21685:1.117542 21727:2.6310892 21741:3.2188759 21929:12.429216 22003:0.85097128 22242:3.7722611 22364:4.6051702 22714:0.93140435 23164:2.6310892 23204:1.820159 23381:11.929833 23449:4.2405272 23580:5.8091431 23629:5.1159959 23691:6.2146082 23829:4.4228487 23896:3.6119184 23996:5.8091431 24094:4.50986 24439:1.6928195 24709:5.1159959 24710:6.2146082 24797:1.4916549 24893:6.9077554 25175:4.8283138 25508:6.9077554 25615:1.6502599 25724:6.4883871 25821:2.8824036 25827:4.8283138 25828:6.9077554 26003:4.9618449 26019:2.7030628 26041:2.9187713 26100:4.6051702 26134:4.9618449 26309:3.3813949 26495:6.9077554 26666:2.2164073 26720:0.97021908 26937:1.1026204 27065:2.4223089 27071:2.032558 27076:5.1159959 27079:2.3330443 27081:2.9374633 27084:1.2801342 27269:4.1997051 27270:4.9618449 27349:1.6044503 27562:6.9077554 27764:6.2146082 27897:6.9077554 27974:5.8091431 28518:0.28369007 28519:3.7722611 28585:3.9120231 28611:0.34814003 28617:1.7259717 28625:1.0469691 28659:1.8838748 28962:5.1159959 29000:4.6051702 29297:3.9633162 29499:0.69114918 29576:4.9618449 29847:5.8091431 29886:4.1997051 29906:3.7297015 29916:4.50986 30111:6.2146082 30302:4.1351666 30397:2.3859668 30538:5.1159959 30581:5.8091431 30650:2.9004221 30652:2.3434072 30792:1.3295009 30802:0.025317809 30811:0.02801401 30837:0.77652878 30885:0.61849248 30942:0.22498684 30968:1.1177951 30981:4.0173836 31042:1.7831962 31204:5.521461 31242:0.036036048 31324:4.1351666 31415:3.7297015 31499:6.8840389 31572:3.6119184 31574:5.521461 31777:5.8091431 31788:3.1465552 31790:4.9618449 31945:0.67530727 32176:1.8451602 32306:4.8283138 32821:6.2146082 32911:2.3751557 33151:2.6882477 33158:4.1351666 33201:5.521461 33332:2.9656105 33386:0.82331055 33454:6.9077554 33472:0.67924428 33677:1.170252 33694:1.2533673 33708:1.3201697 33769:0.48050627 33980:0.097569577 34154:2.1037343 34244:6.2146082 34355:1.3318062 34404:0.33687231 #
-0.00012681026773987582982605726300562 11:0.49692273 269:0.098380491 270:0.096280754 275:0.036036048 1166:0.052104279 1398:2.3126354 1402:2.5388012 1404:1.2207799 1850:0.23193206 2128:0.0080040023 2248:0.91629076 2487:0.11878353 2563:2.0996442 2973:3.2188759 3079:1.0671136 3186:11.316783 3369:5.2983174 3658:3.2441936 3821:1.1270118 4212:2.2633643 4477:3.1465552 4660:3.7297015 4726:2.6172957 4831:4.0173836 5618:3.8167129 5765:2.6736488 6621:1.2837378 7402:2.7173584 7594:5.4667358 7849:9.4210615 7986:3.1700857 8613:4.7105308 8620:3.5404594 9287:0.58339632 9391:2.6168215 9397:4.1351666 9740:6.2146082 10364:3.3242364 10771:0.40047756 11560:2.5010359 11647:1.0788096 11941:3.8167129 11957:3.9633162 12190:0.089994729 12531:0.17316362 12982:0.58339632 13264:2.2173252 13307:0.55861628 13368:6.540338 13387:1.551169 13839:5.1159959 13957:3.6888795 14084:2.6172957 14196:0.24462259 14289:1.1394343 14296:1.9173226 14514:0.61989671 14524:2.771457 14525:2.9565115 14583:3.1700857 14738:2.1286318 15379:0.33407512 15632:0.016032085 16237:0.43850496 16387:0.006006008 16427:0.038740829 16432:1.1791278 16528:4.1351666 16918:0.75667286 17105:7.8240461 17303:3.7459738 17771:2.5510464 17893:2.6736488 18029:0.83121568 18034:2.5770218 18038:3.0576077 18164:0.78088611 19638:2.3434072 19808:5.1159959 20130:0.33128572 20273:1.134503 20339:0.58160579 21012:0.44316697 21247:2.8647039 21424:3.4112477 21475:0.016016021 21604:0.20805024 21834:5.1159959 21896:2.7030628 21906:0.50462985 22003:0.85097128 22456:2.453408 22714:0.93140435 22999:4.7105308 23078:5.1159959 23647:5.3185201 23874:1.4872203 24522:2.7806208 24913:1.2623084 24936:1.6602261 25190:4.4228487 25739:2.0402207 26028:4.1997051 26031:10.231992 26364:3.7722611 26772:6.9077554 27299:1.9877744 27621:9.109663 27703:2.154165 28518:0.28369007 28611:0.69628006 28618:4.50986 29192:5.521461 29217:1.6094379 29243:2.4651041 29247:1.9173226 29400:1.1457039 29499:0.69114918 29551:5.8091431 29706:5.1159959 29815:3.1941831 29966:6.9077554 30156:8.5373955 30575:5.521461 30802:0.10127123 30811:0.013006505 30855:0.43078291 30878:0.94674993 30885:0.61849248 30908:1.1615521 30942:0.089994729 31044:2.3330443 31158:0.51416451 31242:0.0040040053 31333:2.7806208 31821:6.2146082 31856:2.0024805 32918:0.83471072 33097:4.2686977 33386:0.27443683 33403:2.3538785 33472:2.0377328 33573:0.78526247 33677:0.390084 33694:0.31334183 33802:2.1168611 33862:2.5639498 33935:6.9077554 33980:0.032523192 33993:2.4418471 34104:1.0642109 34297:5.8091431 34404:0.33687231 34409:1.8515095 34422:1.3432349 #
-5.0197253885124072506941639293387e-06 206:6.9077554 269:0.19676098 270:0.19256151 275:0.062062081 504:11.042922 868:1.1437813 1166:0.040080216 1402:1.2694006 1569:3.9120231 1659:0.63676685 1850:0.46386412 1936:1.9732814 2029:2.154165 2093:0.49319285 2128:0.012006004 2330:0.68319684 2346:2.9374633 2379:2.9565115 2390:2.1037343 2487:0.3563506 2491:2.0479429 2640:0.32673711 2786:0.14618251 2836:1.9241487 2886:3.4465606 2982:3.079114 3015:2.2926347 3343:5.8557849 3358:5.8091431 3434:0.21517043 3506:0.77435726 3518:1.6044503 3546:1.1667926 3599:0.90140212 3745:1.0356375 3783:1.2241755 4127:4.8283138 4338:6.2146082 4343:3.0365543 4379:1.4146938 5004:0.051293295 5038:0.12783337 5191:0.50087529 5300:2.032558 5316:1.9449106 5422:3.1700857 5446:1.3547957 5609:1.9877744 5723:2.2333214 5770:3.6119184 5810:5.521461 6142:8.1490841 6218:5.4362011 6242:3.0159349 6322:3.6888795 6621:1.2837378 6749:2.3227878 7011:5.2983174 7089:3.4112477 7190:3.9120231 7201:7.503108 7221:2.7333679 7323:4.50986 7326:3.6496587 7356:4.8283138 7402:1.3586792 7532:3.2968373 7613:3.9633162 7682:3.6888795 7875:2.9957323 7887:3.5755508 8012:6.9077554 8013:5.2983174 8422:3.1465552 8605:3.6119184 8650:2.1892564 8780:1.461018 9287:0.58339632 9324:1.6328908 9327:0.8486321 9357:3.6496587 9391:0.87227386 10171:2.3538785 10349:5.2983174 10500:2.122633 10604:5.2983174 10678:2.9565115 10691:1.9589953 10771:1.6019102 10804:1.0847094 10813:1.7147985 10820:3.3813949 11179:2.5770218 11261:1.2552661 11685:3.5404594 11726:1.3948271 11759:0.97551012 11800:4.1351666 11852:0.7256704 12190:0.089994729 12531:0.51949084 12852:4.9618449 12988:1.0788096 13073:5.2983174 13207:2.0102439 13876:9.303278 13899:1.8515095 14003:2.032558 14098:1.6502599 14245:0.15315118 14289:1.1394343 14547:3.2968373 14701:3.9120231 15053:2.0557251 15056:6.2146082 15087:1.2106618 15304:0.23952703 15379:0.66815025 15490:2.7646205 15632:0.0080160424 15781:5.2983174 15794:6.9077554 15895:3.2441936 16079:1.4784096 16237:0.43850496 16288:5.521461 16387:0.034034044 16414:1.1116976 16427:0.38740829 16496:4.9618449 16628:4.7105308 16842:3.9120231 16925:4.1997051 16928:4.3428059 17303:0.93649346 17605:4.3607349 18029:1.1082876 18034:2.5770218 18096:1.8838748 18153:2.9374633 18334:1.7203695 18755:1.3545476 18816:1.0526834 19161:2.0714734 19441:3.6119184 19529:2.154165 19748:10.231992 19805:1.3093333 19899:2.9565115 19965:9.9236898 20130:0.66257143 20190:0.62175721 20273:0.45380121 20301:1.0244329 20339:1.1632116 20467:3.9755487 20504:0.90140212 20563:1.7602608 20895:6.3358941 21029:3.1235657 21168:0.96185946 21202:2.0769167 21275:4.9302082 21435:5.8091431 21475:0.026026035 21567:3.2441936 21592:4.8283138 21604:0.55480063 21633:0.7599318 21685:0.74502802 21696:2.8824036 21784:0.3467246 21906:0.25231493 21948:4.50986 23224:1.2207799 23270:1.3545476 23381:2.3859668 23452:2.7181005 23751:2.2633643 24026:2.2730262 24075:4.1351666 24514:4.8283138 24522:2.7806208 24533:2.2256241 24782:4.9618449 24798:2.9957323 24936:2.490339 25078:4.0173836 25161:5.2983174 25288:3.6496587 25368:6.2146082 25564:5.521461 25812:5.1159959 26517:1.1809075 26639:1.9449106 26905:1.4188175 27071:2.032558 27078:1.551169 27084:1.2801342 27728:8.7661076 27749:2.0174062 27929:1.7602608 27964:2.3330443 28032:3.079114 28231:4.2686977 28518:0.28369007 28629:2.6736488 28721:2.6450753 28722:3.0576077 28772:4.9618449 28827:3.6888795 28864:3.8632329 28990:6.9077554 29083:9.2103405 29452:3.9633162 29602:4.1997051 29697:2.2926347 30147:4.8283138 30407:2.7806208 30492:3.1941831 30611:6.9077554 30613:6.0318699 30644:10.361069 30650:2.9004221 30652:2.3434072 30792:0.44316697 30796:5.8091431 30802:0.3038137 30806:1.2275827 30811:0.042021014 30825:0.45728487 30827:0.66553199 30878:0.94674993 30885:0.92773873 30908:1.1615521 30916:1.248273 30942:0.13499209 30997:1.5702173 31158:0.51416451 31177:1.5994875 31178:6.9077554 31242:0.012012016 31326:0.74023879 31439:2.7488723 31528:6.9077554 31945:0.67530727 32042:2.7646205 32176:3.6903205 32188:3.9633162 32334:1.551169 32519:5.521461 32592:0.34249032 32661:2.3295043 32982:2.0024805 33007:2.7806208 33409:2.9656105 33418:1.469676 33447:1.4554772 33477:5.9518595 33694:0.31334183 33708:0.88011312 33769:0.16016875 33950:4.074542 33980:0.097569577 34049:2.2072749 34072:3.6496587 34154:2.1037343 34163:0.54991299 34236:1.89712 34237:1.7719568 34404:0.33687231 34408:2.3330443 34414:1.5558971 #
1.7833783508505603426341074024819e-05 87:6.9077554 264:0.053400777 272:0.013006505 273:5.5773063 824:0.50087529 835:1.8209084 1216:0.33128572 1403:3.5404594 1426:3.079114 1437:6.9077554 1440:1.3664917 1448:3.5755508 1702:0.62923384 1762:3.5755508 1920:0.69201547 2018:0.50418109 2050:1.3823023 2216:0.011005504 2414:5.2983174 2443:1.5925759 2557:2.7030628 2636:0.2263374 2785:0.091377623 2917:4.0173836 2934:0.47347227 3082:4.074542 3083:6.9077554 3572:6.9077554 3636:0.13696586 3739:1.915977 3753:0.98082924 3756:4.9618449 3966:0.73396915 4000:1.1874435 4011:0.98082924 4055:2.5035269 4656:2.8134108 4826:3.3242364 4905:2.2256241 4906:3.4420195 5269:0.31407887 5464:3.0465205 5573:2.3644605 5587:4.9618449 5979:2.1803675 5981:3.2968373 6032:2.208164 6079:2.9187713 6303:3.3813949 6570:2.4651041 7133:5.8091431 7811:1.7783241 8114:2.8473122 8181:18.03944 8878:3.8632329 9107:2.5902672 9386:3.4185164 9507:1.9310216 10221:2.032558 11101:1.7316055 11537:0.47965002 11553:1.2241755 11576:1.6194882 11661:1.9589953 11816:2.9565115 11959:2.0099156 12126:2.4191189 12140:2.8134108 12270:3.5404594 12381:2.8473122 12386:2.4304185 12452:1.0300195 12543:0.37329024 12580:0.80743635 12799:2.5770218 13024:0.069182888 13385:0.15431736 13446:1.9951004 14035:3.8632329 14241:0.54991299 14555:4.1997051 14782:3.3965383 14822:2.490339 15142:0.19601488 15189:0.51495248 15278:2.5902672 15419:1.4653375 15473:1.0469691 15502:3.270169 15518:4.1997051 15690:0.10647225 15702:2.2349265 15794:1.7487 16049:0.82325584 16121:1.7660917 16300:2.7587264 16301:8.2466164 16303:1.7259717 16304:3.7157986 16607:2.7968814 16620:3.473768 16659:0.010010013 16775:2.9374633 16830:3.270169 17184:5.1159959 17259:6.9077554 17275:5.8091431 17332:4.3428059 17490:0.024036072 17530:0.14199737 17534:0.97552073 18048:0.88633394 18235:2.5639498 18317:4.6051702 18846:2.0874736 19130:1.5100452 19498:1.2623084 19928:1.7957675 19960:0.92634106 19978:3.0159349 20136:1.5749158 20439:1.1026204 21166:4.1997051 21377:3.079114 21424:0.28634962 21581:3.6119184 21588:2.8694592 21616:1.0023935 21646:1.1277497 21836:1.0216513 22177:6.2146082 22198:1.6786594 22252:1.7092582 22376:1.8209084 22566:0.6689437 22605:1.4481697 22648:1.0788096 22954:2.6736488 23072:0.50679064 23214:0.40047756 23310:2.2537949 23342:0.5516476 23485:0.82553637 23665:2.6450753 24120:21.19327 24121:6.2146082 24252:2.2072749 24256:1.0498221 24829:1.0023935 25458:4.1997051 25561:2.0249534 26554:1.1973282 26564:3.6888795 26581:1.6832944 26600:1.9805017 26722:4.7105308 27459:3.8167129 28155:6.7627897 28185:2.4651041 28459:1.2241755 28530:0.94160855 28917:0.65200526 28941:3.140907 29153:5.521461 29163:2.2072749 29215:1.4105871 29414:1.6014647 29569:2.0174062 29601:1.2729657 30380:1.0064182 30494:0.83710068 30660:4.074542 31077:1.6245515 31154:5.1159959 31247:6.9077554 31377:2.9187713 31387:0.58339632 31488:3.079114 31767:6.9077554 31769:1.7880802 31981:1.565421 32027:3.9120231 32052:3.270169 32356:2.4651041 32731:2.5639498 32786:0.92407089 32796:0.090819851 32821:0.82800287 32825:1.2925272 32854:1.3435525 32876:0.82325584 32883:0.34814003 32910:1.1940224 32942:0.56645823 32967:1.0847094 32969:1.9805017 32989:4.6253376 33015:2.5133061 33017:3.473768 33132:0.47160491 33229:0.0050025019 33818:1.9877744 33920:1.6928195 33976:6.9077554 33985:2.8302178 33990:0.6635884 34049:3.0365543 35054:1.2659866 35117:2.4304185 35141:2.9374633 35257:3.1700857 35568:2.1551936 35632:0.64435703 35754:1.2659866 35881:0.40496522 35883:2.5510464 35904:0.77002823 35982:6.2146082 36007:1.4524342 36212:0.09717077 36278:2.2827826 36322:2.3644605 36471:1.8078889 36631:0.36961547 #
-8.7937632496421565698324629423155e-05 269:0.049190246 270:0.048140377 275:0.044044059 602:6.9077554 868:0.76252085 1066:6.9077554 1166:0.044088237 1442:1.3783262 1457:1.1973282 1484:3.4420195 1502:3.1700857 1670:1.3903024 1850:0.23193206 2086:4.3428059 2093:0.12329821 2128:0.014007005 2174:3.5065579 2248:0.91629076 2338:1.3280255 2347:3.4112477 2390:2.1037343 2487:0.23756707 2640:0.32673711 3118:1.3663937 3240:3.8632329 3434:0.10758521 3871:5.1159959 4088:2.7806208 4285:5.521461 4344:4.3428059 4457:3.079114 4950:13.815511 5004:0.10258659 5038:0.25566673 5509:3.0576077 5518:7.2238369 6165:5.8091431 6361:6.9077554 6399:5.2983174 6429:4.6051702 6600:1.2073117 6621:1.2837378 6751:1.6713133 6851:3.0576077 6874:5.8091431 6934:3.0576077 7338:0.77435726 8567:3.5404594 8962:0.84629834 8981:3.6888795 9003:2.9565115 9232:5.8091431 9715:6.540338 9885:3.473768 9954:2.6310892 10300:11.042922 10327:2.6450753 10781:2.6736488 10784:2.7329834 10813:1.7147985 10897:2.1037343 11076:9.4210615 11177:3.6119184 11212:13.815511 11626:8.3994102 11693:2.3227878 11705:6.9077554 11726:1.2204738 12190:0.089994729 12195:5.1159959 12531:0.86581808 12756:9.8105078 12840:18.059591 12982:1.7501889 13103:1.8773173 13207:1.0051219 13227:2.5902672 13485:3.5065579 13624:4.6051702 13789:3.2968373 13817:2.154165 14076:2.6450753 14080:2.0479429 14098:1.6502599 14196:0.24462259 14245:0.30630237 14285:0.22439434 14344:2.8134108 14386:2.9187713 14578:5.521461 14611:3.8632329 14646:3.8632329 14722:0.30863473 14882:5.1159959 15304:0.23952703 15379:0.33407512 15632:0.024048129 16197:3.7297015 16329:2.2827826 16387:0.012012016 16414:1.1116976 16427:0.23244497 16450:0.67530727 17548:3.2968373 17714:6.4883871 17902:3.8632329 18029:0.27707189 18164:0.78088611 18292:2.4826572 18386:3.9120231 18389:1.9661129 18395:2.7488723 18421:1.2275827 18436:5.2983174 18439:3.8167129 18733:1.8078889 18766:3.3810353 18946:13.815511 19107:9.6566277 19130:2.1037343 19205:1.3943266 19433:2.7333679 19448:4.0499067 20049:4.9821935 20130:0.33128572 20190:0.62175721 20276:4.5655651 20339:0.58160579 20478:1.4828053 20824:0.87947679 21012:0.88633394 21168:0.38474378 21227:2.5770218 21475:0.010010013 21478:2.2396438 21604:0.069350079 21620:1.4828053 21633:0.60794544 21685:0.74502802 21784:0.6934492 21906:0.50462985 22187:1.3625778 22464:2.9759297 22747:2.6172957 22761:2.0402207 22985:13.815511 22992:3.079114 23035:6.9077554 23164:2.6310892 23352:2.7181005 23381:2.3859668 23555:2.2072749 24177:6.9077554 24412:2.6310892 24413:5.2983174 24522:2.7806208 24936:0.83011305 24950:1.5050778 25817:5.8091431 25866:2.2349265 25947:4.1351666 25999:4.50986 26730:0.97286111 26929:4.2686977 27016:5.1159959 27232:3.6119184 27297:2.1037343 27316:3.5557132 27396:3.9465628 27647:3.270169 27728:1.461018 27738:4.1351666 27887:2.6036901 28498:6.9077554 28518:0.56738013 28519:3.7722611 28625:1.0469691 29635:4.9618449 29644:2.6036901 30209:5.2983174 30797:3.8167129 30802:0.075953424 30811:0.014007005 30825:0.45728487 30827:1.9965961 30837:0.77652878 30860:2.122633 30885:0.61849248 30908:1.1615521 30942:0.31498155 30970:1.2106618 31018:4.1351666 31229:2.0479429 31242:0.012012016 31678:1.6820086 31920:2.8647039 31945:1.3506145 31956:4.6051702 32592:0.68498063 32666:3.8758841 32918:0.83471072 33069:4.6252708 33092:4.7105308 33386:0.54887366 33582:6.9077554 33694:0.31334183 33712:0.81644541 33769:0.16016875 33785:2.7181005 33797:1.8140051 33856:2.0674655 33980:0.032523192 34153:1.6398971 34347:5.4667358 #
7.5676160653774204281792059578748e-05 55:2.7181005 263:0.26700389 264:0.26700389 272:0.021010507 825:2.7790232 1216:0.33128572 1233:6.9077554 1276:5.8008442 1295:3.1010928 2013:2.1286318 2177:0.42588899 2216:0.015007505 2578:11.042922 2715:1.1177951 2777:3.7722611 2785:0.091377623 2816:2.7968814 2934:0.31564817 3381:6.9077554 3542:4.2686977 3609:2.5510464 3636:0.13696586 3739:0.638659 3770:2.4651041 3775:1.6347557 3794:1.7778566 3966:0.73396915 4083:5.2983174 4092:5.1805344 4362:6.2146082 4699:6.2146082 4729:6.2146082 5103:2.9759297 5269:0.20938592 5301:0.21962973 5463:1.0249873 5464:1.5232602 5925:1.8515095 6412:2.5133061 6644:4.50986 6683:4.8283138 7105:6.2146082 7136:2.5257287 7138:1.8018098 8147:13.895072 8379:3.7297015 8600:6.9077554 8757:4.0173836 9156:3.7297015 9202:3.2968373 9344:4.3428059 9739:3.8167129 10224:2.3434072 10540:2.9004221 10573:4.7105308 10840:5.8091431 10891:3.5404594 11176:2.7333679 11200:1.1457039 11260:1.7092582 11552:6.3112025 11829:3.9633162 11906:6.2146082 12016:2.032558 12109:3.1941831 12223:3.0365543 12355:4.4886322 12386:2.4304185 12398:6.2146082 12543:0.24886015 12576:2.9759297 12588:1.7778566 12593:1.8325815 12611:1.7660917 12691:5.521461 13024:0.10377433 13385:0.15431736 13475:2.9922185 13498:5.521461 13912:1.174414 14030:1.4524342 14064:5.521461 14145:0.99967235 14191:5.2983174 14192:1.3743658 14241:1.099826 14308:3.8620431 14356:5.521461 15029:4.5655651 15189:0.25747624 15231:0.55537647 15236:3.8620431 15283:2.0794415 15419:1.4653375 15486:19.84738 15487:6.9077554 15647:0.50087529 15651:1.3280255 15690:0.10647225 15895:2.198225 16300:1.8391509 16396:0.46203545 16597:2.2349265 16659:0.012012016 17120:1.4828053 17180:2.3227878 17335:3.0576077 17490:0.015022545 17530:0.25559527 17534:0.48776037 17555:6.2146082 17673:3.6119184 18436:1.0328245 18443:1.9951004 18700:2.5010359 18732:1.2140231 18872:2.1803675 19191:0.34249032 19593:2.1053667 20043:2.1370707 20352:2.5010359 20423:14.918806 20424:4.9618449 20442:2.3644605 20543:1.0272223 20782:5.1159959 20974:6.9077554 21144:8.9277887 21385:2.8473122 21494:0.88011312 21588:0.31882879 21773:4.074542 21774:5.2983174 22252:1.7092582 22408:4.50986 22898:3.5404594 22968:1.7544637 23020:4.6051702 23046:0.15592308 23072:0.50679064 23147:3.7297015 23196:6.9077554 23258:5.8091431 23264:5.1159959 23310:2.2537949 23326:6.9077554 23370:0.31608155 23447:3.8167129 23528:3.6119184 23565:4.2686977 24088:4.0173836 24213:0.80296206 24548:1.5186836 24790:1.234432 24829:1.0023935 24897:1.5232602 25465:3.3524072 25536:6.9077554 25606:4.1997051 25811:4.0173836 25939:4.1351666 26389:2.7968814 26579:3.1235657 26581:0.84164721 26600:1.9805017 27956:11.042922 28150:19.313255 28522:1.8426065 28585:2.1037343 28586:10.596635 28621:6.2146082 28645:5.8091431 28740:2.198225 28923:1.8325815 29185:2.453408 29618:1.5141277 30178:6.9077554 30374:6.2146082 30376:6.9077554 30380:0.33547273 31049:2.7646205 31178:3.5404594 31181:3.1941831 31591:3.1010928 31625:4.2686977 31628:3.8632329 31769:0.89404011 32516:3.0159349 32525:2.3968959 32728:3.5755508 32796:0.036327939 32812:3.8632329 32883:0.34814003 32942:0.2517592 32965:2.0769167 33082:3.6888795 33229:0.0070035025 33319:0.78307188 33911:1.8018098 33990:0.6635884 34697:0.35382187 35054:0.63299328 35568:0.30788478 35579:4.7289209 35589:1.4271164 35632:0.64435703 35711:3.8167129 35754:1.2659866 35919:0.66164851 35975:0.26934981 36032:5.521461 36079:2.9187713 36212:0.048585385 36465:2.5770218 36559:1.4188175 36631:0.36961547 36641:1.2310015 #
6.0677531404310504174748341910117e-05 3:0.54887366 263:0.26700389 264:0.26700389 272:0.03001501 478:5.521461 605:6.9077554 1276:2.9004221 1279:3.4112477 1702:0.62923384 1832:7.377759 2000:2.3644605 2003:1.4653375 2018:1.5125432 2039:3.5525105 2116:2.4418471 2152:2.7181005 2216:0.014007005 2342:1.8883519 2443:0.79628795 2449:1.8263509 2451:1.4524342 2495:2.6172957 2636:0.2263374 2733:3.8167129 2785:0.24367367 2934:0.31564817 3206:4.4228487 3554:5.2073803 3622:6.9077554 3716:3.0929263 3753:0.98082924 3775:3.2695115 3966:0.73396915 3991:4.2686977 4396:3.9633162 4905:2.2256241 5291:2.9374633 5301:0.10981487 5463:0.51249367 5501:2.6036901 5755:5.521461 6763:6.2146082 6777:5.1159959 6789:4.6051702 6984:1.1907276 7764:8.6856117 7875:1.4354846 8074:8.0209465 8079:3.3242364 8251:5.1159959 8252:13.815511 9381:2.8129942 9605:6.9077554 9941:0.65008771 10355:3.0365543 10562:2.5902672 10838:2.7968814 10921:2.0099156 10931:6.9077554 11086:1.0051219 11200:1.1457039 11576:1.6194882 12031:4.2686977 12038:1.2310015 12101:4.4145498 12175:1.4064971 12231:4.9618449 12306:10.596635 12357:2.2537949 12483:6.2146082 12488:3.2968373 12521:2.6736488 12543:0.74658048 12580:0.80743635 12710:3.4112477 13024:0.13836578 13034:5.1020927 13122:3.8167129 13229:2.8473122 13230:5.1159959 13346:1.8643302 13353:3.2441936 13385:0.15431736 13418:5.521461 13647:7.5445223 13903:0.64435703 13912:1.174414 14109:4.2686977 14192:1.3743658 14210:3.5404594 14241:0.54991299 14457:0.89648813 14459:3.1465552 14543:3.9633162 14822:0.83011305 15040:1.6502599 15142:0.19601488 15231:1.2958784 15236:1.9310216 15596:6.9077554 15616:2.5133061 15647:1.0017506 15690:0.53236121 15721:2.9374633 15815:1.5464631 16049:0.82325584 16300:0.30652517 16659:0.024024032 16775:2.9374633 16853:3.1941831 17319:0.82497942 17490:0.033049598 17530:0.05679895 17534:0.97552073 17554:0.57270104 18436:1.0328245 18444:2.0174062 18752:1.7660917 18839:2.1628232 18867:1.551169 19012:1.6660082 19130:0.75502259 19430:6.9077554 19498:1.2623084 19532:4.8283138 19540:5.521461 19593:1.0526834 19613:3.270169 20025:0.88916206 20110:6.9077554 20136:0.78745788 20692:1.7429693 20726:4.9618449 20840:13.815511 20854:4.0173836 20993:1.6296406 21369:9.4210615 21494:0.88011312 21584:3.9120231 21588:0.63765758 21836:1.0216513 21906:1.9519283 21908:1.8515095 22052:1.9732814 22376:1.213939 22434:6.4377518 22566:0.33447185 22605:1.4481697 22648:1.0788096 22889:3.0365543 22968:1.7544637 23019:3.4112477 23072:1.0135813 23114:2.4191189 23214:0.40047756 23234:4.2686977 23260:4.1351666 23370:0.63216311 23673:9.4210615 23930:6.2146082 23942:3.4112477 24194:4.3428059 24256:3.1494663 24419:4.8283138 24897:1.5232602 25206:2.2164073 25212:2.3126354 25617:4.50986 25824:2.7646205 26359:4.1351666 26414:1.3943266 26650:4.074542 26689:4.1351666 26718:3.473768 26722:4.7105308 26854:5.8091431 27042:3.8167129 27320:8.8456974 27649:1.1488535 27716:3.8167129 27790:2.2072749 27859:2.0557251 28251:5.1159959 28315:2.2478602 28495:16.564383 28740:2.198225 29215:1.4105871 30500:1.9951004 30555:5.1159959 30614:2.9759297 31064:5.4977446 31139:2.9759297 31263:3.1235657 31350:3.2441936 31387:1.1667926 31769:0.89404011 32314:5.521461 32786:0.92407089 32796:0.072655879 32876:0.82325584 32906:1.313044 32942:0.2517592 32978:3.9120231 33032:1.8078889 33042:4.2686977 33132:0.94320983 33153:1.3862944 33229:0.0080040023 33317:21.707649 33449:2.3330443 33808:1.6094379 33814:6.2146082 33818:1.9877744 33835:6.8224955 34487:3.1235657 34799:2.2926347 34824:4.9618449 35054:1.8989798 35099:3.1010928 35208:2.1628232 35210:2.7968814 35379:5.521461 35568:0.30788478 35632:0.64435703 35754:0.63299328 35902:0.99803829 35904:0.77002823 35916:0.39452517 35975:0.53869963 35992:2.1892564 36101:2.8824036 36212:0.12146346 36322:2.3644605 36465:2.5770218 #
4.9833480724226127947171227638989e-05 263:0.053400777 264:0.053400777 272:0.02801401 835:1.213939 1216:0.66257143 1238:2.5010359 1397:2.3538785 1404:1.3983669 1454:1.3019532 1492:3.8632329 1717:2.7251556 1719:1.7487 1920:1.3840309 2006:5.1159959 2013:2.1286318 2177:0.10647225 2216:0.0090045026 2443:0.79628795 2636:0.2263374 2715:2.2355902 2785:0.27413288 2934:0.15782408 3015:3.3524072 3276:3.8632329 3554:2.6036901 3636:0.13696586 3705:3.1586323 3715:1.4312917 3739:0.638659 4000:2.374887 4165:3.5404594 4294:3.7722611 4417:2.2537949 4478:4.4228487 4506:4.5267286 4516:3.2188759 4594:0.97551012 5249:2.4651041 5269:0.2617324 5301:0.10981487 5392:2.0479429 5737:1.2447948 5746:2.8302178 5945:3.7297015 6223:3.5404594 6579:3.7722611 6598:2.8824036 6877:4.6051702 6959:1.2241755 7093:3.3242364 7136:2.5257287 7231:4.3428059 7499:2.9004221 7508:3.4420195 7722:7.8240461 7816:2.6736488 7875:1.4354846 8370:2.9957323 8375:5.521461 8479:3.3524072 8869:4.9618449 9158:2.5383074 9509:2.7806208 9619:5.521461 9632:2.8473122 9900:1.3427714 9941:1.950263 10130:2.453408 10546:1.3432349 11101:1.7316055 11174:2.3538785 11260:1.7092582 11452:3.4112477 11537:0.95930004 11601:4.8283138 11959:2.0099156 12060:3.6119184 12133:6.9077554 12452:1.0300195 12523:4.3428059 12537:2.5383074 12543:0.12443008 12576:2.9759297 12580:0.80743635 12674:0.62548852 13024:0.13836578 13074:6.9077554 13187:10.144184 13385:0.15431736 14192:1.3743658 14241:0.54991299 14308:3.8620431 14822:0.83011305 14999:3.7722611 15028:3.7722611 15166:4.1351666 15189:0.51495248 15191:2.7333679 15414:5.2983174 15458:0.55512589 15813:3.473768 16029:2.2926347 16049:0.82325584 16300:1.8391509 16367:6.7048144 16396:0.46203545 16597:4.4698529 16659:0.014014019 17051:10.596635 17219:1.469676 17255:4.0173836 17379:3.4420195 17417:2.2164073 17490:0.021031562 17512:1.2623084 17530:0.17039685 17534:1.9510415 17848:2.65926 17945:3.1465552 18141:4.9618449 18191:12.429216 18436:1.0328245 18444:2.0174062 18578:2.3330443 18846:2.0874736 18907:1.6660082 19191:0.34249032 19194:7.2993174 19196:2.6036901 19332:0.78526247 19593:2.1053667 19922:9.2103405 19928:1.7957675 19953:0.70319754 19960:0.92634106 20092:8.5373955 20094:4.074542 20625:4.1351666 20723:2.9759297 20746:3.5755508 20932:4.4228487 21248:2.5902672 21424:0.28634962 21588:0.63765758 21646:1.6916245 21789:6.9077554 21807:1.3983669 22129:2.8824036 22206:0.89159811 22263:1.9519283 22376:0.60696948 22566:0.33447185 22980:2.6736488 23118:4.7105308 23120:0.96901661 23149:2.0479429 23214:0.40047756 23233:2.0557251 23279:1.5371172 23342:1.6549429 23370:0.31608155 23485:0.82553637 23567:3.5404594 23647:3.3524072 23915:1.2946272 23953:2.9187713 24332:4.4228487 24790:2.468864 25028:2.4889147 25315:2.9374633 25459:2.4304185 25642:6.2146082 25748:5.8091431 25997:2.9004221 26116:2.1119647 26170:1.2765435 26509:5.8091431 26554:1.1973282 26581:0.84164721 26975:1.8263509 27345:1.7372713 27649:1.1488535 27743:5.2983174 28174:6.0731087 28178:6.9077554 28315:1.1239301 28522:0.92130327 28733:2.6864698 28863:4.7105308 29140:3.6496587 29201:3.2968373 29379:5.2621784 29558:11.316783 30102:5.1159959 30209:1.6347557 30257:4.7105308 30380:1.0064182 30494:0.41855034 30506:2.0157158 30547:1.7429693 31108:3.6777022 31377:2.9187713 31387:0.58339632 31399:3.0365543 31703:4.0173836 31753:2.2072749 31769:0.89404011 31981:1.565421 32529:4.9618449 32729:4.2686977 32786:0.92407089 32796:0.090819851 32808:2.3644605 32825:0.6462636 32833:1.8526821 32854:1.3435525 32883:1.7407002 32942:0.1258796 33132:0.47160491 33153:1.3862944 33229:0.0070035025 33280:2.3538785 33808:3.2188759 33985:2.8302178 33990:1.9907651 34697:0.70764375 34822:3.9633162 35054:0.63299328 35568:0.92365432 35754:0.63299328 35772:5.1159959 35839:1.0613165 35881:0.40496522 35902:0.33267945 36007:1.4524342 36212:0.048585385 36261:1.7544637 36322:2.3644605 36334:1.0023935 36351:1.6554818 36559:2.837635 36599:1.2801342 36631:0.36961547 36636:5.1540437 #
0.00012681026773987582982605726300562 2:7.6592607 3:0.54887366 263:0.053400777 264:0.053400777 272:0.011005504 1454:1.3019532 2006:5.1159959 2116:2.4418471 2216:0.0090045026 2305:6.9077554 2636:0.1131687 2785:0.030459208 3185:1.3318062 3701:20.463984 3705:2.3689742 3739:0.638659 4688:3.1465552 5285:21.19327 5463:0.51249367 5979:2.1803675 5982:2.8824036 6016:0.65585142 7005:2.1628232 7811:0.88916206 7875:1.4354846 7990:5.1159959 8459:5.521461 9150:3.5755508 9573:3.3524072 9900:2.6855428 10377:4.1997051 11172:2.1370707 11176:2.7333679 11244:2.2256241 11537:0.47965002 11578:1.5278579 11818:3.2968373 12140:2.8134108 12452:1.0300195 12543:0.12443008 12580:0.80743635 12607:2.374887 12674:1.250977 13024:0.13836578 13385:0.61726946 13475:1.4961092 13512:1.4312917 13577:3.6888795 13903:0.64435703 14145:1.9993447 14241:0.54991299 15020:2.5770218 15142:0.19601488 15231:0.55537647 15458:1.6653776 15690:0.10647225 16049:0.82325584 16056:1.0356375 16300:0.91957545 16396:1.3861064 16659:0.0020020027 17490:0.012018036 17530:0.14199737 17967:3.473768 18178:5.2807822 18304:2.3968959 18416:3.079114 18601:5.521461 18780:2.3644605 19031:2.1803675 19191:0.68498063 19498:1.2623084 19507:1.8018098 19847:1.0244329 19959:3.9633162 19960:0.92634106 20043:2.1370707 20543:1.0272223 20907:1.4784096 20920:3.473768 21195:3.1941831 21588:2.2318015 22566:0.33447185 22610:3.1465552 22648:1.0788096 22920:1.7350011 22968:1.7544637 22991:2.9957323 23120:0.48450831 23370:0.31608155 23665:2.6450753 24711:1.3586792 25028:2.4889147 25936:3.1235657 26082:2.5010359 26709:6.9077554 27649:1.1488535 28315:3.3717904 28459:1.2241755 28669:2.2633643 28841:7.2238369 28917:1.3040105 29414:0.80073237 29618:6.0565109 30761:6.2146082 31114:3.1700857 31123:3.9610033 31340:3.4420195 32796:0.054491911 32800:1.3625778 32821:1.2420043 32825:2.5850544 32883:2.4369802 32910:1.1940224 32917:2.5674756 32942:0.37763879 32969:1.9805017 33030:1.8028042 33153:1.3862944 33229:0.0090045026 33939:7.2238369 34955:5.8091431 35316:3.5755508 35359:6.2146082 35507:4.8736548 35632:0.64435703 35754:0.63299328 35839:1.0613165 35881:1.2148957 35902:0.6653589 35975:0.13467491 36042:1.551169 36108:3.6888795 36212:0.072878078 36261:1.7544637 36284:3.473768 36397:0.62548852 36631:2.2176926 #
-4.6327124970513977467514998842546e-05 11:0.49692273 39:6.9077554 59:5.2983174 275:0.070070095 351:6.9077554 570:3.1941831 573:3.3813949 596:4.2686977 654:2.7181005 854:1.3529569 1166:0.036072191 1235:0.29840603 1404:1.2207799 1454:2.8134108 1576:3.4420195 1586:3.5065579 1847:5.521461 1850:0.46386412 1919:2.553087 1958:1.5050778 2093:0.36989465 2125:4.1997051 2128:0.016008005 2198:3.4420195 2200:15.853265 2253:4.4228487 2487:0.23756707 2491:2.0479429 2563:1.0498221 2640:0.054456186 2649:11.042922 2786:0.29236501 3016:4.1997051 3118:2.7327874 3434:0.32275563 3505:3.5065579 3560:3.1494663 3745:2.071275 3774:1.9723537 3821:3.3810353 3846:2.65926 4001:2.7646205 4690:6.2146082 4723:6.9077554 5004:0.15387988 5038:0.12783337 5142:1.8140051 5162:2.4651041 5191:0.50087529 5401:3.2441936 5609:1.9877744 5619:6.9077554 5670:2.3751557 5723:0.7444405 5741:6.9077554 5890:4.6051702 6563:4.1997051 6565:9.4210615 6621:1.2837378 6708:3.5404594 7271:3.6888795 7402:1.3586792 7528:5.1159959 8347:5.1159959 8659:3.3524072 8662:4.4228487 9126:3.3524072 9391:0.87227386 10394:1.9831064 10473:2.9374633 10771:2.4028654 10804:1.0847094 10931:2.154165 11178:6.9077554 11179:2.5770218 11261:5.0210643 11289:2.3434072 11333:2.1286318 11378:2.5133061 11389:1.4784096 11439:2.7030628 11560:2.5010359 11726:0.87176692 11852:3.6283519 12148:3.270169 12190:0.13499209 12231:3.4112477 12376:6.9077554 12498:4.39645 12531:0.34632725 12772:3.473768 12806:3.2188759 12988:1.0788096 13207:2.0102439 13264:1.1086626 13307:2.7930815 13387:1.551169 13525:2.5035269 13648:5.521461 13813:1.551169 14196:0.24462259 14285:0.22439434 14684:0.64817381 14722:0.30863473 14738:2.1286318 14944:3.8632329 15087:1.2106618 15632:0.024048129 15862:4.6051702 16174:1.3903024 16387:0.028028037 16414:1.1116976 16427:0.50363076 16450:4.0518436 16550:3.8167129 16881:3.4420195 17081:6.9077554 17141:2.3025851 17273:2.7646205 17493:5.0514574 18029:0.55414379 18517:6.9077554 18755:0.67727381 18931:1.0996128 19491:5.521461 19707:5.3764954 19856:3.7722611 19923:6.2146082 20273:2.0421054 20339:2.3264232 20478:1.4828053 20824:0.87947679 20833:1.0555528 20882:1.6982691 20898:3.5404594 21168:0.38474378 21202:2.0769167 21239:2.1872494 21475:0.010010013 21604:0.13870016 21633:0.60794544 21685:0.37251401 21724:4.2741413 21835:1.5847453 21906:0.25231493 22714:0.93140435 23037:6.9077554 23270:1.3545476 23316:5.8091431 23370:55.931473 24439:1.6928195 24513:2.1286318 24936:1.6602261 26730:0.97286111 26905:1.4188175 27024:1.9519283 27078:1.551169 27084:1.2801342 27188:6.9077554 28518:0.28369007 28611:0.69628006 28802:4.8283138 29121:6.9077554 29200:4.1351666 29244:1.8018098 29400:2.2914078 29478:2.198225 29499:0.69114918 29510:3.1465552 29514:6.9077554 29865:0.95451194 30644:2.5902672 30647:2.0794415 30792:0.44316697 30802:0.15190685 30811:0.026013009 30855:2.1539147 30885:0.30924624 30906:5.8008442 30908:2.3231041 30942:0.26998419 30970:1.2106618 30972:1.7837913 31158:0.51416451 31234:8.5373955 31242:0.024024032 31503:5.521461 31575:3.4112477 31618:3.8632329 31678:1.6820086 31798:2.1037343 31799:1.4271164 32592:0.68498063 32663:4.6051702 32681:2.6882477 32918:4.1735539 33158:4.1351666 33332:1.4828053 33386:1.0977473 33398:5.69136 33409:1.4828053 33533:3.6119184 33573:0.78526247 33597:5.2983174 33638:2.4079456 33677:1.170252 33708:1.7602262 33802:1.0584306 33856:0.68915516 33980:0.13009277 34104:1.0642109 34134:5.1159959 34232:2.4418471 34346:1.6502599 34404:0.67374462 #
-4.0552865870170946697471914266231e-05 11:0.49692273 269:0.39352196 270:0.38512301 275:0.048048064 1166:0.040080216 1235:1.4920301 1284:4.7105308 1358:5.8091431 1366:4.1351666 1433:3.3005197 1442:2.7566524 1485:4.50986 1626:5.521461 1796:4.1997051 2093:0.24659643 2128:0.017008506 2338:2.6560509 2487:0.3563506 2563:1.0498221 2786:0.29236501 2886:2.2977071 3118:0.68319684 3327:5.1159959 3434:0.10758521 3475:3.3813949 3883:9.58255 3884:13.815511 3951:3.9633162 4039:4.0173836 4111:3.473768 4726:2.6172957 4936:5.521461 5004:0.20517318 5038:0.12783337 5151:2.9374633 5191:0.50087529 5492:6.2146082 5586:3.5404594 5592:3.0576077 5702:1.4144922 5723:0.7444405 5746:3.7297015 5830:6.9077554 5907:2.4651041 5950:4.0173836 5991:3.8167129 7242:3.2441936 7551:4.7105308 7572:6.9077554 8063:2.453408 8103:2.3434072 8135:2.154165 8210:3.1010928 8332:5.8091431 8444:6.2146082 8484:4.3428059 8567:3.5404594 8608:4.4228487 8962:0.84629834 8971:6.9077554 9009:5.8091431 9287:1.1667926 9327:0.8486321 9462:5.8091431 9540:3.9120231 9548:6.9077554 9587:4.6868143 9920:2.0402207 10394:0.99155319 10781:2.6736488 10784:1.3664917 10911:2.0249534 11120:3.9120231 11134:3.5755508 11354:2.0635681 11465:2.095571 11647:1.0788096 11719:2.6736488 11726:0.69741356 11791:2.2926347 11901:6.2146082 12125:4.2686977 12190:0.13499209 12498:4.39645 12531:0.17316362 12806:3.2188759 12934:3.5755508 13086:6.9077554 13307:1.6758488 13387:1.551169 13479:3.6888795 13899:3.7030189 14051:3.8632329 14245:0.30630237 14248:2.65926 14285:1.1219716 14288:3.6119184 14514:1.2397934 14552:4.2686977 14650:3.3242364 14684:3.240869 14722:0.92590415 14852:1.6982691 14950:3.0576077 15082:0.759287 15249:2.8302178 15304:0.23952703 15379:0.33407512 15632:0.024048129 16174:1.3903024 16237:0.43850496 16329:2.2827826 16387:0.020020027 16427:0.23244497 16432:0.78608519 16537:5.2983174 16719:1.7897614 16918:0.37833643 16999:4.9618449 17313:2.2164073 17477:6.9077554 17595:1.2140231 17744:1.1457039 17783:1.7429693 18164:0.78088611 18184:2.1803675 18313:2.9004221 18766:1.1270118 18771:3.1117942 18931:1.0996128 19205:1.3943266 19309:2.2256241 19319:3.3524072 19336:4.2686977 19504:2.7030628 20033:3.7030189 20130:0.33128572 20166:5.521461 20190:0.62175721 20203:2.3227878 20258:3.270169 20273:0.22690061 20339:0.58160579 20775:4.4228487 20824:0.87947679 20965:5.2983174 21012:1.3295009 21168:0.38474378 21475:0.018018024 21570:18.420681 21604:0.34675038 21633:0.45595908 21784:0.3467246 21792:5.2983174 21906:0.25231493 22374:4.3428059 22439:2.3968959 22714:0.93140435 22833:2.9957323 23006:1.7897614 23152:3.1941831 23449:2.1202636 23653:3.0576077 23656:5.521461 23776:3.9633162 23981:2.0557251 23984:4.6051702 24316:6.9077554 24395:4.3428059 24412:2.6310892 24555:1.6450651 24729:5.2983174 24832:3.7722611 24836:18.420681 24837:6.9077554 24936:0.83011305 25602:4.074542 25629:5.521461 25702:3.1465552 25889:1.3394108 26094:2.1715569 26730:1.9457222 26971:6.2146082 27065:0.80743635 27078:1.551169 27083:2.1342273 27297:2.1037343 27538:1.6374208 27710:1.0133524 27808:4.8283138 27929:1.7602608 28611:0.34814003 28625:1.0469691 28811:1.7429693 28865:3.0159349 29297:3.9633162 29576:4.9618449 29658:4.4228487 30122:3.2441936 30390:1.1520131 30407:2.7806208 30562:4.4228487 30677:4.9618449 30792:0.44316697 30802:0.10127123 30811:0.027013509 30825:1.3718545 30837:1.5530576 30855:0.86156583 30860:1.0613165 30878:1.8934999 30885:0.30924624 30908:2.3231041 30942:0.13499209 30968:1.1177951 31097:6.9077554 31158:0.51416451 31177:1.5994875 31242:0.022022029 31282:2.6172957 31326:0.74023879 31373:6.9077554 31860:4.9302082 32661:1.1647521 32742:5.2983174 32743:12.429216 32808:2.8824036 33071:5.8749266 33409:1.4828053 33677:0.390084 33694:0.31334183 33698:0.79628795 33708:0.44005656 33712:1.6328908 33769:0.16016875 33802:1.0584306 33831:1.8140051 33856:0.68915516 33936:5.8091431 33980:0.097569577 34154:2.1037343 34190:4.1997051 34215:2.7333679 34216:2.5010359 34218:4.8283138 #
-0.00012681026773987582982605726300562 10:0.95711273 11:2.4846137 269:0.098380491 270:0.096280754 275:0.04604606 854:0.45098561 868:0.38126042 1166:0.044088237 1218:2.1037343 1235:0.89521813 1457:1.1973282 1481:2.3538785 1539:3.9633162 1850:0.46386412 1958:1.5050778 2093:0.12329821 2128:0.0030015011 2140:3.7722611 2338:1.3280255 2487:0.11878353 2640:0.054456186 2672:3.473768 2771:5.521461 2786:0.73091257 3018:4.6051702 3434:0.21517043 3506:0.77435726 3546:1.7501889 3560:1.0498221 3821:1.1270118 3886:4.9618449 3944:1.6245515 4086:4.074542 4489:4.6051702 4602:5.521461 5004:0.10258659 5178:19.465162 5191:0.50087529 5588:5.1159959 5702:0.70724612 5932:6.9077554 5982:4.50986 6266:2.9187713 6614:3.3524072 6616:2.6941473 7037:2.9004221 7095:4.7105308 7338:2.3230717 7352:6.2146082 7875:2.9957323 8575:4.8283138 8962:0.84629834 9402:5.4977446 9620:4.7105308 9787:2.3968959 9963:2.5639498 10771:0.40047756 10931:2.154165 11084:4.1351666 11085:4.9618449 11326:2.2827826 11718:3.4420195 11726:0.52306014 11958:2.5383074 12018:6.9077554 12152:2.7488723 12190:0.044997364 12531:0.34632725 12616:3.2695115 12645:1.3394108 12806:3.2188759 13307:0.55861628 13509:6.9077554 13627:6.2146082 13668:2.0635681 13861:0.77002823 14080:2.0479429 14196:0.48924518 14245:1.0720582 15041:6.2146082 15082:0.759287 15304:0.71858108 15314:2.0479429 15379:0.66815025 15632:0.0080160424 16329:2.2827826 16387:0.0080080107 16427:0.19370414 16432:0.39304259 16644:3.2188759 16665:4.3428059 16770:2.2164073 17073:6.2146082 17605:2.1803675 17744:5.7285194 18029:0.27707189 18164:0.78088611 18392:1.4064971 18449:4.50986 18470:4.9618449 18733:1.8078889 18755:0.67727381 18764:3.5755508 18931:1.0996128 19338:6.2146082 19657:1.3547957 19744:3.9120231 19746:5.8091431 20190:0.62175721 20216:2.7968814 20273:0.22690061 20339:0.58160579 20513:2.4889147 20705:3.7722611 20824:0.87947679 21012:0.88633394 21168:0.19237189 21202:2.0769167 21475:0.010010013 21604:0.069350079 21633:0.15198636 21896:2.7030628 22457:8.7012663 23006:1.7897614 23270:0.67727381 23666:3.5755508 24290:5.2983174 24477:2.5133061 24718:6.9077554 24798:2.9957323 24814:4.7105308 24936:0.83011305 25927:3.8632329 26194:4.50986 26463:1.8773173 26642:3.1700857 26643:3.7297015 26911:2.0874736 27084:2.5602684 27316:1.7778566 27396:1.9732814 27538:0.81871039 27586:13.815511 27920:2.4651041 27942:1.2946272 28009:2.6172957 28171:3.5404594 28518:0.56738013 28878:3.8632329 29005:3.6119184 29217:1.6094379 29865:0.95451194 30409:2.1370707 30426:2.5133061 30607:3.0576077 30802:0.10127123 30806:2.4551654 30811:0.017008506 30837:0.77652878 30855:0.86156583 30918:1.1776555 30942:0.13499209 30972:1.7837913 31039:6.9077554 31042:0.89159811 31242:0.012012016 31575:3.4112477 31668:3.8167129 31851:3.5065579 33386:1.6466211 33398:1.89712 33409:1.4828053 33573:0.78526247 33677:0.390084 33694:0.31334183 33953:5.521461 33980:0.032523192 34154:2.1037343 34163:1.099826 34168:2.1892564 34404:0.33687231 34414:1.5558971 34496:3.5755508 #
-6.636075162326858349354924415664e-05 10:4.7855635 11:1.9876909 269:0.19676098 270:0.19256151 275:0.024024032 370:3.9633162 868:1.1437813 1166:0.052104279 1682:2.7646205 1850:0.23193206 2093:0.24659643 2128:0.0060030022 2563:1.0498221 2640:0.27228093 2786:0.14618251 2886:1.1488535 2906:5.2983174 3008:1.3943266 3015:2.2926347 3240:3.8632329 3355:2.3025851 3364:4.074542 3434:0.10758521 3572:2.4079456 3821:6.7620707 4182:7.0809188 5142:1.8140051 5191:1.0017506 5194:1.2837378 5295:3.6496587 5646:6.9077554 5670:2.3751557 6098:4.9618449 6242:3.0159349 6323:4.3428059 6583:18.842123 6608:4.3428059 6616:2.6941473 7338:0.77435726 7343:2.2926347 7611:3.6496587 7636:3.6888795 7918:3.1235657 8354:4.3428059 8384:3.7722611 8608:4.4228487 9085:4.9618449 9648:4.7105308 9813:4.7105308 10209:5.8091431 10298:5.1159959 10407:2.1286318 10472:2.5133061 10681:3.6888795 10771:0.80095512 10784:1.3664917 11453:23.878735 11509:6.8840389 11991:5.521461 12152:2.7488723 12265:2.6450753 12531:0.17316362 12559:4.9618449 12951:4.8283138 12982:1.1667926 12990:1.7778566 13016:5.2983174 13063:4.3428059 13081:2.4651041 13258:1.3205066 13529:3.3524072 14080:4.0958858 14285:0.67318302 14371:4.2686977 14386:2.9187713 14454:2.3538785 14514:1.2397934 14722:0.30863473 15060:4.3607349 15087:1.2106618 15191:3.270169 15304:0.23952703 15379:0.33407512 15632:0.052104279 15958:4.074542 16237:0.87700993 16387:0.006006008 16427:0.077481657 16432:0.39304259 16506:7.0809188 16743:5.8091431 16918:0.75667286 17397:5.1159959 17570:5.4061255 17682:24.810999 17683:5.8091431 17684:6.9077554 17698:6.2146082 17783:1.7429693 17892:2.0099156 17989:2.361815 17999:3.3813949 18292:1.2413286 18334:1.7203695 18378:3.0576077 18755:0.67727381 18816:2.1053667 19046:15.617828 19094:3.5065579 19130:2.1037343 19638:2.3434072 19931:4.9618449 20036:18.643824 20037:12.429216 20049:1.6607312 20273:0.68070179 20301:1.0244329 20339:0.58160579 20639:16.564383 20751:5.8091431 20890:6.2146082 21283:3.1010928 21475:0.012012016 21478:0.74654794 21604:0.27740031 21633:0.30397272 21685:0.74502802 21801:2.2256241 21906:0.50462985 22449:2.9374633 22456:2.453408 22559:2.3859668 22764:3.6119184 23170:2.6172957 23224:3.6623397 23270:0.67727381 23288:5.8091431 23351:4.50986 23960:3.270169 24439:5.0784588 24797:1.4916549 24913:1.2623084 25052:4.8283138 25999:4.50986 26937:1.1026204 27065:0.80743635 27077:4.8283138 27259:5.521461 27268:2.9957323 27426:3.3813949 27538:0.81871039 28029:2.7806208 28261:4.8283138 28518:0.56738013 28697:3.8632329 28738:4.3428059 29286:2.6172957 29452:3.9633162 29909:6.947536 29930:4.1997051 29936:4.9618449 30401:1.4740332 30802:0.10127123 30811:0.018009005 30825:0.45728487 30855:0.43078291 30885:0.61849248 30908:1.1615521 30942:0.17998946 30972:1.7837913 31242:0.012012016 31326:0.74023879 32188:3.9633162 32592:1.0274709 32918:0.83471072 33386:0.54887366 33573:0.78526247 33638:2.4079456 33677:0.780168 33694:0.94002545 33771:2.1715569 33980:0.097569577 34030:8.5462914 34101:6.9077554 34104:2.1284218 34154:2.1037343 34404:1.6843616 #
-0.00012681026773987582982605726300562 269:0.19676098 270:0.19256151 275:0.038038049 396:6.2146082 436:5.1159959 855:1.0188773 900:6.2146082 903:6.9077554 915:5.8091431 938:6.9077554 963:6.9077554 1166:0.036072191 1457:1.1973282 1741:2.8134108 1958:1.5050778 2093:0.24659643 2128:0.0070035025 2330:0.68319684 2487:0.11878353 2786:0.14618251 2858:3.3813949 2886:1.1488535 3434:0.10758521 3517:1.7602608 3518:1.6044503 3582:5.1159959 3832:4.7105308 3951:3.9633162 4342:3.2441936 4379:1.4146938 4522:5.521461 4804:5.2983174 5004:0.15387988 5038:0.12783337 5191:0.50087529 5554:4.3428059 5702:0.70724612 6215:6.9077554 6630:2.1202636 7054:5.1159959 7110:3.6119184 7789:5.8091431 7830:4.7105308 7880:5.2983174 8644:3.0365543 8957:2.2164073 8962:1.6925967 9041:5.2983174 9287:0.58339632 9327:0.8486321 9516:1.1270118 9597:6.2146082 9928:6.9077554 10006:3.5065579 10121:1.6982691 10399:6.2146082 10429:2.9374633 11726:0.17435339 12190:0.13499209 12686:11.316783 13278:9.0197201 13307:0.55861628 13331:6.9077554 13534:4.8283138 13683:3.5755508 13797:5.1159959 13861:0.77002823 14054:5.1159959 14098:1.6502599 14196:0.24462259 14245:0.15315118 14269:5.8091431 14285:0.67318302 14524:0.92381901 14531:6.2146082 14684:0.64817381 14722:0.30863473 14852:3.3965383 15353:5.3185201 15379:0.33407512 15632:0.016032085 15891:6.9077554 16075:4.8283138 16171:2.2072749 16173:2.8473122 16237:0.43850496 16298:4.9618449 16387:0.012012016 16432:0.39304259 16605:3.5404594 16719:1.7897614 16810:3.7722611 16855:5.1159959 17049:3.6496587 17273:2.7646205 17572:3.7722611 17627:6.2146082 17999:3.3813949 18164:0.78088611 18661:1.9939172 18816:1.0526834 19360:3.6888795 19384:2.5383074 19504:2.7030628 19805:1.3093333 20130:0.33128572 20190:0.62175721 20339:1.1632116 20449:15.648092 20518:3.0576077 20633:2.9187713 20811:3.9633162 21168:0.19237189 21475:0.006006008 21604:0.069350079 21685:0.37251401 22101:4.2686977 22112:5.8091431 22207:4.3428059 22424:1.3862944 23224:1.2207799 23825:2.4651041 23853:4.50986 23986:3.3242364 24071:5.521461 24105:3.3242364 24443:2.9759297 24555:1.6450651 24810:5.521461 25258:6.9077554 25540:3.8632329 25846:9.6566277 25847:12.429216 26113:2.8134108 26481:10.231992 26616:5.2983174 26802:6.9077554 27078:1.551169 27246:5.8091431 27257:5.521461 27683:9.0197201 28141:5.8091431 28286:2.7646205 28305:6.9077554 28611:0.34814003 28926:8.5373955 28934:6.2146082 29217:1.6094379 29334:3.5755508 29522:2.3859668 29865:0.95451194 29939:4.6051702 30060:3.6888795 30152:4.1351666 30802:0.050635617 30811:0.013006505 30878:0.94674993 30942:0.089994729 30986:4.6051702 31242:0.006006008 31293:2.7806208 31345:6.2146082 31639:4.0173836 32341:2.7488723 32562:1.820159 32592:0.34249032 33447:0.72773862 33694:0.31334183 33712:0.81644541 33769:0.48050627 33785:2.7181005 33980:0.065046385 34163:1.099826 34216:2.5010359 34355:1.3318062 #
-6.2265353842951034449466896081304e-05 11:0.99384546 275:0.058058076 370:3.9633162 372:5.8091431 824:3.3242364 868:0.38126042 1166:0.02805615 1235:0.29840603 1304:3.5404594 1336:5.1159959 1442:2.7566524 1659:0.63676685 1686:4.2686977 1700:2.4418471 1850:0.46386412 2093:0.36989465 2128:0.016008005 2330:0.68319684 2487:0.3563506 2563:1.0498221 2631:5.8091431 2632:4.8283138 2640:0.32673711 2742:3.9633162 2786:0.43854752 2886:2.2977071 2889:2.8473122 3168:4.1351666 3355:2.3025851 3434:0.10758521 3572:2.4079456 3599:0.90140212 3610:6.9077554 3981:14.885535 4119:5.8091431 4379:2.8293877 5004:0.15387988 5191:0.50087529 5344:4.7105308 5670:2.3751557 5723:0.7444405 5898:2.6036901 5999:2.7030628 6119:5.2983174 6708:3.5404594 6773:6.2146082 6970:4.9618449 7013:5.8091431 7180:4.6051702 7354:3.1010928 7582:6.9077554 7725:4.4228487 8456:5.2983174 9324:0.81644541 9968:3.7297015 10006:7.0131159 10271:4.1997051 10678:2.9565115 10809:1.8325815 11019:4.6051702 11446:5.8091431 11453:3.4112477 11479:3.1941831 11555:1.8140051 11560:2.5010359 11759:0.97551012 11970:5.2983174 11980:6.2146082 12190:0.13499209 12292:4.2686977 12309:5.2983174 12645:1.3394108 13280:4.1351666 13307:0.55861628 13542:6.2146082 13672:4.3428059 13775:6.9077554 14149:5.2983174 14245:0.30630237 14702:5.8091431 14889:3.6496587 15053:2.0557251 15082:1.518574 15095:6.2146082 15379:0.33407512 15426:5.8091431 15616:4.3428059 15632:0.016032085 16032:5.8091431 16193:6.2146082 16237:0.87700993 16387:0.014014019 16427:0.23244497 16432:0.39304259 16450:0.67530727 16473:5.8091431 16770:2.2164073 16958:4.9618449 17682:12.405499 17794:3.4112477 17989:8.2663527 17990:5.521461 18029:0.83121568 18292:1.2413286 18329:1.1332037 18378:3.0576077 18392:1.4064971 18726:6.9077554 18768:3.9633162 18931:2.1992257 19046:3.1235657 19170:3.1235657 19304:0.91629076 19433:2.7333679 19448:2.0249534 20130:0.33128572 20190:0.62175721 20210:6.9077554 20273:0.68070179 20301:2.0488658 20435:2.4769385 20449:15.648092 20450:5.8091431 20539:4.6051702 20690:6.9077554 20833:1.0555528 20953:3.8632329 21168:0.19237189 21370:3.6496587 21475:0.014014019 21502:3.1941831 21572:4.8283138 21604:0.069350079 21685:1.117542 21784:0.6934492 21889:0.6462636 21896:2.7030628 22187:1.3625778 22424:1.3862944 22714:2.7942131 23204:1.820159 23520:5.521461 23521:4.074542 23751:2.2633643 23831:3.5065579 23949:3.0365543 23973:1.5847453 23993:6.2146082 24090:3.7722611 24194:5.521461 24594:5.1159959 24713:5.2983174 24932:2.7646205 24995:2.4304185 25096:3.5755508 25148:4.7105308 25365:2.453408 25615:1.6502599 25642:5.1159959 25839:4.0173836 25947:4.1351666 26008:2.4651041 26344:1.9310216 26394:4.8158913 26517:1.1809075 26674:5.2983174 26909:3.6888795 26937:2.2052407 26943:4.3428059 27027:6.9077554 27065:0.80743635 27270:4.9618449 27336:5.8091431 27360:2.4889147 27398:5.2983174 28009:2.6172957 28671:4.2686977 29346:4.2686977 29349:3.6496587 29350:6.2146082 29419:5.521461 29465:4.7105308 29690:3.8632329 29811:6.2146082 29865:0.95451194 30116:4.074542 30401:1.4740332 30792:0.44316697 30802:0.025317809 30806:1.2275827 30811:0.017008506 30812:2.453408 30825:0.45728487 30827:0.66553199 30860:1.0613165 30878:1.8934999 30885:0.61849248 30942:0.089994729 30968:2.2355902 31042:0.89159811 31158:0.51416451 31177:1.5994875 31242:0.016016021 31326:0.74023879 31817:6.9077554 31945:0.67530727 32268:4.50986 32592:0.34249032 32667:1.8140051 33092:4.7105308 33418:1.469676 33573:0.78526247 33639:0.96758401 33769:0.80084378 33856:0.68915516 33980:0.097569577 33994:1.4064971 34094:2.3968959 34100:2.4304185 34153:1.6398971 34215:5.4667358 34242:5.2983174 34346:1.6502599 34355:2.6636124 34404:0.67374462 34414:1.5558971 34422:1.3432349 34431:5.8091431 34435:6.9077554 #
0.00012656151104484979945732914252687 3:0.54887366 263:0.053400777 264:0.053400777 272:0.0090045026 824:0.50087529 1164:18.842123 1216:0.99385715 1343:4.0173836 1397:2.3538785 1436:1.5847453 1454:1.3019532 1601:5.2983174 1719:1.7487 1920:0.23067182 2050:1.3823023 2216:0.012006004 2460:3.0159349 2612:12.429216 2636:0.1131687 2785:0.15229604 3009:7.7264657 3261:0.98617685 3304:5.1159959 3636:0.13696586 3716:1.5464631 3832:2.9374633 4055:2.5035269 4149:6.9077554 4310:2.6172957 4324:3.473768 4580:3.1941831 4594:0.97551012 4666:4.2741413 5031:3.9633162 5269:0.10469296 5463:0.51249367 5594:2.1715569 5721:3.7677495 5737:1.2447948 5808:4.50986 5820:2.7333679 6191:3.7297015 6412:2.5133061 6444:2.0794415 6586:4.50986 6588:4.8283138 6734:4.2686977 6959:1.2241755 6984:2.3814552 7014:3.6888795 7151:5.2983174 7377:4.50986 7629:2.6172957 7823:4.6051702 7888:3.7722611 7905:3.6888795 8074:2.6736488 8094:3.9120231 8683:5.8091431 8857:3.7722611 9192:1.7957675 9234:3.1941831 9445:5.521461 9941:0.65008771 9946:1.8729869 10014:1.016111 10192:3.8167129 10223:3.9633162 10546:1.3432349 10649:4.9618449 10665:2.9004221 10708:3.2188759 10722:2.1202636 11489:5.1159959 11537:0.95930004 11578:1.5278579 11587:3.6496587 11661:1.9589953 11699:3.7297015 11820:4.6051702 12024:3.473768 12109:3.1941831 12175:1.4064971 12580:0.80743635 12609:3.0576077 12612:2.0024805 13018:6.9077554 13116:2.453408 13277:2.8647039 13385:0.15431736 13620:4.1997051 13876:21.19327 13877:20.723267 13912:2.3488281 14145:0.99967235 14192:1.3743658 14457:0.89648813 14710:3.8632329 14822:0.83011305 15142:0.19601488 15189:0.25747624 15231:1.6661294 15234:1.2275827 15458:0.55512589 15473:1.0469691 15647:1.5026258 15690:0.31941673 15770:3.6119184 15904:3.2441936 16300:0.30652517 16659:0.0080080107 17024:2.9565115 17071:2.4651041 17417:2.2164073 17490:0.042063124 17530:0.1135979 17832:1.4024237 18048:0.44316697 18178:1.7602608 18254:4.1351666 18265:2.6882477 18307:2.6172957 18815:6.2146082 18914:3.9633162 19355:1.910543 19554:3.1235657 19561:2.9004221 19613:3.270169 19946:2.0402207 20793:5.521461 21141:5.1159959 21424:0.28634962 21494:0.44005656 21533:3.8632329 21747:2.3751557 21758:4.9618449 21826:6.2146082 22548:4.1997051 22549:4.9618449 22566:0.16723593 22605:1.4481697 23046:0.23388462 23063:1.3664917 23343:4.7105308 23370:0.31608155 23485:0.82553637 24215:3.9633162 24333:3.7297015 25478:4.1351666 25587:6.9077554 25758:6.9077554 25911:4.4228487 26554:2.3946564 26975:1.8263509 27265:4.6051702 27587:2.3644605 27588:2.9957323 28131:2.095571 28522:1.8426065 28857:3.3242364 28917:1.3040105 28933:2.8647039 28940:2.145889 29229:2.0479429 29691:4.0173836 30622:5.2983174 31001:6.9077554 31387:1.1667926 31640:6.2146082 31821:3.5755508 31963:1.9310216 32344:1.1907276 32366:3.8632329 32683:6.2146082 32796:0.072655879 32821:0.41400144 32883:0.34814003 33012:4.2686977 33132:0.47160491 33229:0.0050025019 33256:2.837635 33694:3.9120231 33985:2.8302178 34685:6.9077554 35054:0.63299328 35504:2.7333679 35568:0.30788478 35739:13.815511 35774:6.9077554 35837:2.5010359 35881:0.40496522 35902:0.33267945 35975:0.26934981 36068:0.56739599 36212:0.14575616 36334:1.0023935 36631:0.73923093 36651:1.2310015 #
0.00012681026773987582982605726300562 94:6.2146082 263:0.053400777 264:0.053400777 272:0.012006004 1231:6.9077554 1404:1.3983669 1702:0.62923384 2018:0.50418109 2119:1.6144505 2177:0.10647225 2216:0.0040020011 2636:0.1131687 2785:0.091377623 3185:1.3318062 3259:4.9618449 3966:0.73396915 4666:2.1370707 5301:0.10981487 5594:2.1715569 5879:6.2146082 6034:6.9077554 7086:5.1159959 7326:4.9618449 7861:1.8451602 8413:11.618286 8640:2.0402207 8940:6.9077554 9508:6.9077554 10223:3.9633162 11111:2.1715569 11145:2.7806208 12256:6.9077554 12543:0.12443008 12580:0.80743635 12611:1.7660917 12720:6.2146082 13024:0.034591444 13060:3.6888795 14109:4.2686977 14210:3.5404594 15234:1.2275827 15576:1.6982691 15608:3.5755508 15690:0.21294449 16300:0.61305034 16303:1.7259717 16304:1.8578993 16396:0.46203545 16538:6.9077554 16659:0.0040040053 16770:3.9120231 17490:0.003004509 17530:0.05679895 17634:4.4228487 18454:6.9077554 18673:2.7333679 19130:0.75502259 19199:2.6310892 21424:0.28634962 22566:0.16723593 22995:2.6636124 23072:0.12669766 23310:2.2537949 24790:1.234432 25608:1.9951004 26414:1.3943266 27037:3.1235657 27596:5.8091431 28159:3.8632329 28452:2.3859668 28764:1.5798792 28941:1.0469691 30380:0.33547273 30494:0.41855034 30522:2.1037343 30764:2.7030628 31732:4.4228487 32090:13.815511 32347:2.2164073 32786:0.46203545 32796:0.01816397 32876:0.82325584 32942:0.0629398 32967:1.0847094 33132:0.94320983 33229:0.0020010006 34882:3.5404594 35443:4.4228487 35504:2.7333679 35919:0.66164851 35927:5.2983174 35975:0.13467491 35978:2.2537949 36212:0.048585385 36275:3.0576077 36465:2.5770218 36486:2.9565115 36710:6.9077554 #
0.00012681026773987582982605726300562 3:0.54887366 272:0.0080040023 536:4.7105308 1454:1.3019532 1920:0.23067182 2078:2.3968959 2216:0.0030015011 2290:5.9518595 2443:0.79628795 2934:0.15782408 3296:6.9077554 3405:3.2188759 3741:4.3428059 3819:3.6496587 4024:2.4769385 4045:6.9077554 4046:6.9077554 4693:6.9077554 5014:5.8749266 5301:0.10981487 6444:2.0794415 6528:16.564383 7120:5.8091431 7237:4.4228487 9290:4.2686977 9742:3.6119184 9946:0.93649346 10375:5.2983174 11242:1.8904754 11475:2.9759297 11537:0.47965002 11553:1.2241755 12381:2.8473122 13007:6.2146082 13011:6.2931104 13229:2.8473122 13230:5.1159959 13385:0.15431736 14724:5.521461 14861:6.2146082 14904:4.2686977 15278:2.5902672 15441:5.8091431 15690:0.10647225 16025:2.3025851 16304:1.8578993 16659:0.0040040053 17490:0.006009018 17530:0.05679895 19191:0.68498063 19498:1.2623084 19509:2.0024805 20576:3.9633162 20674:2.6736488 21459:6.9077554 21497:2.2072749 21588:0.63765758 22206:0.89159811 23154:2.3538785 23214:0.40047756 23342:0.5516476 23406:5.8091431 23425:4.4228487 23753:6.9077554 24256:1.0498221 24779:1.3167683 24781:6.9077554 26918:6.9077554 27345:1.7372713 29645:1.6044503 29852:6.9077554 30483:6.2146082 31957:6.2146082 32750:3.8632329 32796:0.01816397 32942:0.1258796 32989:1.5417793 33222:6.9077554 34697:0.35382187 34894:2.9759297 35054:0.63299328 35134:2.4651041 35309:2.3644605 36212:0.09717077 36624:2.4769385 36707:6.9077554 36786:5.521461 #
0.00012681026773987582982605726300562 265:4.707757 272:0.0090045026 1216:0.33128572 1276:2.9004221 1379:6.2146082 1559:6.9077554 1702:0.62923384 1919:2.8134108 2152:2.7181005 2216:0.010005004 2314:11.889949 2315:13.815511 2785:0.030459208 3174:3.2441936 3753:0.98082924 3966:0.73396915 4204:8.5373955 4594:0.97551012 4732:4.9618449 5301:0.32944459 5568:3.270169 6078:5.521461 6618:4.9618449 6638:2.2537949 6878:4.9618449 6955:4.2686977 8640:2.0402207 8695:1.8078889 9350:6.9077554 9352:11.042922 9926:7.2238369 10478:1.3019532 11510:4.3428059 11661:1.9589953 11703:6.9077554 12130:4.5423832 12131:4.4228487 12253:1.7259717 12566:2.8473122 13011:6.2931104 13024:0.034591444 13170:1.7372713 13229:11.389249 13245:6.9077554 13351:1.8018098 13885:5.521461 13958:6.9077554 14087:3.8632329 15020:2.5770218 15142:0.19601488 15458:0.55512589 15690:0.10647225 15698:7.0131159 15700:2.1715569 15717:6.2146082 16049:0.82325584 16659:0.0040040053 17300:3.8167129 17490:0.003004509 17896:3.8167129 18048:0.44316697 18211:4.1997051 18732:1.2140231 18860:2.4191189 19130:0.75502259 19355:1.910543 20136:0.78745788 20352:2.5010359 20621:4.5267286 20672:2.8647039 20674:2.6736488 20905:6.9077554 21424:0.28634962 21496:6.9077554 21936:5.1159959 22972:6.9077554 23046:0.077961542 23072:0.12669766 23342:0.5516476 23356:6.2146082 24275:2.65926 25790:5.521461 26537:2.6036901 26722:4.7105308 26723:6.2146082 26725:6.2146082 27057:3.5065579 27405:6.2146082 29414:1.6014647 30512:6.9077554 31010:4.7105308 31287:0.96233469 31387:0.58339632 31756:3.473768 32038:4.2686977 32728:3.5755508 32786:0.46203545 32796:0.01816397 32876:0.82325584 32942:0.1258796 33153:1.3862944 33229:0.0010005003 33411:4.2686977 35099:3.1010928 35589:1.4271164 35645:2.0614953 35839:1.0613165 35881:0.40496522 35975:0.13467491 36005:1.6094379 36140:3.2188759 36212:0.024292693 36261:1.7544637 36454:5.8091431 36470:6.9077554 36560:3.0365543 36641:2.462003 #
8.3887615442892766309812557778969e-05 3:1.6466211 263:0.21360311 264:0.21360311 272:0.024012009 274:1.8578993 824:2.0035012 1171:20.723267 1197:3.5675826 1359:4.8283138 1381:6.9077554 1784:4.1997051 1982:2.6310892 2018:0.50418109 2148:3.9633162 2177:0.21294449 2216:0.0080040023 2443:1.5925759 2636:0.2263374 2785:0.12183683 2933:5.1159959 4171:3.079114 4310:2.6172957 4879:2.6882477 4913:2.1892564 5269:0.20938592 5301:0.21962973 5364:5.2983174 5876:7.7264657 5945:3.7297015 6016:0.65585142 6032:0.73605466 6070:2.9004221 7048:3.7297015 7537:2.9565115 7564:3.1010928 7817:6.9077554 7949:4.1351666 8010:4.6051702 8204:4.3428059 8316:4.4228487 8653:18.61482 9174:4.1351666 9218:2.6036901 9232:4.50986 9408:1.5324769 9511:1.9241487 9566:5.8091431 9729:6.2146082 10195:2.7181005 10841:2.2633643 11017:4.1997051 11869:4.1351666 11921:4.3428059 12381:2.8473122 12612:2.0024805 13024:0.069182888 13107:2.2349265 13361:3.0159349 14145:0.99967235 14164:2.6172957 14527:3.7722611 14981:3.6888795 15189:0.25747624 15231:0.18512549 15458:0.55512589 15647:1.0017506 15690:1.0647224 15895:2.198225 15983:3.4420195 16029:2.2926347 16049:0.82325584 16165:3.4112477 16167:6.9077554 16290:6.2146082 16659:0.012012016 16963:5.521461 17013:4.8283138 17079:3.7297015 17319:0.41248971 17335:3.0576077 17419:3.5755508 17490:0.039058618 17530:0.028399475 17556:1.7602608 18155:6.2146082 18336:4.50986 19130:0.75502259 19325:4.50986 19760:5.8091431 19853:13.815511 19864:3.9633162 19918:4.7105308 20025:0.88916206 20227:34.538776 20228:20.723267 20310:4.9618449 20391:1.9805017 20845:2.0479429 21424:0.28634962 21494:0.44005656 21534:4.8283138 21590:2.4079456 21738:4.1997051 21937:4.50986 22376:0.60696948 22765:6.2146082 22803:5.8091431 22827:4.074542 22838:4.50986 23072:0.12669766 23214:0.40047756 23370:0.31608155 23643:1.0876724 24013:3.5404594 24292:5.1159959 24372:5.8091431 24479:5.1159959 24790:1.234432 24829:1.0023935 25050:5.2983174 25230:6.9077554 25575:3.9120231 25716:6.9077554 25821:2.6882477 25915:6.2146082 26041:1.7203695 26147:18.643824 26414:1.3943266 27487:2.1892564 28046:13.815511 28134:2.2926347 28144:6.7627897 28222:41.446533 28223:6.9077554 28226:4.50986 28512:6.2146082 28763:6.9077554 29118:1.5141277 29264:2.1202636 30598:3.1010928 30833:4.1351666 30844:4.8283138 31287:0.96233469 31364:2.2827826 31380:2.5902672 31387:0.58339632 31655:6.9077554 32250:3.473768 32349:2.1202636 32833:0.92634106 32854:0.44785082 32942:0.0629398 32985:4.6051702 33229:0.015007505 33481:3.6888795 33842:2.6172957 33990:1.3271768 34457:6.2146082 34647:5.521461 34781:2.1576192 34826:3.3813949 35054:0.63299328 35074:3.6496587 35234:3.1235657 35902:0.6653589 35916:0.39452517 35975:0.40402472 36005:1.6094379 36085:3.1235657 36151:4.3428059 36212:0.09717077 36244:6.2146082 36328:2.3227878 36334:1.0023935 36439:4.50986 36444:3.4420195 36641:1.2310015 #
-0.00012681026773987582982605726300562 2128:0.0010005003 2330:0.68319684 11168:4.9618449 11726:0.17435339 13264:1.1086626 14980:4.7105308 15309:1.4872203 16387:0.0020020027 16427:0.038740829 20130:0.33128572 21168:0.19237189 21604:0.069350079 30942:0.044997364 31242:0.0020020027 33402:2.2256241 34100:2.4304185 #
-9.27959547032328597960734728467e-05 11:0.49692273 269:0.14757073 270:0.14442113 273:3.9120231 275:0.014014019 276:9.4792747 299:3.9120231 332:3.8632329 456:6.2146082 854:0.45098561 1166:0.056112301 1235:0.59681207 1281:5.8091431 1315:3.4112477 1491:4.3428059 1659:0.63676685 1726:5.521461 1880:5.521461 1936:1.9732814 1939:0.76356965 2093:0.12329821 2128:0.0040020011 2839:2.1370707 2843:16.564383 2844:6.9077554 2863:4.1351666 2867:3.4112477 3008:1.3943266 3079:1.0671136 3092:2.9374633 3312:6.2146082 3669:6.5936747 4212:2.2633643 4392:6.9077554 4661:2.6882477 5004:0.15387988 5038:0.12783337 5280:3.5755508 6302:2.3751557 6526:3.6496587 6600:1.2073117 7526:5.8091431 8104:5.2983174 8153:3.8482974 8188:4.0804415 8827:2.5257287 8841:3.0576077 8895:4.50986 9037:4.3428059 9324:0.81644541 9349:1.903809 9391:1.7445477 9885:3.473768 10227:6.9077554 10453:3.079114 11465:2.095571 11726:0.34870678 11772:2.0874736 12052:3.4420195 12190:0.044997364 12257:2.65926 12456:3.1941831 12493:1.9449106 12531:0.34632725 12982:0.58339632 12988:2.1576192 13668:2.0635681 14098:1.6502599 14196:0.73386776 14285:0.67318302 14386:2.9187713 14514:1.8596902 14663:5.521461 14684:0.64817381 14722:0.46295208 15304:0.23952703 15524:6.9077554 15632:0.020040108 16035:5.1159959 16237:0.87700993 16329:4.5655651 16387:0.0080080107 16594:6.9077554 16761:8.0347672 16918:0.37833643 17207:6.2146082 17892:2.0099156 17981:6.9077554 17989:2.361815 18389:1.9661129 18392:1.4064971 18755:0.67727381 18771:1.5558971 18816:2.1053667 19161:2.0714734 19304:0.91629076 19319:3.3524072 19326:2.7181005 19384:2.5383074 19638:2.3434072 20117:3.7297015 20140:23.236572 20716:12.429216 20833:1.0555528 21012:0.44316697 21168:0.19237189 21377:5.2983174 21475:0.026026035 21524:4.2911625 21604:0.27740031 21633:0.15198636 21714:5.521461 21828:12.429216 21904:1.6245515 22424:2.7725887 23452:2.7181005 23937:9.0197201 24901:2.4651041 25284:2.2164073 25759:6.2146082 25760:6.9077554 26400:6.9077554 26642:6.3401713 26666:2.2164073 27065:0.80743635 27268:2.9957323 27396:9.8664064 27421:2.5902672 27647:3.270169 28518:0.56738013 28625:1.0469691 29149:4.8283138 29829:6.2146082 29830:5.2983174 29906:3.7297015 29956:4.7105308 30607:6.1152153 30708:5.8091431 30709:6.9077554 30802:0.075953424 30811:0.012006004 30827:1.331064 30855:0.86156583 30918:1.1776555 30942:0.17998946 31042:0.89159811 31229:2.0479429 31242:0.012012016 31255:6.2146082 31271:1.7037486 33386:1.6466211 33472:0.67924428 33639:0.96758401 33708:0.44005656 33749:4.8158913 33769:0.16016875 33780:1.5702173 34030:1.7092582 34126:1.5005835 34147:1.9661129 #
-0.00012681026773987582982605726300562 269:0.049190246 270:0.048140377 275:0.012012016 826:4.4228487 854:1.3529569 1166:0.020040108 1257:6.9077554 1662:6.2146082 1850:0.23193206 1924:2.3538785 2093:0.24659643 2128:0.0030015011 2640:0.16336855 2685:3.079114 3599:0.90140212 3616:4.9618449 3783:1.2241755 4164:5.8091431 4294:4.4228487 4339:5.2983174 5004:0.051293295 5038:0.12783337 5280:3.5755508 5660:4.7105308 6611:3.270169 6667:3.7297015 6804:4.074542 6956:6.9077554 7636:3.6888795 7701:6.9077554 8351:4.9618449 8618:3.5404594 8849:2.0714734 8859:2.5639498 9084:5.2983174 9126:3.3524072 9995:6.9077554 10057:2.65926 10534:2.5902672 10731:5.1159959 11179:2.5770218 11354:2.0635681 11422:4.3428059 11555:1.8140051 11557:5.8091431 11726:0.34870678 11759:0.97551012 11844:4.50986 12190:0.13499209 12425:4.3428059 12948:2.8134108 13264:1.1086626 13303:4.6051702 13359:6.2146082 13540:3.3524072 13679:4.074542 14196:0.48924518 14289:1.1394343 14722:0.30863473 14852:1.6982691 15055:6.9077554 15139:4.2686977 15452:3.4420195 15632:0.020040108 15703:2.7646205 16079:1.4784096 16102:5.521461 16237:0.43850496 16295:5.2983174 16387:0.0080080107 16744:1.4740332 16765:2.5902672 16897:3.7722611 17141:2.3025851 17648:5.8091431 17711:2.2072749 18029:0.27707189 18034:2.5770218 18146:5.521461 18325:5.8091431 18639:6.9077554 18661:0.99695861 18771:3.1117942 18816:1.0526834 18841:2.2633643 19304:0.91629076 20157:6.9077554 20190:0.62175721 20504:0.90140212 20856:6.9077554 20953:3.8632329 21038:6.2146082 21468:6.2146082 21475:0.012012016 21557:1.3823023 21685:0.37251401 21835:1.5847453 21906:0.25231493 24046:3.8632329 24199:6.9077554 24996:2.7333679 25017:4.6051702 25288:3.6496587 25347:3.0576077 25739:2.0402207 26019:2.7030628 26055:6.9077554 27065:0.80743635 27078:1.551169 27316:1.7778566 28863:2.6736488 29031:6.9077554 29686:2.8647039 30390:1.1520131 30507:3.1235657 30802:0.075953424 30811:0.011005504 30908:1.1615521 30942:0.22498684 31238:4.6051702 31242:0.006006008 31283:4.4228487 31734:6.9077554 32452:3.3524072 32667:1.8140051 33172:5.1159959 33677:0.390084 33708:0.44005656 33769:0.16016875 33863:3.0365543 34226:6.9077554 34422:1.3432349 34430:6.9077554 #
-0.00012681026773987582982605726300562 10:0.95711273 11:0.49692273 345:2.4769385 388:6.9077554 576:6.9077554 578:2.1037343 649:6.9077554 654:2.7181005 693:6.9077554 694:3.1010928 717:6.9077554 720:3.270169 754:6.9077554 756:3.9633162 771:6.9077554 773:4.6051702 793:6.9077554 795:4.3428059 818:6.9077554 821:3.9633162 852:6.9077554 854:4.0588708 1166:0.0040080212 1402:1.2694006 1850:0.23193206 2248:0.91629076 2487:0.11878353 2786:0.14618251 2836:1.9241487 2973:3.2188759 6178:9.6317825 6616:1.3470737 7497:2.9957323 10500:1.0613165 12089:4.50986 12645:1.3394108 14614:1.8451602 15620:6.2146082 15632:0.0040080212 16387:0.006006008 16450:2.0259218 16918:0.37833643 17141:2.3025851 20467:1.9877744 21168:0.57711565 21475:0.0020020027 21604:0.069350079 22516:2.8302178 23013:2.3434072 23449:2.1202636 23583:4.50986 26782:2.2926347 27462:4.8283138 27541:1.89712 30607:3.0576077 30792:0.88633394 30802:0.050635617 30811:0.0050025019 34007:6.2146082 34008:7.459403 34147:1.9661129 #
-0.00012681026773987582982605726300562 269:0.049190246 270:0.048140377 275:0.026026035 660:6.9077554 824:3.3242364 1166:0.020040108 1475:3.4112477 1850:0.23193206 1951:4.1997051 2093:0.61649108 2128:0.0060030022 2241:2.3227878 2640:0.16336855 3118:0.68319684 3434:0.21517043 3506:0.77435726 3745:2.071275 4935:4.2686977 5038:0.38350013 5281:5.521461 5321:2.1892564 5702:0.70724612 6178:2.4079456 6490:5.521461 6829:6.2146082 7258:3.5404594 7338:1.5487145 7856:4.6051702 8174:2.5639498 8622:3.4420195 8952:3.6119184 9869:4.3428059 10027:2.9759297 10184:6.9077554 10691:1.9589953 10771:0.40047756 10927:3.4112477 10983:6.2146082 11526:2.5383074 11530:2.4651041 11726:1.3948271 11946:3.7722611 12190:0.044997364 12199:2.5010359 13100:1.3783262 13525:3.7552905 13861:0.77002823 14166:4.4228487 14245:0.15315118 14285:0.44878867 14614:1.8451602 14722:0.15431736 14944:3.8632329 15304:0.23952703 15397:3.270169 16079:1.4784096 16237:0.43850496 16387:0.006006008 16427:0.077481657 16522:1.9805017 16744:1.4740332 16787:4.9618449 17350:13.815511 18029:0.27707189 18292:1.2413286 18392:1.4064971 18485:5.521461 18661:1.9939172 18795:18.643824 19205:1.3943266 19801:2.6882477 20339:0.58160579 20593:12.806094 20909:6.8224955 21047:10.596635 21048:13.815511 21227:2.5770218 21475:0.016016021 21604:0.069350079 21779:5.2983174 21801:2.2256241 21992:5.2983174 22101:4.2686977 22127:6.9077554 22213:3.4112477 22696:4.50986 22759:1.4146938 22761:2.0402207 22772:1.8263509 22942:4.8283138 23266:4.7105308 23338:5.1159959 24213:2.9957323 24251:6.9077554 24897:3.5755508 25174:5.8091431 26433:4.4228487 26720:0.97021908 26782:2.2926347 26993:3.270169 27481:3.1010928 27697:4.9618449 28717:4.7105308 29240:6.9077554 29499:1.3822984 30071:5.8091431 30430:3.9633162 30628:6.9077554 30730:10.596635 30811:0.013006505 30942:0.13499209 30968:1.1177951 31242:0.0080080107 31531:4.6051702 31532:4.9618449 31780:4.7503114 32215:6.9077554 32334:1.551169 32452:3.3524072 32911:4.7503114 32918:0.83471072 33152:4.7105308 33337:5.6946244 33386:0.27443683 33573:0.78526247 33694:0.31334183 33856:1.3783103 33980:0.097569577 33993:2.4418471 34083:3.473768 34104:1.0642109 34126:1.5005835 #
0.00012681026773987582982605726300562 2:1.2765435 57:2.8824036 272:0.012006004 835:1.8209084 1702:0.62923384 1994:3.5427227 2177:0.10647225 2216:0.0090045026 2443:0.79628795 2636:0.1131687 2785:0.060918417 2818:3.1235657 3000:5.2983174 3636:0.82179511 3695:1.9951004 3705:0.78965807 4011:0.98082924 4906:3.4420195 5269:0.20938592 5463:2.0499747 5677:3.473768 5737:1.2447948 6016:0.65585142 6502:2.5257287 6973:1.4784096 7811:0.88916206 8201:3.8167129 8346:4.2686977 8684:3.2441936 9407:3.7722611 9414:2.3227878 9846:6.9077554 9990:5.1159959 10157:1.1583623 10221:2.032558 11295:3.9633162 11699:3.7297015 11831:2.095571 12038:1.2310015 12138:2.6450753 12386:2.4304185 12674:0.62548852 12859:6.2146082 13024:0.13836578 13097:5.2983174 13147:3.4420195 13170:1.7372713 13177:4.2741413 13346:1.8643302 13444:6.9077554 13500:6.9077554 14050:4.8283138 14408:3.8632329 14620:3.2968373 14782:1.6982691 14841:3.0365543 15117:7.7264657 15189:0.25747624 15231:0.74050194 15458:0.55512589 15647:1.5026258 15690:0.31941673 15883:4.7105308 16049:3.2930233 16102:14.131592 16300:0.91957545 16356:5.1159959 16396:0.46203545 16607:2.7968814 16659:0.022022029 16985:3.5065579 17077:6.9077554 17490:0.018027054 17525:2.8473122 17530:0.2271958 17996:7.1511016 18048:0.44316697 18444:2.0174062 18839:2.1628232 19012:1.6660082 19059:3.7297015 19130:0.75502259 19332:0.78526247 19456:4.50986 19593:4.2107334 19685:3.7722611 19847:1.0244329 19953:0.70319754 19960:0.92634106 20317:2.9187713 20596:3.2968373 21301:1.6820086 21588:1.594144 21807:1.3983669 21836:1.0216513 22376:0.60696948 22566:0.50170773 23046:0.15592308 23072:0.12669766 23120:0.48450831 23238:3.3813949 23370:0.31608155 23706:2.9759297 24270:1.5702173 24548:1.5186836 24790:1.234432 26532:3.5755508 27588:2.9957323 27856:2.2294834 27886:5.0020719 28205:4.50986 28211:3.079114 28764:1.5798792 28841:3.6119184 28917:0.65200526 29379:2.6310892 29645:1.6044503 30380:0.67094547 30405:5.6268215 30839:5.521461 31058:3.3242364 31077:1.6245515 31108:3.6777022 31478:3.1010928 31769:0.89404011 32796:0.054491911 32854:0.44785082 32942:0.44057861 33038:3.0576077 33229:0.0070035025 33808:1.6094379 34023:2.6450753 34424:2.1455812 34781:1.0788096 34927:2.5639498 35568:0.92365432 35667:3.5755508 35702:5.1159959 35703:6.2146082 35719:6.2146082 35754:1.2659866 35881:0.40496522 35902:0.33267945 35975:0.26934981 36005:1.6094379 36212:0.14575616 36281:2.0794415 36334:1.0023935 36351:1.6554818 36397:0.62548852 36445:5.3185201 36471:1.8078889 36472:2.0249534 36631:0.36961547 #
5.9350036676007147018376691738339e-06 263:0.16020232 264:0.10680155 272:0.055027518 544:4.6051702 1649:4.2686977 1717:1.3625778 1920:0.46134365 1994:1.1809075 2018:3.0250864 2039:4.7366805 2177:0.31941673 2216:0.025012508 2226:5.521461 2443:0.79628795 2636:0.45267481 2641:2.2349265 2785:0.15229604 2934:0.31564817 2997:2.0557251 3040:5.1020927 3310:2.7329834 3636:0.13696586 3802:0.83701754 4011:0.98082924 4092:5.1805344 4152:3.0101557 4656:2.8134108 5269:0.10469296 5301:0.10981487 5433:4.8283138 5463:1.0249873 5573:2.3644605 5737:1.2447948 5923:9.9236898 5979:2.1803675 6079:2.9187713 6157:2.5902672 6308:2.8824036 6973:5.9136386 7380:6.9077554 8109:4.8283138 8201:3.8167129 8404:3.9120231 8524:3.1700857 8629:12.881625 8959:2.5639498 9507:1.9310216 9511:1.9241487 9519:2.990876 10098:11.618286 10405:6.2146082 10564:2.154165 10612:2.2443161 10683:3.1941831 10798:1.9310216 10902:4.1351666 11178:7.459403 11200:2.2914078 11439:1.4567168 11537:1.4389501 11570:1.0966142 11693:4.4145498 12038:1.2310015 12101:2.2072749 12111:2.3644605 12247:3.1941831 12543:0.9954406 12760:3.5755508 13024:0.069182888 13385:0.15431736 13475:1.4961092 13512:7.1564589 13903:1.2887141 13912:1.174414 13930:5.2983174 14197:2.4415598 14241:2.199652 14275:3.473768 14361:3.6119184 14457:0.89648813 14603:42.386539 14644:4.9618449 15029:2.2827826 15066:2.9565115 15142:0.39202976 15164:2.9374633 15170:4.3428059 15189:0.77242869 15231:0.74050194 15283:2.0794415 15428:2.9565115 15641:6.2146082 15647:1.0017506 15690:0.63883346 15765:2.7968814 16056:2.071275 16341:2.0635681 16396:0.46203545 16659:0.014014019 17419:3.5755508 17420:2.2164073 17479:6.2146082 17490:0.045067634 17530:0.14199737 17882:5.6268215 18048:0.44316697 18714:3.6888795 18846:2.0874736 19160:4.8283138 19191:0.34249032 19202:3.1465552 19258:2.1628232 19332:0.78526247 19593:1.0526834 19649:4.50986 19803:10.596635 20351:4.6051702 20439:2.2052407 20993:1.6296406 21646:0.56387484 21773:8.1490841 21790:3.5321834 21998:5.521461 22076:4.9618449 22184:6.9077554 22198:0.83932972 22310:1.8140051 22566:0.50170773 22605:1.4481697 22995:1.3318062 23046:0.077961542 23072:0.25339532 23349:5.2073803 23370:0.31608155 23485:9.0809002 23516:9.1311302 23567:3.5404594 23663:3.6119184 23915:2.5892544 23952:2.3751557 24213:0.80296206 24248:3.4632111 24256:1.0498221 24257:1.4354846 24448:17.371223 24474:6.9077554 24790:1.234432 24808:6.9077554 25024:4.6051702 25447:1.7957675 25556:1.5186836 25601:3.1465552 25981:6.9077554 26321:11.042922 26322:6.9077554 26416:5.521461 26498:6.9077554 26581:2.5249417 27153:11.042922 27180:4.4228487 27729:20.463984 27929:2.2633643 28060:5.8091431 28179:6.9077554 28522:0.92130327 28585:2.1037343 28669:2.2633643 28749:3.6496587 28917:0.65200526 28940:1.0729445 29112:6.9077554 29133:2.7968814 29215:1.4105871 29303:4.074542 29414:0.80073237 29645:1.6044503 30223:2.5510464 30239:6.9077554 30278:3.9120231 30494:1.6742014 30509:4.0198312 30569:6.2146082 30605:2.2537949 30916:3.9120231 31123:1.9805017 31236:3.0576077 31643:4.0348125 31769:0.89404011 31963:1.9310216 32137:2.65926 32574:4.7105308 32791:3.0365543 32833:0.92634106 32854:2.6871049 32857:1.3167683 32876:0.82325584 32942:0.18881939 33032:3.6157777 33229:0.0070035025 33243:6.9077554 33319:0.78307188 33401:6.9077554 33558:6.2146082 33709:3.9120231 33715:3.7297015 33722:2.0557251 33847:1.9951004 33990:0.6635884 34548:6.9077554 34657:1.5371172 34697:0.70764375 34805:2.5383074 35528:3.2441936 35678:5.8091431 35754:1.8989798 35902:0.6653589 35975:0.13467491 35988:3.3965383 36068:1.134792 36212:0.09717077 36397:0.62548852 36471:3.6157777 36472:2.0249534 36559:1.4188175 36631:0.73923093 36651:1.2310015 #
0.00012681026773987582982605726300562 263:0.16020232 264:0.16020232 272:0.013006505 577:3.1235657 825:0.92634106 1114:6.9077554 1216:0.33128572 1353:4.0173836 1796:5.1159959 2096:7.377759 2177:0.10647225 2216:0.0060030022 2255:4.1351666 2257:3.8632329 2342:0.94417596 2785:0.060918417 3321:4.3428059 3571:5.521461 3636:0.13696586 4066:6.9077554 4814:6.9077554 5249:2.4651041 5269:0.052346479 5436:3.1700857 5612:3.6496587 6336:4.1351666 6618:4.9618449 6786:6.9077554 8175:3.4420195 8640:2.0402207 8641:6.2146082 9519:0.99695861 9622:6.2146082 9941:0.65008771 10221:2.032558 11111:2.1715569 11393:4.3428059 11629:5.1159959 12065:6.5936747 12084:3.3524072 12331:2.4191189 12493:4.1351666 12543:0.37329024 12557:9.9236898 13024:0.13836578 13346:1.8643302 13761:4.8283138 14154:4.1997051 14192:1.3743658 14241:0.54991299 15231:0.18512549 15458:0.55512589 15531:5.2983174 15647:0.50087529 15690:0.21294449 16625:2.2256241 16659:0.0020020027 17490:0.006009018 17530:0.085198425 17554:0.57270104 17627:1.8578993 17683:3.7722611 18006:4.9618449 18048:0.88633394 18142:5.8091431 18444:2.0174062 18732:1.2140231 18975:5.8091431 19073:4.1997051 19399:4.9618449 19550:3.8632329 19804:6.9077554 20688:3.3524072 20960:5.521461 21588:0.31882879 22162:6.2146082 22206:0.89159811 22566:0.50170773 22616:5.1159959 22850:2.4191189 24138:6.2146082 24257:1.4354846 24631:4.9618449 25276:5.2983174 25561:2.0249534 26305:4.0173836 26581:0.84164721 26999:5.8091431 28530:0.94160855 29601:1.2729657 30405:2.8134108 31606:2.5770218 32558:3.9633162 32796:0.072655879 32942:0.1258796 33018:3.6496587 33229:0.0020010006 33319:0.78307188 33990:0.6635884 34383:6.2146082 34476:5.8091431 34606:4.50986 34697:0.70764375 34791:1.6928195 35839:1.0613165 35902:0.33267945 35988:1.6982691 36212:0.024292693 36459:3.4112477 #
0.00012681026773987582982605726300562 49:6.9077554 263:0.10680155 264:0.10680155 265:4.707757 272:0.012006004 362:3.8167129 824:0.50087529 825:0.92634106 1920:0.23067182 2177:0.21294449 2216:0.0060030022 2430:4.8283138 2746:5.2983174 2785:0.030459208 2934:0.15782408 3409:5.1159959 4055:1.2517635 4176:1.9449106 4205:4.6051702 4417:2.2537949 4936:3.9120231 5301:0.10981487 5721:1.8838748 6115:6.9077554 6266:4.7105308 6973:1.4784096 7195:6.9077554 7643:2.6882477 7707:3.5065579 7825:6.9077554 8680:5.1159959 8726:6.9077554 9182:11.042922 10355:3.0365543 10710:4.9618449 10804:4.9618449 11003:2.1803675 11260:1.7092582 11466:6.9077554 11972:5.8091431 12016:2.032558 12072:3.270169 12543:0.12443008 12580:0.80743635 12609:3.0576077 12674:0.62548852 12866:6.9077554 13024:0.13836578 13177:2.1370707 13301:6.2146082 13475:2.9922185 13806:3.9633162 14164:2.6172957 14414:3.1010928 14623:3.7297015 14726:6.2146082 14822:0.83011305 15142:0.19601488 15193:1.5186836 15231:0.37025097 15234:1.2275827 15690:0.31941673 15693:6.2146082 15813:3.473768 16221:5.521461 16396:0.46203545 16659:0.006006008 17030:4.1997051 17490:0.006009018 17512:1.2623084 17530:0.028399475 17534:0.48776037 17859:1.4271164 18306:2.5770218 18309:3.8632329 18312:5.1159959 18780:4.7289209 18867:1.551169 18991:5.8091431 19032:2.9957323 19604:2.8302178 20025:0.88916206 20172:6.9077554 20439:1.1026204 20543:1.0272223 20993:1.6296406 21588:0.31882879 21646:1.1277497 21906:1.9519283 22206:1.7831962 22376:1.213939 22622:4.6051702 23046:0.15592308 23367:4.1997051 23809:5.8091431 24081:2.8824036 24131:5.8091431 24508:3.0576077 24635:4.2686977 24779:1.3167683 25975:6.9077554 26101:6.9077554 26636:3.6119184 27443:4.1351666 27469:3.2188759 27790:2.2072749 27842:4.9618449 27843:6.9077554 28282:5.521461 28310:3.0365543 28852:3.2968373 29158:3.0159349 29177:5.521461 29178:3.5404594 29553:3.270169 29699:3.5755508 29736:5.2983174 29836:1.2587811 30123:3.6888795 30380:0.33547273 30494:0.41855034 30589:2.2072749 30766:3.270169 31028:4.6051702 31387:0.58339632 31412:2.7488723 31850:2.3126354 32072:4.6051702 32769:6.9077554 32789:4.0173836 32796:0.01816397 32854:0.44785082 33229:0.0050025019 33319:0.78307188 33623:4.074542 34881:3.8632329 35047:2.1715569 35054:0.63299328 35568:0.30788478 35617:5.1159959 35639:2.3434072 35649:3.079114 35716:3.2188759 36068:0.56739599 36104:6.2146082 36212:0.072878078 36261:1.7544637 36299:4.2686977 36631:0.36961547 #
0.00012681026773987582982605726300562 272:0.021010507 1197:1.7837913 1216:0.33128572 1702:0.62923384 1920:0.23067182 2078:2.3968959 2171:5.7294078 2177:0.10647225 2216:0.0070035025 2443:0.79628795 2501:3.1235657 2636:0.45267481 2785:0.12183683 2934:0.47347227 3609:2.5510464 3636:0.41089755 3705:1.5793161 3993:5.1159959 4011:0.98082924 4568:3.0365543 4717:3.6496587 5269:0.20938592 5301:0.21962973 5391:4.707757 5463:0.51249367 6954:3.6119184 6959:1.2241755 6973:2.9568193 7382:6.2146082 7707:3.5065579 7811:0.88916206 7875:2.8709693 8008:3.8632329 8678:2.2072749 8766:2.7968814 9038:3.5404594 9389:2.5770218 9473:5.2983174 9766:5.8091431 9941:0.65008771 10197:13.815511 10209:27.384161 10214:11.618286 10215:6.9077554 10327:6.9077554 10564:2.154165 10616:3.6496587 10660:6.4883871 11311:2.9759297 11552:2.1037343 11782:3.2968373 12016:2.032558 12357:2.2537949 12612:2.0024805 12674:0.62548852 13024:0.069182888 13853:3.473768 13903:0.64435703 13938:6.9077554 14005:5.941505 14197:3.6623397 15040:3.3005197 15142:0.39202976 15231:1.2958784 15458:0.55512589 15473:1.0469691 15495:2.3968959 15690:0.10647225 15722:4.50986 16056:1.0356375 16396:0.92407089 16463:5.2983174 16659:0.012012016 17120:1.4828053 17319:0.41248971 17490:0.033049598 17530:0.085198425 17556:1.7602608 17939:5.1159959 18436:1.0328245 18732:2.4280462 18780:4.7289209 19039:3.1700857 19900:3.473768 19960:0.92634106 20025:0.88916206 20606:9.6566277 20834:4.8283138 21318:1.8263509 21336:5.521461 21424:0.28634962 21573:3.1010928 21588:1.594144 22263:1.9519283 22566:0.16723593 23046:0.077961542 23370:0.63216311 23704:3.7722611 23952:2.3751557 24391:4.8283138 24819:2.7646205 24829:1.0023935 24901:3.8632329 25150:6.9077554 25434:4.6051702 25556:3.0373671 25633:6.9077554 25821:2.6882477 25822:3.3242364 25824:2.7646205 26073:18.420681 26581:0.84164721 27378:3.1941831 27649:1.1488535 28134:2.2926347 28206:5.8091431 28207:5.2983174 28475:4.6051702 28522:0.92130327 28764:1.5798792 28917:0.65200526 29185:2.453408 29187:2.8134108 29782:2.9759297 29836:1.2587811 30278:3.9120231 30380:0.67094547 30494:0.41855034 30947:4.2686977 31059:5.2983174 31108:1.8388511 31554:1.937942 32191:4.1351666 32334:1.0469691 32340:2.2256241 32525:2.3968959 32622:1.8578993 32786:0.46203545 32796:0.01816397 32821:0.41400144 32825:0.6462636 32854:1.3435525 32883:1.0444201 32942:0.18881939 33132:0.47160491 33153:1.3862944 33229:0.0090045026 33453:4.004961 33800:5.8091431 33818:1.9877744 33990:0.6635884 34517:2.3330443 34657:1.5371172 34697:0.70764375 34781:1.0788096 35054:0.63299328 35309:2.3644605 35568:0.30788478 35881:0.40496522 35902:0.33267945 35904:1.5400565 35916:0.78905034 35975:0.26934981 36068:2.2695839 36212:0.072878078 36223:1.2378744 36276:2.1119647 36334:1.0023935 36351:1.6554818 36472:2.0249534 36631:2.5873082 36641:1.2310015 #
-4.5519899390786830797872575260499e-05 11:1.4907682 269:0.19676098 270:0.19256151 275:0.026026035 276:3.1597583 720:3.270169 824:3.3242364 854:1.3529569 1166:0.052104279 1235:0.59681207 1453:3.2968373 1469:6.7627897 1552:5.2983174 1571:3.4420195 1591:6.9077554 1676:2.9004221 1704:3.5065579 1850:0.46386412 2029:4.3083301 2093:0.24659643 2128:0.011005504 2174:3.5065579 2338:1.3280255 2369:6.9077554 2487:0.3563506 2535:4.0173836 2640:0.10891237 2685:3.079114 2917:4.50986 3008:1.3943266 3118:0.68319684 3368:4.8283138 3407:2.6036901 3434:0.32275563 3506:0.77435726 3546:0.58339632 3588:3.9120231 3658:3.2441936 3809:5.521461 3821:2.2540236 3844:3.3524072 4439:4.6252708 4569:3.5404594 4622:6.9077554 4812:6.2146082 5004:0.10258659 5038:0.25566673 5588:5.1159959 5702:0.70724612 5723:1.488881 5791:2.6172957 5903:4.074542 5905:4.8283138 5907:2.4651041 6186:6.9077554 6281:4.8283138 6493:3.0365543 6499:4.7105308 6614:3.3524072 7575:5.8091431 7860:4.7105308 7942:8.8456974 7989:4.3428059 8718:3.5404594 9402:1.8325815 9731:3.5404594 9814:4.50986 9887:4.9618449 9920:2.0402207 10104:3.8632329 10121:1.6982691 10279:6.2146082 10392:5.2983174 10700:4.50986 10771:0.40047756 11055:3.9120231 11084:4.1351666 11357:6.2146082 11453:3.4112477 11465:2.095571 11726:0.17435339 11790:2.2072749 11896:2.2349265 11957:3.9633162 12144:3.1700857 12165:3.3524072 12190:0.13499209 12493:1.9449106 12531:0.34632725 12586:2.0249534 12982:1.7501889 13081:2.4651041 13207:1.0051219 13227:2.5902672 13403:3.2188759 14196:0.48924518 14285:0.67318302 14382:3.3242364 14722:0.61726946 14738:2.1286318 14832:1.6554818 15082:0.759287 15304:0.23952703 15326:3.5755508 15543:6.2146082 15597:4.4228487 15632:0.012024065 15714:4.1351666 15984:4.7105308 15985:3.2968373 16329:2.2827826 16387:0.006006008 16422:3.7722611 16427:0.038740829 16432:0.39304259 16635:4.6051702 16770:2.2164073 16776:6.9077554 16781:3.473768 16865:26.491587 16918:0.37833643 17084:4.7719336 17120:5.5612416 17190:6.9077554 17352:6.2146082 17374:6.2146082 17635:2.9759297 17638:2.4191189 17718:2.4651041 17738:3.1941831 17980:4.1351666 18029:0.27707189 18164:1.5617722 18816:1.0526834 18931:1.0996128 18996:8.2703333 18998:4.8283138 18999:4.1351666 19326:2.7181005 19331:2.7646205 19360:3.6888795 19467:3.5404594 19726:6.2146082 19805:1.3093333 19918:6.2146082 20130:0.33128572 20190:0.62175721 20212:5.2983174 20273:0.45380121 20301:2.0488658 20561:4.6051702 20567:4.0651159 20824:0.87947679 21168:0.19237189 21202:1.0384583 21475:0.010010013 21557:1.3823023 21572:9.6566277 21604:0.13870016 21741:3.2188759 21784:0.6934492 21801:2.2256241 21906:0.50462985 22135:6.2146082 22394:2.7968814 22516:2.8302178 22714:0.93140435 22756:3.8632329 22897:4.4228487 22898:4.3428059 23657:3.7722611 23860:12.429216 23973:1.5847453 24104:4.1997051 24186:5.2983174 24795:3.1235657 24811:6.9077554 24814:9.4210615 24935:3.8632329 25821:2.8824036 26543:8.6856117 26782:2.2926347 26893:2.9374633 27065:0.80743635 27114:3.5065579 27396:1.9732814 27710:1.0133524 27847:3.0159349 28653:15.894952 28654:13.815511 28659:1.8838748 29050:5.8091431 29369:4.6051702 29697:2.2926347 29896:5.521461 30050:11.618286 30106:2.6736488 30180:5.521461 30316:3.3524072 30401:1.4740332 30418:2.3538785 30470:6.9077554 30553:4.3428059 30647:2.0794415 30792:0.44316697 30802:0.075953424 30806:1.2275827 30811:0.0060030022 30812:2.453408 30825:0.45728487 30827:1.331064 30837:0.77652878 30860:2.122633 30878:0.94674993 30885:0.30924624 30918:1.1776555 30942:0.044997364 31046:2.9565115 31158:0.51416451 31235:5.8091431 31242:0.024024032 31439:2.7488723 31457:4.4228487 31619:4.2686977 31697:2.9957323 31799:1.4271164 31856:2.0024805 31884:2.0249534 32129:4.9618449 32176:1.8451602 32525:4.6051702 32548:6.9077554 32592:0.34249032 32778:9.4210615 33472:0.67924428 33677:0.390084 33694:0.62668365 33698:0.79628795 33712:0.81644541 33769:0.16016875 33942:6.2146082 33980:0.097569577 33994:1.4064971 34032:3.9633162 34044:2.3227878 34163:0.54991299 34237:1.7719568 34346:4.9507799 34404:0.33687231 #
-0.00012681026773987582982605726300562 269:0.049190246 270:0.048140377 275:0.038038049 276:1.5798792 868:1.9063021 1166:0.016032085 1280:4.2686977 1405:6.9077554 1469:3.3813949 1673:2.0714734 1850:0.46386412 2093:0.12329821 2128:0.0060030022 2385:2.6036901 2487:0.23756707 2640:0.27228093 2982:3.079114 3015:2.2926347 3079:1.0671136 3186:3.7722611 3343:1.9519283 3350:6.2146082 3434:0.10758521 3455:4.0173836 3475:3.3813949 3479:4.2686977 3546:0.58339632 3599:0.90140212 3955:5.2983174 4018:4.9618449 4088:2.7806208 4210:3.8632329 4379:1.4146938 4658:2.3538785 4761:5.8091431 4827:5.2983174 4830:4.8283138 4967:4.7105308 5004:0.051293295 5038:0.12783337 5408:5.2983174 5496:4.2686977 5784:6.2146082 6049:3.9120231 6141:3.7722611 7384:5.1159959 7541:2.8302178 7706:4.6051702 8615:3.7722611 8895:4.50986 8962:0.84629834 9564:6.9077554 10500:1.0613165 10973:3.0159349 11261:1.2552661 11551:5.521461 11585:2.5383074 12190:0.17998946 12665:4.9618449 13207:1.0051219 13228:6.9077554 13307:0.55861628 13668:2.0635681 13899:1.8515095 14003:2.032558 14227:5.2983174 14245:0.30630237 14285:0.22439434 14327:3.1465552 14548:5.8091431 14722:0.15431736 15220:4.074542 15379:0.33407512 15632:0.0040080212 15714:4.1351666 16005:6.9077554 16237:0.43850496 16342:4.4228487 16387:0.016016021 16468:2.6736488 16522:1.9805017 17157:2.3025851 17165:2.7333679 18187:2.4418471 18329:1.1332037 18447:2.8824036 18755:1.3545476 18766:1.1270118 18816:1.0526834 19166:3.3242364 19448:2.0249534 19469:5.1159959 20062:5.521461 20130:0.66257143 20190:0.62175721 20273:0.68070179 20339:1.1632116 20504:0.90140212 21168:0.38474378 21202:1.0384583 21368:4.9618449 21370:3.6496587 21394:3.6496587 21475:0.012012016 21478:0.74654794 21495:5.8091431 21604:0.13870016 21633:0.15198636 21634:3.7722611 21685:0.37251401 21784:0.3467246 21802:6.2146082 21987:2.8824036 22394:2.7968814 22442:4.7105308 22576:5.2983174 23246:3.6496587 23521:4.074542 23523:4.50986 23828:2.6882477 23912:4.8283138 24905:6.9077554 24950:1.5050778 25112:5.2983174 25206:6.2146082 25724:3.2441936 25782:6.2146082 26288:11.618286 26427:6.2146082 26937:1.1026204 27024:1.9519283 27256:5.2983174 27396:1.9732814 27650:4.8283138 27710:1.0133524 27721:4.50986 28194:6.2146082 28706:3.6119184 28907:6.9077554 29473:6.2146082 29880:2.7646205 29900:9.4210615 30438:4.3428059 30792:0.88633394 30802:0.12658904 30811:0.017008506 30825:0.91456974 30885:0.30924624 30942:0.13499209 31147:4.2686977 31242:0.016016021 32765:8.3994102 32767:6.9077554 32769:17.074791 33040:5.521461 33573:0.78526247 33694:0.31334183 33698:0.79628795 33769:0.16016875 33797:1.8140051 33966:2.8824036 33980:0.065046385 34044:4.6455755 34068:3.8167129 34147:1.9661129 34163:0.54991299 #
-0.00012681026773987582982605726300562 10:0.95711273 11:0.99384546 81:5.8091431 269:0.049190246 270:0.048140377 275:0.028028037 642:6.2146082 854:0.45098561 868:0.38126042 886:4.50986 1166:0.02805615 1235:0.59681207 1457:1.1973282 1659:1.2735337 1752:6.9077554 1758:4.50986 1850:0.23193206 1998:4.7105308 2128:0.0060030022 2241:2.3227878 2336:1.6296406 2338:1.3280255 2341:2.1803675 2487:0.3563506 2640:0.054456186 2786:0.29236501 3434:0.10758521 3560:1.0498221 3599:0.90140212 3796:2.5639498 4246:3.3242364 4654:3.1941831 5001:4.2686977 5134:4.1351666 5333:3.1941831 5518:3.6119184 5723:0.7444405 6016:10.835755 6395:5.1159959 6432:6.9077554 6667:3.7297015 6751:1.6713133 7628:4.4228487 8127:1.6296406 8135:2.154165 8145:2.9759297 8231:5.1159959 8827:2.5257287 9287:0.58339632 9516:1.1270118 9814:4.50986 9898:2.9004221 10269:3.1700857 10681:3.6888795 10767:3.6119184 11647:1.0788096 11649:6.9077554 11726:0.17435339 11852:0.7256704 12016:4.4228487 12080:6.9077554 12109:6.8224955 12113:3.1235657 12531:0.17316362 13861:0.77002823 14098:1.6502599 14245:0.15315118 14251:1.5186836 14564:5.6268215 14822:5.8091431 14831:4.8283138 15379:0.33407512 15632:0.0040080212 16387:0.0080080107 16427:0.077481657 16653:4.1997051 16880:5.521461 17158:2.5639498 17168:3.1941831 17273:2.7646205 17515:3.2188759 17657:4.50986 18119:11.618286 18242:5.1159959 18999:4.1351666 19304:0.91629076 20190:0.62175721 20301:1.0244329 20833:1.0555528 21012:0.44316697 21275:2.4651041 21475:0.006006008 21478:0.74654794 21604:0.27740031 21607:6.9077554 21633:0.45595908 21685:0.37251401 21889:0.6462636 21906:0.25231493 22472:4.8283138 22714:0.93140435 22761:2.0402207 23059:5.521461 23148:1.5417793 23166:7.377759 23344:1.2946272 23381:2.3859668 24295:4.0173836 24414:4.9618449 24832:3.7722611 25298:2.6450753 26236:6.9077554 26237:3.1941831 26660:1.2310015 26937:1.1026204 27065:0.80743635 27081:2.9374633 27084:1.2801342 27313:3.7722611 28032:3.079114 28742:5.521461 29362:2.9374633 29367:13.815511 29499:0.69114918 29686:2.8647039 30106:2.6736488 30390:1.1520131 30401:1.4740332 30647:2.0794415 30811:0.016008005 30885:0.61849248 30942:0.089994729 31158:0.51416451 31242:0.010010013 31558:4.8283138 31588:3.5755508 31844:6.2146082 31945:0.67530727 32634:4.50986 33386:0.27443683 33677:0.390084 33694:0.31334183 33980:0.032523192 34159:4.1997051 34163:1.099826 34245:2.8473122 34375:1.6347557 34395:2.5383074 34411:2.5770218 #
-8.5292183410154030678146375166193e-05 11:1.9876909 269:0.59028292 270:0.57768452 275:0.04604606 276:3.1597583 305:6.9077554 345:2.4769385 361:2.6736488 472:6.9077554 476:6.9077554 586:3.2968373 654:2.7181005 868:0.38126042 1166:0.020040108 1404:1.2207799 1659:0.63676685 1670:1.3903024 1724:5.521461 1823:4.7105308 1873:5.521461 2029:6.4624953 2093:0.24659643 2128:0.014007005 2468:6.9077554 2487:0.11878353 2640:0.10891237 2786:0.14618251 2828:4.9618449 2926:5.8091431 2964:6.9077554 3079:1.0671136 3212:4.2686977 3248:4.8283138 3310:5.8091431 3382:4.8283138 3518:1.6044503 3577:2.0714734 3783:1.2241755 3962:1.9805017 4449:6.9077554 4719:4.3428059 4726:2.6172957 5004:0.10258659 5038:0.38350013 5062:4.50986 5191:0.50087529 5727:6.9077554 5975:4.50986 6084:3.1235657 6128:4.50986 6242:3.0159349 6410:4.9618449 6499:4.7105308 6504:5.521461 6584:6.9077554 7971:5.8091431 8096:3.2968373 8623:4.8283138 8676:5.1159959 8962:0.84629834 9053:3.0576077 9771:4.8283138 9957:4.4228487 10023:6.9077554 10027:2.9759297 10784:1.3664917 11413:6.2146082 11416:6.2146082 11444:4.50986 11702:3.079114 11852:1.4513408 11916:5.8091431 12141:4.7105308 12190:0.089994729 12202:4.3428059 12257:2.65926 12272:3.8167129 12323:2.4304185 12386:3.5404594 12531:0.17316362 12693:4.0173836 12720:5.1159959 12735:6.9077554 12756:6.540338 12830:4.6051702 13258:1.3205066 13471:4.6051702 13472:4.6051702 13525:1.2517635 13568:5.8091431 13817:2.154165 14177:4.6051702 14285:0.22439434 14544:2.3968959 14722:0.46295208 14866:11.042922 15248:5.2983174 15632:0.0080160424 15848:3.6888795 16255:3.0365543 16387:0.006006008 16432:0.39304259 16522:5.941505 16525:6.9077554 16648:24.141569 16732:2.9759297 16744:1.4740332 16918:0.37833643 16999:4.9618449 17031:2.8302178 17068:3.079114 17515:3.2188759 17582:5.1159959 17610:1.8388511 17638:2.4191189 17771:2.5510464 17794:3.4112477 17831:4.9618449 17866:5.521461 17877:1.820159 17965:5.8091431 18027:4.6051702 18096:1.8838748 18526:4.50986 18602:5.521461 18632:6.2146082 18661:0.99695861 19213:6.9077554 19248:5.8091431 19727:6.9077554 19904:5.2983174 20130:0.33128572 20273:0.45380121 20331:3.8632329 20467:1.9877744 20621:6.2146082 21216:4.6051702 21239:1.0936247 21332:6.2146082 21435:5.8091431 21475:0.012012016 21604:0.13870016 21633:0.15198636 21685:0.37251401 21961:5.521461 21962:17.427429 22597:5.8091431 23010:3.1010928 23079:6.2146082 23314:3.3524072 23397:6.9077554 24214:3.2968373 24584:6.9077554 24651:5.1159959 24652:6.2146082 24668:5.8091431 24883:6.9077554 24970:6.9077554 25238:6.9077554 25615:1.6502599 25697:2.6172957 25724:3.2441936 25739:2.0402207 25749:5.521461 25856:3.1465552 25999:4.50986 26003:4.9618449 26072:6.9077554 26073:5.8091431 26113:2.8134108 26362:3.6496587 26409:6.9077554 26562:6.2146082 26869:5.4977446 26911:2.0874736 27053:3.2441936 27185:3.7722611 27911:6.2146082 28376:3.1700857 28908:4.0173836 29059:4.9618449 29364:6.2146082 29499:0.69114918 30058:4.6051702 30128:4.0173836 30543:3.3813949 30785:6.2146082 30792:0.88633394 30811:0.017008506 30825:1.3718545 30837:0.77652878 30860:1.0613165 30950:3.270169 31064:4.3428059 31185:4.8283138 31242:0.010010013 31293:2.7806208 31467:3.1465552 31499:3.4420195 31647:5.8091431 31739:4.4228487 31770:2.2633643 31793:5.1159959 31966:6.9077554 32176:1.8451602 32390:4.9618449 32758:3.1010928 32971:3.5065579 33337:2.8473122 33367:3.7297015 33386:0.27443683 33639:0.96758401 33649:3.1465552 33652:4.0173836 33694:0.62668365 33698:0.79628795 33769:0.3203375 33844:2.8302178 33856:0.68915516 34114:2.4191189 34186:5.2983174 34355:1.3318062 34417:3.270169 34443:6.2146082 #
-0.00012681026773987582982605726300562 11:0.49692273 61:5.5292411 269:0.14757073 270:0.14442113 275:0.018018024 578:4.2074685 855:1.0188773 868:0.38126042 1166:0.016032085 1235:0.29840603 1404:1.2207799 1476:4.7105308 1700:2.4418471 2093:0.12329821 2128:0.0070035025 2487:0.11878353 2601:2.8647039 2640:0.16336855 2665:5.2983174 2786:0.29236501 2849:2.4889147 3040:2.9565115 3393:6.0731087 3517:1.7602608 3633:4.4228487 3987:15.347987 4072:5.1159959 5004:0.051293295 5038:0.25566673 6084:3.1235657 6121:4.4328146 6298:4.1997051 6621:1.2837378 6706:6.2146082 6934:3.0576077 8648:5.8091431 8820:1.2623084 8825:1.4064971 8955:1.9951004 8957:2.2164073 9516:1.1270118 9904:1.6044503 10121:1.6982691 10384:3.5065579 10784:1.3664917 10973:3.0159349 11726:0.17435339 11733:6.9077554 12190:0.044997364 12449:4.50986 12788:5.1159959 12948:2.8134108 13018:2.7806208 13307:0.55861628 13391:10.231992 13615:5.2983174 14196:0.48924518 14285:0.22439434 14289:1.1394343 15036:3.5404594 15304:0.47905406 15306:2.453408 15314:2.0479429 15632:0.0080160424 15828:4.50986 16387:0.006006008 16414:1.1116976 16458:4.6051702 16736:3.6119184 16744:1.4740332 16918:0.37833643 17303:0.93649346 17583:3.6888795 17744:1.1457039 18029:0.27707189 18292:1.2413286 18755:0.67727381 20084:4.074542 20124:5.2983174 20273:0.22690061 20323:2.5010359 20633:2.9187713 20882:1.6982691 20898:3.5404594 21168:0.19237189 21239:1.0936247 21457:7.2238369 21475:0.006006008 21604:0.13870016 21633:0.30397272 21685:0.37251401 21906:0.25231493 22003:0.85097128 22098:6.9077554 22156:6.2146082 22339:3.7722611 22454:6.9077554 23006:3.5795228 23179:4.1997051 23270:0.67727381 23344:1.2946272 23361:4.50986 23864:4.4228487 24114:4.6051702 24572:2.8824036 24913:1.2623084 25455:3.6496587 25741:4.6051702 26019:2.7030628 26720:0.97021908 26806:4.1351666 26815:3.8167129 27296:3.9120231 27743:4.074542 27942:1.2946272 28659:1.8838748 28816:5.521461 28844:6.6484728 29268:3.3242364 29937:2.3538785 30358:5.521461 30390:1.1520131 30802:0.050635617 30811:0.0090045026 30837:0.77652878 30942:0.13499209 31080:4.4228487 31158:0.51416451 31242:0.0040040053 31343:2.1455812 31582:4.8283138 31788:3.1465552 32056:4.7105308 32217:6.9077554 32830:3.6119184 32918:0.83471072 33192:6.9077554 33386:0.27443683 33546:6.9077554 33694:0.31334183 33708:0.88011312 33769:0.16016875 33980:0.032523192 34153:1.6398971 34161:3.5065579 34245:2.8473122 34422:1.3432349 #
